svm_type c_svc
kernel_type rbf
gamma 50
nr_class 2
total_sv 6960
rho 0.649555
label 1 -1
nr_sv 1636 5324
SV
1.6494140625 264:1 542:1 2446:1 5904:1 
1.6494140625 264:1 641:1 2295:1 3826:1 
50 3149:1 3421:1 
1.6494140625 946:1 3004:1 3043:1 3179:1 3921:1 4079:1 4328:1 5195:1 5219:1 5382:1 5794:1 
50 4079:1 5219:1 
1.6494140625 3149:1 3421:1 4136:1 5549:1 
50 264:1 1313:1 
50 4975:1 5452:1 
1.6494140625 1104:1 3165:1 3339:1 4063:1 4266:1 4273:1 
1.6494140625 612:1 3149:1 3421:1 5390:1 5796:1 
50 
1.6494140625 264:1 1288:1 3573:1 4606:1 5680:1 
1.6494140625 946:1 3004:1 3043:1 3179:1 4101:1 4328:1 5195:1 5382:1 5794:1 
1.6494140625 4063:1 4273:1 5583:1 
1.6494140625 264:1 4955:1 
1.6494140625 264:1 1334:1 4115:1 4863:1 5564:1 5751:1 
50 264:1 2015:1 3149:1 3421:1 
50 
1.6494140625 264:1 1243:1 2980:1 4472:1 
50 3149:1 3421:1 
1.6494140625 1028:1 1381:1 2811:1 3142:1 4063:1 4143:1 4273:1 4358:1 4573:1 5561:1 5648:1 
50 
50 4143:1 4573:1 
1.6494140625 264:1 1561:1 3665:1 4000:1 4006:1 4968:1 
1.6494140625 1473:1 2010:1 3443:1 3729:1 4698:1 5099:1 
50 2394:1 
1.6494140625 2759:1 5925:1 
1.6494140625 653:1 661:1 3354:1 5660:1 
1.6494140625 264:1 2620:1 4714:1 4951:1 
50 3149:1 3421:1 
1.6494140625 182:1 675:1 4034:1 4253:1 4790:1 5141:1 5162:1 
1.6494140625 62:1 155:1 2953:1 3897:1 4174:1 5168:1 
50 
1.6494140625 1871:1 2811:1 3149:1 3421:1 3436:1 4358:1 
1.6494140625 1915:1 
1.6494140625 1190:1 3439:1 
50 225:1 3149:1 3421:1 3774:1 
1.6494140625 264:1 1309:1 5517:1 5635:1 
1.6494140625 963:1 1054:1 4743:1 
1.6494140625 947:1 1688:1 1692:1 2099:1 3773:1 5212:1 5478:1 
1.6494140625 1052:1 1128:1 1779:1 2836:1 3149:1 3421:1 4366:1 4985:1 
50 5501:1 
50 
50 4063:1 4273:1 
1.6494140625 264:1 4262:1 5477:1 5496:1 
1.6494140625 1812:1 3149:1 3421:1 3773:1 4262:1 5876:1 
50 237:1 240:1 5253:1 5539:1 
1.6494140625 1898:1 2811:1 4063:1 4273:1 4358:1 
50 
50 264:1 1136:1 2975:1 
1.6494140625 2681:1 3238:1 
1.6494140625 3149:1 3421:1 4340:1 5760:1 
50 
1.6494140625 362:1 2471:1 2998:1 5216:1 
1.6494140625 822:1 1708:1 2250:1 2557:1 2784:1 
1.6494140625 613:1 1830:1 1871:1 3273:1 4591:1 
1.6494140625 992:1 1232:1 
1.6494140625 49:1 5290:1 
50 264:1 2355:1 
50 
1.6494140625 2414:1 3386:1 3773:1 4366:1 
50 1948:1 
50 
1.6494140625 264:1 649:1 2811:1 3373:1 
1.6494140625 1393:1 2073:1 2181:1 3985:1 4602:1 4714:1 
50 475:1 
1.6494140625 264:1 441:1 713:1 1354:1 1571:1 1585:1 1765:1 3091:1 3149:1 3387:1 3421:1 3476:1 
50 264:1 2334:1 
1.6494140625 124:1 375:1 2723:1 4422:1 5879:1 
50 
1.6494140625 264:1 2705:1 3149:1 3421:1 
1.6494140625 3601:1 3961:1 4085:1 5536:1 
1.6494140625 314:1 525:1 634:1 1640:1 1793:1 2613:1 4063:1 4273:1 4790:1 5846:1 
1.6494140625 264:1 2265:1 4063:1 4273:1 
1.6494140625 169:1 675:1 2811:1 4014:1 4034:1 4253:1 4531:1 5141:1 5162:1 
50 4998:1 
50 264:1 3126:1 5816:1 
50 
50 264:1 
1.6494140625 5930:1 
1.6494140625 2662:1 
1.6494140625 3149:1 3421:1 4560:1 
1.6494140625 1393:1 2181:1 3773:1 3985:1 4602:1 
50 3149:1 3421:1 
1.6494140625 264:1 1871:1 2705:1 
1.6494140625 1298:1 1773:1 1865:1 2508:1 3149:1 3421:1 3854:1 3863:1 4358:1 5167:1 
1.6494140625 5396:1 
50 
50 
1.6494140625 338:1 1769:1 3948:1 
1.6494140625 264:1 885:1 2050:1 3149:1 3421:1 4790:1 
1.6494140625 71:1 144:1 1616:1 2276:1 2388:1 3560:1 5866:1 
1.6494140625 690:1 1061:1 2529:1 2564:1 
50 
1.6494140625 2752:1 3240:1 3773:1 4242:1 
1.6494140625 264:1 2811:1 4013:1 5221:1 5660:1 
50 
50 
50 264:1 
50 
1.6494140625 1667:1 3149:1 3206:1 3421:1 4790:1 
1.6494140625 264:1 613:1 1830:1 3273:1 4143:1 4573:1 4591:1 
1.6494140625 264:1 1623:1 3199:1 
1.6494140625 1709:1 3178:1 
1.6494140625 2811:1 3150:1 5733:1 5842:1 
50 613:1 1830:1 3273:1 4366:1 4591:1 
1.6494140625 727:1 3236:1 4379:1 
1.6494140625 68:1 2176:1 5060:1 5173:1 
1.6494140625 225:1 264:1 314:1 3521:1 3713:1 3774:1 5099:1 
1.6494140625 231:1 3149:1 3421:1 
1.6494140625 264:1 4975:1 5452:1 
50 1140:1 
1.6494140625 80:1 487:1 1640:1 2584:1 2811:1 
50 3149:1 3421:1 
50 
1.6494140625 116:1 264:1 796:1 855:1 951:1 2350:1 2723:1 4079:1 4143:1 4160:1 4161:1 4245:1 4573:1 4742:1 5219:1 
50 
1.6494140625 182:1 1128:1 3082:1 3554:1 
1.6494140625 264:1 1828:1 2764:1 5170:1 
1.6494140625 225:1 713:1 1125:1 1359:1 2652:1 3203:1 3774:1 4742:1 4791:1 
50 
1.6494140625 264:1 1608:1 4096:1 
1.6494140625 264:1 2133:1 2158:1 2165:1 2234:1 2505:1 3149:1 3421:1 3434:1 3481:1 3856:1 4407:1 4607:1 4992:1 5882:1 
1.6494140625 1140:1 2645:1 2811:1 3361:1 5054:1 5334:1 5547:1 
1.6494140625 1006:1 2102:1 2520:1 2723:1 3149:1 3421:1 3669:1 4163:1 4461:1 
50 3885:1 
50 4358:1 
1.6494140625 195:1 314:1 1468:1 2272:1 2980:1 4100:1 4164:1 5424:1 
1.6494140625 225:1 373:1 469:1 525:1 634:1 908:1 1793:1 3774:1 4088:1 
1.6494140625 264:1 862:1 1403:1 1680:1 2271:1 2289:1 2723:1 2811:1 3075:1 5194:1 
1.6494140625 264:1 2433:1 2611:1 2645:1 3149:1 3421:1 
1.6494140625 264:1 1871:1 3413:1 3602:1 3773:1 4272:1 4386:1 5276:1 
1.6494140625 264:1 3403:1 5058:1 
1.6494140625 13:1 151:1 264:1 1174:1 2286:1 2557:1 2845:1 3149:1 3421:1 
1.6494140625 875:1 2446:1 3773:1 5099:1 
1.6494140625 1028:1 1381:1 2811:1 2814:1 3142:1 4358:1 4500:1 5561:1 5648:1 
1.6494140625 5075:1 5099:1 
50 264:1 3150:1 5733:1 5842:1 
1.6494140625 264:1 272:1 1664:1 2073:1 3209:1 3402:1 3773:1 
50 1286:1 
50 3149:1 3421:1 4790:1 
1.6494140625 2356:1 4817:1 
1.6494140625 3961:1 4085:1 4154:1 4775:1 5302:1 
1.6494140625 264:1 1533:1 4507:1 5588:1 
1.6494140625 169:1 3149:1 3421:1 4531:1 5470:1 
50 264:1 1124:1 4516:1 
1.6494140625 264:1 2838:1 3368:1 4063:1 4273:1 
50 3238:1 
50 
50 264:1 641:1 2295:1 3826:1 
1.6494140625 182:1 4983:1 5087:1 
50 5660:1 
1.6494140625 675:1 4034:1 4253:1 4543:1 5141:1 5162:1 5419:1 5754:1 
50 4063:1 4273:1 
1.6494140625 2355:1 4998:1 5573:1 
1.6494140625 1142:1 1519:1 1956:1 2483:1 2891:1 4321:1 4330:1 4790:1 
1.6494140625 264:1 1468:1 2272:1 4143:1 4573:1 
50 
1.6494140625 2537:1 2705:1 3906:1 4745:1 5018:1 5279:1 
50 
50 
1.6494140625 989:1 3149:1 3421:1 
1.6494140625 1197:1 2014:1 2608:1 3149:1 3421:1 
1.6494140625 261:1 809:1 1734:1 2129:1 3961:1 4085:1 
50 264:1 
50 
50 
1.6494140625 4063:1 4273:1 5879:1 
50 
1.6494140625 590:1 1054:1 4079:1 5219:1 
1.6494140625 3394:1 
50 264:1 
50 5007:1 
1.6494140625 1039:1 1456:1 3192:1 4790:1 
1.6494140625 1124:1 1544:1 2234:1 2505:1 3375:1 3717:1 4407:1 4516:1 4992:1 5736:1 5765:1 
50 1871:1 
1.6494140625 2613:1 3933:1 
1.6494140625 3027:1 4207:1 
1.6494140625 264:1 1140:1 1610:1 
50 4917:1 
50 
1.6494140625 1204:1 3559:1 4063:1 4273:1 5108:1 5795:1 5902:1 
1.6494140625 487:1 2271:1 2584:1 
1.6494140625 603:1 5099:1 
50 264:1 
1.6494140625 264:1 1304:1 1548:1 2071:1 2411:1 3959:1 4806:1 5723:1 5835:1 
50 264:1 
50 264:1 3115:1 3189:1 4065:1 
1.6494140625 264:1 1633:1 2274:1 
50 3773:1 
50 
1.6494140625 4146:1 
50 
50 
1.6494140625 357:1 360:1 2314:1 2538:1 4143:1 4573:1 5758:1 
50 
1.6494140625 264:1 1140:1 3149:1 3198:1 3421:1 4347:1 5582:1 
50 
1.6494140625 264:1 3978:1 3979:1 4232:1 
50 
50 
50 2355:1 
1.6494140625 4358:1 5501:1 
1.6494140625 1014:1 3279:1 
1.6494140625 446:1 4143:1 4573:1 
50 
1.6494140625 3439:1 5082:1 
1.6494140625 642:1 2815:1 3149:1 3421:1 5742:1 
50 
1.6494140625 264:1 487:1 1014:1 2584:1 3149:1 3421:1 4714:1 
1.6494140625 412:1 
1.6494140625 237:1 240:1 2696:1 3149:1 3421:1 5253:1 5539:1 
50 
50 
1.6494140625 264:1 3681:1 3694:1 4742:1 5099:1 
1.6494140625 407:1 941:1 1304:1 4366:1 4806:1 5043:1 
50 264:1 357:1 360:1 2314:1 2538:1 2811:1 
1.6494140625 1960:1 2148:1 2244:1 3598:1 4362:1 4742:1 
1.6494140625 294:1 2811:1 5580:1 
1.6494140625 1201:1 5366:1 5834:1 
1.6494140625 1247:1 3058:1 3773:1 
1.6494140625 1039:1 1456:1 3192:1 4143:1 4573:1 5660:1 
1.6494140625 810:1 3149:1 3421:1 3579:1 4398:1 
50 264:1 3149:1 3421:1 
1.6494140625 1936:1 
1.6494140625 3110:1 3149:1 3421:1 3883:1 4208:1 4790:1 5099:1 
1.6494140625 2209:1 
50 487:1 2584:1 3149:1 3421:1 
1.6494140625 4641:1 
50 4063:1 4273:1 
1.6494140625 722:1 2073:1 5221:1 
1.6494140625 597:1 1134:1 2811:1 5384:1 
1.6494140625 264:1 1928:1 3841:1 4004:1 4029:1 4043:1 4262:1 4836:1 5061:1 5731:1 
1.6494140625 225:1 422:1 1355:1 2720:1 3774:1 4360:1 
50 3149:1 3421:1 5290:1 
1.6494140625 264:1 1018:1 4039:1 4044:1 4934:1 
1.6494140625 1393:1 2181:1 3985:1 4602:1 
50 481:1 2342:1 4788:1 
1.6494140625 3069:1 3773:1 4366:1 4449:1 
1.6494140625 540:1 683:1 1354:1 1567:1 3817:1 
50 
1.6494140625 264:1 1298:1 1773:1 2851:1 3149:1 3311:1 3421:1 3773:1 3863:1 5167:1 
1.6494140625 216:1 264:1 1032:1 1781:1 2102:1 3149:1 3421:1 5846:1 
1.6494140625 2474:1 3149:1 3421:1 
1.6494140625 182:1 3149:1 3421:1 4790:1 
50 4975:1 5452:1 
1.6494140625 4192:1 5244:1 
1.6494140625 4013:1 4954:1 
1.6494140625 553:1 906:1 2333:1 2613:1 5660:1 5763:1 5804:1 
1.6494140625 61:1 264:1 795:1 1056:1 1334:1 1343:1 1468:1 2272:1 2811:1 3149:1 3421:1 3465:1 3518:1 3946:1 4115:1 4980:1 5326:1 5751:1 
1.6494140625 1995:1 2721:1 4154:1 5302:1 
1.6494140625 3094:1 3149:1 3421:1 3924:1 
50 
50 
1.6494140625 2:1 1191:1 1938:1 2319:1 5846:1 
1.6494140625 883:1 2015:1 4433:1 
1.6494140625 264:1 1468:1 2272:1 4662:1 
1.6494140625 264:1 2606:1 3449:1 3877:1 4406:1 4998:1 
1.6494140625 4990:1 
50 
1.6494140625 1860:1 2215:1 3885:1 
1.6494140625 2065:1 2130:1 2522:1 4063:1 4273:1 4921:1 
50 
1.6494140625 542:1 
1.6494140625 68:1 264:1 1931:1 2176:1 5060:1 
50 264:1 3149:1 3421:1 
50 
50 
50 
1.6494140625 264:1 822:1 1666:1 1708:1 2784:1 3149:1 3421:1 
1.6494140625 159:1 1798:1 4281:1 4734:1 
1.6494140625 169:1 2698:1 2836:1 3005:1 4262:1 4531:1 4833:1 
1.6494140625 487:1 767:1 2584:1 2906:1 3149:1 3421:1 5148:1 
50 
1.6494140625 2:1 264:1 1191:1 1938:1 4366:1 5075:1 
1.6494140625 2430:1 
50 
1.6494140625 4954:1 
50 1349:1 
1.6494140625 3209:1 
1.6494140625 3238:1 4483:1 
1.6494140625 264:1 2195:1 2811:1 
50 3149:1 3421:1 
50 1619:1 
1.6494140625 2811:1 3958:1 4340:1 4358:1 
50 
1.6494140625 264:1 1701:1 2281:1 2611:1 3149:1 3421:1 5835:1 
50 
50 
1.6494140625 347:1 2811:1 5312:1 
50 
50 1243:1 4472:1 
1.6494140625 237:1 240:1 675:1 1467:1 2044:1 3388:1 4034:1 4253:1 4790:1 5141:1 5162:1 5213:1 5253:1 5539:1 
50 3149:1 3421:1 
50 2811:1 
50 264:1 1140:1 
50 
50 
1.6494140625 1871:1 2355:1 3149:1 3421:1 4366:1 
1.6494140625 2071:1 3165:1 3339:1 4063:1 4266:1 4273:1 
1.6494140625 264:1 3824:1 
1.6494140625 273:1 441:1 819:1 1063:1 1430:1 1571:1 1765:1 2010:1 2283:1 2811:1 3125:1 3443:1 4358:1 4698:1 
1.6494140625 264:1 1351:1 3336:1 4714:1 5151:1 
1.6494140625 29:1 1876:1 2763:1 3004:1 3043:1 3179:1 4784:1 5195:1 
50 
50 2811:1 3149:1 3421:1 
1.6494140625 264:1 1140:1 3015:1 3149:1 3421:1 
1.6494140625 13:1 151:1 264:1 2286:1 3948:1 
1.6494140625 446:1 
50 1871:1 
1.6494140625 358:1 642:1 2815:1 5742:1 
50 
1.6494140625 3397:1 3403:1 5058:1 
1.6494140625 264:1 525:1 634:1 1793:1 1871:1 3149:1 3421:1 4518:1 5291:1 5587:1 
1.6494140625 182:1 264:1 2850:1 
1.6494140625 134:1 264:1 1504:1 
1.6494140625 1025:1 2811:1 4063:1 4273:1 4358:1 
50 3149:1 3421:1 
1.6494140625 264:1 1928:1 2811:1 4029:1 4747:1 4836:1 
50 
50 3149:1 3421:1 
1.6494140625 2811:1 4460:1 4597:1 4651:1 5797:1 
1.6494140625 409:1 1679:1 4468:1 
1.6494140625 138:1 
50 5765:1 
50 
1.6494140625 2355:1 3602:1 4047:1 5276:1 
1.6494140625 1140:1 1473:1 3521:1 
1.6494140625 2645:1 5075:1 
1.6494140625 1871:1 5099:1 
1.6494140625 264:1 675:1 1915:1 4034:1 4253:1 5141:1 5162:1 
50 
50 3149:1 3421:1 
50 
1.6494140625 1451:1 2379:1 2894:1 
1.6494140625 675:1 1867:1 2499:1 4034:1 4079:1 4253:1 5141:1 5162:1 5219:1 
1.6494140625 167:1 264:1 280:1 720:1 2341:1 3368:1 
50 641:1 2295:1 3826:1 
50 
50 264:1 2811:1 
1.6494140625 2340:1 5738:1 
50 1088:1 
1.6494140625 4917:1 5835:1 
50 2811:1 4358:1 
50 
50 264:1 
50 2073:1 
1.6494140625 1718:1 2019:1 3697:1 4761:1 5453:1 
50 3729:1 
1.6494140625 1932:1 2212:1 2354:1 4683:1 
1.6494140625 722:1 2212:1 3126:1 4683:1 5816:1 
50 874:1 5910:1 
1.6494140625 264:1 3602:1 3765:1 5276:1 
1.6494140625 1045:1 1240:1 1564:1 2811:1 4143:1 4573:1 4976:1 5658:1 
1.6494140625 3149:1 3421:1 5660:1 
50 
1.6494140625 264:1 1186:1 3149:1 3421:1 5709:1 5721:1 
1.6494140625 544:1 921:1 2207:1 2788:1 4441:1 4670:1 5514:1 
50 182:1 
50 264:1 1335:1 
1.6494140625 1393:1 2181:1 2811:1 3545:1 3985:1 4358:1 4372:1 4602:1 
50 
1.6494140625 62:1 155:1 603:1 2297:1 2506:1 3897:1 4257:1 5168:1 
1.6494140625 389:1 407:1 549:1 991:1 1828:1 3149:1 3421:1 
50 
1.6494140625 2752:1 
50 
50 
50 4433:1 
1.6494140625 264:1 460:1 487:1 2584:1 3830:1 
1.6494140625 264:1 2071:1 2265:1 3149:1 3421:1 4063:1 4273:1 5708:1 
50 264:1 
1.6494140625 264:1 2693:1 2814:1 
1.6494140625 264:1 1769:1 4714:1 
50 389:1 549:1 1828:1 
50 264:1 
50 
1.6494140625 3885:1 4180:1 5636:1 
50 
1.6494140625 1199:1 1960:1 2726:1 3149:1 3421:1 3598:1 4048:1 4362:1 4843:1 
1.6494140625 264:1 1268:1 3071:1 3085:1 5939:1 
1.6494140625 2705:1 3149:1 3421:1 3926:1 4334:1 5339:1 
50 4063:1 4273:1 
50 2073:1 3149:1 3421:1 
50 
1.6494140625 966:1 4393:1 
50 
1.6494140625 654:1 1128:1 2842:1 3164:1 5635:1 
1.6494140625 2355:1 4063:1 4273:1 
50 
1.6494140625 859:1 1948:1 
50 
1.6494140625 264:1 2099:1 
50 5573:1 
1.6494140625 2015:1 
1.6494140625 3439:1 4975:1 5452:1 
1.6494140625 264:1 3839:1 
50 1140:1 
1.6494140625 264:1 4742:1 5232:1 
1.6494140625 264:1 1134:1 
1.6494140625 71:1 144:1 264:1 1616:1 2276:1 2388:1 2811:1 5390:1 5796:1 
1.6494140625 1128:1 1214:1 
1.6494140625 264:1 435:1 1313:1 1985:1 2232:1 5075:1 
1.6494140625 211:1 264:1 2557:1 2711:1 3311:1 4302:1 5675:1 
50 
50 2265:1 
1.6494140625 781:1 788:1 794:1 2019:1 2943:1 
50 718:1 5189:1 
50 3885:1 
1.6494140625 919:1 3978:1 5568:1 5698:1 
1.6494140625 539:1 770:1 1799:1 3201:1 3927:1 4633:1 
1.6494140625 2828:1 5029:1 
1.6494140625 264:1 3149:1 3421:1 4360:1 4471:1 
50 
50 
1.6494140625 273:1 4790:1 
1.6494140625 4561:1 5765:1 
1.6494140625 264:1 2811:1 3794:1 4415:1 4513:1 5357:1 5881:1 
50 
1.6494140625 264:1 3178:1 3922:1 5573:1 
1.6494140625 1140:1 4131:1 
1.6494140625 53:1 1118:1 1140:1 2108:1 4790:1 5163:1 
50 4063:1 4273:1 
1.6494140625 1337:1 3476:1 
1.6494140625 264:1 1601:1 3149:1 3421:1 3541:1 3725:1 5558:1 
1.6494140625 4366:1 4790:1 
1.6494140625 2071:1 2705:1 3149:1 3421:1 5708:1 
1.6494140625 1118:1 1786:1 1928:1 2811:1 3149:1 3421:1 4029:1 4836:1 5557:1 
1.6494140625 603:1 1789:1 3149:1 3421:1 3926:1 
50 
50 264:1 
1.6494140625 2355:1 4998:1 
50 264:1 
1.6494140625 2811:1 5233:1 5551:1 
50 4791:1 
1.6494140625 264:1 2073:1 3126:1 3773:1 4358:1 4366:1 5816:1 
1.6494140625 2102:1 3773:1 4682:1 5116:1 5262:1 5281:1 5708:1 
1.6494140625 2193:1 5118:1 5325:1 
1.6494140625 347:1 533:1 4727:1 5312:1 
1.6494140625 264:1 666:1 1871:1 2199:1 4014:1 
1.6494140625 1236:1 
1.6494140625 2022:1 4790:1 
50 
50 1349:1 
1.6494140625 446:1 2045:1 2195:1 3165:1 3339:1 4266:1 4767:1 
1.6494140625 216:1 264:1 1032:1 2811:1 
1.6494140625 4213:1 
1.6494140625 216:1 475:1 1032:1 1871:1 2742:1 5923:1 
1.6494140625 3713:1 
50 264:1 3149:1 3421:1 
1.6494140625 2645:1 3238:1 5916:1 
50 
50 264:1 
50 
50 264:1 
1.6494140625 264:1 369:1 2088:1 2811:1 
50 
50 264:1 4839:1 
1.6494140625 2812:1 5509:1 
1.6494140625 3018:1 3115:1 3149:1 3189:1 3240:1 3421:1 3773:1 4065:1 
50 
1.6494140625 224:1 487:1 613:1 1830:1 2584:1 3273:1 3311:1 4366:1 4591:1 
1.6494140625 264:1 599:1 1118:1 1468:1 2209:1 2272:1 2315:1 4394:1 4500:1 4819:1 5317:1 
1.6494140625 1798:1 4281:1 4734:1 
1.6494140625 264:1 5466:1 
1.6494140625 2271:1 3331:1 
50 3149:1 3421:1 
50 4976:1 
1.6494140625 5860:1 
1.6494140625 1978:1 3238:1 
1.6494140625 3082:1 3554:1 5399:1 
50 3948:1 
1.6494140625 1514:1 
50 1678:1 1891:1 2260:1 
1.6494140625 264:1 4077:1 5520:1 
1.6494140625 2693:1 2814:1 
1.6494140625 1280:1 1968:1 2525:1 
50 1258:1 
1.6494140625 2519:1 2723:1 3563:1 
1.6494140625 264:1 1186:1 1190:1 2355:1 2836:1 5709:1 5721:1 
1.6494140625 1687:1 3149:1 3421:1 3602:1 4433:1 5276:1 
1.6494140625 3238:1 3901:1 
50 4196:1 
1.6494140625 204:1 225:1 2772:1 3774:1 4364:1 4500:1 4790:1 5761:1 
1.6494140625 1124:1 1137:1 2334:1 3023:1 4516:1 5103:1 5560:1 
50 
1.6494140625 3413:1 4272:1 4386:1 4953:1 
1.6494140625 2265:1 2906:1 3773:1 5099:1 5148:1 
1.6494140625 1591:1 
50 
1.6494140625 264:1 556:1 
1.6494140625 264:1 1771:1 2512:1 4235:1 5506:1 
50 264:1 
1.6494140625 2518:1 
50 
1.6494140625 4839:1 
50 264:1 3773:1 
1.6494140625 514:1 1441:1 1871:1 2460:1 2811:1 4358:1 5598:1 5660:1 
1.6494140625 261:1 809:1 2129:1 2811:1 4366:1 
1.6494140625 487:1 2034:1 2319:1 2584:1 5242:1 
1.6494140625 1871:1 2334:1 2866:1 3566:1 4143:1 4573:1 5049:1 
50 3149:1 3421:1 
50 
50 
50 
50 
1.6494140625 264:1 1140:1 2763:1 3885:1 
1.6494140625 2215:1 4063:1 4273:1 
1.6494140625 966:1 3491:1 
50 1468:1 2272:1 3149:1 3421:1 
50 5290:1 
50 
50 
1.6494140625 264:1 2980:1 3358:1 
1.6494140625 1089:1 4001:1 4011:1 
1.6494140625 3481:1 4607:1 5882:1 
50 1134:1 
50 3770:1 
50 
1.6494140625 347:1 613:1 1830:1 3165:1 3273:1 3339:1 3770:1 4266:1 4591:1 5312:1 
1.6494140625 264:1 2446:1 2557:1 3149:1 3421:1 
1.6494140625 2675:1 3149:1 3421:1 5099:1 5898:1 
1.6494140625 593:1 3149:1 3421:1 
1.6494140625 264:1 946:1 1118:1 1313:1 4328:1 5382:1 5794:1 
50 2334:1 
1.6494140625 1908:1 2015:1 2257:1 2811:1 3681:1 3694:1 3773:1 5099:1 5177:1 5835:1 
50 
50 5099:1 
1.6494140625 264:1 1533:1 2084:1 2811:1 3069:1 3149:1 3421:1 4358:1 4507:1 
50 264:1 
50 
50 
1.6494140625 1468:1 1561:1 2272:1 4000:1 4006:1 4790:1 4968:1 
1.6494140625 1140:1 2811:1 5930:1 
50 1128:1 
1.6494140625 432:1 1860:1 
1.6494140625 732:1 4063:1 4079:1 4273:1 4976:1 5219:1 
50 
50 3940:1 3944:1 4116:1 5267:1 
50 
1.6494140625 3149:1 3421:1 4079:1 5219:1 5680:1 
1.6494140625 264:1 3333:1 4366:1 4459:1 4929:1 
1.6494140625 4274:1 
1.6494140625 1393:1 2181:1 2271:1 3961:1 3985:1 4085:1 4602:1 
1.6494140625 264:1 2412:1 3907:1 
1.6494140625 1393:1 2181:1 3985:1 4602:1 5374:1 
1.6494140625 3149:1 3421:1 5708:1 
50 4131:1 
1.6494140625 2355:1 3165:1 3339:1 4063:1 4266:1 4273:1 5698:1 
50 3149:1 3421:1 4063:1 4273:1 
50 3149:1 3165:1 3339:1 3421:1 4266:1 
50 
1.6494140625 264:1 737:1 1026:1 3096:1 3770:1 3773:1 5590:1 5825:1 
50 264:1 2265:1 
1.6494140625 264:1 404:1 3149:1 3421:1 
1.6494140625 182:1 450:1 2334:1 3478:1 4366:1 
50 
1.6494140625 2631:1 4596:1 
1.6494140625 2563:1 3510:1 
1.6494140625 110:1 
50 675:1 4034:1 4253:1 5141:1 5162:1 
50 
50 
50 
1.6494140625 264:1 1121:1 3576:1 3625:1 4632:1 
1.6494140625 357:1 360:1 675:1 2314:1 2538:1 4034:1 4253:1 5141:1 5162:1 
1.6494140625 2194:1 
1.6494140625 264:1 946:1 1798:1 2045:1 3773:1 4281:1 4328:1 4734:1 5382:1 5419:1 5754:1 5794:1 
1.6494140625 933:1 989:1 3165:1 3339:1 4266:1 4575:1 
1.6494140625 5216:1 
50 2355:1 
1.6494140625 436:1 3238:1 
1.6494140625 264:1 2811:1 4131:1 
1.6494140625 1398:1 1744:1 3773:1 4460:1 4597:1 4651:1 5797:1 
50 264:1 
1.6494140625 264:1 1460:1 3946:1 4201:1 4230:1 4234:1 
1.6494140625 5920:1 
1.6494140625 264:1 1286:1 3336:1 
50 
1.6494140625 2617:1 5224:1 
1.6494140625 822:1 1708:1 2784:1 3149:1 3421:1 4161:1 5290:1 
1.6494140625 1734:1 2019:1 
1.6494140625 874:1 902:1 1085:1 1871:1 2811:1 3165:1 3311:1 3339:1 3798:1 4063:1 4266:1 4273:1 5910:1 
50 264:1 
1.6494140625 544:1 2565:1 2788:1 4441:1 
1.6494140625 822:1 1708:1 2563:1 2784:1 4366:1 
50 3854:1 
1.6494140625 1640:1 2234:1 2505:1 2813:1 4407:1 4992:1 5208:1 
1.6494140625 3149:1 3421:1 4366:1 
1.6494140625 1128:1 2611:1 
1.6494140625 2093:1 3149:1 3421:1 
1.6494140625 2515:1 3120:1 4586:1 5610:1 5684:1 5852:1 
50 264:1 
1.6494140625 1480:1 2576:1 4574:1 5340:1 5480:1 
50 264:1 
50 5660:1 
1.6494140625 2557:1 3149:1 3421:1 3940:1 3944:1 4116:1 5267:1 
50 
1.6494140625 264:1 389:1 549:1 
1.6494140625 149:1 264:1 389:1 549:1 
1.6494140625 644:1 1140:1 1781:1 3348:1 4771:1 4954:1 
1.6494140625 1128:1 3149:1 3421:1 3940:1 3944:1 4116:1 5267:1 
50 
1.6494140625 264:1 2617:1 3165:1 3339:1 4063:1 4266:1 4273:1 4366:1 5224:1 5573:1 5660:1 
50 
50 487:1 2584:1 
1.6494140625 264:1 2836:1 4079:1 4143:1 4573:1 5219:1 
1.6494140625 1199:1 2665:1 2811:1 3149:1 3421:1 4048:1 
1.6494140625 2645:1 4466:1 4775:1 
1.6494140625 1014:1 1349:1 
1.6494140625 264:1 389:1 549:1 1828:1 
50 4917:1 
1.6494140625 2446:1 
1.6494140625 264:1 1907:1 2234:1 2500:1 2503:1 2505:1 4407:1 4992:1 
50 
1.6494140625 264:1 1871:1 1988:1 3075:1 3109:1 3215:1 5158:1 
1.6494140625 2073:1 4917:1 
50 
1.6494140625 264:1 2613:1 3033:1 3980:1 5863:1 
1.6494140625 4673:1 4790:1 
1.6494140625 544:1 797:1 2788:1 3091:1 3117:1 3387:1 4063:1 4273:1 4441:1 
1.6494140625 2811:1 5384:1 
50 2831:1 
1.6494140625 1371:1 1403:1 1864:1 1871:1 4079:1 4790:1 5219:1 
50 88:1 264:1 
50 264:1 4063:1 4273:1 
50 3149:1 3421:1 
1.6494140625 3052:1 3677:1 4958:1 5774:1 
50 3149:1 3421:1 
1.6494140625 1871:1 5765:1 
1.6494140625 230:1 264:1 5096:1 
1.6494140625 666:1 2199:1 
50 3094:1 
1.6494140625 4083:1 
50 3875:1 
1.6494140625 264:1 1214:1 2705:1 2836:1 
50 
1.6494140625 264:1 934:1 
1.6494140625 237:1 240:1 4449:1 5093:1 5253:1 5539:1 5865:1 
1.6494140625 1871:1 2515:1 2811:1 3120:1 4790:1 5610:1 5684:1 5852:1 
1.6494140625 874:1 1124:1 2019:1 2811:1 2906:1 3732:1 4516:1 5148:1 5290:1 5910:1 
50 
1.6494140625 1552:1 1781:1 2160:1 2197:1 
50 4714:1 
1.6494140625 1812:1 5876:1 
50 
50 
1.6494140625 264:1 921:1 2207:1 4063:1 4273:1 4625:1 4670:1 5072:1 5514:1 
50 5708:1 
50 2811:1 
1.6494140625 1451:1 2894:1 
1.6494140625 2627:1 4040:1 4780:1 5562:1 
50 362:1 2471:1 2998:1 
50 
50 4360:1 
1.6494140625 1124:1 4366:1 4516:1 
50 
1.6494140625 264:1 2519:1 3110:1 3883:1 4206:1 4790:1 
1.6494140625 539:1 1999:1 2594:1 3927:1 4633:1 5356:1 
1.6494140625 603:1 1398:1 1544:1 1744:1 3478:1 5736:1 
50 
1.6494140625 600:1 613:1 1830:1 2613:1 3273:1 3773:1 4564:1 4591:1 5245:1 
50 1871:1 
1.6494140625 1871:1 3240:1 
50 1754:1 3238:1 
1.6494140625 264:1 1221:1 2574:1 3557:1 4915:1 4919:1 5906:1 
50 
50 3149:1 3421:1 
1.6494140625 375:1 2165:1 2811:1 3773:1 3856:1 3948:1 4422:1 
1.6494140625 163:1 264:1 1301:1 2096:1 4650:1 
50 264:1 4714:1 
1.6494140625 264:1 4908:1 5317:1 
1.6494140625 264:1 806:1 1124:1 1140:1 1427:1 1582:1 3656:1 4063:1 4273:1 4516:1 4714:1 5602:1 5604:1 5660:1 
1.6494140625 1140:1 1908:1 3238:1 5177:1 
1.6494140625 2165:1 3110:1 3856:1 3883:1 4063:1 4273:1 
1.6494140625 264:1 4161:1 5075:1 
50 3586:1 
1.6494140625 264:1 3279:1 
1.6494140625 62:1 155:1 375:1 3897:1 4422:1 5168:1 
50 264:1 
1.6494140625 487:1 2584:1 2822:1 3482:1 3484:1 
50 3940:1 3944:1 4116:1 5267:1 
50 4453:1 
1.6494140625 1468:1 2272:1 4662:1 
50 3149:1 3421:1 
1.6494140625 264:1 1052:1 1779:1 3150:1 4985:1 5733:1 5842:1 
1.6494140625 712:1 1159:1 4154:1 4969:1 5302:1 
1.6494140625 264:1 1140:1 3921:1 3961:1 4085:1 4366:1 5158:1 5221:1 
50 
1.6494140625 610:1 1140:1 3150:1 5733:1 5842:1 
1.6494140625 978:1 1769:1 3432:1 5059:1 
1.6494140625 264:1 1402:1 3149:1 3421:1 
50 
1.6494140625 264:1 927:1 1286:1 3165:1 3339:1 3848:1 4266:1 
1.6494140625 264:1 613:1 1124:1 1140:1 1830:1 3240:1 3273:1 4516:1 4591:1 
50 264:1 5765:1 
1.6494140625 264:1 1595:1 2519:1 3815:1 
50 1549:1 2091:1 2383:1 
50 2811:1 
1.6494140625 88:1 3331:1 5099:1 
1.6494140625 731:1 1155:1 1188:1 1532:1 2040:1 2819:1 
50 3238:1 
50 264:1 
1.6494140625 264:1 822:1 1708:1 2784:1 3126:1 3948:1 4270:1 4285:1 4368:1 4861:1 5816:1 
1.6494140625 3548:1 
1.6494140625 2044:1 3388:1 
1.6494140625 264:1 389:1 549:1 1828:1 3331:1 
1.6494140625 1323:1 2732:1 5336:1 
1.6494140625 93:1 2003:1 2201:1 2738:1 3773:1 4022:1 4358:1 5314:1 
1.6494140625 2304:1 2369:1 3149:1 3306:1 3421:1 3978:1 4255:1 4261:1 5647:1 
50 
50 264:1 2811:1 3149:1 3421:1 
50 
50 2811:1 3478:1 
1.6494140625 1045:1 4143:1 4573:1 
50 683:1 
1.6494140625 264:1 1028:1 1381:1 2811:1 3142:1 4079:1 4358:1 5219:1 5561:1 5648:1 
50 
50 1331:1 
50 
50 
1.6494140625 264:1 1306:1 1871:1 3149:1 3421:1 
1.6494140625 3333:1 4459:1 4929:1 
1.6494140625 264:1 406:1 675:1 3238:1 4034:1 4253:1 5141:1 5162:1 
50 5007:1 
50 2355:1 
1.6494140625 264:1 4259:1 4433:1 4483:1 5260:1 5660:1 
1.6494140625 264:1 2879:1 
1.6494140625 2071:1 2515:1 3120:1 5075:1 5610:1 5684:1 5852:1 
50 4714:1 
1.6494140625 389:1 549:1 4366:1 
50 2811:1 
1.6494140625 95:1 487:1 1268:1 2584:1 3071:1 3085:1 3149:1 3421:1 5203:1 
1.6494140625 53:1 1140:1 1298:1 1773:1 1871:1 2108:1 3413:1 3863:1 4063:1 4272:1 4273:1 4386:1 4790:1 5163:1 5167:1 
50 
1.6494140625 264:1 404:1 2665:1 3386:1 3403:1 4063:1 4273:1 5058:1 
1.6494140625 264:1 3149:1 3421:1 4063:1 4273:1 5233:1 
50 4063:1 4273:1 
50 
1.6494140625 264:1 548:1 3149:1 3421:1 
1.6494140625 715:1 3149:1 3421:1 4063:1 4273:1 5215:1 
1.6494140625 264:1 796:1 4160:1 5739:1 
50 264:1 
1.6494140625 264:1 3149:1 3209:1 3421:1 4063:1 4273:1 
50 1103:1 
50 4334:1 5339:1 
1.6494140625 264:1 2762:1 2811:1 3649:1 4100:1 5799:1 5836:1 
1.6494140625 264:1 3149:1 3421:1 5846:1 
1.6494140625 38:1 272:1 1664:1 2306:1 3149:1 3402:1 3421:1 3882:1 5664:1 
50 4975:1 5452:1 
1.6494140625 2446:1 3247:1 3647:1 4063:1 4273:1 
1.6494140625 1362:1 1366:1 1865:1 1871:1 1935:1 2811:1 3981:1 5414:1 
1.6494140625 630:1 1858:1 2053:1 2567:1 3594:1 4433:1 4790:1 5154:1 5661:1 
50 
50 264:1 3126:1 5816:1 
50 
1.6494140625 1186:1 4143:1 4573:1 5709:1 5721:1 
1.6494140625 1393:1 2181:1 3367:1 3985:1 4602:1 
50 264:1 3773:1 
50 4917:1 
1.6494140625 264:1 1006:1 3669:1 4163:1 4461:1 4714:1 
50 
1.6494140625 1354:1 2811:1 4513:1 
1.6494140625 668:1 1373:1 1514:1 1550:1 3091:1 3149:1 3387:1 3421:1 
1.6494140625 1871:1 3727:1 4914:1 
1.6494140625 1871:1 2570:1 2891:1 3773:1 4321:1 4330:1 4649:1 4808:1 
1.6494140625 1941:1 5680:1 
1.6494140625 2203:1 2270:1 2319:1 3444:1 3940:1 3944:1 4116:1 5267:1 
50 2811:1 
1.6494140625 264:1 613:1 1015:1 1221:1 1830:1 1871:1 2574:1 3273:1 3557:1 3773:1 4339:1 4591:1 4915:1 4919:1 5906:1 
1.6494140625 264:1 2103:1 3149:1 3421:1 4742:1 5501:1 5672:1 
50 62:1 155:1 3897:1 5168:1 
50 264:1 
1.6494140625 806:1 1427:1 1582:1 3149:1 3421:1 3656:1 4742:1 5602:1 5604:1 
50 
1.6494140625 264:1 276:1 4790:1 
1.6494140625 264:1 729:1 1201:1 3149:1 3421:1 5834:1 
1.6494140625 195:1 264:1 5271:1 5424:1 
50 5573:1 
1.6494140625 1359:1 2073:1 
50 3877:1 4406:1 
1.6494140625 264:1 2045:1 2723:1 
1.6494140625 142:1 264:1 2617:1 2795:1 4079:1 5219:1 5224:1 5680:1 
1.6494140625 2032:1 2811:1 3149:1 3421:1 4750:1 
50 
1.6494140625 1838:1 2010:1 3149:1 3421:1 3443:1 3773:1 4098:1 4698:1 5550:1 
1.6494140625 2073:1 2811:1 4366:1 
1.6494140625 93:1 1948:1 2003:1 2201:1 2738:1 3149:1 3421:1 4022:1 4433:1 5314:1 5660:1 
1.6494140625 264:1 4936:1 5835:1 
1.6494140625 264:1 2073:1 2715:1 
1.6494140625 1183:1 
50 
1.6494140625 264:1 1497:1 1871:1 2265:1 3165:1 3339:1 4266:1 4509:1 
50 4953:1 
1.6494140625 264:1 1014:1 2431:1 3556:1 3913:1 4745:1 5935:1 
50 
1.6494140625 389:1 549:1 1828:1 2265:1 4975:1 5452:1 
50 
50 264:1 1140:1 
1.6494140625 1871:1 2718:1 
50 4063:1 4273:1 
1.6494140625 264:1 379:1 2509:1 3165:1 3339:1 4266:1 
1.6494140625 1968:1 3602:1 5276:1 
50 3149:1 3421:1 
50 
50 
1.6494140625 1028:1 1381:1 2811:1 3142:1 4358:1 5561:1 5648:1 
50 
1.6494140625 525:1 634:1 1793:1 3384:1 
1.6494140625 264:1 2515:1 2875:1 3120:1 5610:1 5684:1 5852:1 
50 3358:1 
1.6494140625 2836:1 5501:1 
50 4143:1 4573:1 
50 1121:1 4632:1 
1.6494140625 264:1 276:1 1128:1 
50 4483:1 
1.6494140625 4790:1 5660:1 
1.6494140625 264:1 3602:1 5276:1 5664:1 
50 5593:1 
50 264:1 
1.6494140625 2620:1 2906:1 3843:1 4951:1 5148:1 
50 2811:1 
1.6494140625 389:1 549:1 1828:1 2811:1 2871:1 
50 
1.6494140625 264:1 1931:1 3149:1 3421:1 4747:1 
50 
1.6494140625 613:1 1830:1 2811:1 3273:1 4591:1 4912:1 
50 2811:1 
50 
50 
1.6494140625 182:1 264:1 274:1 1399:1 1697:1 2716:1 3773:1 4262:1 
1.6494140625 264:1 3126:1 3583:1 4822:1 5680:1 5816:1 
1.6494140625 264:1 1622:1 3665:1 
1.6494140625 1232:1 3165:1 3339:1 4266:1 
50 264:1 3149:1 3421:1 
50 5244:1 
1.6494140625 264:1 964:1 
50 
50 5708:1 
50 
1.6494140625 264:1 1359:1 2715:1 4306:1 4625:1 5072:1 
50 
1.6494140625 264:1 1781:1 
1.6494140625 71:1 144:1 603:1 1616:1 2073:1 2276:1 2388:1 2811:1 3773:1 4863:1 5208:1 5564:1 5874:1 
1.6494140625 525:1 634:1 796:1 1793:1 3150:1 4160:1 4839:1 5733:1 5739:1 5842:1 
1.6494140625 264:1 3094:1 
50 
50 2811:1 4358:1 
1.6494140625 3590:1 3794:1 3940:1 3944:1 4116:1 4143:1 4415:1 4573:1 5229:1 5267:1 5881:1 
1.6494140625 517:1 625:1 1207:1 1821:1 1918:1 2012:1 3447:1 4366:1 4790:1 4927:1 
1.6494140625 517:1 625:1 1207:1 2012:1 2062:1 2370:1 3447:1 5941:1 
1.6494140625 264:1 1140:1 2811:1 3149:1 3238:1 3421:1 3933:1 5390:1 5796:1 
50 1871:1 
50 
1.6494140625 264:1 966:1 1075:1 
50 4063:1 4273:1 
1.6494140625 373:1 469:1 908:1 1140:1 4088:1 5638:1 
50 
1.6494140625 264:1 737:1 3533:1 3824:1 5590:1 
1.6494140625 928:1 4742:1 
50 264:1 
1.6494140625 264:1 603:1 3773:1 
1.6494140625 2831:1 3854:1 4358:1 5181:1 
50 2811:1 4063:1 4273:1 
50 
1.6494140625 264:1 2073:1 2762:1 3303:1 3649:1 5799:1 5836:1 5879:1 
50 613:1 1830:1 1968:1 3273:1 4591:1 
50 264:1 
1.6494140625 928:1 
1.6494140625 264:1 2811:1 4791:1 5076:1 
50 2811:1 5835:1 
50 3921:1 
1.6494140625 2547:1 5242:1 
50 
1.6494140625 264:1 3238:1 5939:1 
50 
50 
50 2015:1 
1.6494140625 1666:1 4180:1 5191:1 5636:1 
1.6494140625 264:1 3713:1 
1.6494140625 745:1 1111:1 2787:1 2811:1 3102:1 3150:1 4087:1 5110:1 5140:1 5733:1 5842:1 
50 
50 2836:1 
50 2811:1 4366:1 
1.6494140625 182:1 264:1 3727:1 4914:1 
50 
1.6494140625 216:1 1032:1 1140:1 3165:1 3339:1 4266:1 
50 
50 
1.6494140625 264:1 1016:1 1647:1 2762:1 2811:1 3649:1 4063:1 4273:1 4307:1 5532:1 5799:1 5836:1 
1.6494140625 264:1 4953:1 5660:1 
1.6494140625 218:1 2779:1 3149:1 3421:1 3773:1 4790:1 5443:1 5498:1 5708:1 5846:1 5932:1 
1.6494140625 706:1 
1.6494140625 1039:1 1456:1 1478:1 2779:1 3052:1 3192:1 3830:1 4958:1 5352:1 5498:1 5932:1 
1.6494140625 31:1 110:1 5329:1 5660:1 
1.6494140625 771:1 3510:1 
50 264:1 
1.6494140625 3240:1 3576:1 3625:1 4063:1 4273:1 
50 4063:1 4273:1 
50 3713:1 
1.6494140625 2451:1 2580:1 2811:1 3115:1 3189:1 3890:1 4063:1 4065:1 4273:1 4358:1 4790:1 
1.6494140625 252:1 264:1 375:1 1606:1 2951:1 3885:1 4422:1 
1.6494140625 2271:1 5466:1 
1.6494140625 1480:1 2904:1 3773:1 5340:1 5480:1 
50 3358:1 
1.6494140625 3299:1 
1.6494140625 264:1 2127:1 5737:1 
1.6494140625 1871:1 3576:1 3625:1 
1.6494140625 675:1 994:1 2071:1 2527:1 4034:1 4253:1 5141:1 5162:1 
1.6494140625 666:1 2199:1 2836:1 3938:1 4079:1 5219:1 
1.6494140625 264:1 875:1 4714:1 
1.6494140625 71:1 144:1 1616:1 2276:1 2388:1 5285:1 
50 
1.6494140625 160:1 856:1 986:1 2190:1 2703:1 2851:1 5399:1 
1.6494140625 887:1 
1.6494140625 264:1 1125:1 2062:1 2370:1 2811:1 3203:1 3439:1 5099:1 5941:1 
50 
50 737:1 5590:1 
1.6494140625 613:1 1830:1 3273:1 4063:1 4273:1 4591:1 
1.6494140625 2438:1 3979:1 4232:1 4322:1 
1.6494140625 264:1 3739:1 4278:1 4561:1 
1.6494140625 324:1 1118:1 3202:1 3766:1 3773:1 4588:1 5482:1 
50 
50 
1.6494140625 1056:1 4953:1 5501:1 
1.6494140625 264:1 432:1 1111:1 1871:1 3165:1 3339:1 4266:1 
1.6494140625 264:1 4767:1 
50 
50 4975:1 5452:1 
50 
1.6494140625 31:1 1028:1 1381:1 2102:1 2234:1 2505:1 3142:1 3681:1 3694:1 4407:1 4992:1 5329:1 5561:1 5648:1 
1.6494140625 3149:1 3421:1 5084:1 
50 264:1 
50 3413:1 4272:1 4386:1 
1.6494140625 3722:1 3773:1 4721:1 5099:1 
1.6494140625 264:1 306:1 1258:1 1473:1 1871:1 2841:1 3149:1 3421:1 3590:1 3838:1 5229:1 
1.6494140625 613:1 1830:1 2073:1 3273:1 3854:1 4358:1 4591:1 
50 5558:1 
50 264:1 1865:1 
50 3149:1 3421:1 
1.6494140625 264:1 3602:1 4013:1 4079:1 4917:1 5219:1 5276:1 
1.6494140625 503:1 1865:1 1941:1 2811:1 3773:1 
1.6494140625 2530:1 3978:1 
1.6494140625 89:1 630:1 2053:1 2078:1 2613:1 3594:1 4063:1 4273:1 5154:1 5661:1 
50 
1.6494140625 2675:1 4251:1 5898:1 
50 
50 
50 
50 264:1 
1.6494140625 3978:1 5568:1 
50 
50 487:1 2584:1 
1.6494140625 334:1 1232:1 1789:1 2799:1 3368:1 
1.6494140625 3013:1 
1.6494140625 264:1 1398:1 1744:1 3149:1 3421:1 3681:1 3694:1 
1.6494140625 264:1 389:1 549:1 4079:1 5219:1 
1.6494140625 466:1 
1.6494140625 31:1 3149:1 3421:1 4079:1 5219:1 5329:1 
50 
50 
50 
1.6494140625 1125:1 1960:1 3203:1 3598:1 4362:1 
50 3727:1 4914:1 
1.6494140625 630:1 822:1 1708:1 2053:1 2784:1 3594:1 3978:1 5154:1 5568:1 5661:1 
50 
1.6494140625 5099:1 5835:1 
1.6494140625 303:1 
50 264:1 3885:1 
1.6494140625 2811:1 4360:1 
1.6494140625 519:1 1554:1 2811:1 4536:1 
50 
1.6494140625 264:1 4259:1 5260:1 
1.6494140625 3942:1 4790:1 
1.6494140625 1056:1 1398:1 1744:1 2809:1 2906:1 2995:1 3121:1 5148:1 
1.6494140625 192:1 1359:1 2071:1 2184:1 2700:1 2906:1 5148:1 5274:1 5699:1 5708:1 
1.6494140625 176:1 486:1 1742:1 3773:1 5460:1 
50 264:1 
1.6494140625 264:1 649:1 2811:1 
1.6494140625 396:1 613:1 1481:1 1830:1 3273:1 3773:1 3843:1 4074:1 4591:1 5462:1 5634:1 
1.6494140625 1331:1 2811:1 
50 2008:1 
50 
1.6494140625 259:1 3784:1 3885:1 
50 264:1 
1.6494140625 2200:1 2811:1 4366:1 
1.6494140625 264:1 1828:1 2640:1 3773:1 4366:1 
1.6494140625 4767:1 4865:1 4969:1 
50 4366:1 
1.6494140625 264:1 1128:1 1232:1 2071:1 3729:1 5250:1 
1.6494140625 2:1 613:1 1140:1 1191:1 1830:1 1938:1 3273:1 4591:1 5158:1 
50 
50 3238:1 
1.6494140625 264:1 2811:1 3149:1 3421:1 3483:1 5109:1 
1.6494140625 949:1 2811:1 4387:1 
50 2015:1 
50 
1.6494140625 116:1 264:1 855:1 2705:1 4245:1 
1.6494140625 264:1 2763:1 3707:1 5290:1 
1.6494140625 1497:1 4063:1 4273:1 
1.6494140625 517:1 625:1 1207:1 2012:1 3447:1 4063:1 4273:1 
50 
1.6494140625 481:1 2265:1 2342:1 3149:1 3238:1 3421:1 4788:1 5660:1 
1.6494140625 264:1 613:1 1830:1 3273:1 4591:1 
1.6494140625 264:1 2811:1 4063:1 4273:1 4530:1 
1.6494140625 407:1 
1.6494140625 55:1 264:1 1300:1 2922:1 
50 5233:1 
1.6494140625 3004:1 3043:1 3179:1 5195:1 
1.6494140625 264:1 688:1 1977:1 
1.6494140625 264:1 3238:1 4131:1 
1.6494140625 472:1 1450:1 1576:1 1871:1 3118:1 3742:1 
1.6494140625 264:1 273:1 2280:1 4714:1 5573:1 
50 
1.6494140625 1727:1 1871:1 
1.6494140625 264:1 2073:1 3403:1 5058:1 
50 5501:1 
50 
1.6494140625 376:1 968:1 1514:1 5491:1 
1.6494140625 3238:1 3885:1 
50 
1.6494140625 264:1 1286:1 1825:1 1871:1 1912:1 1922:1 5384:1 
1.6494140625 630:1 1298:1 1773:1 2053:1 2811:1 3594:1 3863:1 5154:1 5167:1 5661:1 
1.6494140625 2811:1 4790:1 
1.6494140625 264:1 1304:1 2098:1 2906:1 4806:1 5148:1 5835:1 
1.6494140625 1960:1 3598:1 4362:1 
1.6494140625 264:1 4063:1 4079:1 4273:1 5219:1 
1.6494140625 3150:1 3762:1 3979:1 4232:1 5733:1 5835:1 5842:1 
50 3149:1 3421:1 
1.6494140625 264:1 2019:1 3413:1 4272:1 4386:1 
1.6494140625 264:1 1240:1 1564:1 1798:1 3110:1 3883:1 4281:1 4734:1 5658:1 
1.6494140625 2645:1 3439:1 
1.6494140625 2355:1 4790:1 5099:1 
50 4742:1 
1.6494140625 1868:1 4500:1 5532:1 
1.6494140625 3149:1 3421:1 4196:1 
1.6494140625 653:1 661:1 2811:1 3149:1 3421:1 
1.6494140625 163:1 1301:1 1473:1 2096:1 3773:1 4650:1 
50 
1.6494140625 264:1 1117:1 2044:1 3388:1 
1.6494140625 222:1 3092:1 3149:1 3421:1 4180:1 5384:1 5636:1 
1.6494140625 264:1 2234:1 2505:1 4407:1 4676:1 4992:1 5446:1 
1.6494140625 796:1 3149:1 3238:1 3286:1 3421:1 4160:1 5075:1 
50 
50 2073:1 
1.6494140625 2891:1 4321:1 4330:1 4790:1 5708:1 
50 
1.6494140625 4366:1 4917:1 
1.6494140625 264:1 2665:1 3921:1 4714:1 
1.6494140625 1968:1 3149:1 3421:1 5007:1 
50 
1.6494140625 2446:1 2627:1 4780:1 5562:1 
1.6494140625 810:1 2811:1 3579:1 3773:1 4358:1 5835:1 
50 
50 264:1 
50 712:1 1159:1 
1.6494140625 556:1 3149:1 3421:1 4043:1 5680:1 5731:1 
1.6494140625 264:1 389:1 549:1 1468:1 1828:1 1860:1 2272:1 3938:1 
1.6494140625 195:1 1323:1 1585:1 2811:1 4839:1 5336:1 5424:1 5708:1 
1.6494140625 977:1 1298:1 1773:1 1932:1 2354:1 3863:1 5167:1 
1.6494140625 1267:1 
50 
50 
1.6494140625 264:1 2483:1 5578:1 
50 
50 
50 
50 822:1 1708:1 2784:1 
50 3126:1 5816:1 
1.6494140625 1663:1 1828:1 2687:1 3149:1 3181:1 3421:1 3854:1 5384:1 
1.6494140625 2456:1 3126:1 3149:1 3421:1 5816:1 
1.6494140625 264:1 1871:1 
1.6494140625 4243:1 4284:1 
1.6494140625 1206:1 3454:1 3620:1 4063:1 4273:1 5171:1 
1.6494140625 613:1 1585:1 1598:1 1830:1 3273:1 3832:1 4591:1 5373:1 5869:1 
1.6494140625 260:1 264:1 3126:1 3938:1 5396:1 5816:1 
50 2811:1 
50 3940:1 3944:1 4116:1 5267:1 
1.6494140625 2953:1 4174:1 4366:1 4616:1 
1.6494140625 675:1 1968:1 2355:1 4034:1 4253:1 5141:1 5162:1 
50 3149:1 3421:1 
1.6494140625 264:1 3112:1 
1.6494140625 2627:1 4780:1 5562:1 
1.6494140625 2047:1 4063:1 4273:1 
1.6494140625 53:1 2019:1 2108:1 5163:1 
1.6494140625 264:1 3149:1 3421:1 4146:1 4557:1 
50 
1.6494140625 3727:1 4079:1 4775:1 4914:1 5219:1 
50 675:1 4034:1 4253:1 5141:1 5162:1 
1.6494140625 613:1 1830:1 2811:1 3118:1 3190:1 3273:1 4358:1 4591:1 4622:1 4714:1 5050:1 
1.6494140625 264:1 1056:1 3885:1 4143:1 4573:1 
50 474:1 
1.6494140625 641:1 1190:1 2295:1 2811:1 3826:1 
50 
1.6494140625 61:1 613:1 1343:1 1830:1 3273:1 4591:1 4980:1 
50 
1.6494140625 389:1 549:1 
1.6494140625 2010:1 2811:1 3443:1 4358:1 4698:1 
50 
50 264:1 3149:1 3421:1 
1.6494140625 514:1 1441:1 2460:1 5598:1 5765:1 
1.6494140625 264:1 282:1 1871:1 2236:1 4262:1 5363:1 
1.6494140625 1118:1 1240:1 1564:1 2007:1 4586:1 5658:1 
1.6494140625 259:1 3784:1 5201:1 
1.6494140625 4131:1 4790:1 
1.6494140625 23:1 630:1 1254:1 1687:1 2053:1 2073:1 3149:1 3421:1 3594:1 3824:1 5154:1 5471:1 5661:1 
50 2433:1 
50 
50 264:1 
1.6494140625 597:1 4625:1 4665:1 5072:1 
50 264:1 
50 5466:1 
1.6494140625 716:1 
50 
1.6494140625 234:1 3149:1 3421:1 4131:1 
50 
50 406:1 
1.6494140625 946:1 4328:1 5382:1 5794:1 
1.6494140625 1422:1 2026:1 5558:1 
1.6494140625 3240:1 3415:1 4366:1 
50 
50 
1.6494140625 31:1 927:1 5079:1 5329:1 
50 264:1 3149:1 3421:1 
1.6494140625 264:1 1056:1 1296:1 2811:1 3149:1 3421:1 3940:1 3944:1 4116:1 4262:1 5267:1 
1.6494140625 264:1 3118:1 
50 
50 
1.6494140625 264:1 651:1 2446:1 3921:1 4063:1 4273:1 
50 
1.6494140625 2019:1 2073:1 3430:1 
50 264:1 
1.6494140625 1125:1 3203:1 4360:1 4460:1 4474:1 4597:1 4651:1 5797:1 
50 703:1 
1.6494140625 3933:1 4366:1 
1.6494140625 3770:1 5216:1 
1.6494140625 380:1 1296:1 
1.6494140625 2355:1 2723:1 
1.6494140625 222:1 264:1 937:1 3092:1 3149:1 3188:1 3421:1 5227:1 5738:1 
1.6494140625 4467:1 
50 
1.6494140625 2073:1 3773:1 
1.6494140625 264:1 2019:1 2811:1 
50 1258:1 
50 3240:1 
50 264:1 
1.6494140625 1811:1 2895:1 5390:1 5796:1 
1.6494140625 2811:1 4433:1 
1.6494140625 1025:1 2811:1 
50 
1.6494140625 357:1 360:1 2314:1 2451:1 2538:1 2580:1 3890:1 4063:1 4273:1 
1.6494140625 1054:1 
1.6494140625 649:1 2811:1 
50 
1.6494140625 2811:1 3545:1 4358:1 4372:1 
50 264:1 1871:1 
1.6494140625 755:1 1954:1 2330:1 3165:1 3339:1 4063:1 4266:1 4273:1 
50 264:1 
1.6494140625 264:1 299:1 379:1 617:1 1354:1 1604:1 2267:1 2509:1 2557:1 3114:1 3149:1 3346:1 3421:1 3702:1 4063:1 4273:1 
1.6494140625 264:1 525:1 603:1 634:1 1793:1 2799:1 
50 
50 
50 
50 2015:1 
50 2334:1 
1.6494140625 182:1 264:1 916:1 928:1 1243:1 1248:1 1821:1 1918:1 4358:1 4472:1 4684:1 4927:1 
1.6494140625 2811:1 3115:1 3189:1 4065:1 4358:1 
50 264:1 
1.6494140625 2483:1 5835:1 
50 
1.6494140625 1717:1 3150:1 3978:1 4063:1 4273:1 4663:1 5568:1 5717:1 5733:1 5842:1 
50 
1.6494140625 2811:1 3979:1 4232:1 
50 
50 
1.6494140625 264:1 1214:1 2645:1 3149:1 3421:1 
1.6494140625 3602:1 4917:1 5276:1 
1.6494140625 1045:1 1988:1 3109:1 5835:1 
1.6494140625 389:1 549:1 1128:1 1828:1 3940:1 3944:1 4116:1 5267:1 
50 264:1 3238:1 
50 264:1 4742:1 
50 
50 
1.6494140625 264:1 3399:1 
50 
1.6494140625 946:1 3004:1 3043:1 3179:1 4328:1 4369:1 5195:1 5382:1 5794:1 
1.6494140625 1125:1 1986:1 3203:1 3240:1 3860:1 4023:1 5211:1 
1.6494140625 1533:1 2811:1 4507:1 
1.6494140625 264:1 2520:1 
50 4063:1 4273:1 
1.6494140625 2851:1 4398:1 
50 
1.6494140625 264:1 3210:1 4143:1 4573:1 5643:1 
1.6494140625 264:1 613:1 1830:1 2645:1 3273:1 3839:1 4591:1 5660:1 
50 3940:1 3944:1 4116:1 5267:1 
1.6494140625 1348:1 5485:1 
50 264:1 
1.6494140625 264:1 1828:1 4161:1 
1.6494140625 3149:1 3421:1 4719:1 
1.6494140625 3149:1 3421:1 3994:1 
50 4742:1 
1.6494140625 1206:1 2563:1 3126:1 3620:1 4483:1 5076:1 5816:1 
50 264:1 3978:1 
1.6494140625 260:1 264:1 441:1 1571:1 1765:1 3149:1 3421:1 
1.6494140625 264:1 613:1 1830:1 3273:1 4061:1 4591:1 4903:1 
50 264:1 
50 
1.6494140625 264:1 3149:1 3421:1 5290:1 5660:1 5680:1 
50 
1.6494140625 264:1 4063:1 4273:1 4467:1 
50 5390:1 5796:1 
50 2073:1 
50 264:1 
50 2073:1 
1.6494140625 264:1 1140:1 3375:1 3717:1 
1.6494140625 23:1 1254:1 1298:1 1773:1 3863:1 4131:1 5167:1 5471:1 
50 2811:1 
1.6494140625 264:1 1871:1 4917:1 
50 
50 2723:1 
50 264:1 
1.6494140625 264:1 613:1 1830:1 2811:1 3273:1 4358:1 4591:1 
1.6494140625 3558:1 4401:1 
50 264:1 3368:1 
50 
1.6494140625 1359:1 1473:1 
1.6494140625 23:1 1254:1 2811:1 4366:1 5471:1 
50 5708:1 
1.6494140625 264:1 2102:1 4100:1 
1.6494140625 446:1 675:1 1621:1 4034:1 4253:1 5141:1 5162:1 5538:1 
1.6494140625 264:1 2355:1 2822:1 3482:1 3484:1 
1.6494140625 264:1 610:1 3635:1 3901:1 
50 
1.6494140625 1190:1 2836:1 3948:1 4452:1 5913:1 
1.6494140625 264:1 1006:1 1140:1 3149:1 3421:1 3669:1 4163:1 4461:1 
1.6494140625 446:1 2699:1 
1.6494140625 264:1 466:1 3336:1 
1.6494140625 182:1 264:1 5846:1 
1.6494140625 1798:1 2334:1 4281:1 4734:1 
1.6494140625 1035:1 
1.6494140625 62:1 155:1 3897:1 5168:1 5660:1 
1.6494140625 62:1 155:1 264:1 731:1 1188:1 1532:1 2040:1 2811:1 3126:1 3897:1 4131:1 5168:1 5708:1 5816:1 
50 3149:1 3421:1 
1.6494140625 264:1 951:1 2350:1 3149:1 3421:1 
1.6494140625 1014:1 1063:1 1403:1 2283:1 2811:1 4049:1 4079:1 4790:1 5219:1 
50 
50 
1.6494140625 264:1 389:1 549:1 1075:1 1828:1 3126:1 5816:1 
50 
1.6494140625 222:1 264:1 3092:1 
1.6494140625 169:1 264:1 675:1 1374:1 1949:1 3773:1 4034:1 4253:1 4531:1 4553:1 4807:1 5141:1 5162:1 
50 
50 2811:1 
1.6494140625 272:1 1664:1 2811:1 3402:1 
1.6494140625 2906:1 3149:1 3421:1 5148:1 
1.6494140625 1124:1 4516:1 5758:1 
50 
50 264:1 3149:1 3421:1 
50 
1.6494140625 264:1 942:1 4262:1 5102:1 
50 61:1 1343:1 4980:1 
1.6494140625 264:1 666:1 2199:1 
1.6494140625 4340:1 
1.6494140625 264:1 1124:1 2757:1 3149:1 3421:1 4354:1 4516:1 
1.6494140625 264:1 1409:1 5173:1 
50 
1.6494140625 30:1 1526:1 1786:1 4107:1 4366:1 4467:1 5557:1 
1.6494140625 264:1 3164:1 3454:1 3773:1 5171:1 
1.6494140625 216:1 264:1 1032:1 3149:1 3421:1 
1.6494140625 3565:1 4745:1 
1.6494140625 264:1 1871:1 3940:1 3944:1 4116:1 4532:1 4790:1 4939:1 5088:1 5099:1 5267:1 5680:1 
50 
1.6494140625 45:1 557:1 1313:1 2023:1 2865:1 4515:1 5792:1 
1.6494140625 2817:1 
1.6494140625 2504:1 2891:1 3459:1 4321:1 4330:1 5669:1 
1.6494140625 2530:1 4975:1 5452:1 
50 3601:1 
1.6494140625 264:1 1798:1 1871:1 3940:1 3944:1 4116:1 4281:1 4734:1 5267:1 
50 
50 4483:1 
50 264:1 1014:1 
50 2446:1 
1.6494140625 264:1 2723:1 2980:1 3149:1 3421:1 5846:1 
50 264:1 4917:1 
1.6494140625 3149:1 3421:1 5635:1 
1.6494140625 1018:1 4039:1 4044:1 4934:1 
50 1709:1 
1.6494140625 1088:1 1349:1 4063:1 4273:1 
1.6494140625 23:1 1254:1 1777:1 3176:1 5471:1 
1.6494140625 2906:1 3149:1 3150:1 3421:1 5148:1 5733:1 5842:1 
1.6494140625 264:1 2530:1 3149:1 3321:1 3421:1 
50 2570:1 4649:1 4808:1 
50 264:1 3602:1 5276:1 
50 
50 
1.6494140625 1140:1 2163:1 2851:1 3194:1 4976:1 
1.6494140625 2705:1 3126:1 5816:1 
1.6494140625 4180:1 5636:1 
1.6494140625 1871:1 3926:1 5445:1 
1.6494140625 142:1 481:1 2342:1 3851:1 4788:1 
50 2527:1 
1.6494140625 264:1 439:1 928:1 1398:1 1744:1 2115:1 
1.6494140625 487:1 2584:1 3149:1 3421:1 5470:1 
1.6494140625 613:1 1830:1 2382:1 2811:1 3273:1 4591:1 5099:1 
1.6494140625 755:1 1204:1 2330:1 3559:1 5108:1 5795:1 5902:1 
50 195:1 5424:1 
50 264:1 
1.6494140625 264:1 613:1 1056:1 1830:1 3273:1 4063:1 4273:1 4591:1 
50 
50 264:1 4917:1 
1.6494140625 264:1 1117:1 
1.6494140625 264:1 539:1 1389:1 2694:1 3927:1 4202:1 4633:1 5651:1 
50 
50 264:1 3149:1 3421:1 
1.6494140625 182:1 264:1 2304:1 2369:1 4255:1 4261:1 4548:1 
1.6494140625 2265:1 2464:1 3096:1 4790:1 5001:1 
1.6494140625 1054:1 3149:1 3421:1 
50 
1.6494140625 675:1 3940:1 3944:1 4034:1 4116:1 4253:1 4433:1 5141:1 5162:1 5267:1 
50 1118:1 
1.6494140625 667:1 1128:1 4063:1 4273:1 
1.6494140625 928:1 3824:1 4143:1 4573:1 
1.6494140625 1871:1 3149:1 3326:1 3421:1 4548:1 
1.6494140625 5:1 422:1 696:1 1355:1 1871:1 2720:1 
1.6494140625 264:1 1666:1 3386:1 3980:1 
1.6494140625 1678:1 1891:1 2260:1 2811:1 4358:1 
1.6494140625 13:1 151:1 264:1 2286:1 
1.6494140625 62:1 155:1 264:1 997:1 1121:1 3773:1 3897:1 4403:1 4632:1 4744:1 4745:1 5168:1 
1.6494140625 264:1 432:1 
1.6494140625 2557:1 2891:1 4321:1 4330:1 4819:1 
1.6494140625 264:1 1125:1 1954:1 2519:1 3203:1 3467:1 4143:1 4573:1 
50 2662:1 
1.6494140625 1871:1 2967:1 3510:1 4790:1 
1.6494140625 264:1 3150:1 4063:1 4273:1 4366:1 5733:1 5842:1 
1.6494140625 235:1 2265:1 5216:1 
1.6494140625 264:1 2765:1 3149:1 3421:1 
1.6494140625 712:1 1159:1 4790:1 
50 1640:1 
50 264:1 
1.6494140625 3613:1 
1.6494140625 264:1 376:1 1014:1 1088:1 3149:1 3421:1 5491:1 
50 264:1 
1.6494140625 1140:1 3149:1 3421:1 
50 1025:1 
50 
50 
50 
1.6494140625 225:1 264:1 544:1 1073:1 2788:1 2811:1 3623:1 3774:1 4310:1 4366:1 4441:1 
1.6494140625 1296:1 2013:1 
1.6494140625 2073:1 4747:1 
1.6494140625 2073:1 3773:1 5466:1 
50 1298:1 1773:1 3863:1 5167:1 
1.6494140625 3510:1 
1.6494140625 1121:1 1136:1 2975:1 4632:1 
1.6494140625 5705:1 
1.6494140625 1136:1 1359:1 2975:1 3047:1 
1.6494140625 641:1 2295:1 3826:1 4483:1 
50 264:1 3149:1 3421:1 
50 1871:1 
1.6494140625 176:1 264:1 1742:1 4790:1 5460:1 
1.6494140625 4983:1 
1.650390625 264:1 487:1 2584:1 4962:1 
1.650390625 2557:1 2723:1 
50 264:1 
50 
50 
50 
50 2234:1 2505:1 4407:1 4992:1 
1.650390625 1070:1 
50 
1.650390625 603:1 715:1 2967:1 3773:1 5099:1 
50 264:1 
50 4079:1 5219:1 
1.650390625 3336:1 4204:1 4366:1 
1.650390625 264:1 3397:1 5093:1 5244:1 5865:1 
50 264:1 2515:1 3120:1 5610:1 5684:1 5852:1 
1.650390625 216:1 264:1 389:1 549:1 1032:1 1871:1 2765:1 
1.650390625 3582:1 
1.650390625 5041:1 
1.650390625 362:1 1258:1 1865:1 2471:1 2998:1 
1.650390625 3556:1 3913:1 5935:1 
1.650390625 264:1 3864:1 4975:1 5452:1 
1.650390625 1677:1 3439:1 4821:1 
1.650390625 264:1 1068:1 1118:1 1423:1 1683:1 2211:1 2234:1 2505:1 2749:1 3938:1 4407:1 4754:1 4992:1 5007:1 5244:1 5846:1 
1.650390625 439:1 1871:1 5573:1 
1.650390625 2103:1 2355:1 5672:1 
1.650390625 2811:1 3773:1 5099:1 
50 264:1 
1.650390625 1313:1 1884:1 3127:1 3403:1 5058:1 5208:1 5501:1 
50 
1.650390625 1849:1 2519:1 2705:1 
1.650390625 2537:1 3110:1 3483:1 3883:1 5109:1 
50 1393:1 2181:1 3985:1 4602:1 
1.650390625 264:1 2831:1 4063:1 4273:1 
50 
50 3149:1 3421:1 4358:1 
1.650390625 4433:1 5466:1 
50 1136:1 2975:1 
50 
1.650390625 301:1 1468:1 1516:1 2272:1 2315:1 2446:1 
50 182:1 2811:1 
1.650390625 2:1 1191:1 1313:1 1938:1 2303:1 4813:1 
1.650390625 1354:1 2811:1 
50 
50 2527:1 
50 3238:1 
50 
1.650390625 3149:1 3421:1 5007:1 
1.650390625 432:1 1533:1 4507:1 5846:1 
1.650390625 350:1 542:1 1014:1 1124:1 1140:1 1667:1 3240:1 4063:1 4273:1 4453:1 4516:1 
1.650390625 264:1 1522:1 
1.650390625 98:1 264:1 2407:1 3635:1 
1.650390625 3149:1 3421:1 3510:1 3781:1 
50 
50 
1.650390625 1063:1 2283:1 4790:1 
50 
50 264:1 4192:1 
50 3149:1 3421:1 
1.650390625 487:1 653:1 661:1 2078:1 2584:1 5708:1 
1.650390625 264:1 2811:1 3279:1 4146:1 
1.650390625 45:1 557:1 2811:1 4358:1 4366:1 4790:1 5792:1 
50 5099:1 5835:1 
1.650390625 264:1 2811:1 4839:1 4917:1 
1.650390625 1798:1 4079:1 4281:1 4734:1 5219:1 
1.650390625 2073:1 2811:1 
1.650390625 264:1 441:1 1468:1 1571:1 1765:1 1871:1 2272:1 3904:1 
1.650390625 487:1 1614:1 2355:1 2584:1 4953:1 
1.650390625 264:1 3082:1 3554:1 
1.650390625 264:1 1268:1 3071:1 3085:1 3149:1 3421:1 
50 264:1 
50 
1.650390625 2811:1 3150:1 4358:1 5680:1 5733:1 5842:1 
50 407:1 
1.650390625 1186:1 2811:1 4358:1 5709:1 5721:1 
1.650390625 3681:1 3694:1 4976:1 5099:1 
50 3921:1 
1.650390625 4043:1 5731:1 
1.650390625 216:1 487:1 1032:1 2584:1 
1.650390625 1460:1 4201:1 4230:1 4234:1 5835:1 
1.650390625 5705:1 5874:1 
50 2811:1 4358:1 
50 
50 
1.650390625 264:1 997:1 4403:1 4744:1 4912:1 
1.650390625 487:1 989:1 1018:1 2584:1 3149:1 3421:1 4039:1 4044:1 4934:1 
1.650390625 2103:1 2559:1 4262:1 5672:1 
50 2811:1 5660:1 
1.650390625 23:1 264:1 1254:1 5471:1 
1.650390625 264:1 2811:1 3483:1 4063:1 4273:1 5109:1 
50 1871:1 
1.650390625 1128:1 1140:1 2022:1 2158:1 2811:1 3149:1 3321:1 3421:1 5664:1 
1.650390625 264:1 783:1 
1.650390625 149:1 182:1 874:1 4079:1 4790:1 5219:1 5910:1 
1.650390625 273:1 1786:1 5374:1 5557:1 
1.650390625 264:1 1923:1 3011:1 3149:1 3421:1 3938:1 4695:1 
1.650390625 2273:1 3343:1 5007:1 
50 
1.650390625 2726:1 4742:1 4790:1 
50 264:1 
1.650390625 1134:1 3368:1 
1.650390625 182:1 1468:1 2272:1 3713:1 3877:1 4406:1 4742:1 4790:1 
50 
1.650390625 2071:1 3149:1 3421:1 5508:1 
1.650390625 264:1 2814:1 
50 4063:1 4273:1 
50 
1.650390625 264:1 3149:1 3421:1 3732:1 3995:1 5703:1 
1.650390625 1128:1 2527:1 
50 1349:1 
50 264:1 4747:1 
1.650390625 1136:1 2811:1 2975:1 3195:1 4358:1 
1.650390625 649:1 1663:1 2687:1 2811:1 3181:1 
50 3773:1 
50 2811:1 
50 264:1 4143:1 4573:1 
1.650390625 2234:1 2505:1 3149:1 3421:1 4407:1 4742:1 4992:1 
50 264:1 
1.650390625 3150:1 5233:1 5733:1 5842:1 
1.650390625 124:1 
1.650390625 264:1 1121:1 2073:1 4283:1 4632:1 4747:1 
1.650390625 264:1 2073:1 3149:1 3421:1 3770:1 3773:1 5708:1 
1.650390625 4143:1 4573:1 5846:1 
50 
1.650390625 759:1 4376:1 4425:1 4790:1 5186:1 
1.650390625 317:1 406:1 525:1 634:1 1793:1 2200:1 2446:1 
1.650390625 3149:1 3421:1 3961:1 4085:1 5356:1 
1.650390625 4433:1 5082:1 
50 
1.650390625 553:1 742:1 906:1 2019:1 2333:1 2554:1 2811:1 2893:1 3961:1 4085:1 4954:1 5804:1 
1.650390625 2115:1 5835:1 
1.650390625 264:1 1140:1 1393:1 2181:1 2645:1 2811:1 3985:1 4602:1 
1.650390625 947:1 1688:1 1692:1 5478:1 
1.650390625 264:1 367:1 3149:1 3331:1 3421:1 
1.650390625 1186:1 5709:1 5721:1 
1.650390625 225:1 3311:1 3774:1 
1.650390625 525:1 634:1 1384:1 1793:1 5660:1 
50 3149:1 3421:1 
50 4079:1 5219:1 
1.650390625 3149:1 3421:1 5879:1 
1.650390625 264:1 1717:1 2073:1 4079:1 4663:1 5219:1 5573:1 5717:1 
1.650390625 264:1 1414:1 4063:1 4273:1 
50 
1.650390625 487:1 755:1 2330:1 2584:1 
50 264:1 4079:1 5219:1 
1.650390625 264:1 1468:1 2272:1 
50 3961:1 4085:1 
50 3149:1 3421:1 
1.650390625 1533:1 1871:1 2811:1 2891:1 3126:1 3961:1 4085:1 4321:1 4330:1 4507:1 5660:1 5816:1 
1.650390625 1777:1 4079:1 5007:1 5219:1 
50 
50 2811:1 
50 3075:1 
1.650390625 182:1 264:1 806:1 1056:1 1427:1 1582:1 3022:1 3656:1 4790:1 5602:1 5604:1 
50 264:1 4262:1 
1.650390625 264:1 1561:1 3149:1 3421:1 4000:1 4006:1 4968:1 5501:1 
50 
50 
1.650390625 261:1 809:1 2129:1 
1.650390625 963:1 2193:1 3006:1 4063:1 4273:1 4743:1 5118:1 5325:1 
50 
1.650390625 5419:1 5754:1 
1.650390625 264:1 3664:1 4207:1 
1.650390625 362:1 2471:1 2998:1 4790:1 
1.650390625 1871:1 3150:1 4063:1 4273:1 5733:1 5842:1 
1.650390625 1018:1 3961:1 4039:1 4044:1 4085:1 4334:1 4934:1 5339:1 
50 
1.650390625 2341:1 
1.650390625 264:1 339:1 2906:1 5148:1 
1.650390625 264:1 1931:1 
1.650390625 688:1 3279:1 3948:1 
1.650390625 142:1 3476:1 
1.650390625 989:1 1687:1 
1.650390625 1140:1 2811:1 2813:1 5075:1 5271:1 
50 5874:1 
50 
1.650390625 1028:1 1381:1 3142:1 4682:1 5116:1 5262:1 5281:1 5561:1 5648:1 
50 
1.650390625 264:1 2355:1 3011:1 
50 
1.650390625 264:1 314:1 553:1 906:1 2333:1 2811:1 3149:1 3421:1 5804:1 
1.650390625 603:1 745:1 3102:1 4063:1 4273:1 5110:1 
50 
50 
50 3149:1 3421:1 
1.650390625 3149:1 3421:1 3680:1 5463:1 
1.650390625 666:1 729:1 2199:1 3149:1 3421:1 3727:1 4259:1 4433:1 4914:1 5260:1 5462:1 
1.650390625 3149:1 3421:1 5191:1 
50 3149:1 3421:1 
1.650390625 306:1 2355:1 2841:1 3838:1 
1.650390625 264:1 1789:1 3150:1 5733:1 5842:1 
1.650390625 1018:1 1140:1 1849:1 4039:1 4044:1 4934:1 5770:1 
1.650390625 182:1 675:1 2842:1 3921:1 4034:1 4253:1 5141:1 5162:1 
50 2355:1 
1.650390625 264:1 1533:1 4507:1 
50 
50 
50 630:1 2053:1 3149:1 3421:1 3594:1 5154:1 5661:1 
50 
1.650390625 264:1 1621:1 3454:1 3501:1 4467:1 4993:1 5171:1 5538:1 
50 
1.650390625 2811:1 3094:1 4079:1 5219:1 
50 
50 264:1 
1.650390625 264:1 3126:1 3149:1 3421:1 3573:1 3961:1 4085:1 5816:1 
50 264:1 
1.650390625 264:1 1282:1 1972:1 3900:1 4408:1 
50 
50 
50 
50 264:1 
1.650390625 3773:1 3933:1 4358:1 
1.650390625 1128:1 2015:1 
1.650390625 264:1 432:1 755:1 1140:1 1907:1 2330:1 2500:1 2503:1 3582:1 5158:1 
50 5660:1 
50 
1.650390625 396:1 822:1 1708:1 2784:1 3926:1 
1.650390625 1968:1 3149:1 3421:1 3872:1 
1.650390625 3149:1 3421:1 4369:1 
1.650390625 3773:1 5660:1 
50 1140:1 
1.650390625 264:1 575:1 2334:1 5415:1 
1.650390625 2170:1 3167:1 4076:1 
50 
50 
1.650390625 1118:1 1140:1 1320:1 2613:1 3149:1 3165:1 3339:1 3421:1 4266:1 
50 3948:1 
1.650390625 1128:1 3689:1 4708:1 4917:1 5903:1 
50 2980:1 
1.650390625 885:1 2102:1 2831:1 3149:1 3421:1 
1.650390625 264:1 613:1 1830:1 3273:1 3602:1 4591:1 4714:1 5276:1 
50 4063:1 4273:1 
1.650390625 2073:1 5708:1 
1.650390625 264:1 4561:1 
1.650390625 1975:1 3773:1 5270:1 
50 
50 
50 487:1 2584:1 
1.650390625 3082:1 3554:1 3921:1 
50 
1.650390625 1136:1 2975:1 3713:1 
50 
1.650390625 3877:1 4406:1 5290:1 
1.650390625 264:1 2557:1 4548:1 
1.650390625 1286:1 1288:1 2811:1 4366:1 4433:1 4606:1 
50 
1.650390625 264:1 675:1 3115:1 3149:1 3189:1 3421:1 4034:1 4065:1 4253:1 5141:1 5162:1 
50 389:1 549:1 4063:1 4273:1 
1.650390625 264:1 653:1 661:1 2073:1 
1.650390625 2173:1 2175:1 3304:1 4391:1 4767:1 4857:1 
1.650390625 1136:1 2975:1 4433:1 5233:1 
50 
1.650390625 264:1 352:1 3713:1 5053:1 5782:1 
50 
1.650390625 594:1 1044:1 1821:1 1918:1 3149:1 3421:1 3882:1 4927:1 
1.650390625 487:1 713:1 1915:1 2584:1 4369:1 
50 
1.650390625 264:1 1014:1 1128:1 2906:1 5148:1 
50 258:1 
1.650390625 362:1 389:1 549:1 1828:1 2471:1 2998:1 3149:1 3421:1 5680:1 
50 1871:1 
50 
1.650390625 1258:1 1502:1 2811:1 3149:1 3421:1 4682:1 4790:1 4975:1 5099:1 5116:1 5262:1 5281:1 5452:1 
50 3940:1 3944:1 4116:1 5267:1 
1.650390625 264:1 1134:1 3940:1 3944:1 4116:1 4154:1 5267:1 5302:1 
50 264:1 
50 
1.650390625 93:1 2003:1 2201:1 2738:1 3149:1 3421:1 3773:1 3948:1 4022:1 4063:1 4273:1 5314:1 
1.650390625 264:1 3727:1 3860:1 4023:1 4914:1 5211:1 
1.650390625 223:1 613:1 1830:1 3273:1 3765:1 4143:1 4573:1 4591:1 
1.650390625 1709:1 2557:1 
1.650390625 2071:1 4131:1 
50 
50 
1.650390625 1786:1 4358:1 5557:1 
50 264:1 3149:1 3421:1 
-0.349609375 4714:1 4969:1 
-0.349609375 264:1 1140:1 2265:1 5165:1 
-0.349609375 5082:1 5404:1 
-0.349609375 2980:1 4143:1 4573:1 
-0.349609375 264:1 375:1 4063:1 4273:1 4422:1 5216:1 5396:1 
-0.349609375 357:1 360:1 2314:1 2538:1 3681:1 3694:1 
-0.349609375 264:1 1068:1 1423:1 1677:1 1683:1 4754:1 4821:1 4903:1 4975:1 5452:1 
-0.349609375 331:1 370:1 3240:1 3773:1 3854:1 4021:1 5030:1 5859:1 
-0.349609375 1313:1 1331:1 2265:1 2795:1 
-0.349609375 2494:1 3980:1 5274:1 
-0.349609375 264:1 2504:1 4366:1 4983:1 
-0.349609375 264:1 1303:1 4063:1 4273:1 
-0.349609375 264:1 375:1 2102:1 2811:1 3681:1 3694:1 4131:1 4422:1 5216:1 
-0.349609375 264:1 4636:1 
-0.349609375 1871:1 3126:1 4063:1 4273:1 5816:1 
-0.349609375 1334:1 4115:1 5751:1 
-0.349609375 264:1 3126:1 3465:1 3518:1 4954:1 5816:1 
-0.349609375 264:1 2811:1 3164:1 4433:1 
-0.349609375 5573:1 
-0.349609375 61:1 62:1 155:1 264:1 1343:1 2191:1 3897:1 4791:1 4980:1 4991:1 5168:1 
-0.349609375 259:1 1055:1 1968:1 3784:1 4917:1 
-0.349609375 264:1 759:1 4154:1 4532:1 4939:1 5088:1 5186:1 5302:1 
-0.349609375 264:1 1264:1 
-0.349609375 2811:1 4358:1 4953:1 5099:1 
-0.349609375 1828:1 2287:1 
-0.349609375 539:1 1335:1 2073:1 2334:1 3115:1 3189:1 3927:1 4065:1 4633:1 
-0.349609375 599:1 3938:1 
-0.349609375 264:1 3115:1 3149:1 3189:1 3421:1 4065:1 
-0.349609375 264:1 675:1 2062:1 2370:1 4034:1 4253:1 5141:1 5162:1 5941:1 
-0.349609375 264:1 2433:1 5208:1 
-0.349609375 264:1 703:1 1295:1 
-0.349609375 2007:1 3560:1 5866:1 
-0.349609375 1128:1 3149:1 3421:1 
-0.349609375 264:1 812:1 1046:1 2792:1 3126:1 3149:1 3174:1 3421:1 4557:1 4844:1 5816:1 
-0.349609375 703:1 1150:1 2019:1 
-0.349609375 264:1 675:1 1054:1 4034:1 4196:1 4253:1 4975:1 5141:1 5162:1 5452:1 
-0.349609375 873:1 3921:1 
-0.349609375 3240:1 
-0.349609375 1014:1 4790:1 4959:1 5301:1 
-0.349609375 3149:1 3421:1 4063:1 4273:1 4767:1 
-0.349609375 1865:1 3875:1 4143:1 4573:1 
-0.349609375 2537:1 2811:1 
-0.349609375 4962:1 
-0.349609375 264:1 487:1 1871:1 2584:1 3961:1 4085:1 4674:1 
-0.349609375 264:1 1468:1 1669:1 2272:1 4017:1 4293:1 4662:1 
-0.349609375 222:1 1128:1 3092:1 
-0.349609375 182:1 362:1 2471:1 2998:1 3149:1 3421:1 
-0.349609375 264:1 806:1 1427:1 1582:1 3656:1 3773:1 5602:1 5604:1 
-0.349609375 225:1 487:1 2443:1 2557:1 2584:1 3774:1 4504:1 
-0.349609375 1932:1 2354:1 2504:1 4714:1 
-0.349609375 594:1 1044:1 
-0.349609375 32:1 487:1 606:1 2584:1 4990:1 
-0.349609375 264:1 1871:1 2515:1 2811:1 3120:1 5610:1 5684:1 5852:1 
-0.349609375 1787:1 2685:1 
-0.349609375 378:1 2159:1 
-0.349609375 61:1 95:1 1240:1 1343:1 1564:1 2334:1 3302:1 4980:1 5658:1 
-0.349609375 264:1 755:1 1533:1 2330:1 4507:1 5291:1 5587:1 
-0.349609375 2891:1 4321:1 4330:1 4969:1 
-0.349609375 441:1 1571:1 1765:1 1811:1 2013:1 2015:1 2895:1 3681:1 3694:1 4063:1 4273:1 
-0.349609375 264:1 806:1 1427:1 1582:1 2150:1 2337:1 2351:1 3656:1 5602:1 5604:1 
-0.349609375 446:1 613:1 1062:1 1830:1 3149:1 3165:1 3273:1 3339:1 3421:1 4266:1 4591:1 
-0.349609375 62:1 155:1 2563:1 3897:1 4063:1 4273:1 5168:1 5660:1 
-0.349609375 1186:1 3149:1 3421:1 5709:1 5721:1 
-0.349609375 737:1 5590:1 
-0.349609375 194:1 4394:1 
-0.349609375 369:1 1140:1 2088:1 3118:1 
-0.349609375 755:1 2330:1 5217:1 
-0.349609375 2645:1 3238:1 
-0.349609375 1117:1 
-0.349609375 1199:1 1258:1 1871:1 2007:1 2188:1 4048:1 
-0.349609375 2405:1 3082:1 3554:1 4061:1 5708:1 
-0.349609375 1196:1 1504:1 1908:1 2856:1 3229:1 5177:1 
-0.349609375 525:1 634:1 1793:1 3149:1 3421:1 
-0.349609375 2693:1 4433:1 4984:1 
-0.349609375 2008:1 3149:1 3421:1 5165:1 
-0.349609375 264:1 806:1 1427:1 1582:1 2265:1 3240:1 3656:1 5602:1 5604:1 
-0.349609375 264:1 4143:1 4573:1 
-0.349609375 1871:1 2811:1 3149:1 3240:1 3421:1 5244:1 
-0.349609375 2102:1 2811:1 
-0.349609375 205:1 3471:1 4917:1 
-0.349609375 264:1 1125:1 2946:1 3203:1 3567:1 
-0.349609375 1140:1 3396:1 
-0.349609375 1871:1 4152:1 
-0.349609375 2019:1 2811:1 3149:1 3421:1 5446:1 
-0.349609375 332:1 2073:1 
-0.349609375 224:1 307:1 863:1 4366:1 
-0.349609375 525:1 634:1 1793:1 4063:1 4213:1 4273:1 4366:1 
-0.349609375 160:1 264:1 856:1 946:1 1566:1 1871:1 2190:1 2627:1 3164:1 4328:1 4780:1 5382:1 5562:1 5794:1 
-0.349609375 264:1 487:1 1286:1 2584:1 
-0.349609375 1121:1 3860:1 4023:1 4063:1 4273:1 4632:1 5211:1 
-0.349609375 1026:1 
-0.349609375 23:1 264:1 675:1 1137:1 1254:1 3149:1 3421:1 4034:1 4253:1 5141:1 5162:1 5471:1 
-0.349609375 347:1 1039:1 1416:1 1425:1 1456:1 3192:1 5312:1 
-0.349609375 2520:1 3149:1 3421:1 4143:1 4573:1 
-0.349609375 1398:1 1744:1 3688:1 4485:1 4840:1 
-0.349609375 264:1 3089:1 4371:1 
-0.349609375 264:1 1504:1 2723:1 3921:1 
-0.349609375 603:1 3877:1 4406:1 5384:1 5726:1 
-0.349609375 1077:1 1204:1 2617:1 3559:1 3681:1 3694:1 5108:1 5224:1 5795:1 5886:1 5902:1 
-0.349609375 4063:1 4273:1 4309:1 
-0.349609375 264:1 1136:1 2975:1 5939:1 
-0.349609375 2443:1 4295:1 
-0.349609375 1136:1 2751:1 2811:1 2975:1 
-0.349609375 154:1 603:1 798:1 2185:1 3989:1 4790:1 
-0.349609375 358:1 1545:1 3149:1 3421:1 5680:1 
-0.349609375 264:1 590:1 1128:1 2627:1 2645:1 3885:1 4780:1 5562:1 
-0.349609375 264:1 1960:1 3598:1 4362:1 
-0.349609375 222:1 258:1 264:1 1296:1 3092:1 3149:1 3421:1 
-0.349609375 2811:1 4742:1 
-0.349609375 1718:1 3697:1 4761:1 5453:1 
-0.349609375 4533:1 
-0.349609375 636:1 3149:1 3421:1 3773:1 4948:1 5824:1 
-50 5708:1 
-0.349609375 698:1 3238:1 3911:1 3948:1 4002:1 4178:1 5660:1 
-0.349609375 3582:1 4975:1 5452:1 
-0.349609375 556:1 2811:1 
-0.349609375 1186:1 2015:1 2811:1 4358:1 4500:1 5709:1 5721:1 
-0.349609375 3689:1 4708:1 5903:1 
-0.349609375 958:1 1323:1 1324:1 5336:1 
-0.349609375 264:1 2315:1 2585:1 3149:1 3391:1 3421:1 
-0.349609375 432:1 5184:1 5597:1 
-0.349609375 2941:1 3133:1 4377:1 
-0.349609375 2798:1 
-0.349609375 264:1 1669:1 2071:1 3149:1 3421:1 3483:1 4017:1 4293:1 4976:1 5075:1 5109:1 
-0.349609375 182:1 264:1 1118:1 1140:1 1871:1 2265:1 2334:1 2674:1 2763:1 5660:1 
-0.349609375 264:1 680:1 1884:1 2563:1 3127:1 3677:1 4032:1 4366:1 5291:1 5587:1 
-0.349609375 1118:1 3440:1 
-0.349609375 614:1 630:1 1871:1 2053:1 3149:1 3421:1 3436:1 3483:1 3594:1 4063:1 4273:1 5109:1 5154:1 5661:1 
-0.349609375 3492:1 
-0.349609375 264:1 1451:1 2446:1 2571:1 2894:1 4063:1 4273:1 4917:1 
-0.349609375 272:1 530:1 1199:1 1349:1 1544:1 1664:1 1718:1 2811:1 3126:1 3402:1 3697:1 4048:1 4761:1 4917:1 5453:1 5736:1 5816:1 
-0.349609375 1348:1 2811:1 3149:1 3421:1 4917:1 
-0.349609375 2071:1 4150:1 
-0.349609375 264:1 3149:1 3421:1 3961:1 4085:1 4262:1 
-0.349609375 675:1 3149:1 3421:1 4034:1 4253:1 4825:1 5141:1 5162:1 5660:1 
-0.349609375 651:1 2443:1 
-0.349609375 511:1 
-0.349609375 2474:1 4917:1 
-50 1088:1 
-0.349609375 3208:1 3358:1 
-0.349609375 264:1 1714:1 
-0.349609375 1393:1 2181:1 3948:1 3985:1 4602:1 5770:1 
-0.349609375 264:1 1140:1 1468:1 2272:1 4063:1 4273:1 
-0.349609375 264:1 1113:1 2241:1 3149:1 3421:1 3938:1 4742:1 5396:1 5499:1 
-0.349609375 264:1 441:1 1121:1 1571:1 1765:1 2071:1 2234:1 2505:1 3573:1 4407:1 4632:1 4992:1 5708:1 
-0.349609375 1140:1 1978:1 2073:1 
-0.349609375 31:1 264:1 3961:1 4085:1 5329:1 
-0.349609375 210:1 2851:1 3149:1 3421:1 
-0.349609375 45:1 557:1 1214:1 1334:1 1398:1 1744:1 4115:1 5751:1 5792:1 
-0.349609375 2431:1 5306:1 5643:1 
-0.349609375 989:1 1351:1 2300:1 3149:1 3421:1 5151:1 
-0.349609375 590:1 3933:1 4451:1 
-0.349609375 755:1 1451:1 2330:1 2894:1 
-0.349609375 1008:1 2451:1 2580:1 2811:1 3890:1 4018:1 5660:1 
-0.349609375 1968:1 3149:1 3421:1 3773:1 4063:1 4273:1 5291:1 5587:1 
-0.349609375 3948:1 4416:1 
-0.349609375 3921:1 4433:1 
-0.349609375 3149:1 3255:1 3421:1 
-0.349609375 133:1 232:1 775:1 3978:1 
-0.349609375 1798:1 2078:1 4281:1 4734:1 5708:1 
-0.349609375 2645:1 3396:1 
-0.349609375 264:1 2073:1 2355:1 3478:1 
-0.349609375 264:1 1734:1 3921:1 
-0.349609375 4398:1 5117:1 5556:1 
-0.349609375 1294:1 
-0.349609375 264:1 1473:1 1859:1 3082:1 3554:1 
-0.349609375 264:1 703:1 1134:1 2047:1 
-0.349609375 23:1 62:1 155:1 1254:1 2811:1 3897:1 5168:1 5471:1 5939:1 
-0.349609375 1313:1 2519:1 3149:1 3421:1 
-0.349609375 2103:1 5672:1 
-0.349609375 1140:1 3149:1 3421:1 4548:1 
-0.349609375 370:1 745:1 946:1 1354:1 2811:1 3102:1 3306:1 4021:1 4328:1 5110:1 5382:1 5647:1 5774:1 5794:1 5859:1 
-0.349609375 264:1 2032:1 2273:1 2665:1 3343:1 4750:1 
-0.349609375 487:1 2584:1 3576:1 3625:1 
-0.349609375 264:1 2563:1 5770:1 
-0.349609375 264:1 2974:1 3149:1 3421:1 
-0.349609375 264:1 613:1 833:1 1830:1 3118:1 3273:1 4063:1 4273:1 4591:1 
-0.349609375 1351:1 1871:1 3126:1 5151:1 5816:1 
-0.349609375 795:1 3255:1 3279:1 
-0.349609375 225:1 2906:1 3149:1 3421:1 3774:1 5148:1 5435:1 
-0.349609375 71:1 144:1 358:1 1111:1 1616:1 1871:1 2276:1 2388:1 3773:1 5660:1 
-0.349609375 2127:1 2613:1 5737:1 
-0.349609375 599:1 5007:1 
-0.349609375 2811:1 3149:1 3238:1 3421:1 
-0.349609375 347:1 5029:1 5312:1 
-0.349609375 2034:1 2494:1 2798:1 
-0.349609375 1140:1 2071:1 3940:1 3944:1 4116:1 5267:1 
-0.349609375 264:1 810:1 3311:1 3579:1 
-0.349609375 1734:1 4063:1 4273:1 5765:1 
-0.349609375 264:1 3149:1 3421:1 5076:1 
-0.349609375 264:1 3115:1 3189:1 4065:1 
-0.349609375 1781:1 1849:1 1871:1 3149:1 3421:1 
-0.349609375 554:1 613:1 1830:1 2365:1 3273:1 4131:1 4187:1 4591:1 
-0.349609375 5092:1 
-0.349609375 2751:1 5588:1 
-0.349609375 225:1 1134:1 3774:1 
-0.349609375 675:1 3778:1 4034:1 4253:1 4500:1 5141:1 5162:1 5944:1 
-0.349609375 182:1 4790:1 5708:1 
-50 5573:1 
-0.349609375 439:1 1063:1 2283:1 2811:1 
-0.349609375 4358:1 4366:1 
-0.349609375 2265:1 2811:1 4358:1 
-0.349609375 4063:1 4131:1 4273:1 5660:1 
-0.349609375 264:1 294:1 1871:1 2811:1 3961:1 4063:1 4085:1 4273:1 4358:1 4366:1 5580:1 
-0.349609375 271:1 2233:1 5437:1 
-0.349609375 2173:1 2175:1 2550:1 3304:1 3721:1 3901:1 4391:1 4857:1 
-0.349609375 264:1 828:1 1562:1 
-0.349609375 1652:1 3118:1 3770:1 3961:1 4085:1 4366:1 
-0.349609375 487:1 1124:1 2584:1 4516:1 4790:1 5099:1 
-0.349609375 1871:1 3403:1 4063:1 4273:1 5058:1 
-0.349609375 264:1 2273:1 3343:1 4742:1 
-0.349609375 1389:1 3150:1 4839:1 5733:1 5842:1 
-0.349609375 264:1 1925:1 4063:1 4273:1 
-0.349609375 216:1 1032:1 3165:1 3339:1 4266:1 
-0.349609375 1063:1 2283:1 2811:1 3149:1 3421:1 4483:1 
-0.349609375 3813:1 
-0.349609375 3241:1 3964:1 
-0.349609375 142:1 264:1 1865:1 3149:1 3421:1 
-0.349609375 1871:1 5558:1 
-0.349609375 257:1 264:1 642:1 1313:1 2271:1 2815:1 3358:1 3727:1 4914:1 5742:1 
-0.349609375 264:1 1125:1 1155:1 2268:1 2819:1 3203:1 3727:1 3771:1 4063:1 4273:1 4914:1 
-0.349609375 1453:1 4063:1 4273:1 
-0.349609375 820:1 3149:1 3421:1 
-0.349609375 3149:1 3421:1 3773:1 4063:1 4273:1 
-0.349609375 4434:1 5271:1 5520:1 
-0.349609375 389:1 549:1 1288:1 3150:1 4606:1 5680:1 5733:1 5842:1 
-0.349609375 3143:1 
-0.349609375 2265:1 3854:1 4366:1 
-0.349609375 264:1 2073:1 3358:1 
-0.349609375 487:1 1948:1 2584:1 
-0.349609375 264:1 1313:1 4358:1 
-0.349609375 1709:1 4358:1 4790:1 
-0.349609375 264:1 1409:1 3149:1 3421:1 3978:1 
-0.349609375 1136:1 2975:1 2980:1 
-0.349609375 264:1 5007:1 
-0.349609375 264:1 2568:1 3745:1 5660:1 
-0.349609375 264:1 4131:1 
-0.349609375 2187:1 3165:1 3339:1 4266:1 
-0.349609375 1140:1 3149:1 3421:1 4262:1 5501:1 
-50 2980:1 
-0.349609375 1054:1 1468:1 2272:1 3728:1 4063:1 4273:1 5085:1 
-0.349609375 2364:1 3386:1 4063:1 4273:1 
-0.349609375 3178:1 3979:1 4232:1 
-0.349609375 2071:1 2173:1 2175:1 3149:1 3304:1 3421:1 4391:1 4857:1 
-0.349609375 3149:1 3421:1 3560:1 4791:1 5866:1 
-0.349609375 1821:1 1918:1 4927:1 
-0.349609375 843:1 1928:1 2811:1 4029:1 4790:1 4836:1 
-0.349609375 2446:1 2811:1 5739:1 
-0.349609375 223:1 2355:1 4398:1 
-0.349609375 4199:1 5466:1 
-0.349609375 603:1 3149:1 3421:1 3817:1 
-0.349609375 2400:1 3149:1 3421:1 5113:1 
-0.349609375 565:1 902:1 1085:1 3149:1 3421:1 3745:1 3798:1 4975:1 5452:1 5744:1 
-0.349609375 3665:1 5680:1 
-0.349609375 1221:1 2574:1 3557:1 4915:1 4919:1 5708:1 5906:1 
-0.349609375 487:1 1124:1 2584:1 3149:1 3421:1 4516:1 
-0.349609375 1533:1 1869:1 2332:1 2355:1 2448:1 2566:1 3149:1 3421:1 4248:1 4507:1 4790:1 
-0.349609375 1727:1 2019:1 2070:1 2811:1 3413:1 4272:1 4358:1 4386:1 
-0.349609375 29:1 1140:1 1876:1 2645:1 
-0.349609375 264:1 441:1 1571:1 1765:1 2429:1 2849:1 3681:1 3694:1 4366:1 4724:1 5075:1 5584:1 5756:1 
-0.349609375 503:1 613:1 1830:1 3149:1 3273:1 3336:1 3396:1 3421:1 4143:1 4573:1 4591:1 4861:1 5435:1 5680:1 
-0.349609375 225:1 1601:1 3774:1 
-0.349609375 2419:1 
-0.349609375 1221:1 2515:1 2574:1 2836:1 3120:1 3557:1 4010:1 4040:1 4915:1 4919:1 5610:1 5684:1 5852:1 5906:1 
-0.349609375 1331:1 
-0.349609375 2400:1 
-0.349609375 1117:1 1999:1 2594:1 3149:1 3165:1 3339:1 3421:1 3901:1 3948:1 4049:1 4266:1 4483:1 
-0.349609375 2095:1 2733:1 5551:1 
-0.349609375 264:1 2265:1 5099:1 
-0.349609375 662:1 3978:1 
-0.349609375 62:1 155:1 3897:1 4141:1 5168:1 
-0.349609375 264:1 1718:1 3697:1 4761:1 5453:1 5660:1 
-0.349609375 264:1 5738:1 
-0.349609375 1932:1 2354:1 2544:1 
-0.349609375 2773:1 2831:1 3150:1 4398:1 4953:1 5733:1 5842:1 
-0.349609375 264:1 450:1 1614:1 1798:1 4281:1 4734:1 5846:1 
-0.349609375 62:1 155:1 375:1 3149:1 3331:1 3421:1 3897:1 4422:1 5168:1 
-0.349609375 264:1 1313:1 3841:1 
-0.349609375 264:1 4742:1 5095:1 
-0.349609375 1128:1 1206:1 3149:1 3421:1 3620:1 4366:1 4695:1 
-0.349609375 1677:1 3413:1 4272:1 4358:1 4386:1 4821:1 5300:1 
-0.349609375 264:1 4183:1 
-0.349609375 88:1 928:1 3961:1 4085:1 
-0.349609375 3961:1 4079:1 4085:1 5219:1 
-0.349609375 264:1 2698:1 3005:1 4189:1 
-0.349609375 654:1 2645:1 
-0.349609375 487:1 2584:1 4366:1 
-0.349609375 1630:1 2215:1 2504:1 3921:1 4063:1 4273:1 
-0.349609375 264:1 3149:1 3421:1 5643:1 
-0.349609375 264:1 613:1 715:1 822:1 1708:1 1830:1 2784:1 3273:1 4591:1 
-0.349609375 630:1 2053:1 2355:1 3594:1 4063:1 4273:1 5154:1 5661:1 5874:1 
-0.349609375 142:1 603:1 
-0.349609375 258:1 264:1 1056:1 
-0.349609375 742:1 997:1 2554:1 2705:1 2811:1 2893:1 4403:1 4744:1 
-0.349609375 62:1 155:1 3897:1 4452:1 5168:1 5291:1 5587:1 5913:1 
-0.349609375 1201:1 2681:1 5834:1 
-0.349609375 3149:1 3421:1 5085:1 
-0.349609375 525:1 634:1 1793:1 2287:1 2906:1 4889:1 5148:1 5470:1 
-0.349609375 3110:1 3883:1 4718:1 5099:1 5123:1 
-0.349609375 259:1 1871:1 3784:1 
-0.349609375 744:1 2073:1 3165:1 3339:1 4063:1 4266:1 4273:1 
-0.349609375 71:1 144:1 1616:1 2103:1 2276:1 2388:1 2557:1 3403:1 5058:1 5672:1 
-0.349609375 3773:1 3885:1 
-0.349609375 875:1 928:1 
-0.349609375 149:1 264:1 487:1 1140:1 2355:1 2584:1 4358:1 
-0.349609375 1052:1 1779:1 4358:1 4985:1 
-0.349609375 93:1 2003:1 2201:1 2251:1 2738:1 2949:1 2973:1 3126:1 4022:1 5314:1 5816:1 5843:1 
-0.349609375 264:1 2557:1 2563:1 3385:1 3979:1 4232:1 
-0.349609375 216:1 264:1 1032:1 1052:1 1663:1 1779:1 1871:1 2687:1 2811:1 3181:1 3375:1 3717:1 4975:1 4985:1 5452:1 
-0.349609375 83:1 296:1 936:1 1561:1 2765:1 3773:1 4000:1 4006:1 4917:1 4968:1 
-0.349609375 264:1 939:1 1718:1 2019:1 3697:1 4296:1 4761:1 4790:1 5217:1 5453:1 
-0.349609375 3278:1 
-0.349609375 264:1 2983:1 
-0.349609375 264:1 1014:1 1140:1 1471:1 
-50 62:1 155:1 3897:1 5168:1 
-0.349609375 264:1 1860:1 3384:1 
-0.349609375 225:1 264:1 1727:1 1871:1 3774:1 
-0.349609375 237:1 240:1 5253:1 5539:1 
-0.349609375 264:1 1238:1 4105:1 4369:1 4411:1 4428:1 
-0.349609375 1552:1 2197:1 
-0.349609375 1871:1 4747:1 
-0.349609375 264:1 1116:1 1601:1 
-0.349609375 1502:1 3149:1 3421:1 5829:1 
-0.349609375 133:1 232:1 775:1 
-0.349609375 3126:1 4101:1 5816:1 
-0.349609375 149:1 737:1 3358:1 3979:1 4232:1 5590:1 
-0.349609375 1026:1 2811:1 2866:1 3566:1 5049:1 
-0.349609375 487:1 2584:1 3018:1 3841:1 5356:1 
-0.349609375 61:1 755:1 1343:1 2330:1 4063:1 4273:1 4980:1 
-0.349609375 389:1 549:1 1128:1 1828:1 
-0.349609375 264:1 977:1 1136:1 2975:1 
-0.349609375 1028:1 1381:1 3142:1 3681:1 3694:1 5561:1 5648:1 
-0.349609375 389:1 549:1 1018:1 1502:1 1828:1 3149:1 3150:1 3421:1 3582:1 4039:1 4044:1 4934:1 5291:1 5587:1 5733:1 5842:1 
-0.349609375 264:1 675:1 1871:1 3165:1 3339:1 3773:1 4034:1 4253:1 4266:1 5141:1 5162:1 
-0.349609375 264:1 3601:1 
-0.349609375 264:1 2446:1 2504:1 3150:1 3961:1 4085:1 4259:1 5260:1 5303:1 5733:1 5842:1 
-0.349609375 1128:1 1232:1 3854:1 3906:1 4063:1 4273:1 4518:1 5018:1 5279:1 
-0.349609375 1121:1 1304:1 4632:1 4806:1 
-0.349609375 2694:1 3479:1 4043:1 4202:1 5651:1 5680:1 5731:1 
-0.349609375 2474:1 3165:1 3339:1 3745:1 4266:1 4790:1 5887:1 
-0.349609375 818:1 
-0.349609375 1354:1 1374:1 1949:1 3773:1 4553:1 4807:1 4810:1 
-0.349609375 1601:1 3782:1 4451:1 4959:1 5301:1 
-0.349609375 264:1 411:1 729:1 805:1 4714:1 
-0.349609375 555:1 2909:1 
-0.349609375 3773:1 4790:1 
-0.349609375 264:1 1241:1 3940:1 3944:1 4116:1 5267:1 
-0.349609375 53:1 2108:1 3773:1 5163:1 5660:1 5897:1 
-0.349609375 5485:1 
-0.349609375 93:1 745:1 1359:1 2003:1 2201:1 2738:1 3102:1 4022:1 4366:1 4790:1 5110:1 5314:1 
-0.349609375 258:1 264:1 375:1 688:1 4143:1 4422:1 4573:1 4625:1 5072:1 
-0.349609375 675:1 1871:1 3782:1 4034:1 4253:1 5141:1 5162:1 
-0.349609375 487:1 630:1 2053:1 2584:1 3115:1 3189:1 3594:1 4065:1 5154:1 5661:1 
-0.349609375 264:1 2102:1 3149:1 3421:1 
-0.349609375 1621:1 5099:1 5484:1 5538:1 5591:1 
-0.349609375 2645:1 4719:1 4976:1 
-0.349609375 2705:1 3885:1 
-0.349609375 203:1 1468:1 2272:1 2483:1 4625:1 5072:1 5786:1 5835:1 
-0.349609375 3149:1 3396:1 3421:1 3781:1 
-0.349609375 3906:1 5018:1 5279:1 
-0.349609375 264:1 441:1 1571:1 1669:1 1765:1 1871:1 3497:1 4017:1 4293:1 
-0.349609375 264:1 525:1 634:1 1793:1 1821:1 1918:1 2327:1 2811:1 3483:1 3610:1 4358:1 4484:1 4927:1 5109:1 5416:1 
-0.349609375 1063:1 2283:1 4953:1 
-0.349609375 264:1 3149:1 3421:1 4063:1 4273:1 5399:1 5879:1 
-0.349609375 264:1 2078:1 
-0.349609375 264:1 3231:1 4198:1 4631:1 5029:1 5179:1 
-0.349609375 1350:1 4614:1 4790:1 5810:1 
-0.349609375 264:1 5708:1 
-0.349609375 3778:1 4049:1 5944:1 
-0.349609375 2470:1 2811:1 2919:1 
-0.349609375 1276:1 1769:1 3848:1 
-0.349609375 431:1 2289:1 
-0.349609375 3948:1 4625:1 5072:1 
-0.349609375 1349:1 2549:1 
-0.349609375 271:1 2233:1 4460:1 4597:1 4651:1 5437:1 5797:1 
-0.349609375 3149:1 3421:1 5435:1 
-0.349609375 556:1 2234:1 2327:1 2505:1 3149:1 3421:1 3610:1 4407:1 4484:1 4992:1 5038:1 5680:1 
-0.349609375 264:1 1128:1 2163:1 2165:1 2563:1 3194:1 3856:1 
-0.349609375 264:1 1446:1 3149:1 3358:1 3421:1 3454:1 5171:1 
-0.349609375 2701:1 2770:1 2811:1 4693:1 5099:1 
-0.349609375 703:1 4742:1 
-0.349609375 1610:1 5660:1 
-0.349609375 176:1 1742:1 3773:1 5460:1 
-0.349609375 1359:1 2334:1 4548:1 
-0.349609375 2431:1 4063:1 4273:1 
-50 264:1 1124:1 4516:1 
-0.349609375 264:1 3029:1 3885:1 
-0.349609375 264:1 1028:1 1381:1 3142:1 4366:1 5561:1 5648:1 
-50 3877:1 4406:1 
-0.349609375 1199:1 3251:1 3616:1 3650:1 4048:1 
-0.349609375 160:1 856:1 2190:1 2811:1 3582:1 3601:1 
-0.349609375 182:1 225:1 264:1 389:1 549:1 3774:1 5835:1 
-0.349609375 261:1 809:1 1078:1 1592:1 2129:1 2468:1 2811:1 3126:1 3150:1 3773:1 4889:1 5001:1 5733:1 5816:1 5842:1 
-0.349609375 1124:1 2071:1 4516:1 4644:1 4998:1 
-0.349609375 2811:1 4631:1 5179:1 
-0.349609375 5758:1 
-0.349609375 133:1 232:1 252:1 775:1 946:1 1606:1 2951:1 3773:1 4328:1 5382:1 5745:1 5794:1 
-0.349609375 264:1 4063:1 4133:1 4273:1 4742:1 
-0.349609375 1014:1 1871:1 3238:1 
-0.349609375 675:1 1871:1 3384:1 4034:1 4253:1 5141:1 5162:1 
-0.349609375 1039:1 1456:1 1478:1 1556:1 3192:1 4895:1 5352:1 
-0.349609375 542:1 3149:1 3421:1 5603:1 5762:1 
-0.349609375 2811:1 3051:1 3961:1 4085:1 4537:1 
-0.349609375 822:1 1708:1 2784:1 
-0.349609375 603:1 2675:1 5898:1 
-0.349609375 4956:1 
-0.349609375 2158:1 2759:1 3772:1 3773:1 5142:1 
-0.349609375 2319:1 3583:1 4822:1 
-0.349609375 264:1 2073:1 3149:1 3421:1 3860:1 4023:1 4161:1 4790:1 5211:1 
-0.349609375 264:1 603:1 1199:1 1351:1 1871:1 3149:1 3150:1 3421:1 4048:1 5151:1 5733:1 5842:1 
-0.349609375 3978:1 
-0.349609375 264:1 1821:1 1918:1 3149:1 3421:1 4131:1 4625:1 4927:1 5072:1 
-0.349609375 61:1 1343:1 1968:1 4980:1 
-0.349609375 71:1 144:1 1014:1 1616:1 2194:1 2276:1 2388:1 3110:1 3150:1 3336:1 3883:1 4366:1 4681:1 5733:1 5842:1 
-0.349609375 264:1 5203:1 
-0.349609375 1286:1 3483:1 3773:1 3940:1 3944:1 4116:1 4975:1 5109:1 5267:1 5452:1 
-0.349609375 487:1 2584:1 2811:1 4366:1 4652:1 
-0.349609375 3501:1 
-0.349609375 1468:1 2272:1 3149:1 3421:1 
-0.349609375 525:1 634:1 1793:1 4543:1 
-0.349609375 3096:1 
-0.349609375 2271:1 2631:1 4596:1 
-0.349609375 264:1 1128:1 1960:1 3598:1 4063:1 4273:1 4362:1 
-0.349609375 2337:1 
-0.349609375 264:1 5698:1 
-0.349609375 4681:1 
-0.349609375 264:1 2811:1 3961:1 4085:1 
-0.349609375 248:1 264:1 
-0.349609375 264:1 675:1 3860:1 4023:1 4034:1 4253:1 5141:1 5162:1 5211:1 
-0.349609375 1140:1 1178:1 3293:1 3296:1 3439:1 3480:1 
-0.349609375 264:1 1124:1 4516:1 4571:1 4625:1 5072:1 
-0.349609375 666:1 1968:1 2199:1 
-0.349609375 2811:1 5660:1 
-0.349609375 503:1 2019:1 4998:1 
-0.349609375 264:1 1560:1 1669:1 1849:1 2073:1 3238:1 4017:1 4293:1 
-0.349609375 1140:1 1393:1 2181:1 2831:1 3985:1 4358:1 4602:1 
-0.349609375 264:1 613:1 1830:1 3273:1 4063:1 4273:1 4591:1 
-0.349609375 264:1 2611:1 3198:1 4347:1 5099:1 5445:1 
-0.349609375 806:1 1124:1 1125:1 1427:1 1582:1 2433:1 3149:1 3203:1 3421:1 3656:1 4516:1 5602:1 5604:1 
-0.349609375 264:1 1125:1 1798:1 3149:1 3203:1 3421:1 4281:1 4734:1 5173:1 
-0.349609375 3558:1 4063:1 4273:1 4401:1 
-0.349609375 2062:1 2370:1 2811:1 5941:1 
-0.349609375 1634:1 1897:1 2158:1 3219:1 3921:1 5710:1 
-0.349609375 264:1 3841:1 
-0.349609375 395:1 424:1 1128:1 3238:1 5291:1 5320:1 5587:1 
-0.349609375 631:1 2757:1 3149:1 3421:1 4354:1 
-0.349609375 1924:1 2557:1 2811:1 3978:1 5745:1 
-0.349609375 675:1 3948:1 4034:1 4253:1 4790:1 5141:1 5162:1 
-0.349609375 2355:1 4079:1 5219:1 
-0.349609375 989:1 3240:1 
-0.349609375 264:1 3149:1 3421:1 5127:1 
-0.349609375 432:1 1669:1 1871:1 2071:1 3483:1 4017:1 4293:1 4500:1 5109:1 
-0.349609375 264:1 542:1 593:1 710:1 1648:1 3773:1 4868:1 5516:1 
-0.349609375 264:1 2504:1 2627:1 4780:1 5562:1 
-0.349609375 264:1 3126:1 3794:1 3946:1 4415:1 5816:1 5881:1 
-0.349609375 4227:1 
-0.349609375 187:1 264:1 594:1 1044:1 1719:1 3429:1 3880:1 4917:1 
-0.349609375 2071:1 2702:1 4503:1 4652:1 5708:1 5825:1 
-0.349609375 264:1 3178:1 
-0.349609375 61:1 1343:1 1923:1 1999:1 2071:1 2594:1 3149:1 3421:1 4980:1 5708:1 
-0.349609375 237:1 240:1 391:1 5253:1 5539:1 
-0.349609375 1409:1 
-0.349609375 61:1 446:1 1124:1 1343:1 2072:1 4516:1 4980:1 
-0.349609375 264:1 2446:1 3773:1 
-0.349609375 693:1 3885:1 
-0.349609375 31:1 195:1 1196:1 3149:1 3421:1 5329:1 5424:1 
-0.349609375 1169:1 4143:1 4573:1 5280:1 
-0.349609375 1871:1 2010:1 3443:1 3681:1 3694:1 3773:1 3961:1 4085:1 4698:1 5419:1 5660:1 5754:1 
-0.349609375 1493:1 3680:1 4790:1 5463:1 
-0.349609375 159:1 755:1 1479:1 2330:1 2532:1 2557:1 
-0.349609375 1585:1 
-0.349609375 3958:1 4790:1 
-0.349609375 1821:1 1918:1 2715:1 4927:1 
-0.349609375 3807:1 4467:1 5296:1 5698:1 
-0.349609375 149:1 157:1 435:1 503:1 1985:1 2026:1 3149:1 3421:1 5573:1 
-0.349609375 1798:1 3033:1 4281:1 4734:1 
-0.349609375 379:1 1045:1 2509:1 
-0.349609375 883:1 2831:1 3149:1 3421:1 4178:1 
-0.349609375 738:1 3917:1 5221:1 
-0.349609375 3773:1 5768:1 
-0.349609375 675:1 2433:1 4034:1 4253:1 5141:1 5162:1 
-0.349609375 4325:1 5665:1 
-0.349609375 613:1 1830:1 2980:1 3273:1 4591:1 5092:1 5874:1 
-0.349609375 225:1 264:1 1360:1 1811:1 2015:1 2895:1 3774:1 
-0.349609375 2799:1 2811:1 
-0.349609375 264:1 1125:1 3203:1 
-0.349609375 2148:1 
-0.349609375 1960:1 2008:1 2160:1 3598:1 4362:1 
-0.349609375 3877:1 4406:1 5374:1 
-0.349609375 264:1 963:1 2645:1 3149:1 3238:1 3421:1 4743:1 
-0.349609375 2483:1 2519:1 3460:1 5845:1 
-0.349609375 264:1 2537:1 
-0.349609375 227:1 264:1 675:1 3481:1 4034:1 4253:1 4424:1 4607:1 5141:1 5162:1 5882:1 
-0.349609375 4154:1 4433:1 5302:1 
-0.349609375 1351:1 1389:1 2102:1 3358:1 4063:1 4273:1 4433:1 5151:1 5291:1 5587:1 
-0.349609375 389:1 549:1 2359:1 2811:1 4998:1 
-0.349609375 264:1 3889:1 4143:1 4334:1 4573:1 5339:1 
-0.349609375 1128:1 2271:1 4366:1 5029:1 
-0.349609375 264:1 409:1 1679:1 2811:1 4131:1 4468:1 
-0.349609375 264:1 1359:1 3149:1 3421:1 4102:1 4742:1 
-0.349609375 3778:1 4101:1 5944:1 
-50 1468:1 2272:1 3149:1 3421:1 
-0.349609375 62:1 155:1 223:1 264:1 432:1 487:1 755:1 2330:1 2584:1 3885:1 3897:1 4143:1 4573:1 5168:1 
-0.349609375 264:1 1056:1 1781:1 3149:1 3421:1 
-0.349609375 4434:1 4747:1 
-0.349609375 264:1 2519:1 
-0.349609375 272:1 755:1 1014:1 1221:1 1664:1 2330:1 2574:1 2765:1 3402:1 3557:1 4790:1 4915:1 4919:1 5906:1 
-0.349609375 264:1 3149:1 3421:1 3988:1 4366:1 
-0.349609375 264:1 613:1 1088:1 1830:1 3273:1 4591:1 
-0.349609375 4889:1 
-0.349609375 49:1 264:1 487:1 2584:1 3899:1 4608:1 
-0.349609375 1748:1 2248:1 2355:1 3948:1 3978:1 5635:1 
-0.349609375 902:1 1085:1 3149:1 3421:1 3798:1 
-0.349609375 3933:1 5765:1 
-0.349609375 3368:1 
-0.349609375 264:1 575:1 3023:1 3149:1 3421:1 5415:1 5560:1 
-0.349609375 389:1 549:1 3321:1 4024:1 
-0.349609375 264:1 1035:1 5099:1 
-0.349609375 3149:1 3421:1 3870:1 
-0.349609375 675:1 4034:1 4253:1 5007:1 5141:1 5162:1 
-0.349609375 642:1 1140:1 2815:1 3773:1 5742:1 
-0.349609375 264:1 806:1 1427:1 1582:1 3656:1 5602:1 5604:1 
-0.349609375 2271:1 5835:1 
-0.349609375 1128:1 4747:1 
-0.349609375 902:1 1085:1 3798:1 3948:1 
-0.349609375 375:1 3948:1 4422:1 4714:1 5768:1 
-0.349609375 1354:1 3251:1 3616:1 
-0.349609375 556:1 1621:1 2811:1 2980:1 3126:1 5538:1 5816:1 
-0.349609375 3052:1 4063:1 4273:1 4958:1 
-0.349609375 264:1 2966:1 4839:1 
-0.349609375 264:1 3150:1 5733:1 5842:1 
-0.349609375 264:1 703:1 1286:1 3901:1 
-0.349609375 1548:1 2411:1 3959:1 5723:1 
-0.349609375 264:1 2265:1 2723:1 
-0.349609375 1124:1 3149:1 3421:1 3948:1 4516:1 
-0.349609375 264:1 2008:1 5739:1 5846:1 
-0.349609375 1359:1 2891:1 4102:1 4321:1 4330:1 
-0.349609375 260:1 748:1 2891:1 4143:1 4321:1 4330:1 4573:1 5921:1 
-0.349609375 2047:1 3397:1 
-0.349609375 264:1 3149:1 3238:1 3421:1 4131:1 
-0.349609375 264:1 2443:1 4452:1 5913:1 
-0.349609375 61:1 1323:1 1343:1 3778:1 4980:1 5336:1 5944:1 
-0.349609375 1125:1 1663:1 2687:1 3181:1 3203:1 4424:1 
-0.349609375 810:1 3579:1 4286:1 
-0.349609375 264:1 2811:1 3612:1 
-0.349609375 1585:1 4466:1 
-0.349609375 264:1 1868:1 
-0.349609375 487:1 2584:1 5837:1 
-0.349609375 1061:1 2529:1 2564:1 2693:1 4013:1 4950:1 
-0.349609375 138:1 306:1 2841:1 3838:1 3942:1 4790:1 
-50 718:1 5189:1 
-0.349609375 389:1 549:1 2811:1 3149:1 3421:1 
-0.349609375 487:1 1186:1 1398:1 1620:1 1744:1 2584:1 5709:1 5721:1 
-0.349609375 5076:1 
-0.349609375 154:1 264:1 375:1 798:1 2103:1 2185:1 3841:1 3989:1 4422:1 5672:1 
-0.349609375 328:1 525:1 634:1 1298:1 1773:1 1793:1 3863:1 5167:1 5462:1 
-0.349609375 178:1 1052:1 1779:1 2811:1 4985:1 5707:1 5775:1 
-0.349609375 272:1 1664:1 1828:1 2811:1 3402:1 
-0.349609375 1980:1 3251:1 3616:1 
-0.349609375 127:1 264:1 731:1 1188:1 1240:1 1532:1 1564:1 1639:1 2040:1 5419:1 5658:1 5754:1 
-0.349609375 3149:1 3421:1 5136:1 
-0.349609375 3921:1 4154:1 5302:1 
-0.349609375 264:1 2519:1 3979:1 4232:1 
-0.349609375 2265:1 3149:1 3413:1 3421:1 4272:1 4386:1 
-0.349609375 977:1 1136:1 1798:1 2975:1 4281:1 4734:1 
-0.349609375 62:1 155:1 264:1 350:1 1125:1 3149:1 3203:1 3421:1 3897:1 4791:1 5168:1 
-0.349609375 138:1 205:1 3336:1 3403:1 4749:1 5058:1 
-0.349609375 347:1 2327:1 3610:1 4484:1 5312:1 
-0.349609375 2234:1 2505:1 3178:1 4407:1 4992:1 
-0.349609375 1125:1 2023:1 2865:1 3203:1 4515:1 
-0.349609375 5888:1 
-0.349609375 431:1 2456:1 
-0.349609375 31:1 3126:1 4079:1 5219:1 5329:1 5816:1 
-0.349609375 327:1 1939:1 3830:1 5758:1 
-0.349609375 3396:1 5076:1 5203:1 
-0.349609375 264:1 2811:1 3605:1 3885:1 
-0.349609375 1009:1 3568:1 
-50 264:1 1335:1 
-0.349609375 1886:1 
-0.349609375 1214:1 2191:1 3149:1 3421:1 
-0.349609375 258:1 2845:1 3358:1 3635:1 4790:1 5445:1 
-0.349609375 2845:1 3358:1 
-0.349609375 2355:1 3149:1 3421:1 3637:1 4079:1 5219:1 
-0.349609375 252:1 963:1 1038:1 1140:1 1606:1 2951:1 4743:1 
-0.3505859375 2851:1 
-0.3505859375 270:1 1871:1 3240:1 5093:1 5773:1 5865:1 
-0.3515625 1640:1 
-0.3505859375 3149:1 3421:1 3921:1 5092:1 
-0.3505859375 675:1 2814:1 3921:1 4034:1 4253:1 5096:1 5141:1 5162:1 
-0.3505859375 3150:1 3664:1 3782:1 5733:1 5842:1 
-0.3505859375 4114:1 
-0.3505859375 303:1 630:1 2053:1 3594:1 5154:1 5661:1 
-0.3505859375 321:1 1140:1 
-0.3505859375 379:1 2509:1 3732:1 
-0.3505859375 755:1 1468:1 2272:1 2330:1 3733:1 4572:1 
-0.3515625 264:1 2265:1 
-0.3505859375 1150:1 3773:1 4917:1 
-0.3505859375 1734:1 2811:1 3150:1 4131:1 4366:1 5733:1 5842:1 
-0.3505859375 389:1 549:1 1828:1 4358:1 
-0.3505859375 2071:1 3713:1 3921:1 5708:1 
-0.3505859375 2:1 347:1 1191:1 1938:1 5312:1 
-0.3505859375 1140:1 3885:1 4936:1 
-0.3505859375 224:1 4079:1 5219:1 
-0.3505859375 497:1 712:1 810:1 866:1 1063:1 1159:1 2283:1 3579:1 4143:1 4573:1 5237:1 
-0.3505859375 264:1 1871:1 5232:1 
-0.3505859375 1140:1 3279:1 4079:1 5219:1 
-0.3505859375 264:1 1240:1 1507:1 1564:1 1871:1 3455:1 3595:1 3773:1 4358:1 5510:1 5658:1 
-0.3505859375 264:1 2019:1 4889:1 4917:1 
-50 5390:1 5796:1 
-0.3505859375 1828:1 2355:1 
-0.3505859375 224:1 
-0.3505859375 2811:1 3568:1 3940:1 3944:1 4079:1 4116:1 5219:1 5267:1 
-0.3505859375 2073:1 3040:1 3209:1 3730:1 
-0.3505859375 264:1 3948:1 4753:1 
-0.3505859375 2836:1 3149:1 3421:1 3921:1 4063:1 4273:1 
-0.3505859375 2470:1 2527:1 2919:1 3240:1 
-0.3505859375 4398:1 5268:1 
-0.3505859375 264:1 1669:1 2265:1 4017:1 4293:1 4366:1 5384:1 5835:1 
-0.3505859375 53:1 1140:1 2108:1 3149:1 3421:1 5163:1 
-0.3505859375 225:1 264:1 3774:1 5029:1 
-50 475:1 
-0.3505859375 264:1 1941:1 
-50 2811:1 5660:1 
-0.3505859375 362:1 2471:1 2998:1 3149:1 3421:1 
-0.3505859375 1124:1 1961:1 4265:1 4516:1 
-0.3505859375 544:1 2165:1 2788:1 3149:1 3165:1 3339:1 3421:1 3856:1 4266:1 4441:1 
-0.3505859375 890:1 2836:1 4213:1 4644:1 
-0.3505859375 5774:1 
-0.3505859375 4682:1 4902:1 5116:1 5262:1 5281:1 
-0.3505859375 264:1 2811:1 3149:1 3421:1 5708:1 
-0.3505859375 264:1 3011:1 3540:1 3961:1 4018:1 4085:1 4691:1 5745:1 
-0.3505859375 1362:1 1366:1 3981:1 4013:1 5414:1 
-0.3505859375 2265:1 3149:1 3238:1 3421:1 3439:1 4047:1 
-0.3505859375 264:1 1882:1 4259:1 4976:1 5260:1 
-0.3505859375 1073:1 2811:1 3623:1 4310:1 4358:1 
-0.3505859375 3150:1 4426:1 5733:1 5842:1 
-0.3505859375 3439:1 4063:1 4273:1 4975:1 5452:1 
-0.3505859375 52:1 57:1 746:1 937:1 1790:1 
-0.3505859375 1667:1 4742:1 
-0.3505859375 2062:1 2370:1 3732:1 3860:1 4023:1 5211:1 5941:1 
-0.3505859375 264:1 662:1 806:1 1427:1 1582:1 1928:1 3149:1 3421:1 3656:1 4029:1 4790:1 4836:1 5602:1 5604:1 
-0.3505859375 474:1 613:1 1014:1 1830:1 3273:1 4591:1 
-0.3505859375 787:1 4063:1 4273:1 4990:1 
-0.3505859375 264:1 409:1 796:1 1679:1 2019:1 2811:1 3773:1 4160:1 4358:1 4468:1 4571:1 4790:1 4839:1 
-0.3505859375 715:1 1018:1 2665:1 4039:1 4044:1 4934:1 
-0.3505859375 264:1 544:1 817:1 2788:1 4063:1 4079:1 4273:1 4441:1 5219:1 
-0.3505859375 755:1 1481:1 2330:1 2665:1 4074:1 4187:1 5634:1 
-0.3505859375 1871:1 2811:1 5290:1 
-0.3505859375 62:1 155:1 441:1 1398:1 1533:1 1571:1 1744:1 1765:1 2694:1 3897:1 4202:1 4507:1 5168:1 5651:1 
-0.3505859375 4452:1 5913:1 
-0.3505859375 1140:1 2008:1 
-0.3505859375 1923:1 3149:1 3421:1 5413:1 
-0.3505859375 264:1 1865:1 2047:1 2355:1 
-0.3505859375 264:1 603:1 1014:1 
-0.3505859375 1371:1 1864:1 4063:1 4273:1 
-0.3505859375 2523:1 2821:1 3639:1 4079:1 5219:1 
-0.3505859375 1533:1 3948:1 4507:1 
-0.3505859375 703:1 2557:1 
-0.3505859375 688:1 3901:1 
-0.3505859375 216:1 1032:1 2700:1 
-0.3505859375 264:1 688:1 1849:1 2071:1 3126:1 4695:1 4941:1 5708:1 5816:1 
-0.3505859375 271:1 745:1 1871:1 2233:1 3102:1 3403:1 4790:1 5058:1 5110:1 5437:1 
-0.3505859375 450:1 2102:1 3601:1 4009:1 
-0.3505859375 273:1 1124:1 2010:1 2836:1 3198:1 3443:1 4001:1 4011:1 4347:1 4516:1 4698:1 5099:1 
-0.3505859375 5566:1 
-0.3505859375 3926:1 
-0.3505859375 1677:1 4821:1 
-0.3505859375 3240:1 3306:1 3773:1 4471:1 5647:1 
-0.3505859375 264:1 2446:1 2779:1 3029:1 5498:1 5932:1 
-0.3505859375 504:1 1871:1 3126:1 4063:1 4273:1 5816:1 
-0.3505859375 1128:1 3933:1 
-0.3505859375 68:1 225:1 770:1 1871:1 2176:1 3774:1 5060:1 
-0.3505859375 1514:1 1828:1 
-0.3505859375 3921:1 4143:1 4453:1 4573:1 4695:1 5660:1 
-0.3505859375 1178:1 3293:1 3296:1 3480:1 4295:1 
-0.3505859375 1552:1 2197:1 3149:1 3421:1 
-0.3505859375 88:1 2271:1 3773:1 
-0.3505859375 264:1 357:1 360:1 526:1 2314:1 2538:1 3066:1 3149:1 3421:1 5341:1 
-0.3505859375 2287:1 3149:1 3421:1 
-0.3505859375 3106:1 3111:1 4063:1 4273:1 5044:1 
-0.3515625 406:1 
-0.3505859375 450:1 2071:1 3149:1 3421:1 4063:1 4273:1 5708:1 
-0.3505859375 3267:1 4742:1 
-0.3505859375 1601:1 3149:1 3421:1 3465:1 3518:1 4742:1 
-0.3505859375 195:1 556:1 2028:1 5424:1 
-0.3505859375 2814:1 
-0.3505859375 1871:1 4131:1 
-0.3505859375 603:1 1118:1 3150:1 3644:1 5733:1 5842:1 
-0.3505859375 142:1 1014:1 3165:1 3339:1 4266:1 4366:1 5244:1 
-0.3505859375 2811:1 3775:1 4358:1 
-0.3505859375 675:1 3149:1 3421:1 4034:1 4253:1 4790:1 5141:1 5162:1 
-0.3505859375 264:1 1063:1 1313:1 2158:1 2283:1 5184:1 5597:1 5680:1 
-0.3505859375 1128:1 1134:1 
-0.3505859375 411:1 805:1 1140:1 1915:1 2733:1 
-0.3505859375 264:1 1359:1 3149:1 3306:1 3421:1 4131:1 4398:1 5647:1 
-0.3505859375 1860:1 5660:1 
-0.3505859375 1871:1 2723:1 4561:1 
-0.3505859375 3150:1 5680:1 5733:1 5842:1 
-0.3505859375 1121:1 2073:1 2795:1 4632:1 
-0.3505859375 4861:1 
-0.3505859375 264:1 1128:1 4742:1 
-0.3505859375 543:1 2696:1 3854:1 
-0.3505859375 264:1 1045:1 3149:1 3150:1 3421:1 3773:1 3901:1 4358:1 5733:1 5842:1 
-0.3505859375 264:1 683:1 1533:1 2537:1 3386:1 3478:1 4507:1 4865:1 5245:1 5291:1 5587:1 
-0.3505859375 264:1 1118:1 5739:1 
-0.3505859375 641:1 2295:1 2645:1 3149:1 3421:1 3826:1 
-0.3505859375 264:1 4084:1 5487:1 
-0.3505859375 1118:1 4063:1 4273:1 5099:1 5244:1 
-0.3505859375 264:1 1652:1 4434:1 
-0.3505859375 218:1 1140:1 3948:1 4742:1 5443:1 
-0.3505859375 703:1 3094:1 
-0.3505859375 2045:1 4366:1 5835:1 
-0.3505859375 1351:1 1871:1 2234:1 2505:1 2811:1 3757:1 4358:1 4407:1 4992:1 5151:1 
-0.3505859375 4380:1 
-0.3505859375 264:1 1140:1 2334:1 4143:1 4573:1 
-0.3515625 2811:1 4063:1 4273:1 
-0.3505859375 565:1 1124:1 2811:1 4516:1 4631:1 5179:1 5744:1 
-0.3505859375 2982:1 5711:1 
-0.3505859375 264:1 3240:1 4063:1 4273:1 
-0.3505859375 3240:1 3940:1 3944:1 4116:1 4917:1 5267:1 
-0.3505859375 1931:1 3940:1 3944:1 4116:1 5267:1 
-0.3505859375 1067:1 3110:1 3883:1 5356:1 
-0.3505859375 5242:1 
-0.3505859375 3149:1 3421:1 4954:1 
-0.3505859375 264:1 840:1 1871:1 3584:1 4131:1 
-0.3505859375 734:1 3276:1 
-0.3505859375 264:1 1221:1 1974:1 2574:1 3557:1 4719:1 4915:1 4919:1 5906:1 
-0.3505859375 3126:1 3877:1 4406:1 5816:1 
-0.3505859375 822:1 1708:1 2784:1 4467:1 4887:1 
-0.3505859375 71:1 133:1 144:1 232:1 264:1 775:1 1243:1 1616:1 2276:1 2388:1 4472:1 5099:1 
-0.3505859375 222:1 651:1 683:1 3092:1 4063:1 4273:1 
-0.3505859375 3149:1 3421:1 3948:1 4063:1 4273:1 
-0.3505859375 978:1 2271:1 3432:1 3681:1 3694:1 5059:1 5099:1 
-0.3505859375 264:1 553:1 906:1 2333:1 3558:1 4401:1 5804:1 
-0.3505859375 439:1 
-0.3505859375 264:1 1473:1 3149:1 3421:1 3906:1 5018:1 5279:1 
-0.3505859375 225:1 675:1 1137:1 2073:1 3774:1 4034:1 4253:1 4742:1 5141:1 5162:1 
-0.3505859375 1598:1 4154:1 5302:1 5869:1 
-0.3505859375 264:1 1354:1 2073:1 2811:1 3165:1 3339:1 4266:1 4358:1 
-0.3505859375 264:1 441:1 1571:1 1765:1 4500:1 
-0.3505859375 389:1 549:1 1828:1 5680:1 
-0.3505859375 553:1 906:1 2333:1 5804:1 
-0.3505859375 2:1 1028:1 1191:1 1381:1 1938:1 3142:1 5561:1 5648:1 5916:1 
-0.3505859375 1298:1 1773:1 2645:1 3863:1 4775:1 5167:1 
-0.3505859375 1786:1 2334:1 5557:1 
-0.3505859375 264:1 271:1 1838:1 2233:1 2811:1 5437:1 5660:1 
-0.3505859375 2765:1 4102:1 
-0.3505859375 264:1 3837:1 4674:1 4954:1 
-0.3505859375 947:1 1688:1 1692:1 2811:1 5478:1 
-0.3505859375 1140:1 1593:1 3841:1 5446:1 
-0.3505859375 1150:1 1798:1 1871:1 2723:1 4281:1 4734:1 5823:1 5938:1 
-0.3505859375 264:1 1125:1 3203:1 4274:1 4360:1 4810:1 
-0.3505859375 264:1 2355:1 2723:1 
-0.3505859375 264:1 3112:1 3149:1 3210:1 3421:1 
-0.3505859375 264:1 2811:1 3763:1 4358:1 5371:1 5835:1 
-0.3505859375 1548:1 2411:1 2811:1 3959:1 4917:1 5723:1 
-0.3505859375 303:1 3149:1 3421:1 4366:1 
-0.3505859375 264:1 2234:1 2505:1 4407:1 4992:1 
-0.3505859375 264:1 833:1 3149:1 3421:1 5099:1 5708:1 
-0.3505859375 859:1 3739:1 4278:1 
-0.3505859375 4010:1 
-0.3505859375 3238:1 3590:1 5229:1 
-0.3505859375 264:1 2071:1 4548:1 4747:1 5708:1 
-0.3505859375 951:1 2350:1 3240:1 
-0.3505859375 1871:1 3240:1 5244:1 5835:1 
-0.3505859375 5274:1 
-0.3505859375 264:1 2723:1 
-0.3505859375 1371:1 1864:1 1871:1 2811:1 
-0.3515625 61:1 1343:1 4980:1 
-0.3505859375 260:1 264:1 1118:1 2355:1 2723:1 4500:1 5939:1 
-0.3505859375 2287:1 3773:1 
-0.3505859375 4709:1 
-0.3505859375 335:1 2705:1 2798:1 3240:1 4636:1 
-0.3505859375 264:1 3864:1 
-0.3505859375 1798:1 1821:1 1918:1 2504:1 3386:1 4281:1 4449:1 4734:1 4927:1 
-0.3505859375 264:1 1652:1 3149:1 3421:1 4434:1 
-0.3505859375 3875:1 4483:1 4917:1 
-0.3505859375 2699:1 3149:1 3421:1 
-0.3505859375 4907:1 5317:1 
-0.3505859375 450:1 2787:1 5140:1 5660:1 
-0.3505859375 264:1 2557:1 3978:1 5867:1 
-0.3505859375 1140:1 2620:1 3760:1 4878:1 4951:1 
-0.3505859375 264:1 997:1 1155:1 2819:1 3978:1 4161:1 4403:1 4744:1 
-0.3505859375 1134:1 1359:1 3611:1 5104:1 
-0.3505859375 803:1 3727:1 4467:1 4914:1 5286:1 
-0.3505859375 1502:1 3781:1 3940:1 3944:1 4116:1 4369:1 5203:1 5267:1 
-0.3505859375 1268:1 3071:1 3082:1 3085:1 3554:1 4974:1 
-0.3505859375 264:1 1258:1 3978:1 4625:1 5072:1 5660:1 
-0.3505859375 2334:1 2515:1 2811:1 3120:1 3205:1 5610:1 5684:1 5852:1 
-0.3505859375 264:1 1050:1 4658:1 
-0.3505859375 542:1 3794:1 4415:1 4791:1 5881:1 
-0.3505859375 264:1 2811:1 3961:1 4085:1 4358:1 4790:1 5660:1 
-0.3505859375 343:1 3216:1 
-0.3505859375 4001:1 4011:1 
-0.3505859375 3773:1 4796:1 5099:1 
-0.3505859375 264:1 3108:1 4955:1 
-0.3505859375 264:1 3149:1 3421:1 3492:1 4334:1 5339:1 
-0.3505859375 1297:1 
-0.3505859375 2073:1 3336:1 
-0.3505859375 1140:1 1359:1 3478:1 4366:1 4765:1 5520:1 
-0.3505859375 3150:1 4976:1 5733:1 5842:1 
-0.3505859375 32:1 379:1 2509:1 3396:1 
-0.3505859375 264:1 4032:1 4154:1 4790:1 5302:1 5660:1 5676:1 
-0.3505859375 264:1 1350:1 2334:1 4614:1 5810:1 
-0.3505859375 264:1 1548:1 1932:1 2271:1 2354:1 2411:1 2811:1 3149:1 3165:1 3339:1 3421:1 3478:1 3933:1 3959:1 4063:1 4266:1 4273:1 5723:1 
-0.3505859375 216:1 1032:1 
-0.3505859375 5873:1 
-0.3505859375 5:1 481:1 696:1 2342:1 4788:1 
-0.3505859375 1124:1 3149:1 3421:1 3940:1 3944:1 4116:1 4516:1 5267:1 
-49.9990234375 406:1 
-0.3505859375 264:1 2356:1 3773:1 4259:1 4817:1 5260:1 
-0.3505859375 52:1 57:1 746:1 1790:1 2811:1 
-0.3505859375 264:1 525:1 634:1 673:1 1128:1 1793:1 2006:1 2811:1 3240:1 
-0.3505859375 225:1 2762:1 3149:1 3421:1 3649:1 3774:1 4063:1 4273:1 5799:1 5836:1 
-0.3505859375 1009:1 1968:1 
-0.3505859375 154:1 798:1 1056:1 2185:1 2811:1 3149:1 3421:1 3989:1 4791:1 
-0.3505859375 264:1 1652:1 1871:1 3921:1 
-0.3505859375 3149:1 3421:1 4079:1 4366:1 5219:1 
-0.3505859375 978:1 1680:1 1871:1 3432:1 5059:1 
-0.3505859375 3091:1 3387:1 
-0.3505859375 675:1 927:1 4034:1 4253:1 5141:1 5162:1 
-0.3505859375 1140:1 2103:1 5672:1 
-0.3505859375 224:1 264:1 1199:1 3948:1 4048:1 
-0.3505859375 641:1 2295:1 2759:1 3826:1 
-49.9990234375 264:1 2265:1 
-0.3505859375 2364:1 3110:1 3883:1 
-0.3505859375 182:1 264:1 487:1 1061:1 2529:1 2564:1 2584:1 3126:1 4917:1 5816:1 
-0.3505859375 264:1 544:1 1136:1 2265:1 2788:1 2975:1 3773:1 4063:1 4273:1 4441:1 
-0.3505859375 1334:1 4063:1 4115:1 4273:1 5751:1 
-0.3505859375 886:1 
-0.3505859375 2:1 195:1 1191:1 1938:1 5424:1 
-0.3515625 5290:1 
-0.3505859375 53:1 2108:1 2273:1 3343:1 4143:1 4573:1 5163:1 
-0.3505859375 264:1 927:1 1199:1 3149:1 3421:1 3948:1 4048:1 5390:1 5796:1 
-0.3505859375 3794:1 4415:1 4976:1 5881:1 
-0.3505859375 264:1 2723:1 2733:1 3149:1 3421:1 
-0.3505859375 2945:1 3051:1 4537:1 
-0.3505859375 1481:1 4074:1 5634:1 
-0.3505859375 264:1 3358:1 4143:1 4311:1 4573:1 
-0.3505859375 3149:1 3421:1 3773:1 
-0.3505859375 1118:1 1687:1 5244:1 
-0.3505859375 3149:1 3421:1 5233:1 5273:1 
-0.3505859375 3149:1 3238:1 3421:1 
-0.3505859375 1068:1 1423:1 1683:1 3454:1 3805:1 4754:1 5171:1 5445:1 
-0.3505859375 548:1 
-50 3413:1 4272:1 4386:1 
-0.3505859375 487:1 1871:1 2523:1 2584:1 2821:1 3639:1 4063:1 4273:1 
-0.3505859375 264:1 1128:1 2271:1 4079:1 4442:1 5219:1 
-0.3505859375 716:1 1349:1 3238:1 3602:1 5276:1 
-50 1948:1 
-0.3505859375 4205:1 
-0.3505859375 1680:1 1828:1 1871:1 2115:1 3149:1 3165:1 3339:1 3421:1 3940:1 3944:1 4116:1 4266:1 5267:1 
-0.3505859375 62:1 155:1 264:1 1393:1 1857:1 1871:1 2181:1 3897:1 3978:1 3985:1 4561:1 4602:1 5168:1 
-0.3505859375 225:1 375:1 817:1 3774:1 4270:1 4285:1 4368:1 4422:1 
-0.3505859375 373:1 469:1 481:1 908:1 2342:1 4088:1 4788:1 5638:1 
-0.3505859375 2811:1 3240:1 3773:1 4180:1 5213:1 5636:1 
-0.3505859375 2679:1 4060:1 4262:1 4557:1 4969:1 
-0.3505859375 539:1 946:1 2627:1 2904:1 3004:1 3043:1 3179:1 3927:1 4328:1 4633:1 4780:1 4790:1 4812:1 5195:1 5382:1 5562:1 5794:1 
-0.3505859375 1111:1 1871:1 1908:1 2490:1 4366:1 5177:1 
-0.3505859375 3950:1 4366:1 
-0.3505859375 1871:1 4366:1 5835:1 
-0.3505859375 39:1 683:1 
-0.3505859375 5446:1 
-0.3505859375 264:1 3091:1 3387:1 4063:1 4067:1 4273:1 
-0.3505859375 1798:1 3800:1 4143:1 4281:1 4573:1 4734:1 
-0.3505859375 737:1 3948:1 5590:1 
-0.3505859375 1288:1 1839:1 4606:1 
-0.3505859375 1789:1 
-0.3515625 2008:1 
-0.3505859375 675:1 3238:1 4034:1 4253:1 4631:1 5141:1 5162:1 5179:1 
-0.3505859375 138:1 1468:1 2272:1 3149:1 3421:1 3728:1 5835:1 
-0.3505859375 1313:1 4969:1 
-0.3505859375 264:1 2978:1 3439:1 3773:1 4079:1 5219:1 
-0.3505859375 4063:1 4143:1 4273:1 4573:1 
-0.3505859375 553:1 906:1 1118:1 1468:1 1636:1 1945:1 2078:1 2272:1 2333:1 2570:1 3149:1 3421:1 3540:1 3851:1 4270:1 4285:1 4368:1 4649:1 4808:1 5804:1 
-0.3505859375 2315:1 2980:1 4159:1 
-0.3505859375 1128:1 4790:1 
-0.3505859375 3503:1 
-0.3505859375 2811:1 3149:1 3421:1 4358:1 
-0.3505859375 3951:1 
-0.3505859375 264:1 272:1 1664:1 2446:1 3149:1 3402:1 3421:1 5210:1 
-0.3505859375 264:1 375:1 796:1 1786:1 4160:1 4422:1 5557:1 
-0.3505859375 1140:1 3149:1 3421:1 4714:1 5520:1 
-0.3505859375 264:1 3149:1 3421:1 3789:1 
-0.3505859375 3238:1 5245:1 
-0.3505859375 264:1 2515:1 3120:1 4366:1 5610:1 5684:1 5852:1 
-0.3505859375 1561:1 2044:1 2811:1 3150:1 3388:1 4000:1 4006:1 4968:1 5733:1 5842:1 
-0.3505859375 160:1 856:1 912:1 1575:1 1988:1 2190:1 3109:1 3358:1 3940:1 3944:1 4116:1 5242:1 5267:1 
-0.3505859375 3004:1 3043:1 3179:1 4063:1 4273:1 5195:1 
-0.3505859375 264:1 3126:1 3483:1 3942:1 5109:1 5816:1 
-0.3505859375 3483:1 4366:1 5109:1 
-50 237:1 240:1 5253:1 5539:1 
-0.3505859375 1468:1 2272:1 3149:1 3421:1 4483:1 
-0.3505859375 264:1 504:1 1393:1 2102:1 2103:1 2181:1 3985:1 4079:1 4602:1 5219:1 5328:1 5672:1 
-0.3505859375 264:1 4714:1 4917:1 
-0.3505859375 675:1 1125:1 3203:1 4034:1 4154:1 4253:1 5141:1 5162:1 5302:1 
-0.3505859375 2561:1 3150:1 3713:1 4917:1 5733:1 5842:1 
-0.3505859375 1468:1 2272:1 2315:1 5136:1 
-0.3505859375 264:1 487:1 613:1 1830:1 2584:1 2811:1 3273:1 4591:1 
-0.3505859375 875:1 2044:1 2811:1 3388:1 4358:1 
-0.3505859375 3773:1 4548:1 
-0.3505859375 1258:1 3149:1 3421:1 4976:1 
-0.3505859375 3149:1 3421:1 4747:1 
-0.3505859375 264:1 1196:1 4063:1 4273:1 5191:1 
-0.3505859375 882:1 1178:1 3293:1 3296:1 3480:1 4625:1 5072:1 5895:1 
-0.3505859375 264:1 4325:1 
-0.3505859375 264:1 1468:1 2272:1 2414:1 3311:1 
-0.3505859375 3149:1 3421:1 4259:1 5260:1 
-0.3505859375 1473:1 2271:1 2550:1 3149:1 3421:1 3721:1 3885:1 
-0.3505859375 264:1 1028:1 1381:1 2811:1 3142:1 3681:1 3694:1 5081:1 5561:1 5648:1 
-0.3515625 1298:1 1773:1 3863:1 5167:1 
-0.3505859375 347:1 1640:1 5312:1 5631:1 5656:1 
-0.3505859375 603:1 1914:1 2483:1 3238:1 4356:1 4358:1 
-50 2446:1 
-0.3505859375 264:1 2271:1 2811:1 3813:1 
-0.3505859375 806:1 1427:1 1582:1 2811:1 3635:1 3656:1 3773:1 5374:1 5602:1 5604:1 
-0.3505859375 19:1 222:1 264:1 3092:1 4466:1 
-0.3505859375 264:1 603:1 1140:1 5244:1 
-0.3505859375 2645:1 3435:1 
-0.3505859375 1948:1 2271:1 
-0.3515625 3948:1 
-0.3505859375 264:1 3794:1 4358:1 4398:1 4415:1 5881:1 
-0.3505859375 52:1 57:1 264:1 303:1 746:1 1790:1 2811:1 4366:1 
-0.3505859375 487:1 2584:1 4742:1 4791:1 
-0.3505859375 1687:1 
-50 3094:1 
-0.3505859375 53:1 2108:1 2515:1 3120:1 4917:1 5163:1 5610:1 5684:1 5852:1 
-0.3505859375 1140:1 3436:1 5384:1 
-0.3505859375 2071:1 3773:1 3940:1 3944:1 4063:1 4116:1 4273:1 5267:1 5660:1 
-0.3505859375 327:1 
-0.3505859375 264:1 642:1 2811:1 2815:1 5742:1 
-0.3505859375 3202:1 3766:1 3773:1 3948:1 4588:1 4747:1 5482:1 
-50 2015:1 
-0.3505859375 1276:1 2062:1 2370:1 2398:1 5096:1 5941:1 
-0.3505859375 264:1 375:1 4422:1 
-0.3505859375 2732:1 3149:1 3421:1 
-0.3505859375 542:1 1522:1 2723:1 
-0.3505859375 231:1 264:1 4682:1 4742:1 5116:1 5262:1 5281:1 
-0.3505859375 264:1 1871:1 3101:1 3337:1 3439:1 3961:1 4085:1 4790:1 
-0.3505859375 1282:1 1972:1 3396:1 3727:1 3900:1 4408:1 4914:1 5835:1 
-0.3505859375 264:1 2751:1 
-0.3505859375 246:1 264:1 4079:1 4833:1 5219:1 5768:1 
-0.3505859375 642:1 796:1 1359:1 2815:1 3590:1 4160:1 5229:1 5742:1 
-0.3505859375 192:1 2184:1 3238:1 5699:1 
-0.3505859375 369:1 446:1 2088:1 
-0.3505859375 3067:1 
-0.3505859375 1724:1 5034:1 
-0.3505859375 62:1 155:1 1286:1 3149:1 3150:1 3421:1 3897:1 3933:1 3948:1 4861:1 5168:1 5733:1 5842:1 
-0.3505859375 1140:1 2073:1 2355:1 3075:1 
-0.3505859375 2073:1 2557:1 
-0.3505859375 1028:1 1381:1 2102:1 3142:1 4143:1 4573:1 5561:1 5648:1 
-0.3505859375 1323:1 3149:1 3421:1 5336:1 5446:1 
-0.3505859375 264:1 1121:1 2070:1 4632:1 
-0.3505859375 5520:1 
-0.3505859375 2355:1 3004:1 3043:1 3179:1 4013:1 4790:1 5181:1 5195:1 
-0.3505859375 771:1 1871:1 2019:1 2811:1 
-0.3505859375 264:1 1039:1 1073:1 1456:1 3149:1 3192:1 3421:1 3478:1 3623:1 3978:1 4063:1 4273:1 4310:1 
-0.3505859375 52:1 57:1 264:1 746:1 1790:1 2811:1 3149:1 3421:1 
-0.3505859375 264:1 1232:1 
-0.3505859375 1349:1 3082:1 3554:1 
-0.3505859375 2265:1 2751:1 3961:1 4085:1 4467:1 
-0.3505859375 62:1 155:1 2811:1 3897:1 4358:1 4483:1 5168:1 
-0.3505859375 350:1 2250:1 3149:1 3421:1 3576:1 3625:1 5052:1 
-0.3505859375 3091:1 3387:1 3773:1 4079:1 5219:1 
-0.3515625 195:1 5424:1 
-0.3505859375 575:1 3285:1 5415:1 
-0.3505859375 503:1 700:1 1871:1 
