svm_type c_svc
kernel_type rbf
gamma 50
nr_class 2
total_sv 5076
rho -0.142534
label 1 -1
nr_sv 2690 2386
SV
0.857421875 215:1 256:1 1226:1 1244:1 3534:1 4591:1 6868:1 8113:1 9475:1 11494:1 12817:1 
0.857421875 8113:1 
0.857421875 215:1 256:1 1226:1 1244:1 3534:1 4591:1 6868:1 9475:1 11494:1 12817:1 
0.857421875 3534:1 12817:1 
0.857421875 215:1 256:1 1226:1 1244:1 4591:1 6868:1 9475:1 11494:1 
0.857421875 215:1 256:1 1226:1 1244:1 9475:1 11494:1 
0.857421875 215:1 256:1 1226:1 1244:1 9475:1 
0.857421875 11494:1 
0.857421875 4591:1 6868:1 
50 4591:1 6868:1 
0.857421875 6868:1 
0.857421875 1127:1 2183:1 2276:1 2924:1 4591:1 5427:1 7317:1 7790:1 8553:1 8556:1 10991:1 11256:1 11640:1 12495:1 
50 1127:1 2183:1 2276:1 2924:1 5427:1 7317:1 7790:1 8553:1 8556:1 10991:1 11256:1 11640:1 12495:1 
0.857421875 2183:1 
0.857421875 1127:1 2276:1 2924:1 5427:1 7317:1 7790:1 8553:1 8556:1 10991:1 11256:1 11640:1 12495:1 
0.857421875 2276:1 2924:1 5427:1 7317:1 8553:1 8556:1 10991:1 11256:1 11640:1 12495:1 
0.857421875 12495:1 
0.857421875 2276:1 2924:1 5427:1 7317:1 
0.857421875 2924:1 7317:1 
0.857421875 4776:1 
0.857421875 5331:1 
50 8719:1 9606:1 
0.857421875 3852:1 
0.857421875 11858:1 
50 11858:1 
0.857421875 2013:1 10180:1 12975:1 
0.857421875 288:1 2987:1 4449:1 6040:1 7435:1 
50 6040:1 7435:1 
0.857421875 288:1 2987:1 4449:1 
0.857421875 4449:1 
0.857421875 288:1 2987:1 
0.857421875 2987:1 
0.857421875 5558:1 6201:1 13141:1 
0.857421875 9102:1 
0.857421875 269:1 10117:1 10287:1 10295:1 10656:1 
0.857421875 1918:1 5067:1 6304:1 7394:1 8563:1 8703:1 8872:1 9792:1 10226:1 11030:1 12241:1 
0.857421875 5067:1 
0.857421875 1918:1 6304:1 7394:1 8563:1 8703:1 8872:1 9792:1 10226:1 11030:1 12241:1 
50 1918:1 6304:1 7394:1 8563:1 8703:1 8872:1 9792:1 10226:1 11030:1 12241:1 
50 1918:1 8563:1 8703:1 8872:1 10226:1 11030:1 12241:1 
0.857421875 8563:1 8872:1 
50 1918:1 
0.857421875 2748:1 3906:1 5401:1 5835:1 6824:1 8999:1 10174:1 
0.857421875 3906:1 5835:1 8999:1 
50 3906:1 5835:1 8999:1 
0.857421875 5835:1 
0.857421875 10174:1 
0.857421875 5401:1 6824:1 
50 5652:1 
0.857421875 2938:1 2981:1 3109:1 
0.857421875 6616:1 
0.857421875 688:1 
50 1260:1 2475:1 3189:1 
0.857421875 1260:1 
0.857421875 2045:1 3183:1 3541:1 3792:1 6663:1 7668:1 8865:1 8867:1 12790:1 
0.857421875 2045:1 6663:1 8865:1 8867:1 12790:1 
0.857421875 3183:1 3541:1 3792:1 7668:1 
0.857421875 3183:1 3792:1 
0.857421875 7668:1 
0.857421875 3541:1 
0.857421875 53:1 1368:1 1727:1 
0.857421875 1368:1 1727:1 
50 288:1 417:1 428:1 1077:1 2804:1 4357:1 4360:1 4642:1 5121:1 5546:1 6112:1 7067:1 7193:1 8841:1 10594:1 11037:1 11326:1 11501:1 12385:1 12596:1 12820:1 
50 288:1 417:1 428:1 1077:1 2804:1 4357:1 4360:1 4642:1 5121:1 5546:1 6112:1 7067:1 7193:1 8841:1 10594:1 11037:1 11326:1 11501:1 12385:1 12596:1 12820:1 
50 288:1 417:1 428:1 1077:1 2804:1 4357:1 4360:1 4642:1 5121:1 5546:1 6112:1 7067:1 7193:1 8841:1 10594:1 11037:1 11326:1 11501:1 12596:1 12820:1 
0.857421875 12596:1 
50 288:1 417:1 428:1 1077:1 2804:1 4357:1 4360:1 4642:1 5121:1 5546:1 6112:1 7067:1 7193:1 8841:1 10594:1 11037:1 11326:1 11501:1 12820:1 
50 288:1 1077:1 2804:1 4357:1 4360:1 4642:1 5121:1 5546:1 6112:1 7067:1 7193:1 8841:1 10594:1 11326:1 12820:1 
0.857421875 288:1 1077:1 2804:1 4357:1 4360:1 4642:1 5121:1 7067:1 11326:1 12820:1 
50 4357:1 4360:1 11326:1 
0.857421875 288:1 1077:1 2804:1 4642:1 5121:1 7067:1 12820:1 
0.857421875 288:1 2804:1 4642:1 7067:1 
0.857421875 288:1 2804:1 
0.857421875 2804:1 
0.857421875 4642:1 7067:1 
0.857421875 4642:1 
0.857421875 7067:1 
50 9714:1 
0.857421875 2605:1 4219:1 6272:1 
50 2605:1 4219:1 6272:1 
0.857421875 1329:1 3954:1 3962:1 9095:1 12339:1 
0.857421875 9095:1 
0.857421875 1329:1 3954:1 3962:1 12339:1 
0.857421875 727:1 1668:1 3006:1 4826:1 8349:1 10753:1 11412:1 13021:1 
50 727:1 1668:1 3006:1 4826:1 8349:1 11412:1 13021:1 
0.857421875 1668:1 4826:1 11412:1 
0.857421875 4826:1 
0.857421875 1668:1 11412:1 
0.857421875 516:1 
0.857421875 2677:1 2888:1 3068:1 3404:1 3706:1 4989:1 5808:1 6845:1 8371:1 8418:1 8837:1 8990:1 9699:1 9704:1 10858:1 12544:1 12547:1 12639:1 12864:1 
0.857421875 2888:1 3068:1 3404:1 3706:1 4989:1 5808:1 6845:1 8371:1 8418:1 8837:1 8990:1 9699:1 9704:1 10858:1 12544:1 12547:1 12639:1 12864:1 
0.857421875 12864:1 
0.857421875 5808:1 8418:1 8837:1 10858:1 12544:1 12547:1 
0.857421875 5808:1 8837:1 12544:1 12547:1 
0.857421875 2268:1 8540:1 
0.857421875 8540:1 
50 288:1 787:1 1179:1 3141:1 3145:1 4204:1 4290:1 4297:1 4406:1 5129:1 5350:1 6339:1 7253:1 8118:1 8265:1 8405:1 8419:1 10247:1 10970:1 11446:1 11723:1 11955:1 12050:1 12115:1 12121:1 12295:1 12418:1 12542:1 12667:1 
0.857421875 288:1 787:1 3141:1 3145:1 4406:1 5350:1 6339:1 7253:1 8405:1 10247:1 10970:1 11723:1 11955:1 12121:1 12418:1 12542:1 12667:1 
0.857421875 288:1 787:1 3141:1 3145:1 4406:1 6339:1 8405:1 10247:1 10970:1 11723:1 11955:1 12418:1 12542:1 
0.857421875 288:1 3141:1 3145:1 6339:1 11723:1 12418:1 12542:1 
0.857421875 288:1 11723:1 
0.857421875 11723:1 
0.857421875 3141:1 3145:1 6339:1 12418:1 12542:1 
0.857421875 787:1 4406:1 8405:1 10247:1 10970:1 11955:1 
0.857421875 787:1 
0.857421875 4406:1 8405:1 10247:1 10970:1 11955:1 
0.857421875 10247:1 
0.857421875 5350:1 7253:1 12121:1 12667:1 
0.857421875 5350:1 12121:1 12667:1 
0.857421875 5350:1 
0.857421875 11446:1 12295:1 
0.857421875 1179:1 4204:1 4406:1 5129:1 8118:1 8405:1 8419:1 10970:1 11955:1 12050:1 
0.857421875 4406:1 8405:1 10970:1 11955:1 
50 4406:1 8405:1 10970:1 11955:1 
0.857421875 4204:1 12050:1 
0.857421875 1179:1 5129:1 8118:1 8419:1 
0.857421875 4992:1 5788:1 10439:1 10440:1 10907:1 10922:1 10949:1 11753:1 
0.857421875 125:1 4731:1 
0.857421875 1569:1 
50 425:1 1003:1 1479:1 2090:1 2727:1 3709:1 3948:1 4055:1 4591:1 5252:1 5738:1 6357:1 6835:1 6882:1 7004:1 7253:1 7405:1 10201:1 11035:1 12183:1 12186:1 
0.857421875 3948:1 
50 425:1 1003:1 1479:1 2090:1 2727:1 3709:1 4055:1 4591:1 5252:1 5738:1 6357:1 6835:1 6882:1 7004:1 7253:1 7405:1 10201:1 11035:1 12183:1 12186:1 
0.857421875 425:1 1003:1 1479:1 2090:1 2727:1 3709:1 4055:1 4591:1 5252:1 5738:1 6357:1 6835:1 6882:1 7004:1 7253:1 7405:1 11035:1 12183:1 12186:1 
50 425:1 1003:1 1479:1 2090:1 2727:1 3709:1 4055:1 4591:1 5252:1 5738:1 6357:1 6835:1 6882:1 7004:1 7253:1 7405:1 11035:1 12183:1 12186:1 
0.857421875 425:1 1003:1 1479:1 2090:1 2727:1 3709:1 4055:1 4591:1 5252:1 5738:1 6357:1 6835:1 6882:1 7004:1 7405:1 11035:1 12183:1 12186:1 
0.857421875 1479:1 7405:1 12186:1 
0.857421875 1479:1 7405:1 
0.857421875 425:1 1003:1 2090:1 2727:1 3709:1 4055:1 4591:1 5252:1 5738:1 6357:1 6835:1 6882:1 7004:1 11035:1 12183:1 
0.857421875 4055:1 
0.857421875 425:1 1003:1 2090:1 2727:1 3709:1 4591:1 5252:1 5738:1 6357:1 6835:1 6882:1 7004:1 11035:1 12183:1 
0.857421875 1003:1 2727:1 5252:1 6835:1 7004:1 12183:1 
0.857421875 6835:1 7004:1 12183:1 
0.857421875 1003:1 2727:1 5252:1 
0.857421875 1003:1 
0.857421875 2727:1 5252:1 
0.857421875 425:1 2090:1 3709:1 4591:1 5738:1 6357:1 6882:1 11035:1 
0.857421875 6357:1 6882:1 11035:1 
50 425:1 2090:1 3709:1 4591:1 5738:1 
0.857421875 3709:1 5738:1 
0.857421875 453:1 3104:1 4061:1 4357:1 4360:1 4820:1 8002:1 8412:1 10198:1 11326:1 
0.857421875 453:1 3104:1 4061:1 4820:1 8002:1 8412:1 10198:1 
0.857421875 3104:1 4061:1 8002:1 10198:1 
0.857421875 3104:1 
0.857421875 4061:1 8002:1 10198:1 
0.857421875 8002:1 
0.857421875 4061:1 10198:1 
0.857421875 4061:1 
50 453:1 4820:1 8412:1 
0.857421875 3969:1 7891:1 7896:1 
0.857421875 14:1 
0.857421875 4765:1 5720:1 12199:1 
0.857421875 4765:1 
0.857421875 2986:1 
0.857421875 2336:1 6670:1 
0.857421875 1580:1 
0.857421875 1543:1 1545:1 1551:1 4357:1 4360:1 7995:1 8618:1 11326:1 11335:1 13234:1 
0.857421875 1543:1 1545:1 1551:1 7995:1 8618:1 11335:1 13234:1 
0.857421875 13234:1 
0.857421875 1543:1 1545:1 1551:1 7995:1 8618:1 11335:1 
50 1543:1 1545:1 1551:1 7995:1 8618:1 11335:1 
0.857421875 288:1 317:1 520:1 2581:1 2618:1 3201:1 3316:1 4612:1 5720:1 6417:1 6482:1 6502:1 7117:1 7424:1 8545:1 9120:1 9253:1 9931:1 10522:1 11875:1 11937:1 12199:1 12937:1 
0.857421875 3316:1 6417:1 10522:1 11937:1 
50 3316:1 6417:1 10522:1 11937:1 
50 3316:1 10522:1 
0.857421875 10522:1 
0.857421875 288:1 317:1 520:1 2581:1 2618:1 4612:1 5720:1 6482:1 6502:1 7117:1 7424:1 8545:1 9120:1 9253:1 9931:1 11875:1 12199:1 12937:1 
0.857421875 12937:1 
0.857421875 288:1 317:1 520:1 2581:1 2618:1 4612:1 5720:1 6482:1 6502:1 7117:1 7424:1 8545:1 9120:1 9253:1 9931:1 11875:1 12199:1 
0.857421875 288:1 317:1 520:1 2581:1 2618:1 5720:1 6482:1 6502:1 9120:1 9931:1 12199:1 
50 317:1 520:1 2581:1 2618:1 5720:1 6482:1 6502:1 9120:1 9931:1 12199:1 
50 9120:1 
50 317:1 520:1 2581:1 2618:1 5720:1 6482:1 6502:1 9931:1 12199:1 
0.857421875 520:1 5720:1 9931:1 12199:1 
0.857421875 520:1 
0.857421875 5720:1 9931:1 12199:1 
0.857421875 9931:1 
0.857421875 4612:1 7117:1 7424:1 8545:1 9253:1 11875:1 
0.857421875 7117:1 
50 4612:1 7424:1 8545:1 9253:1 11875:1 
0.857421875 9253:1 
50 818:1 2652:1 4109:1 5688:1 8433:1 11000:1 11655:1 
50 818:1 4109:1 5688:1 8433:1 11000:1 11655:1 
0.857421875 818:1 5688:1 8433:1 
0.857421875 5688:1 
0.857421875 818:1 8433:1 
0.857421875 4109:1 11000:1 11655:1 
50 4109:1 11000:1 11655:1 
0.857421875 11000:1 
0.857421875 276:1 288:1 317:1 4902:1 6193:1 6844:1 7201:1 9127:1 10838:1 12981:1 
50 276:1 288:1 317:1 4902:1 6193:1 6844:1 7201:1 9127:1 10838:1 12981:1 
50 276:1 317:1 4902:1 6193:1 6844:1 7201:1 9127:1 10838:1 12981:1 
0.857421875 276:1 
0.857421875 317:1 4902:1 6193:1 6844:1 7201:1 9127:1 10838:1 12981:1 
0.857421875 317:1 6193:1 6844:1 7201:1 9127:1 10838:1 12981:1 
50 2817:1 
0.857421875 3028:1 3175:1 4711:1 5344:1 10229:1 
0.857421875 3028:1 3175:1 5344:1 
50 5344:1 
0.857421875 425:1 2090:1 7253:1 
0.857421875 288:1 1769:1 1784:1 1865:1 4517:1 4576:1 5720:1 5837:1 5947:1 6281:1 6763:1 7859:1 9346:1 10243:1 10296:1 10390:1 10470:1 10562:1 10573:1 11725:1 12199:1 12264:1 12301:1 12309:1 13010:1 13117:1 13187:1 
0.857421875 1865:1 5947:1 10243:1 10296:1 11725:1 12301:1 12309:1 
0.857421875 5947:1 10243:1 10296:1 11725:1 12301:1 12309:1 
0.857421875 5947:1 10296:1 11725:1 
0.857421875 5947:1 
0.857421875 10296:1 11725:1 
0.857421875 10296:1 
0.857421875 288:1 1769:1 1784:1 4517:1 4576:1 5720:1 5837:1 6281:1 6763:1 7859:1 9346:1 10243:1 10390:1 10470:1 10562:1 10573:1 12199:1 12264:1 12301:1 12309:1 13010:1 13117:1 13187:1 
0.857421875 10243:1 12301:1 12309:1 
0.857421875 288:1 1769:1 4517:1 5720:1 5837:1 6281:1 7859:1 9346:1 10470:1 10562:1 10573:1 12199:1 12264:1 13010:1 13117:1 13187:1 
0.857421875 5837:1 6281:1 7859:1 9346:1 10562:1 12264:1 13010:1 13187:1 
0.857421875 5837:1 9346:1 
0.857421875 288:1 1769:1 4517:1 5720:1 10470:1 10573:1 12199:1 13117:1 
0.857421875 288:1 5720:1 12199:1 
0.857421875 1769:1 4517:1 10470:1 10573:1 13117:1 
0.857421875 1769:1 10470:1 10573:1 13117:1 
0.857421875 4517:1 
0.857421875 3629:1 5992:1 8007:1 9324:1 12267:1 
0.857421875 3629:1 9324:1 
0.857421875 4232:1 4236:1 4440:1 5679:1 7848:1 7978:1 9223:1 10290:1 
0.857421875 4232:1 4236:1 4440:1 5679:1 
0.857421875 7848:1 7978:1 9223:1 10290:1 
0.857421875 7848:1 
0.857421875 7978:1 9223:1 10290:1 
50 7978:1 
0.857421875 9223:1 10290:1 
0.857421875 10290:1 
0.857421875 18:1 246:1 681:1 729:1 924:1 1417:1 2292:1 3647:1 4096:1 4240:1 4246:1 4477:1 4487:1 4591:1 6792:1 6818:1 7623:1 7669:1 7779:1 10083:1 12420:1 
0.857421875 246:1 729:1 1417:1 2292:1 7669:1 
0.857421875 729:1 
0.857421875 246:1 1417:1 2292:1 7669:1 
0.857421875 246:1 2292:1 7669:1 
0.857421875 246:1 
50 18:1 681:1 924:1 3647:1 4096:1 4240:1 4246:1 4477:1 4487:1 4591:1 6792:1 6818:1 7623:1 7779:1 10083:1 12420:1 
0.857421875 6792:1 12420:1 
0.857421875 18:1 681:1 924:1 3647:1 4096:1 4240:1 4246:1 4477:1 4487:1 4591:1 6818:1 7623:1 7779:1 10083:1 
0.857421875 18:1 924:1 4487:1 6818:1 7779:1 
0.857421875 681:1 4096:1 4246:1 
50 3647:1 4240:1 4477:1 7623:1 10083:1 
50 3647:1 4240:1 4477:1 7623:1 10083:1 
0.857421875 4240:1 
0.857421875 350:1 1062:1 3216:1 3251:1 4375:1 4402:1 4676:1 5406:1 5811:1 9099:1 10135:1 10338:1 10542:1 12359:1 12388:1 13076:1 13240:1 
0.857421875 1062:1 3216:1 3251:1 4402:1 4676:1 5406:1 5811:1 10135:1 10338:1 10542:1 12359:1 13076:1 13240:1 
50 1062:1 3216:1 3251:1 4402:1 4676:1 5406:1 5811:1 10135:1 10338:1 10542:1 12359:1 13076:1 13240:1 
0.857421875 1062:1 4402:1 4676:1 5406:1 5811:1 10338:1 10542:1 13076:1 13240:1 
50 5406:1 13240:1 
0.857421875 4402:1 10338:1 10542:1 
0.857421875 4402:1 
0.857421875 3216:1 3251:1 10135:1 12359:1 
0.857421875 350:1 1246:1 3810:1 3832:1 4375:1 5143:1 5173:1 5208:1 7935:1 8807:1 9099:1 9448:1 10930:1 10935:1 12112:1 12388:1 
50 350:1 1246:1 3810:1 3832:1 4375:1 5173:1 5208:1 8807:1 9099:1 9448:1 12112:1 12388:1 
0.857421875 5173:1 8807:1 9448:1 12112:1 
50 5173:1 8807:1 9448:1 12112:1 
50 5173:1 8807:1 9448:1 12112:1 
0.857421875 5173:1 8807:1 9448:1 
0.857421875 5173:1 
0.857421875 8807:1 9448:1 
0.857421875 8807:1 
0.857421875 3832:1 
0.857421875 350:1 1246:1 3810:1 4375:1 5208:1 9099:1 12388:1 
0.857421875 1306:1 3617:1 3647:1 4477:1 5993:1 7623:1 8046:1 8823:1 10083:1 11167:1 11735:1 12638:1 
0.857421875 1306:1 3617:1 3647:1 4477:1 7623:1 8823:1 10083:1 
50 5993:1 8046:1 11167:1 11735:1 12638:1 
0.857421875 5993:1 11167:1 11735:1 
0.857421875 5993:1 11167:1 
0.857421875 11735:1 
0.857421875 8046:1 12638:1 
50 12385:1 
50 12385:1 
0.857421875 327:1 1127:1 1784:1 3069:1 3114:1 3130:1 4576:1 6763:1 6817:1 7790:1 8790:1 10390:1 11615:1 11787:1 12670:1 
0.857421875 327:1 1127:1 3069:1 3114:1 3130:1 7790:1 8790:1 11615:1 
0.857421875 327:1 3114:1 3130:1 
0.857421875 1127:1 7790:1 
50 3069:1 8790:1 11615:1 
0.857421875 288:1 417:1 428:1 1329:1 2742:1 3954:1 3962:1 4109:1 4452:1 4992:1 5788:1 7253:1 8564:1 8918:1 9714:1 9942:1 10439:1 10440:1 10690:1 10907:1 10922:1 10949:1 11037:1 11501:1 11655:1 11753:1 12339:1 
50 288:1 417:1 428:1 1329:1 2742:1 3954:1 3962:1 4109:1 4452:1 4992:1 5788:1 7253:1 8564:1 8918:1 9714:1 9942:1 10439:1 10440:1 10690:1 10907:1 10922:1 10949:1 11037:1 11501:1 11655:1 11753:1 12339:1 
0.857421875 288:1 417:1 428:1 1329:1 2742:1 3954:1 3962:1 4109:1 4992:1 5788:1 7253:1 8564:1 8918:1 9942:1 10439:1 10440:1 10690:1 10907:1 10922:1 10949:1 11037:1 11501:1 11655:1 11753:1 12339:1 
0.857421875 288:1 417:1 428:1 2742:1 4109:1 4992:1 5788:1 7253:1 8564:1 8918:1 9942:1 10439:1 10440:1 10690:1 10907:1 10922:1 10949:1 11037:1 11501:1 11655:1 11753:1 
0.857421875 7253:1 9942:1 10690:1 
50 9942:1 10690:1 
0.857421875 288:1 417:1 428:1 2742:1 4109:1 4992:1 5788:1 8564:1 8918:1 10439:1 10440:1 10907:1 10922:1 10949:1 11037:1 11501:1 11655:1 11753:1 
0.857421875 8918:1 
0.857421875 288:1 417:1 428:1 2742:1 4109:1 4992:1 5788:1 8564:1 10439:1 10440:1 10907:1 10922:1 10949:1 11037:1 11501:1 11655:1 11753:1 
50 288:1 417:1 428:1 4109:1 11037:1 11501:1 11655:1 
0.857421875 288:1 4109:1 11655:1 
50 4109:1 11655:1 
0.857421875 2742:1 4992:1 5788:1 8564:1 10439:1 10440:1 10907:1 10922:1 10949:1 11753:1 
50 288:1 2742:1 3475:1 4999:1 5458:1 5732:1 6762:1 8400:1 8564:1 9596:1 11949:1 12034:1 
0.857421875 288:1 2742:1 5458:1 8564:1 12034:1 
0.857421875 288:1 2742:1 8564:1 
0.857421875 288:1 3475:1 5732:1 6762:1 8400:1 9596:1 11949:1 
0.857421875 3475:1 6762:1 8400:1 9596:1 
0.857421875 3475:1 8400:1 
50 288:1 5732:1 11949:1 
0.857421875 288:1 5732:1 
0.857421875 5732:1 
0.857421875 11949:1 
50 288:1 618:1 1245:1 2011:1 4045:1 5052:1 5541:1 7992:1 9822:1 10348:1 11278:1 11624:1 
50 1245:1 5052:1 10348:1 11278:1 
0.857421875 1245:1 
0.857421875 2011:1 4045:1 
0.857421875 618:1 9822:1 11624:1 
50 11624:1 
0.857421875 618:1 9822:1 
0.857421875 4902:1 7989:1 9847:1 10294:1 10862:1 11523:1 12121:1 12667:1 
0.857421875 7989:1 9847:1 10294:1 10862:1 11523:1 
50 7989:1 9847:1 10294:1 10862:1 11523:1 
0.857421875 317:1 8236:1 
50 8236:1 
50 248:1 3171:1 3345:1 6302:1 8779:1 12591:1 
0.857421875 9554:1 
0.857421875 2312:1 4534:1 5446:1 6548:1 
0.857421875 2312:1 5446:1 6548:1 
50 4534:1 
0.857421875 8620:1 11342:1 
0.857421875 608:1 1587:1 2544:1 2972:1 4357:1 4360:1 4794:1 11326:1 12783:1 
0.857421875 1587:1 2544:1 4357:1 4360:1 11326:1 12783:1 
0.857421875 1587:1 2544:1 12783:1 
0.857421875 430:1 674:1 776:1 1040:1 1210:1 1901:1 3354:1 3565:1 4020:1 4193:1 4215:1 4357:1 4360:1 4594:1 4711:1 5042:1 5045:1 5720:1 5922:1 7516:1 10106:1 10229:1 10780:1 11326:1 12062:1 12199:1 
50 430:1 674:1 776:1 1040:1 1901:1 3354:1 3565:1 4357:1 4360:1 4594:1 5042:1 5045:1 5720:1 5922:1 7516:1 10106:1 11326:1 12062:1 12199:1 
0.857421875 776:1 1040:1 
0.857421875 776:1 
0.857421875 1040:1 
0.857421875 674:1 1901:1 3354:1 5042:1 5045:1 7516:1 12062:1 
50 674:1 1901:1 3354:1 5042:1 5045:1 7516:1 12062:1 
0.857421875 1901:1 
0.857421875 674:1 3354:1 5042:1 5045:1 7516:1 12062:1 
0.857421875 674:1 5042:1 5045:1 7516:1 
0.857421875 3354:1 12062:1 
50 430:1 3565:1 4357:1 4360:1 4594:1 5720:1 5922:1 10106:1 11326:1 12199:1 
0.857421875 4357:1 4360:1 5720:1 5922:1 11326:1 12199:1 
0.857421875 5720:1 5922:1 12199:1 
0.857421875 5922:1 
50 1210:1 4020:1 4193:1 4215:1 4711:1 10229:1 10780:1 
0.857421875 4711:1 10229:1 
0.857421875 1210:1 4020:1 4193:1 4215:1 10780:1 
0.857421875 1210:1 
0.857421875 4020:1 4193:1 4215:1 10780:1 
50 288:1 425:1 1203:1 2090:1 2618:1 4030:1 4293:1 4302:1 4712:1 4783:1 5258:1 5962:1 5983:1 7196:1 8371:1 8620:1 9699:1 9704:1 10753:1 11342:1 13138:1 
0.857421875 2618:1 10753:1 
0.857421875 1203:1 4030:1 4293:1 4302:1 4712:1 4783:1 5258:1 5962:1 5983:1 7196:1 8371:1 8620:1 9699:1 9704:1 11342:1 13138:1 
0.857421875 4712:1 7196:1 
0.857421875 1203:1 4030:1 4293:1 4302:1 4783:1 5258:1 5962:1 5983:1 8371:1 8620:1 9699:1 9704:1 11342:1 13138:1 
0.857421875 1203:1 5258:1 5962:1 5983:1 8620:1 11342:1 
50 8371:1 9699:1 9704:1 
0.857421875 4030:1 4293:1 4302:1 4783:1 13138:1 
0.857421875 4783:1 13138:1 
0.857421875 278:1 787:1 1725:1 1993:1 2807:1 2851:1 3647:1 4477:1 5772:1 5822:1 6509:1 7170:1 7623:1 9623:1 9876:1 10083:1 11701:1 12152:1 13078:1 13198:1 
0.857421875 2851:1 
0.857421875 278:1 787:1 1725:1 1993:1 2807:1 3647:1 4477:1 5772:1 5822:1 6509:1 7170:1 7623:1 9623:1 9876:1 10083:1 11701:1 12152:1 13078:1 13198:1 
0.857421875 278:1 1725:1 2807:1 9623:1 9876:1 
0.857421875 7170:1 
0.857421875 787:1 3647:1 4477:1 6509:1 7623:1 10083:1 
50 787:1 3647:1 4477:1 6509:1 7623:1 10083:1 
0.857421875 6509:1 
0.857421875 1993:1 12152:1 
50 1993:1 12152:1 
50 1203:1 1488:1 1755:1 2139:1 2536:1 3741:1 4692:1 5014:1 5258:1 5299:1 5720:1 5962:1 5983:1 6071:1 6234:1 6291:1 6294:1 7949:1 8010:1 8130:1 8379:1 8710:1 8852:1 8965:1 9815:1 9865:1 10827:1 10835:1 11144:1 11156:1 11495:1 12199:1 12956:1 
0.857421875 8965:1 
50 1488:1 1755:1 2536:1 4692:1 5299:1 6071:1 6291:1 6294:1 9815:1 9865:1 12956:1 
0.857421875 12956:1 
50 1488:1 1755:1 9815:1 9865:1 
0.857421875 1203:1 2139:1 3741:1 5014:1 5258:1 5720:1 5962:1 5983:1 6234:1 7949:1 8010:1 8130:1 8379:1 8710:1 8852:1 10827:1 10835:1 11144:1 11156:1 11495:1 12199:1 
50 2139:1 3741:1 5014:1 5720:1 6234:1 7949:1 8010:1 8130:1 8379:1 8710:1 8852:1 10827:1 10835:1 11144:1 11156:1 11495:1 12199:1 
0.857421875 5014:1 5720:1 8379:1 8710:1 8852:1 12199:1 
50 8379:1 8852:1 
0.857421875 5014:1 5720:1 8710:1 12199:1 
50 403:1 5436:1 6264:1 7253:1 10306:1 12509:1 
50 7253:1 8553:1 8556:1 10991:1 11256:1 11640:1 
0.857421875 3297:1 3304:1 9447:1 
50 248:1 952:1 1306:1 3345:1 3617:1 3696:1 4043:1 4452:1 5454:1 6302:1 8176:1 8823:1 10520:1 11451:1 12591:1 
0.857421875 1306:1 3617:1 4452:1 8176:1 8823:1 
0.857421875 4452:1 
0.857421875 1306:1 3617:1 8176:1 8823:1 
0.857421875 1306:1 3617:1 8823:1 
0.857421875 11451:1 
0.857421875 3696:1 5454:1 10520:1 
50 288:1 646:1 677:1 1060:1 1230:1 2276:1 2677:1 3575:1 4789:1 4875:1 4940:1 5141:1 5427:1 5907:1 7207:1 7253:1 9714:1 10104:1 11160:1 12427:1 12620:1 13131:1 13239:1 13244:1 
50 2677:1 9714:1 10104:1 11160:1 
0.857421875 2677:1 10104:1 11160:1 
0.857421875 2677:1 11160:1 
0.857421875 11160:1 
0.857421875 288:1 646:1 677:1 1060:1 1230:1 2276:1 3575:1 4789:1 4875:1 4940:1 5141:1 5427:1 5907:1 7207:1 7253:1 12427:1 12620:1 13131:1 13239:1 13244:1 
50 288:1 1060:1 2276:1 4789:1 4940:1 5427:1 
0.857421875 1060:1 2276:1 4789:1 4940:1 5427:1 
0.857421875 4789:1 4940:1 
0.857421875 1060:1 2276:1 5427:1 
50 646:1 677:1 1230:1 3575:1 4875:1 5141:1 5907:1 7207:1 7253:1 12427:1 12620:1 13131:1 13239:1 13244:1 
0.857421875 646:1 3575:1 5141:1 5907:1 7207:1 7253:1 12427:1 12620:1 13131:1 13239:1 13244:1 
0.857421875 646:1 5907:1 12620:1 
0.857421875 646:1 12620:1 
0.857421875 5907:1 
50 677:1 
50 677:1 
50 458:1 1017:1 4774:1 5406:1 12792:1 12808:1 13240:1 
50 458:1 1017:1 4774:1 5406:1 12792:1 12808:1 13240:1 
0.857421875 458:1 1017:1 4774:1 12792:1 12808:1 
0.857421875 458:1 4774:1 12792:1 12808:1 
50 458:1 4774:1 12792:1 12808:1 
0.857421875 288:1 3390:1 3697:1 4970:1 
50 64:1 1561:1 3096:1 4178:1 5353:1 6638:1 8455:1 9924:1 10916:1 11376:1 11385:1 11931:1 12243:1 12325:1 12535:1 
0.857421875 3096:1 5353:1 9924:1 10916:1 11376:1 11385:1 12243:1 
50 3096:1 9924:1 10916:1 11376:1 11385:1 12243:1 
50 64:1 1561:1 4178:1 6638:1 12325:1 
0.857421875 63:1 2331:1 4316:1 5875:1 7698:1 8027:1 8415:1 10348:1 11278:1 11572:1 11675:1 12125:1 12135:1 
50 4316:1 11675:1 12135:1 
0.857421875 4316:1 
0.857421875 2331:1 11572:1 
50 63:1 8027:1 8415:1 12125:1 
0.857421875 63:1 8027:1 12125:1 
0.857421875 2724:1 
50 415:1 7253:1 7913:1 8494:1 8729:1 13135:1 
0.857421875 7913:1 13135:1 
50 7913:1 13135:1 
0.857421875 415:1 7253:1 8494:1 8729:1 
50 415:1 8494:1 8729:1 
0.857421875 8729:1 
0.857421875 415:1 8494:1 
0.857421875 787:1 1168:1 4630:1 5267:1 5283:1 5546:1 6112:1 6545:1 6754:1 7193:1 8841:1 9168:1 9267:1 10594:1 10794:1 
0.857421875 787:1 1168:1 4630:1 5267:1 5283:1 6545:1 6754:1 9168:1 9267:1 10794:1 
0.857421875 1168:1 4630:1 5267:1 5283:1 6545:1 6754:1 9168:1 9267:1 10794:1 
0.857421875 1168:1 4630:1 5267:1 5283:1 6545:1 9168:1 9267:1 
0.857421875 1168:1 5267:1 6545:1 9168:1 9267:1 
0.857421875 1168:1 9168:1 9267:1 
0.857421875 1168:1 
0.857421875 288:1 1442:1 4901:1 5014:1 5475:1 5584:1 5720:1 5845:1 7019:1 7347:1 8710:1 12081:1 12199:1 
0.857421875 288:1 1442:1 5014:1 5720:1 5845:1 7019:1 8710:1 12199:1 
0.857421875 288:1 5014:1 5720:1 8710:1 12199:1 
0.857421875 1442:1 5845:1 7019:1 
0.857421875 7019:1 
0.857421875 4901:1 5475:1 5584:1 7347:1 12081:1 
50 4901:1 5475:1 5584:1 7347:1 12081:1 
50 5584:1 7347:1 
0.857421875 3596:1 4471:1 5716:1 6076:1 
50 3596:1 
0.857421875 4471:1 5716:1 6076:1 
0.857421875 6076:1 
0.857421875 4471:1 5716:1 
0.857421875 4776:1 4813:1 5720:1 12199:1 
0.857421875 4813:1 5720:1 12199:1 
0.857421875 4813:1 
0.857421875 331:1 9333:1 9542:1 10329:1 
0.857421875 331:1 
0.857421875 9333:1 9542:1 10329:1 
50 1878:1 12974:1 
0.857421875 12974:1 
0.857421875 1070:1 4767:1 7159:1 7758:1 
0.857421875 7159:1 
0.857421875 1070:1 4767:1 7758:1 
0.857421875 1070:1 4767:1 
0.857421875 8617:1 
0.857421875 2444:1 4357:1 4360:1 4414:1 4902:1 5029:1 5999:1 7253:1 8713:1 9899:1 11326:1 11619:1 
0.857421875 2444:1 
50 4357:1 4360:1 4414:1 4902:1 5029:1 5999:1 7253:1 8713:1 9899:1 11326:1 
50 4357:1 4360:1 11326:1 
0.857421875 5999:1 9899:1 
0.857421875 4414:1 5029:1 7253:1 8713:1 
0.857421875 4414:1 5029:1 8713:1 
50 4414:1 5029:1 8713:1 
0.857421875 2057:1 10369:1 12541:1 
0.857421875 10369:1 12541:1 
0.857421875 12541:1 
50 12541:1 
0.857421875 7087:1 
0.857421875 288:1 12660:1 
0.857421875 12660:1 
50 1360:1 2327:1 3260:1 3775:1 5608:1 7409:1 
0.857421875 1360:1 
0.857421875 2327:1 3260:1 3775:1 5608:1 7409:1 
0.857421875 2327:1 3775:1 5608:1 7409:1 
0.857421875 5608:1 
0.857421875 2327:1 3775:1 7409:1 
0.857421875 12094:1 
0.857421875 3825:1 4822:1 6361:1 13083:1 
50 3825:1 4822:1 6361:1 13083:1 
50 4822:1 
0.857421875 3689:1 
0.857421875 2239:1 11208:1 11210:1 
0.857421875 2433:1 
0.857421875 3993:1 4732:1 5764:1 10166:1 
0.857421875 5764:1 10166:1 
0.857421875 3993:1 4732:1 
0.857421875 12970:1 
0.857421875 1822:1 4754:1 
0.8583984375 4754:1 
0.8583984375 2499:1 4361:1 5187:1 8013:1 9164:1 10055:1 10150:1 12781:1 
0.8583984375 4361:1 10055:1 10150:1 
0.8583984375 2499:1 5187:1 8013:1 9164:1 12781:1 
0.8583984375 2499:1 5187:1 12781:1 
50 8013:1 9164:1 
0.8583984375 8013:1 
50 4711:1 10229:1 
50 2333:1 4228:1 5701:1 9943:1 
0.8583984375 9943:1 
0.8583984375 2333:1 4228:1 
0.8583984375 3658:1 3783:1 4262:1 4338:1 4451:1 4465:1 4857:1 5130:1 5381:1 7157:1 7253:1 7262:1 7565:1 9430:1 10297:1 11717:1 13009:1 
0.8583984375 3658:1 4262:1 4338:1 10297:1 13009:1 
0.8583984375 3658:1 
0.8583984375 3783:1 4451:1 4465:1 4857:1 5130:1 5381:1 7157:1 7253:1 7262:1 7565:1 9430:1 11717:1 
0.8583984375 3783:1 4451:1 4465:1 4857:1 5130:1 5381:1 7157:1 7262:1 7565:1 9430:1 11717:1 
0.8583984375 3783:1 4451:1 4465:1 4857:1 5130:1 5381:1 7157:1 7262:1 7565:1 9430:1 
0.8583984375 3783:1 5130:1 7157:1 9430:1 
0.8583984375 7157:1 
0.8583984375 3783:1 5130:1 9430:1 
0.8583984375 5130:1 
0.8583984375 3783:1 9430:1 
0.8583984375 9430:1 
0.8583984375 3783:1 
50 288:1 653:1 1389:1 2950:1 3028:1 3049:1 3128:1 3175:1 3827:1 4253:1 4711:1 7147:1 7253:1 7393:1 8148:1 8190:1 9746:1 9817:1 10229:1 10577:1 11107:1 11712:1 11740:1 12228:1 12239:1 12930:1 
50 288:1 653:1 3028:1 3128:1 3175:1 3827:1 4253:1 7393:1 9817:1 11107:1 11740:1 12228:1 
0.8583984375 288:1 3128:1 3827:1 4253:1 9817:1 11107:1 
0.8583984375 288:1 3128:1 3827:1 9817:1 
0.8583984375 288:1 9817:1 
0.8583984375 9817:1 
0.8583984375 3128:1 3827:1 
0.8583984375 3827:1 
0.8583984375 3128:1 
0.8583984375 3028:1 3175:1 
0.8583984375 653:1 
0.8583984375 7393:1 11740:1 12228:1 
0.8583984375 7253:1 10577:1 12239:1 
0.8583984375 10577:1 
0.8583984375 7253:1 12239:1 
0.8583984375 12239:1 
0.8583984375 1389:1 2950:1 3049:1 7147:1 8148:1 8190:1 9746:1 11712:1 
0.8583984375 1389:1 3049:1 7147:1 8148:1 8190:1 9746:1 11712:1 
0.8583984375 3049:1 7147:1 8148:1 8190:1 
0.8583984375 3049:1 8148:1 
0.8583984375 317:1 383:1 4090:1 6956:1 7253:1 9333:1 9542:1 9821:1 10160:1 10329:1 10774:1 11694:1 12579:1 12700:1 13116:1 13125:1 
0.8583984375 9821:1 
0.8583984375 383:1 4090:1 6956:1 7253:1 9333:1 9542:1 10160:1 10329:1 10774:1 11694:1 12579:1 12700:1 13116:1 13125:1 
50 10160:1 10774:1 11694:1 12700:1 13116:1 13125:1 
50 10160:1 10774:1 11694:1 12700:1 13116:1 13125:1 
0.8583984375 383:1 4090:1 6956:1 7253:1 9333:1 9542:1 10329:1 12579:1 
0.8583984375 383:1 7253:1 9333:1 9542:1 10329:1 
0.8583984375 383:1 9333:1 9542:1 10329:1 
0.8583984375 383:1 
0.8583984375 5210:1 12577:1 
0.8583984375 195:1 430:1 3565:1 4594:1 5385:1 7545:1 8151:1 9554:1 9558:1 10106:1 12371:1 
0.8583984375 12371:1 
0.8583984375 195:1 5385:1 7545:1 8151:1 9554:1 9558:1 
0.8583984375 195:1 5385:1 7545:1 8151:1 9558:1 
0.8583984375 7545:1 9558:1 
0.8583984375 9558:1 
50 195:1 5385:1 8151:1 
0.8583984375 9456:1 
50 288:1 3647:1 4361:1 4477:1 4762:1 4785:1 7623:1 7907:1 8371:1 9699:1 9704:1 10055:1 10083:1 10150:1 11131:1 
50 288:1 3647:1 4361:1 4477:1 4762:1 4785:1 7623:1 7907:1 8371:1 9699:1 9704:1 10055:1 10083:1 10150:1 11131:1 
0.8583984375 3647:1 4361:1 4477:1 4762:1 4785:1 7623:1 7907:1 8371:1 9699:1 9704:1 10055:1 10083:1 10150:1 11131:1 
0.8583984375 3647:1 4477:1 4762:1 4785:1 7623:1 7907:1 10083:1 11131:1 
50 4772:1 4992:1 5788:1 6394:1 10439:1 10440:1 10809:1 10907:1 10922:1 10949:1 11753:1 
0.8583984375 4772:1 6394:1 10809:1 
0.8583984375 4314:1 
0.8583984375 288:1 1156:1 2514:1 8856:1 9306:1 13154:1 13247:1 
0.8583984375 288:1 1156:1 
0.8583984375 1156:1 
0.8583984375 2514:1 8856:1 9306:1 13154:1 13247:1 
0.8583984375 2514:1 8856:1 13247:1 
50 2613:1 3321:1 3372:1 4327:1 4371:1 4575:1 5534:1 5555:1 7245:1 7253:1 10011:1 12497:1 
50 2613:1 3321:1 3372:1 4327:1 4371:1 4575:1 5534:1 5555:1 7245:1 7253:1 10011:1 12497:1 
0.8583984375 10011:1 
0.8583984375 3321:1 12497:1 
0.8583984375 4371:1 
0.8583984375 2613:1 4327:1 4575:1 5534:1 5555:1 7245:1 
0.8583984375 2613:1 
0.8583984375 288:1 3407:1 12998:1 
0.8583984375 288:1 3407:1 
0.8583984375 3407:1 
0.8583984375 12998:1 
0.8583984375 9243:1 
0.8583984375 5607:1 10565:1 
0.8583984375 10565:1 
0.857421875 5607:1 
0.875 1331:1 1568:1 2650:1 4966:1 6623:1 6663:1 8135:1 9254:1 9490:1 10837:1 11625:1 12425:1 12790:1 
49.982421875 1331:1 1568:1 2650:1 4966:1 6623:1 6663:1 8135:1 9254:1 9490:1 10837:1 11625:1 12425:1 12790:1 
0.857421875 6663:1 10837:1 12790:1 
0.857421875 10837:1 
0.857421875 2650:1 8135:1 
0.857421875 9490:1 11625:1 
0.857421875 6623:1 
0.857421875 1331:1 1568:1 4966:1 9254:1 12425:1 
0.857421875 1331:1 
50 1568:1 9254:1 
0.857421875 4966:1 12425:1 
0.857421875 288:1 1396:1 2057:1 3906:1 8999:1 10369:1 
0.857421875 288:1 2057:1 10369:1 
0.857421875 288:1 10369:1 
0.857421875 1396:1 
0.857421875 8176:1 10338:1 10542:1 
0.857421875 2143:1 3466:1 3586:1 5175:1 7171:1 11961:1 
0.857421875 2143:1 5175:1 
0.857421875 3466:1 3586:1 7171:1 11961:1 
0.857421875 7171:1 
0.857421875 3466:1 3586:1 11961:1 
0.857421875 3466:1 
50 4711:1 5805:1 6363:1 8762:1 10229:1 10563:1 
0.857421875 8762:1 
0.857421875 5805:1 6363:1 10563:1 
0.857421875 5805:1 
0.857421875 1893:1 2208:1 2519:1 2716:1 4789:1 4940:1 5143:1 7253:1 7935:1 10930:1 10935:1 
0.857421875 5143:1 7935:1 10930:1 10935:1 
0.857421875 1893:1 2208:1 2519:1 2716:1 4789:1 4940:1 7253:1 
0.857421875 2208:1 2519:1 2716:1 4789:1 4940:1 
0.857421875 2519:1 4789:1 4940:1 
0.857421875 2519:1 
0.857421875 1893:1 7253:1 
50 1784:1 2218:1 4576:1 4620:1 4632:1 5008:1 5011:1 6647:1 6763:1 7009:1 7898:1 7975:1 10390:1 11546:1 12854:1 
50 1784:1 2218:1 4576:1 4620:1 4632:1 5008:1 5011:1 6647:1 6763:1 7009:1 7898:1 7975:1 10390:1 11546:1 12854:1 
0.857421875 2218:1 4620:1 4632:1 5008:1 5011:1 6647:1 7009:1 7975:1 11546:1 12854:1 
0.857421875 2218:1 5008:1 5011:1 6647:1 7009:1 7975:1 12854:1 
0.857421875 12854:1 
0.857421875 2218:1 5008:1 5011:1 6647:1 7009:1 7975:1 
0.857421875 4620:1 4632:1 11546:1 
0.875 7898:1 
49.982421875 7898:1 
50 280:1 364:1 370:1 4860:1 4955:1 5588:1 6157:1 6549:1 7997:1 9328:1 9979:1 11660:1 12729:1 
50 931:1 1818:1 2966:1 11581:1 
0.857421875 2057:1 5922:1 6304:1 6731:1 6829:1 7394:1 9094:1 9792:1 10016:1 10369:1 
50 6304:1 7394:1 9792:1 
0.857421875 2057:1 5922:1 6731:1 6829:1 9094:1 10016:1 10369:1 
0.857421875 5922:1 6731:1 6829:1 9094:1 10016:1 10369:1 
0.857421875 5922:1 6731:1 6829:1 9094:1 10016:1 
0.875 6731:1 6829:1 9094:1 10016:1 
49.982421875 6731:1 6829:1 9094:1 10016:1 
0.857421875 6829:1 9094:1 
50 3276:1 7989:1 10294:1 10862:1 11523:1 12851:1 
50 1959:1 3647:1 4477:1 4902:1 6892:1 7253:1 7623:1 9819:1 10083:1 11450:1 12311:1 
0.857421875 1959:1 4902:1 
0.857421875 1959:1 
50 6892:1 9819:1 12311:1 
50 3647:1 4477:1 7253:1 7623:1 10083:1 11450:1 
50 3647:1 4477:1 7623:1 10083:1 11450:1 
0.857421875 11450:1 
0.857421875 217:1 3260:1 4054:1 7117:1 7309:1 7322:1 7442:1 7932:1 9024:1 9217:1 11959:1 11999:1 12009:1 12801:1 
0.857421875 217:1 3260:1 4054:1 7309:1 7322:1 7442:1 7932:1 9024:1 9217:1 11959:1 11999:1 12009:1 12801:1 
0.857421875 11959:1 
0.857421875 3260:1 7442:1 7932:1 11999:1 12009:1 12801:1 
50 217:1 4054:1 7309:1 7322:1 9024:1 9217:1 
50 9292:1 
0.857421875 248:1 288:1 3345:1 6302:1 12591:1 
0.857421875 2060:1 8276:1 8544:1 
0.857421875 5147:1 11984:1 
0.857421875 60:1 246:1 729:1 922:1 1957:1 3398:1 3647:1 4477:1 5739:1 6596:1 7623:1 7670:1 8155:1 9662:1 10083:1 10455:1 
0.857421875 60:1 
0.857421875 246:1 729:1 922:1 1957:1 3398:1 3647:1 4477:1 5739:1 6596:1 7623:1 7670:1 8155:1 9662:1 10083:1 10455:1 
0.857421875 1957:1 9662:1 
50 246:1 729:1 922:1 3398:1 3647:1 4477:1 5739:1 6596:1 7623:1 7670:1 8155:1 10083:1 10455:1 
0.857421875 922:1 3398:1 
0.857421875 246:1 729:1 3647:1 4477:1 5739:1 6596:1 7623:1 7670:1 8155:1 10083:1 10455:1 
0.857421875 246:1 729:1 5739:1 6596:1 7670:1 8155:1 10455:1 
0.857421875 246:1 5739:1 6596:1 7670:1 8155:1 10455:1 
0.857421875 10455:1 
0.857421875 246:1 5739:1 6596:1 7670:1 8155:1 
0.857421875 5739:1 6596:1 7670:1 8155:1 
0.857421875 5739:1 6596:1 8155:1 
50 2475:1 11833:1 11838:1 
0.857421875 2475:1 
50 1251:1 2070:1 2140:1 6111:1 7043:1 10967:1 
50 1251:1 2070:1 2140:1 7043:1 10967:1 
0.857421875 10967:1 
50 1251:1 2070:1 2140:1 7043:1 
50 1251:1 2070:1 2140:1 7043:1 
0.857421875 2070:1 7043:1 
0.857421875 2070:1 
50 288:1 4357:1 4360:1 11326:1 12823:1 
0.857421875 4357:1 4360:1 11326:1 12823:1 
0.857421875 12823:1 
1 156:1 317:1 2181:1 2390:1 3992:1 4519:1 7377:1 7677:1 12121:1 12667:1 
50 156:1 317:1 2181:1 2390:1 3992:1 4519:1 7377:1 7677:1 12121:1 12667:1 
49.857421875 156:1 317:1 2181:1 2390:1 3992:1 4519:1 7377:1 7677:1 12121:1 12667:1 
0.857421875 156:1 2181:1 2390:1 3992:1 4519:1 7377:1 7677:1 12121:1 12667:1 
50 156:1 3992:1 4519:1 7377:1 12121:1 12667:1 
0.857421875 3992:1 7377:1 12121:1 12667:1 
0.857421875 7377:1 
0.857421875 3992:1 12121:1 12667:1 
0.857421875 3992:1 
0.857421875 156:1 4519:1 
0.857421875 4519:1 
0.857421875 156:1 
0.857421875 2181:1 2390:1 7677:1 
0.857421875 2181:1 7677:1 
0.857421875 2390:1 
1 288:1 2045:1 2276:1 4327:1 4575:1 5427:1 5534:1 5555:1 7245:1 8714:1 8865:1 8867:1 
49.857421875 288:1 2045:1 2276:1 4327:1 4575:1 5427:1 5534:1 5555:1 7245:1 8714:1 8865:1 8867:1 
0.857421875 8714:1 
0.857421875 985:1 1344:1 1609:1 1795:1 2099:1 2667:1 4659:1 6274:1 11147:1 12979:1 
0.857421875 985:1 1344:1 2667:1 4659:1 11147:1 12979:1 
0.857421875 985:1 
0.857421875 1344:1 2667:1 4659:1 11147:1 12979:1 
0.857421875 1344:1 2667:1 4659:1 11147:1 
0.857421875 11147:1 
0.857421875 1344:1 2667:1 4659:1 
0.857421875 1609:1 1795:1 2099:1 6274:1 
0.857421875 1795:1 2099:1 
0.857421875 3052:1 3110:1 3551:1 5320:1 7599:1 7603:1 9082:1 10632:1 
0.857421875 3551:1 5320:1 10632:1 
50 3551:1 10632:1 
0.857421875 5320:1 
1 1942:1 2207:1 5932:1 10133:1 10201:1 13163:1 
50 1942:1 2207:1 5932:1 10133:1 10201:1 13163:1 
49.857421875 1942:1 2207:1 5932:1 10133:1 10201:1 13163:1 
0.857421875 1942:1 5932:1 10133:1 10201:1 13163:1 
50 1942:1 10133:1 10201:1 
0.857421875 10201:1 
0.857421875 1942:1 10133:1 
0.857421875 2207:1 
0.857421875 2057:1 7190:1 10369:1 
0.857421875 7190:1 10369:1 
0.857421875 7190:1 
0.857421875 360:1 1124:1 2605:1 2676:1 3103:1 3340:1 4093:1 4219:1 4310:1 5731:1 6061:1 6143:1 6272:1 6345:1 6573:1 6663:1 7628:1 8757:1 9034:1 9167:1 9300:1 9640:1 12103:1 12480:1 12790:1 13136:1 13196:1 
0.857421875 360:1 2676:1 3340:1 4310:1 5731:1 6061:1 6143:1 6573:1 6663:1 8757:1 9034:1 9640:1 12790:1 13136:1 13196:1 
50 360:1 4310:1 5731:1 6573:1 8757:1 9034:1 9640:1 13196:1 
0.857421875 2676:1 3340:1 6061:1 6143:1 6663:1 12790:1 13136:1 
0.857421875 3103:1 4093:1 6345:1 9167:1 9300:1 12103:1 12480:1 
0.857421875 3103:1 4093:1 6345:1 
0.857421875 9167:1 9300:1 12103:1 12480:1 
0.857421875 2057:1 10369:1 
0.857421875 9527:1 11711:1 
0.857421875 1062:1 3216:1 3251:1 4676:1 5811:1 8344:1 10135:1 11122:1 12359:1 13076:1 
50 8344:1 
50 1062:1 3216:1 3251:1 4676:1 5811:1 10135:1 12359:1 13076:1 
0.857421875 1062:1 4676:1 5811:1 13076:1 
50 317:1 1944:1 2761:1 3505:1 3647:1 4357:1 4360:1 4477:1 4959:1 7172:1 7389:1 7623:1 7758:1 8113:1 10083:1 11326:1 11906:1 12778:1 
0.857421875 317:1 2761:1 4357:1 4360:1 8113:1 11326:1 
0.857421875 2761:1 4357:1 4360:1 8113:1 11326:1 
0.857421875 2761:1 8113:1 
0.857421875 2761:1 
0.857421875 7389:1 
50 1944:1 3505:1 4959:1 7172:1 7758:1 11906:1 12778:1 
0.857421875 1944:1 3505:1 4959:1 7172:1 11906:1 12778:1 
1 11906:1 12778:1 
49.857421875 11906:1 12778:1 
0.857421875 11906:1 
0.857421875 12778:1 
0.857421875 9751:1 10619:1 
0.857421875 9751:1 
0.857421875 10619:1 
50 4166:1 8952:1 
0.857421875 924:1 
1 5624:1 5720:1 6663:1 8614:1 10123:1 11548:1 12133:1 12199:1 12790:1 
49.857421875 5624:1 5720:1 6663:1 8614:1 10123:1 11548:1 12133:1 12199:1 12790:1 
0.857421875 5720:1 12133:1 12199:1 
0.857421875 12133:1 
0.857421875 5624:1 6663:1 8614:1 10123:1 11548:1 12790:1 
0.857421875 6663:1 8614:1 12790:1 
0.857421875 239:1 1155:1 1465:1 1488:1 1521:1 1811:1 3148:1 3527:1 4357:1 4360:1 4362:1 4920:1 6037:1 6132:1 7119:1 7253:1 7622:1 9731:1 9815:1 9865:1 9888:1 10730:1 11326:1 12498:1 12639:1 
50 4357:1 4360:1 4362:1 7622:1 11326:1 
0.857421875 4362:1 
0.857421875 4357:1 4360:1 7622:1 11326:1 
0.857421875 7622:1 
0.857421875 3148:1 4920:1 
50 239:1 1155:1 1465:1 1488:1 1521:1 1811:1 3527:1 6037:1 6132:1 7119:1 7253:1 9731:1 9815:1 9865:1 9888:1 10730:1 12498:1 12639:1 
50 239:1 1155:1 3527:1 9888:1 
0.857421875 239:1 
0.857421875 1488:1 1521:1 1811:1 6132:1 7119:1 9731:1 9815:1 9865:1 10730:1 12498:1 12639:1 
0.857421875 1521:1 1811:1 6132:1 7119:1 10730:1 12639:1 
0.857421875 1521:1 1811:1 6132:1 7119:1 10730:1 
0.857421875 1521:1 1811:1 7119:1 
0.857421875 1488:1 9731:1 9815:1 9865:1 12498:1 
0.857421875 1488:1 9815:1 9865:1 12498:1 
50 1488:1 9815:1 9865:1 
0.857421875 12498:1 
0.857421875 2618:1 
0.857421875 2677:1 4890:1 4896:1 4946:1 8785:1 
0.857421875 8759:1 12889:1 
0.857421875 7253:1 
0.857421875 1883:1 6627:1 10692:1 
0.857421875 2677:1 11807:1 
0.857421875 11807:1 
0.857421875 437:1 546:1 2975:1 4253:1 6150:1 6754:1 7989:1 8620:1 9445:1 9534:1 10294:1 10794:1 10862:1 11107:1 11342:1 11523:1 
0.857421875 437:1 2975:1 6150:1 7989:1 9534:1 10294:1 10862:1 11523:1 
0.857421875 6150:1 
0.857421875 437:1 2975:1 7989:1 9534:1 10294:1 10862:1 11523:1 
0.857421875 546:1 4253:1 6754:1 8620:1 9445:1 10794:1 11107:1 11342:1 
0.857421875 546:1 4253:1 8620:1 9445:1 11107:1 11342:1 
0.857421875 4253:1 8620:1 11107:1 11342:1 
1 546:1 9445:1 
0.857421875 317:1 787:1 2141:1 2742:1 3017:1 8564:1 8814:1 
0.857421875 787:1 2742:1 3017:1 8564:1 8814:1 
0.857421875 3017:1 8814:1 
0.857421875 8814:1 
0.857421875 3017:1 
0.857421875 787:1 2742:1 8564:1 
0.857421875 317:1 787:1 2141:1 
0.857421875 317:1 
0.857421875 787:1 2141:1 
0.857421875 2141:1 
0.857421875 288:1 2536:1 4306:1 4604:1 4622:1 4692:1 5299:1 6071:1 6291:1 6294:1 6352:1 7437:1 8396:1 12093:1 
0.857421875 4306:1 4622:1 8396:1 
50 2536:1 4604:1 4692:1 5299:1 6071:1 6291:1 6294:1 7437:1 
0.857421875 288:1 6352:1 12093:1 
0.857421875 288:1 6352:1 
0.857421875 12093:1 
0.857421875 288:1 1159:1 2421:1 2857:1 3720:1 7253:1 8020:1 8171:1 10498:1 10771:1 11790:1 13210:1 
0.857421875 1159:1 2421:1 2857:1 3720:1 7253:1 8020:1 8171:1 10498:1 10771:1 11790:1 13210:1 
0.857421875 2421:1 7253:1 8171:1 10498:1 10771:1 11790:1 13210:1 
0.857421875 2421:1 8171:1 10498:1 10771:1 11790:1 13210:1 
0.857421875 10771:1 13210:1 
0.857421875 2421:1 8171:1 10498:1 11790:1 
50 2421:1 8171:1 10498:1 
0.857421875 288:1 931:1 1818:1 2325:1 2966:1 4432:1 4474:1 5317:1 5422:1 6407:1 6650:1 6746:1 8004:1 11581:1 11629:1 12763:1 13102:1 
0.857421875 4432:1 
50 288:1 931:1 1818:1 2325:1 2966:1 4474:1 5317:1 5422:1 6407:1 6650:1 6746:1 8004:1 11581:1 11629:1 12763:1 13102:1 
0.857421875 5317:1 5422:1 6407:1 6650:1 6746:1 8004:1 11629:1 12763:1 13102:1 
0.857421875 5317:1 
0.857421875 5422:1 6407:1 6650:1 11629:1 
1 288:1 2325:1 4474:1 
49.857421875 288:1 2325:1 4474:1 
0.857421875 4474:1 
0.857421875 2325:1 
0.857421875 12304:1 
0.857421875 6560:1 
0.857421875 8985:1 9552:1 
0.857421875 288:1 5116:1 7128:1 11471:1 
0.857421875 5116:1 7128:1 11471:1 
0.857421875 5116:1 11471:1 
0.857421875 7128:1 
1 3079:1 6896:1 12589:1 
49.857421875 3079:1 6896:1 12589:1 
0.857421875 9148:1 9896:1 
0.857421875 1397:1 5560:1 8524:1 10869:1 
50 3005:1 5589:1 7253:1 7421:1 9616:1 
0.857421875 3005:1 
0.857421875 5589:1 7421:1 9616:1 
50 288:1 546:1 1003:1 1993:1 2414:1 2618:1 8213:1 9445:1 11717:1 12038:1 12043:1 12152:1 
0.857421875 2414:1 
50 288:1 546:1 1003:1 1993:1 2618:1 8213:1 9445:1 11717:1 12038:1 12043:1 12152:1 
0.857421875 546:1 1003:1 1993:1 2618:1 9445:1 12152:1 
0.857421875 546:1 1003:1 1993:1 9445:1 12152:1 
0.857421875 546:1 1003:1 9445:1 
0.857421875 8213:1 12038:1 12043:1 
0.857421875 8213:1 
0.857421875 416:1 1314:1 4443:1 5953:1 9298:1 9535:1 9933:1 
50 1314:1 5953:1 9535:1 
0.857421875 9535:1 
0.857421875 1314:1 5953:1 
0.857421875 2222:1 3986:1 9504:1 11012:1 
0.857421875 2752:1 6667:1 8761:1 10301:1 10827:1 10835:1 11156:1 11495:1 12765:1 12976:1 
0.857421875 10301:1 12976:1 
0.857421875 2752:1 6667:1 8761:1 10827:1 10835:1 11156:1 11495:1 12765:1 
0.857421875 2752:1 6667:1 8761:1 12765:1 
0.857421875 2752:1 12765:1 
50 288:1 2677:1 3449:1 3599:1 5720:1 6234:1 7442:1 7932:1 8010:1 8053:1 9330:1 10827:1 10835:1 11144:1 11156:1 11404:1 11495:1 11999:1 12009:1 12199:1 12801:1 
0.857421875 2677:1 3449:1 3599:1 7442:1 7932:1 8053:1 10827:1 10835:1 11156:1 11495:1 11999:1 12009:1 12801:1 
0.857421875 2677:1 3449:1 
0.857421875 3449:1 
0.857421875 3599:1 7442:1 7932:1 8053:1 11999:1 12009:1 12801:1 
50 7442:1 7932:1 11999:1 12009:1 12801:1 
50 3599:1 8053:1 
50 3599:1 8053:1 
0.857421875 996:1 6115:1 6668:1 6786:1 9919:1 
1 6115:1 6668:1 6786:1 
49.857421875 6115:1 6668:1 6786:1 
0.857421875 6668:1 
0.857421875 6115:1 6786:1 
0.857421875 12127:1 
50 244:1 546:1 1798:1 2194:1 2578:1 2731:1 3441:1 3784:1 3850:1 4056:1 4232:1 4236:1 4440:1 4868:1 5679:1 6965:1 7024:1 8418:1 8630:1 9310:1 9445:1 10534:1 10858:1 11079:1 11378:1 11502:1 12366:1 
0.857421875 244:1 2731:1 3441:1 3784:1 4056:1 6965:1 11079:1 11502:1 
1 2731:1 6965:1 11502:1 
49.857421875 2731:1 6965:1 11502:1 
0.857421875 244:1 3441:1 3784:1 4056:1 11079:1 
0.857421875 244:1 4056:1 11079:1 
0.857421875 3441:1 3784:1 
50 1798:1 7024:1 8418:1 8630:1 10858:1 12366:1 
50 546:1 2578:1 3850:1 4232:1 4236:1 4440:1 4868:1 5679:1 9310:1 9445:1 10534:1 11378:1 
0.857421875 4868:1 
0.857421875 546:1 2578:1 3850:1 9445:1 10534:1 11378:1 
50 2578:1 
0.857421875 546:1 3850:1 9445:1 10534:1 11378:1 
0.857421875 3850:1 10534:1 11378:1 
0.857421875 3850:1 10534:1 
0.857421875 11378:1 
0.857421875 432:1 9407:1 
0.857421875 432:1 
0.857421875 9407:1 
50 295:1 1259:1 1261:1 1911:1 4537:1 7253:1 7524:1 7714:1 9914:1 10814:1 11127:1 
0.857421875 1259:1 1261:1 1911:1 4537:1 7253:1 
0.857421875 1259:1 1261:1 4537:1 
50 1911:1 7253:1 
0.857421875 1911:1 
50 295:1 7524:1 7714:1 9914:1 10814:1 11127:1 
0.857421875 7524:1 7714:1 9914:1 10814:1 
0.857421875 2044:1 9181:1 
0.857421875 637:1 4119:1 6327:1 7753:1 
0.857421875 3645:1 5444:1 5709:1 7598:1 10021:1 10428:1 13156:1 
0.857421875 5444:1 7598:1 10428:1 
50 3645:1 5709:1 10021:1 13156:1 
0.857421875 10021:1 13156:1 
0.857421875 2394:1 4217:1 7079:1 9537:1 11748:1 
0.857421875 9537:1 
1 667:1 1158:1 1992:1 5023:1 9960:1 9978:1 
49.857421875 667:1 1158:1 1992:1 5023:1 9960:1 9978:1 
0.857421875 667:1 1158:1 
50 1992:1 5023:1 9960:1 9978:1 
0.857421875 5737:1 
0.857421875 6389:1 
0.857421875 11336:1 12140:1 
49.857421875 546:1 9445:1 
0.857421875 201:1 678:1 2593:1 4181:1 4711:1 7311:1 8264:1 9670:1 10229:1 10302:1 10576:1 10588:1 13067:1 
50 201:1 678:1 2593:1 4181:1 7311:1 8264:1 9670:1 10302:1 10576:1 10588:1 13067:1 
0.857421875 201:1 678:1 2593:1 7311:1 10302:1 10576:1 10588:1 
0.857421875 678:1 
1 201:1 2593:1 7311:1 10302:1 10576:1 10588:1 
50 4181:1 8264:1 9670:1 13067:1 
0.857421875 8658:1 10077:1 12805:1 
0.857421875 8658:1 
0.857421875 10077:1 12805:1 
0.857421875 1206:1 2676:1 3340:1 6061:1 6143:1 7129:1 8620:1 10617:1 11342:1 13136:1 
0.857421875 2676:1 3340:1 6061:1 6143:1 8620:1 11342:1 13136:1 
0.857421875 1206:1 7129:1 10617:1 
0.857421875 7129:1 
0.857421875 3740:1 4516:1 4667:1 11132:1 12593:1 
50 288:1 2519:1 2677:1 3647:1 4477:1 4591:1 4845:1 5883:1 7623:1 8621:1 8774:1 10083:1 
0.857421875 2677:1 4845:1 5883:1 8621:1 8774:1 
50 2677:1 4845:1 5883:1 8621:1 
1 4845:1 5883:1 8621:1 
0.857421875 4640:1 9095:1 11214:1 11986:1 
0.857421875 11214:1 
0.857421875 11986:1 
0.857421875 4640:1 9095:1 
0.857421875 4640:1 
0.857421875 6352:1 
50 10369:1 
50 6770:1 10338:1 10542:1 
50 6770:1 10338:1 10542:1 
0.857421875 290:1 
50 804:1 2643:1 2859:1 4892:1 5327:1 8532:1 10897:1 
0.857421875 804:1 
50 2643:1 2859:1 4892:1 5327:1 8532:1 10897:1 
0.857421875 4892:1 
0.857421875 2643:1 2859:1 5327:1 8532:1 10897:1 
0.857421875 2643:1 
0.857421875 2859:1 5327:1 8532:1 10897:1 
0.857421875 5327:1 
50 4224:1 7161:1 
0.857421875 197:1 497:1 11675:1 12135:1 
1 497:1 
49.857421875 497:1 
0.857421875 197:1 11675:1 12135:1 
0.857421875 197:1 
0.857421875 94:1 288:1 354:1 1243:1 1339:1 1831:1 1893:1 1937:1 2057:1 2276:1 2336:1 3189:1 3906:1 5355:1 5358:1 5427:1 6237:1 6316:1 6670:1 7755:1 7818:1 8999:1 9063:1 9348:1 9401:1 9411:1 10369:1 10513:1 11475:1 11556:1 
0.857421875 288:1 1243:1 2276:1 5427:1 
0.857421875 288:1 1243:1 
0.857421875 1243:1 
50 3189:1 
0.857421875 94:1 354:1 1339:1 1831:1 1893:1 1937:1 2057:1 2336:1 3906:1 5355:1 5358:1 6237:1 6316:1 6670:1 7755:1 7818:1 8999:1 9063:1 9348:1 9401:1 9411:1 10369:1 10513:1 11475:1 11556:1 
50 3906:1 8999:1 
0.857421875 354:1 1339:1 1937:1 11556:1 
50 94:1 1831:1 1893:1 2057:1 2336:1 5355:1 5358:1 6237:1 6316:1 6670:1 7755:1 7818:1 9063:1 9348:1 9401:1 9411:1 10369:1 10513:1 11475:1 
50 1831:1 5355:1 5358:1 6316:1 9063:1 9348:1 9401:1 9411:1 11475:1 
50 1831:1 5355:1 5358:1 9063:1 9348:1 9401:1 9411:1 11475:1 
0.857421875 1831:1 
0.857421875 94:1 1893:1 2057:1 2336:1 6237:1 6670:1 7755:1 7818:1 10369:1 10513:1 
0.857421875 94:1 2057:1 2336:1 6237:1 6670:1 7755:1 7818:1 10369:1 10513:1 
50 94:1 6237:1 10513:1 
0.857421875 2057:1 2336:1 6670:1 7755:1 7818:1 10369:1 
50 2336:1 6670:1 7755:1 7818:1 10369:1 
50 7755:1 7818:1 
0.857421875 5492:1 6939:1 
0.857421875 5492:1 
0.857421875 6939:1 
50 4902:1 10827:1 10835:1 11156:1 11495:1 
0.857421875 10827:1 10835:1 11156:1 11495:1 
0.857421875 8796:1 
1 431:1 787:1 1268:1 1269:1 2290:1 3374:1 4631:1 9845:1 10827:1 10835:1 11156:1 11495:1 
49.857421875 431:1 787:1 1268:1 1269:1 2290:1 3374:1 4631:1 9845:1 10827:1 10835:1 11156:1 11495:1 
0.857421875 431:1 2290:1 4631:1 
0.857421875 787:1 1268:1 1269:1 3374:1 9845:1 
0.857421875 1268:1 1269:1 3374:1 
0.857421875 787:1 9845:1 
0.857421875 9845:1 
0.857421875 2618:1 4539:1 
0.857421875 9866:1 
0.857421875 106:1 7618:1 
0.857421875 7618:1 
0.857421875 63:1 2440:1 8027:1 11819:1 12125:1 
0.857421875 2440:1 11819:1 
0.857421875 1571:1 3467:1 3654:1 4156:1 4798:1 7253:1 7910:1 8272:1 9164:1 9641:1 10280:1 10535:1 11377:1 12912:1 
0.857421875 1571:1 3467:1 3654:1 4156:1 7253:1 7910:1 8272:1 9164:1 9641:1 10280:1 10535:1 12912:1 
0.857421875 1571:1 3654:1 9641:1 10280:1 10535:1 
0.857421875 3654:1 
0.857421875 1571:1 9641:1 10280:1 10535:1 
0.857421875 10280:1 10535:1 
50 3467:1 4156:1 7253:1 7910:1 8272:1 9164:1 12912:1 
0.857421875 7910:1 8272:1 12912:1 
0.857421875 3467:1 4156:1 7253:1 9164:1 
0.857421875 3467:1 4156:1 
0.857421875 7253:1 9164:1 
0.857421875 4798:1 11377:1 
0.857421875 3559:1 3584:1 3880:1 5708:1 6607:1 12818:1 
0.857421875 3559:1 3584:1 3880:1 5708:1 12818:1 
0.857421875 5708:1 12818:1 
50 975:1 1414:1 1651:1 2451:1 4380:1 4871:1 5540:1 5617:1 7344:1 7413:1 8701:1 9158:1 9968:1 10078:1 10880:1 12047:1 
0.857421875 975:1 4380:1 5540:1 5617:1 7344:1 9158:1 
0.857421875 4380:1 5617:1 7344:1 9158:1 
0.857421875 1414:1 1651:1 2451:1 4871:1 7413:1 8701:1 9968:1 10078:1 10880:1 12047:1 
0.857421875 1414:1 2451:1 
50 1651:1 4871:1 7413:1 8701:1 9968:1 10078:1 10880:1 12047:1 
0.857421875 8701:1 9968:1 12047:1 
0.857421875 1065:1 1612:1 1806:1 1808:1 3022:1 3647:1 4477:1 5459:1 5812:1 5820:1 7111:1 7623:1 7659:1 9610:1 10010:1 10083:1 10348:1 10768:1 11278:1 12105:1 12562:1 12694:1 
0.857421875 10348:1 11278:1 
0.857421875 1612:1 12105:1 
0.857421875 3022:1 3647:1 4477:1 5459:1 5820:1 7111:1 7623:1 7659:1 9610:1 10083:1 10768:1 12562:1 
0.857421875 3022:1 5459:1 5820:1 7111:1 7659:1 9610:1 10768:1 12562:1 
0.857421875 5459:1 
1 3022:1 5820:1 7111:1 7659:1 9610:1 10768:1 12562:1 
49.857421875 3022:1 5820:1 7111:1 7659:1 9610:1 10768:1 12562:1 
0.857421875 10768:1 
0.857421875 3022:1 5820:1 7111:1 7659:1 9610:1 12562:1 
0.857421875 7659:1 
0.857421875 3022:1 5820:1 7111:1 9610:1 12562:1 
0.857421875 5820:1 
0.857421875 3022:1 7111:1 9610:1 12562:1 
0.857421875 7111:1 9610:1 12562:1 
0.857421875 7111:1 12562:1 
0.857421875 12622:1 13171:1 
0.857421875 12622:1 
0.857421875 13171:1 
0.857421875 1454:1 4464:1 7696:1 10188:1 
50 3096:1 9924:1 10916:1 11376:1 11385:1 12243:1 
0.857421875 10365:1 
0.857421875 1524:1 1926:1 2135:1 2876:1 3022:1 4357:1 4360:1 8774:1 9805:1 9923:1 11326:1 
0.857421875 1524:1 1926:1 2135:1 2876:1 3022:1 9805:1 9923:1 
0.857421875 1524:1 2135:1 3022:1 9923:1 
0.857421875 1524:1 2135:1 3022:1 
0.857421875 1524:1 2135:1 
0.857421875 8774:1 
0.857421875 282:1 1329:1 1875:1 3954:1 3962:1 6636:1 6969:1 8283:1 9305:1 10350:1 12339:1 
0.857421875 1875:1 6969:1 8283:1 9305:1 
0.857421875 1875:1 6969:1 8283:1 
0.857421875 9305:1 
0.857421875 282:1 1329:1 3954:1 3962:1 6636:1 10350:1 12339:1 
50 1136:1 1451:1 2618:1 2654:1 2677:1 2971:1 3587:1 4357:1 4360:1 4363:1 4423:1 4706:1 4990:1 5158:1 6101:1 6571:1 6663:1 6731:1 7600:1 8085:1 9714:1 9903:1 10016:1 10076:1 11326:1 11833:1 11838:1 12790:1 12798:1 
0.857421875 2677:1 4357:1 4360:1 4423:1 4706:1 6663:1 9714:1 11326:1 12790:1 
0.857421875 2677:1 6663:1 12790:1 
0.857421875 1451:1 2654:1 4363:1 4423:1 4706:1 6571:1 7600:1 9714:1 
0.857421875 1451:1 2654:1 4363:1 6571:1 7600:1 
0.857421875 2971:1 4990:1 
50 1136:1 2618:1 5158:1 6101:1 6731:1 8085:1 9714:1 9903:1 10016:1 10076:1 11833:1 11838:1 12798:1 
0.857421875 5158:1 9903:1 
50 1136:1 6101:1 8085:1 10076:1 12798:1 
1 288:1 638:1 1788:1 1803:1 3515:1 4153:1 4554:1 7047:1 7231:1 7850:1 11157:1 11161:1 
49.857421875 288:1 638:1 1788:1 1803:1 3515:1 4153:1 4554:1 7047:1 7231:1 7850:1 11157:1 11161:1 
0.857421875 638:1 1788:1 1803:1 3515:1 4153:1 7047:1 7231:1 11157:1 11161:1 
0.857421875 4153:1 
0.857421875 4554:1 
50 162:1 916:1 1017:1 1159:1 2284:1 2494:1 2857:1 3720:1 3926:1 8020:1 8122:1 8296:1 8702:1 9166:1 9739:1 12837:1 12839:1 
0.857421875 162:1 1017:1 9166:1 
0.857421875 162:1 9166:1 
0.857421875 9166:1 
0.857421875 162:1 
0.857421875 1159:1 2284:1 2857:1 3720:1 8020:1 
0.857421875 2284:1 
0.857421875 2494:1 8702:1 
0.857421875 8702:1 
1 2494:1 
49.857421875 2494:1 
0.857421875 3647:1 4477:1 7623:1 10083:1 
0.857421875 430:1 3565:1 4594:1 10106:1 12114:1 
0.857421875 12114:1 
0.857421875 3586:1 11961:1 
0.857421875 6972:1 9136:1 
0.857421875 1230:1 4875:1 6085:1 
0.857421875 1230:1 4875:1 
1 6085:1 
49.857421875 6085:1 
0.857421875 1791:1 1944:1 2355:1 3505:1 4959:1 6150:1 7172:1 8799:1 9835:1 
1 1791:1 2355:1 6150:1 8799:1 9835:1 
49.857421875 1791:1 2355:1 6150:1 8799:1 9835:1 
50 214:1 1242:1 1298:1 4376:1 5466:1 6111:1 6729:1 7253:1 9428:1 9498:1 
1 6111:1 
0.857421875 1298:1 5466:1 6729:1 
50 214:1 7253:1 9428:1 9498:1 
50 64:1 1561:1 2353:1 2805:1 3380:1 4178:1 4357:1 4360:1 6303:1 6353:1 6638:1 7267:1 7888:1 9557:1 9653:1 10075:1 10403:1 10662:1 10824:1 11326:1 11373:1 12325:1 
0.857421875 64:1 1561:1 2353:1 4178:1 6638:1 10403:1 12325:1 
0.857421875 2353:1 10403:1 
0.857421875 6303:1 6353:1 7267:1 7888:1 9557:1 9653:1 10075:1 10824:1 
0.857421875 6353:1 7267:1 7888:1 9557:1 
0.857421875 9557:1 
0.857421875 6353:1 7267:1 7888:1 
0.857421875 7267:1 7888:1 
50 10075:1 
50 10075:1 
50 10662:1 11373:1 
50 2231:1 2407:1 3647:1 4309:1 4477:1 4711:1 6179:1 6197:1 6637:1 7406:1 7408:1 7623:1 7830:1 9017:1 10083:1 10229:1 11006:1 
0.857421875 3647:1 4477:1 4711:1 7623:1 10083:1 10229:1 
0.857421875 2231:1 2407:1 4309:1 6179:1 6197:1 6637:1 7406:1 7408:1 7830:1 9017:1 11006:1 
0.857421875 2231:1 
1 4309:1 6179:1 6197:1 7830:1 
49.857421875 4309:1 6179:1 6197:1 7830:1 
50 3471:1 6531:1 8965:1 9263:1 
50 3471:1 6531:1 8965:1 9263:1 
50 3471:1 6531:1 8965:1 9263:1 
0.857421875 6531:1 9263:1 
0.857421875 3471:1 
0.857421875 2123:1 3479:1 4994:1 6742:1 
0.857421875 4356:1 8086:1 8093:1 10597:1 
0.857421875 590:1 2157:1 4679:1 4973:1 5288:1 
1 2157:1 4973:1 
49.857421875 2157:1 4973:1 
0.857421875 590:1 4679:1 5288:1 
0.857421875 590:1 4679:1 
0.857421875 4679:1 
1 5288:1 
49.857421875 5288:1 
0.857421875 10412:1 
0.857421875 168:1 1893:1 9707:1 9726:1 11449:1 
0.857421875 11449:1 
0.857421875 168:1 1893:1 9707:1 9726:1 
0.857421875 1893:1 
0.857421875 168:1 9707:1 9726:1 
0.857421875 8144:1 
0.857421875 2362:1 
0.857421875 10119:1 
0.857421875 7301:1 10715:1 
0.857421875 3201:1 8826:1 
0.857421875 8826:1 
50 787:1 7253:1 8342:1 11309:1 12386:1 
0.857421875 787:1 8342:1 11309:1 12386:1 
0.857421875 8342:1 11309:1 12386:1 
1 482:1 692:1 787:1 1599:1 1621:1 2888:1 3404:1 3951:1 4380:1 4438:1 4902:1 5617:1 6314:1 6326:1 7344:1 7758:1 8906:1 8910:1 9158:1 9660:1 9912:1 10650:1 12679:1 12736:1 12870:1 13081:1 
49.857421875 482:1 692:1 787:1 1599:1 1621:1 2888:1 3404:1 3951:1 4380:1 4438:1 4902:1 5617:1 6314:1 6326:1 7344:1 7758:1 8906:1 8910:1 9158:1 9660:1 9912:1 10650:1 12679:1 12736:1 12870:1 13081:1 
50 3951:1 12679:1 
0.857421875 482:1 692:1 787:1 1599:1 1621:1 2888:1 3404:1 4380:1 4438:1 4902:1 5617:1 6314:1 6326:1 7344:1 8906:1 8910:1 9158:1 9660:1 9912:1 10650:1 12736:1 12870:1 13081:1 
0.857421875 4438:1 12870:1 
0.857421875 787:1 4380:1 5617:1 7344:1 9158:1 
1 482:1 692:1 787:1 1599:1 1621:1 2888:1 3404:1 6314:1 6326:1 8906:1 8910:1 9660:1 9912:1 10650:1 12736:1 13081:1 
49.857421875 482:1 692:1 787:1 1599:1 1621:1 2888:1 3404:1 6314:1 6326:1 8906:1 8910:1 9660:1 9912:1 10650:1 12736:1 13081:1 
0.857421875 482:1 692:1 787:1 1599:1 1621:1 2888:1 3404:1 6314:1 8906:1 8910:1 9912:1 12736:1 
0.857421875 2888:1 3404:1 
50 482:1 692:1 787:1 1599:1 1621:1 6314:1 8906:1 8910:1 9912:1 12736:1 
0.857421875 692:1 1599:1 1621:1 9912:1 12736:1 
0.857421875 10501:1 
50 2008:1 8271:1 10202:1 
50 8271:1 
0.857421875 782:1 2751:1 3858:1 4591:1 4612:1 4874:1 6419:1 7424:1 7880:1 8068:1 8271:1 8545:1 9526:1 10250:1 10560:1 11688:1 11875:1 12055:1 12058:1 12202:1 
50 782:1 3858:1 8068:1 8271:1 9526:1 11688:1 
50 782:1 3858:1 8068:1 8271:1 9526:1 11688:1 
0.857421875 782:1 3858:1 8068:1 11688:1 
0.857421875 8271:1 9526:1 
1 2751:1 6419:1 7880:1 10560:1 12055:1 12058:1 
0.857421875 4874:1 12202:1 
0.857421875 6663:1 12790:1 
50 27:1 1218:1 3031:1 3035:1 
50 27:1 1218:1 
1 143:1 288:1 2276:1 3937:1 4290:1 4297:1 4902:1 5427:1 6287:1 6555:1 7594:1 7811:1 8265:1 8291:1 8383:1 8752:1 8759:1 8978:1 9151:1 11531:1 12115:1 12889:1 
49.857421875 143:1 288:1 2276:1 3937:1 4290:1 4297:1 4902:1 5427:1 6287:1 6555:1 7594:1 7811:1 8265:1 8291:1 8383:1 8752:1 8759:1 8978:1 9151:1 11531:1 12115:1 12889:1 
50 8759:1 8978:1 9151:1 12889:1 
0.857421875 8978:1 9151:1 
50 143:1 2276:1 3937:1 4290:1 4297:1 4902:1 5427:1 6287:1 6555:1 7594:1 7811:1 8265:1 8291:1 8383:1 8752:1 11531:1 12115:1 
50 7594:1 7811:1 11531:1 
0.857421875 7811:1 
0.857421875 7594:1 11531:1 
50 143:1 2276:1 3937:1 4290:1 4297:1 4902:1 5427:1 6287:1 6555:1 8265:1 8291:1 8383:1 8752:1 12115:1 
0.857421875 4290:1 4297:1 8265:1 12115:1 
0.857421875 3937:1 4902:1 8291:1 8383:1 
0.857421875 143:1 2276:1 5427:1 6287:1 6555:1 8752:1 
0.857421875 143:1 6287:1 6555:1 8752:1 
0.857421875 488:1 522:1 527:1 1043:1 1064:1 1469:1 1574:1 1609:1 2199:1 2326:1 2905:1 3647:1 4259:1 4340:1 4477:1 5292:1 5536:1 5547:1 6261:1 6274:1 6966:1 7107:1 7590:1 7623:1 7852:1 7926:1 8721:1 8762:1 10083:1 10344:1 10389:1 10667:1 11789:1 
1 6966:1 10389:1 11789:1 
49.857421875 6966:1 10389:1 11789:1 
50 2905:1 4259:1 5536:1 5547:1 6261:1 7590:1 
1 527:1 4340:1 7852:1 10667:1 
0.857421875 1609:1 6274:1 
50 488:1 522:1 1043:1 1064:1 1469:1 1574:1 2199:1 2326:1 3647:1 4477:1 5292:1 7107:1 7623:1 8721:1 8762:1 10083:1 10344:1 
50 2326:1 3647:1 4477:1 7623:1 10083:1 
0.857421875 2199:1 
50 488:1 1043:1 7107:1 8721:1 8762:1 
50 488:1 7107:1 8762:1 
0.857421875 488:1 7107:1 
0.857421875 8721:1 
1 522:1 1064:1 1469:1 
1 7886:1 
50 7886:1 
49.857421875 7886:1 
0.857421875 288:1 7758:1 
50 949:1 4865:1 6082:1 6118:1 
49.857421875 201:1 2593:1 7311:1 10302:1 10576:1 10588:1 
0.857421875 9373:1 10182:1 
50 1035:1 1068:1 1683:1 2493:1 2548:1 3096:1 3298:1 3770:1 4791:1 9924:1 10558:1 10916:1 11376:1 11385:1 12243:1 
50 2548:1 
50 1035:1 1068:1 1683:1 2493:1 3096:1 3298:1 3770:1 4791:1 9924:1 10558:1 10916:1 11376:1 11385:1 12243:1 
0.857421875 1035:1 1068:1 2493:1 3298:1 4791:1 10558:1 
50 3298:1 10558:1 
0.857421875 787:1 1381:1 1575:1 2020:1 2336:1 3581:1 4197:1 6410:1 6670:1 6680:1 7268:1 7487:1 11020:1 11075:1 11871:1 12973:1 
0.857421875 12973:1 
50 787:1 1381:1 1575:1 2020:1 2336:1 3581:1 4197:1 6410:1 6670:1 6680:1 7268:1 7487:1 11020:1 11075:1 11871:1 
0.857421875 1381:1 7487:1 
50 787:1 1575:1 2020:1 2336:1 3581:1 4197:1 6410:1 6670:1 6680:1 7268:1 11020:1 11075:1 11871:1 
50 2020:1 6410:1 6680:1 
0.857421875 2020:1 
0.857421875 787:1 1575:1 2336:1 3581:1 4197:1 6670:1 7268:1 11020:1 11075:1 11871:1 
0.857421875 1575:1 3581:1 
0.857421875 787:1 2336:1 4197:1 6670:1 7268:1 11020:1 11075:1 11871:1 
0.857421875 787:1 2336:1 4197:1 6670:1 7268:1 11020:1 11871:1 
0.857421875 4197:1 7268:1 11020:1 11871:1 
0.857421875 11871:1 
1 3885:1 6909:1 7579:1 11535:1 12520:1 12522:1 
49.857421875 3885:1 6909:1 7579:1 11535:1 12520:1 12522:1 
0.857421875 4262:1 4338:1 6111:1 10297:1 13009:1 
1 4262:1 4338:1 10297:1 13009:1 
49.857421875 4262:1 4338:1 10297:1 13009:1 
0.857421875 1289:1 2346:1 4490:1 4611:1 6708:1 7253:1 8985:1 9552:1 12959:1 
0.857421875 4490:1 
0.857421875 1289:1 2346:1 4611:1 6708:1 7253:1 8985:1 9552:1 12959:1 
0.857421875 1289:1 2346:1 6708:1 8985:1 9552:1 
0.857421875 1289:1 8985:1 9552:1 
0.857421875 1289:1 
0.857421875 2346:1 6708:1 
0.857421875 4611:1 7253:1 12959:1 
0.857421875 4611:1 12959:1 
0.857421875 4611:1 
0.857421875 12959:1 
50 1622:1 3057:1 6187:1 6500:1 8057:1 8322:1 8664:1 10187:1 12336:1 
0.857421875 8057:1 
0.857421875 3057:1 8322:1 10187:1 
0.857421875 1622:1 6187:1 6500:1 8664:1 12336:1 
50 1622:1 6187:1 8664:1 12336:1 
0.857421875 1622:1 
0.857421875 6187:1 8664:1 12336:1 
0.857421875 6187:1 
0.857421875 6500:1 
0.857421875 2292:1 3676:1 4008:1 5063:1 5482:1 7669:1 8175:1 8765:1 10060:1 11511:1 
0.857421875 10060:1 11511:1 
0.857421875 3676:1 4008:1 5063:1 5482:1 8765:1 
0.857421875 4008:1 
1 3676:1 5063:1 5482:1 8765:1 
49.857421875 3676:1 5063:1 5482:1 8765:1 
0.857421875 3676:1 5063:1 8765:1 
1 5482:1 
0.857421875 1017:1 9894:1 11725:1 
0.857421875 1017:1 9894:1 
0.857421875 9894:1 
0.857421875 4110:1 4120:1 5073:1 12903:1 
50 4789:1 4940:1 
50 719:1 1906:1 7064:1 7687:1 7884:1 
1 5213:1 10758:1 
49.857421875 5213:1 10758:1 
0.857421875 4789:1 4940:1 9306:1 13154:1 
0.857421875 8732:1 13050:1 
1 2867:1 5345:1 12481:1 
49.857421875 2867:1 5345:1 12481:1 
0.857421875 5345:1 
1 674:1 1086:1 1457:1 1791:1 2355:1 3586:1 3647:1 3758:1 4477:1 5042:1 5045:1 5111:1 5558:1 6201:1 7516:1 7623:1 7875:1 7885:1 8598:1 8763:1 8799:1 9458:1 9835:1 10041:1 10083:1 10998:1 11022:1 11282:1 11413:1 11961:1 13141:1 
49.857421875 674:1 1086:1 1457:1 1791:1 2355:1 3586:1 3647:1 3758:1 4477:1 5042:1 5045:1 5111:1 5558:1 6201:1 7516:1 7623:1 7875:1 7885:1 8598:1 8763:1 8799:1 9458:1 9835:1 10041:1 10083:1 10998:1 11022:1 11282:1 11413:1 11961:1 13141:1 
50 674:1 1086:1 1457:1 1791:1 2355:1 3586:1 3647:1 3758:1 4477:1 5042:1 5045:1 5111:1 7516:1 7623:1 7875:1 7885:1 8598:1 8763:1 8799:1 9458:1 9835:1 10041:1 10083:1 10998:1 11022:1 11282:1 11413:1 11961:1 
0.857421875 1791:1 2355:1 3758:1 8799:1 9835:1 
50 3758:1 
0.857421875 1791:1 2355:1 8799:1 9835:1 
50 674:1 1086:1 1457:1 3586:1 3647:1 4477:1 5042:1 5045:1 5111:1 7516:1 7623:1 7875:1 7885:1 8598:1 8763:1 9458:1 10041:1 10083:1 10998:1 11022:1 11282:1 11413:1 11961:1 
50 8763:1 
0.857421875 1086:1 5111:1 7875:1 7885:1 8598:1 9458:1 10041:1 11022:1 
0.857421875 1086:1 5111:1 7875:1 7885:1 11022:1 
0.857421875 5111:1 7875:1 7885:1 11022:1 
0.857421875 1086:1 
0.857421875 8598:1 9458:1 10041:1 
0.857421875 674:1 3647:1 4477:1 5042:1 5045:1 7516:1 7623:1 10083:1 10998:1 11282:1 11413:1 
0.857421875 10998:1 11282:1 
0.857421875 674:1 3647:1 4477:1 5042:1 5045:1 7516:1 7623:1 10083:1 11413:1 
1 674:1 5042:1 5045:1 7516:1 11413:1 
49.857421875 674:1 5042:1 5045:1 7516:1 11413:1 
0.857421875 1457:1 
0.857421875 916:1 3926:1 8122:1 8296:1 9739:1 10201:1 12837:1 12839:1 
0.857421875 1017:1 4260:1 10859:1 
0.857421875 4260:1 10859:1 
0.857421875 4260:1 
0.857421875 10859:1 
50 1017:1 
50 833:1 1565:1 3149:1 3353:1 3975:1 5794:1 6326:1 7817:1 8176:1 8459:1 8653:1 9660:1 10650:1 11436:1 13081:1 
0.857421875 1565:1 
50 833:1 3149:1 3353:1 3975:1 5794:1 6326:1 7817:1 8176:1 8459:1 8653:1 9660:1 10650:1 11436:1 13081:1 
0.857421875 6326:1 9660:1 10650:1 13081:1 
50 833:1 3149:1 3353:1 3975:1 5794:1 7817:1 8176:1 8459:1 8653:1 11436:1 
0.857421875 3975:1 5794:1 8459:1 8653:1 
0.857421875 3975:1 8653:1 
0.857421875 5794:1 8459:1 
0.857421875 5794:1 
0.857421875 8459:1 
50 833:1 3149:1 3353:1 7817:1 8176:1 11436:1 
0.857421875 3149:1 3353:1 7817:1 8176:1 11436:1 
50 288:1 867:1 1871:1 1969:1 6663:1 11196:1 11200:1 11867:1 11900:1 12573:1 12790:1 
0.857421875 1969:1 6663:1 11867:1 11900:1 12790:1 
0.857421875 11867:1 
0.857421875 1969:1 6663:1 11900:1 12790:1 
50 3331:1 3423:1 9698:1 
0.857421875 6229:1 
0.857421875 1465:1 4890:1 4896:1 4946:1 8785:1 
0.857421875 4890:1 4896:1 4946:1 8785:1 
0.857421875 1465:1 
50 1678:1 2621:1 2744:1 5009:1 5653:1 5957:1 8620:1 9714:1 10201:1 11342:1 11943:1 
0.857421875 1678:1 2621:1 2744:1 5009:1 5653:1 5957:1 8620:1 10201:1 11342:1 11943:1 
0.857421875 1678:1 8620:1 11342:1 
50 2621:1 2744:1 5009:1 5653:1 5957:1 8620:1 10201:1 11342:1 11943:1 
50 2621:1 2744:1 5009:1 5653:1 5957:1 8620:1 10201:1 11342:1 11943:1 
0.857421875 2621:1 2744:1 5009:1 8620:1 10201:1 11342:1 11943:1 
0.857421875 2621:1 2744:1 5009:1 8620:1 11342:1 11943:1 
0.857421875 2744:1 5009:1 8620:1 11342:1 11943:1 
0.857421875 2744:1 5009:1 11943:1 
0.857421875 2621:1 
50 996:1 9919:1 
0.857421875 998:1 9714:1 10402:1 11171:1 11401:1 
1 9714:1 10402:1 11171:1 
49.857421875 9714:1 10402:1 11171:1 
50 9714:1 
50 996:1 7758:1 8918:1 9919:1 
0.857421875 996:1 8918:1 9919:1 
50 4379:1 
50 237:1 245:1 5911:1 7631:1 10210:1 
0.857421875 6698:1 
0.857421875 941:1 7989:1 8786:1 10294:1 10466:1 10862:1 11060:1 11523:1 
50 7989:1 10294:1 10862:1 11060:1 11523:1 
0.857421875 11060:1 
0.857421875 1377:1 
0.857421875 288:1 2676:1 3087:1 3195:1 3340:1 3433:1 4780:1 5997:1 6061:1 6143:1 6572:1 6702:1 7750:1 9631:1 9868:1 10369:1 10566:1 10999:1 11049:1 11993:1 11997:1 12401:1 13136:1 
0.857421875 288:1 3433:1 7750:1 10369:1 
0.857421875 3433:1 7750:1 10369:1 
0.857421875 3433:1 7750:1 
0.857421875 6572:1 
0.857421875 2676:1 3087:1 3340:1 5997:1 6061:1 6143:1 9631:1 9868:1 10566:1 11049:1 11993:1 11997:1 12401:1 13136:1 
0.857421875 2676:1 3087:1 3340:1 6061:1 6143:1 9631:1 9868:1 10566:1 12401:1 13136:1 
50 2676:1 3340:1 6061:1 6143:1 9631:1 9868:1 10566:1 12401:1 13136:1 
0.857421875 2676:1 3340:1 6061:1 6143:1 13136:1 
0.857421875 9868:1 10566:1 
0.857421875 9631:1 12401:1 
50 18:1 1006:1 3244:1 3626:1 3634:1 4262:1 4338:1 4487:1 5851:1 5880:1 6111:1 6413:1 6746:1 6818:1 7779:1 8004:1 8054:1 8060:1 10297:1 11001:1 11936:1 12763:1 13009:1 13102:1 
1 18:1 1006:1 3626:1 3634:1 4262:1 4338:1 4487:1 6111:1 6413:1 6818:1 7779:1 10297:1 13009:1 
49.857421875 18:1 1006:1 3626:1 3634:1 4262:1 4338:1 4487:1 6111:1 6413:1 6818:1 7779:1 10297:1 13009:1 
0.857421875 18:1 1006:1 3626:1 3634:1 4262:1 4338:1 4487:1 6413:1 6818:1 7779:1 10297:1 13009:1 
1 18:1 1006:1 3626:1 3634:1 4487:1 6413:1 6818:1 7779:1 
49.857421875 18:1 1006:1 3626:1 3634:1 4487:1 6413:1 6818:1 7779:1 
50 3244:1 5851:1 5880:1 6746:1 8004:1 8054:1 8060:1 11001:1 11936:1 12763:1 13102:1 
0.857421875 3244:1 5880:1 11936:1 
0.857421875 953:1 1005:1 1568:1 1590:1 1865:1 4452:1 5449:1 6376:1 8166:1 8186:1 8829:1 9221:1 9254:1 10348:1 10585:1 10782:1 11278:1 12532:1 12602:1 12696:1 
50 1590:1 8829:1 10782:1 
0.857421875 12602:1 
0.857421875 1005:1 4452:1 6376:1 8166:1 8186:1 9221:1 12532:1 12696:1 
50 4452:1 
0.857421875 1005:1 6376:1 8166:1 8186:1 9221:1 12532:1 12696:1 
0.857421875 9221:1 
0.857421875 1005:1 6376:1 8166:1 8186:1 12532:1 12696:1 
0.857421875 953:1 1568:1 1865:1 5449:1 9254:1 10348:1 10585:1 11278:1 
0.857421875 953:1 1568:1 9254:1 10585:1 
0.857421875 1865:1 5449:1 10348:1 11278:1 
0.857421875 5449:1 10348:1 11278:1 
50 2950:1 4470:1 4711:1 5355:1 5358:1 7857:1 8620:1 9063:1 9348:1 9401:1 9411:1 9547:1 10229:1 11342:1 11475:1 
0.857421875 4470:1 5355:1 5358:1 7857:1 8620:1 9063:1 9348:1 9401:1 9411:1 9547:1 11342:1 11475:1 
0.857421875 4470:1 7857:1 8620:1 11342:1 
0.857421875 4470:1 7857:1 
0.857421875 5355:1 5358:1 9063:1 9348:1 9401:1 9411:1 9547:1 11475:1 
1 5355:1 5358:1 9063:1 9348:1 9401:1 9411:1 11475:1 
50 9547:1 
50 9547:1 
0.857421875 4711:1 9547:1 10229:1 
50 9547:1 
0.857421875 787:1 3647:1 4477:1 7623:1 10083:1 11725:1 
0.857421875 11725:1 
0.857421875 787:1 3647:1 4477:1 7623:1 10083:1 
0.857421875 5853:1 
50 4845:1 5883:1 5997:1 8621:1 11049:1 11993:1 11997:1 
0.857421875 5997:1 11049:1 11993:1 11997:1 
49.857421875 4845:1 5883:1 8621:1 
0.857421875 2140:1 7716:1 9714:1 10707:1 10732:1 
50 9714:1 
0.857421875 2140:1 7716:1 10707:1 10732:1 
0.857421875 7716:1 10707:1 10732:1 
0.857421875 3566:1 5308:1 8958:1 9882:1 12123:1 12543:1 12701:1 
0.857421875 3566:1 5308:1 8958:1 12543:1 12701:1 
0.857421875 5308:1 8958:1 12543:1 12701:1 
0.857421875 12701:1 
0.857421875 5308:1 8958:1 12543:1 
0.857421875 3566:1 
0.857421875 9882:1 12123:1 
50 12123:1 
0.857421875 9882:1 
0.857421875 2752:1 4452:1 4992:1 5788:1 8873:1 10439:1 10440:1 10907:1 10922:1 10949:1 11753:1 12765:1 
0.857421875 387:1 787:1 2752:1 4036:1 6645:1 7253:1 7314:1 8141:1 10376:1 11224:1 12765:1 
0.857421875 10376:1 11224:1 
0.857421875 10376:1 
0.857421875 11224:1 
50 387:1 787:1 2752:1 4036:1 6645:1 7253:1 7314:1 8141:1 12765:1 
0.857421875 787:1 4036:1 6645:1 7253:1 7314:1 8141:1 
0.857421875 7314:1 
0.857421875 787:1 4036:1 6645:1 7253:1 8141:1 
0.857421875 787:1 4036:1 6645:1 8141:1 
0.857421875 4036:1 6645:1 8141:1 
0.857421875 2208:1 2716:1 6712:1 7253:1 
0.857421875 2208:1 2716:1 6712:1 
0.857421875 6712:1 
50 2208:1 2716:1 
0.857421875 4711:1 6805:1 7478:1 9554:1 10229:1 10503:1 
0.857421875 1554:1 2057:1 2088:1 2566:1 2569:1 2853:1 3196:1 4139:1 4672:1 5014:1 5720:1 5922:1 6441:1 6462:1 6907:1 7236:1 8710:1 9203:1 9306:1 9656:1 9680:1 9808:1 10275:1 10369:1 10402:1 10579:1 11171:1 11565:1 12199:1 12714:1 13148:1 13154:1 
0.857421875 1554:1 2566:1 2569:1 2853:1 3196:1 4139:1 5922:1 6462:1 6907:1 7236:1 9306:1 9656:1 9808:1 10579:1 11565:1 13148:1 13154:1 
0.857421875 3196:1 9808:1 13148:1 
0.857421875 9808:1 
0.857421875 3196:1 
0.857421875 13148:1 
0.857421875 1554:1 2566:1 2569:1 2853:1 4139:1 5922:1 6462:1 6907:1 7236:1 9306:1 9656:1 10579:1 11565:1 13154:1 
0.857421875 2853:1 
50 1554:1 2569:1 5922:1 7236:1 9656:1 10579:1 
50 1554:1 2569:1 
0.857421875 5922:1 7236:1 9656:1 10579:1 
0.857421875 10579:1 
0.857421875 5922:1 7236:1 9656:1 
0.857421875 7236:1 9656:1 
0.857421875 2566:1 4139:1 6462:1 6907:1 9306:1 11565:1 13154:1 
0.857421875 2566:1 9306:1 11565:1 13154:1 
0.857421875 11565:1 
50 9306:1 13154:1 
0.857421875 4139:1 6462:1 6907:1 
0.857421875 4139:1 6462:1 
0.857421875 6907:1 
0.857421875 2057:1 2088:1 4672:1 5014:1 6441:1 8710:1 9203:1 9680:1 10275:1 10369:1 10402:1 11171:1 12714:1 
0.857421875 2057:1 4672:1 10369:1 10402:1 11171:1 12714:1 
0.857421875 2057:1 4672:1 10369:1 12714:1 
50 4672:1 12714:1 
0.857421875 9203:1 
0.857421875 2088:1 9680:1 10275:1 
50 430:1 719:1 1906:1 2618:1 3565:1 4357:1 4360:1 4594:1 7064:1 7687:1 7884:1 9593:1 10106:1 11326:1 12226:1 
0.857421875 719:1 1906:1 2618:1 4357:1 4360:1 7064:1 7687:1 7884:1 9593:1 11326:1 12226:1 
0.857421875 719:1 1906:1 2618:1 7064:1 7687:1 7884:1 9593:1 12226:1 
0.857421875 9593:1 12226:1 
0.857421875 9593:1 
0.857421875 12226:1 
0.857421875 3126:1 3287:1 3303:1 6662:1 7938:1 11021:1 
0.857421875 3287:1 3303:1 7938:1 
1 3126:1 6662:1 11021:1 
0.857421875 1017:1 3087:1 4711:1 10229:1 10714:1 11263:1 
0.857421875 1017:1 4711:1 10229:1 11263:1 
0.857421875 4711:1 10229:1 11263:1 
50 11263:1 
50 3087:1 10714:1 
0.857421875 3087:1 
50 10714:1 
0.857421875 288:1 2073:1 3141:1 3145:1 6339:1 10993:1 12418:1 12542:1 
0.857421875 288:1 3141:1 3145:1 6339:1 12418:1 12542:1 
0.857421875 2073:1 10993:1 
0.857421875 2073:1 
1 105:1 288:1 2361:1 5489:1 7385:1 7564:1 8066:1 8277:1 9461:1 9463:1 9464:1 9589:1 11389:1 
49.857421875 105:1 288:1 2361:1 5489:1 7385:1 7564:1 8066:1 8277:1 9461:1 9463:1 9464:1 9589:1 11389:1 
50 105:1 2361:1 5489:1 7385:1 7564:1 8066:1 8277:1 9461:1 9463:1 9464:1 9589:1 11389:1 
0.857421875 105:1 
0.857421875 9589:1 11389:1 
1 2361:1 5489:1 7385:1 7564:1 8066:1 8277:1 9461:1 9463:1 9464:1 
49.857421875 2361:1 5489:1 7385:1 7564:1 8066:1 8277:1 9461:1 9463:1 9464:1 
0.857421875 5489:1 7564:1 
0.857421875 2361:1 7385:1 8066:1 8277:1 9461:1 9463:1 9464:1 
0.857421875 2361:1 7385:1 8066:1 9461:1 9463:1 9464:1 
0.857421875 8277:1 
0.857421875 1750:1 7989:1 8620:1 10104:1 10294:1 10862:1 11342:1 11523:1 
0.857421875 10104:1 
0.857421875 1750:1 7989:1 8620:1 10294:1 10862:1 11342:1 11523:1 
0.857421875 7989:1 10294:1 10862:1 11523:1 
0.857421875 1750:1 
0.857421875 1062:1 4676:1 5811:1 7736:1 7760:1 8278:1 13076:1 
0.857421875 7736:1 7760:1 8278:1 
50 1969:1 5152:1 6016:1 9494:1 11900:1 
0.857421875 5152:1 6016:1 9494:1 
0.857421875 1969:1 11900:1 
50 1387:1 2742:1 8564:1 10567:1 
50 1387:1 2742:1 8564:1 10567:1 
50 447:1 546:1 787:1 1387:1 9445:1 10567:1 11408:1 
0.857421875 447:1 11408:1 
0.857421875 546:1 787:1 1387:1 9445:1 10567:1 
0.857421875 546:1 1387:1 9445:1 10567:1 
50 67:1 317:1 787:1 1223:1 1642:1 3164:1 3587:1 4154:1 4311:1 5546:1 5615:1 5654:1 5848:1 6035:1 6112:1 6219:1 6728:1 6789:1 7193:1 8841:1 9095:1 9104:1 9849:1 10348:1 10594:1 11278:1 11320:1 11720:1 11725:1 11747:1 
0.857421875 67:1 317:1 787:1 1223:1 1642:1 3164:1 3587:1 5848:1 6035:1 6219:1 6728:1 6789:1 9095:1 9104:1 9849:1 11320:1 11720:1 11725:1 11747:1 
0.857421875 317:1 1223:1 1642:1 6035:1 6219:1 6728:1 6789:1 9095:1 9104:1 9849:1 11320:1 11720:1 11747:1 
0.857421875 9849:1 
1 6035:1 6789:1 11320:1 
1 6035:1 6789:1 9095:1 11320:1 
49.857421875 6035:1 6789:1 9095:1 11320:1 
0.857421875 67:1 787:1 3164:1 3587:1 5848:1 11725:1 
0.857421875 67:1 787:1 3164:1 5848:1 11725:1 
0.857421875 3164:1 
0.857421875 67:1 787:1 5848:1 11725:1 
0.857421875 67:1 787:1 5848:1 
0.857421875 67:1 5848:1 
50 4154:1 4311:1 5546:1 5615:1 5654:1 6112:1 7193:1 8841:1 10348:1 10594:1 11278:1 
0.857421875 4154:1 4311:1 5615:1 5654:1 10348:1 11278:1 
0.857421875 4154:1 4311:1 5615:1 5654:1 
0.857421875 1133:1 
0.857421875 288:1 3586:1 5910:1 6494:1 7923:1 11961:1 
50 288:1 3586:1 11961:1 
0.857421875 5910:1 6494:1 7923:1 
50 4327:1 4528:1 4575:1 5534:1 5555:1 7245:1 10092:1 
0.857421875 4528:1 10092:1 
0.857421875 6169:1 9377:1 
50 1940:1 4066:1 5720:1 7773:1 8535:1 9384:1 10861:1 12199:1 12610:1 
0.857421875 8535:1 
0.857421875 1940:1 4066:1 5720:1 9384:1 10861:1 12199:1 
0.857421875 11136:1 11258:1 
0.857421875 4317:1 9995:1 
50 83:1 142:1 1541:1 1549:1 7152:1 7660:1 8156:1 9312:1 10153:1 12677:1 12902:1 12947:1 
0.857421875 142:1 7660:1 8156:1 9312:1 10153:1 12677:1 12947:1 
0.857421875 142:1 9312:1 
0.857421875 7660:1 8156:1 10153:1 
1 12677:1 12947:1 
0.857421875 83:1 1541:1 1549:1 7152:1 12902:1 
0.857421875 83:1 7152:1 
0.857421875 7942:1 8234:1 10497:1 
50 721:1 6312:1 6320:1 12089:1 
50 721:1 6312:1 6320:1 12089:1 
1 3647:1 4477:1 7623:1 9365:1 10083:1 
49.857421875 3647:1 4477:1 7623:1 9365:1 10083:1 
0.857421875 2045:1 2554:1 3969:1 6663:1 7891:1 7896:1 8865:1 8867:1 12790:1 
0.857421875 2045:1 2554:1 3969:1 7891:1 7896:1 8865:1 8867:1 
50 2045:1 2554:1 8865:1 8867:1 
0.857421875 2554:1 
0.857421875 2045:1 8865:1 8867:1 
0.857421875 1484:1 2527:1 2843:1 3814:1 12001:1 
0.857421875 2843:1 12001:1 
0.857421875 1484:1 2527:1 3814:1 
50 2682:1 7950:1 9793:1 9984:1 10013:1 10836:1 
0.857421875 2682:1 9793:1 
0.857421875 2536:1 4692:1 5299:1 6071:1 6291:1 6294:1 
50 1519:1 3957:1 5211:1 7253:1 7919:1 8489:1 11585:1 12116:1 12904:1 
0.857421875 3957:1 5211:1 11585:1 
0.857421875 7919:1 12904:1 
0.857421875 1519:1 7253:1 8489:1 12116:1 
0.857421875 1519:1 8489:1 12116:1 
50 288:1 403:1 949:1 996:1 3196:1 3825:1 4711:1 4717:1 4865:1 5436:1 5720:1 6082:1 6118:1 6264:1 6361:1 7249:1 8271:1 8672:1 9808:1 9919:1 10018:1 10229:1 10306:1 12199:1 12509:1 13083:1 13148:1 
0.857421875 996:1 3825:1 6361:1 9919:1 10018:1 13083:1 
0.857421875 3825:1 6361:1 13083:1 
0.857421875 996:1 9919:1 10018:1 
0.857421875 10018:1 
50 403:1 949:1 3196:1 4711:1 4717:1 4865:1 5436:1 5720:1 6082:1 6118:1 6264:1 7249:1 8271:1 8672:1 9808:1 10229:1 10306:1 12199:1 12509:1 13148:1 
0.857421875 5720:1 8672:1 12199:1 
0.857421875 8672:1 
0.857421875 4717:1 
0.857421875 3196:1 4711:1 9808:1 10229:1 13148:1 
0.857421875 949:1 4865:1 6082:1 6118:1 8271:1 
0.857421875 842:1 1646:1 2079:1 2140:1 2151:1 5535:1 6040:1 6111:1 7218:1 7226:1 7251:1 7388:1 7435:1 8409:1 8514:1 8643:1 8944:1 9098:1 9654:1 10332:1 10735:1 10779:1 12372:1 12492:1 12761:1 
0.857421875 842:1 1646:1 2079:1 2140:1 2151:1 6040:1 7218:1 7226:1 7388:1 7435:1 8944:1 10332:1 12492:1 12761:1 
50 6040:1 7435:1 8944:1 
0.857421875 8944:1 
0.857421875 842:1 1646:1 2079:1 2140:1 2151:1 7218:1 7226:1 7388:1 10332:1 12492:1 12761:1 
0.857421875 2140:1 
1 842:1 1646:1 2079:1 2151:1 7218:1 7226:1 7388:1 10332:1 12492:1 12761:1 
49.857421875 842:1 1646:1 2079:1 2151:1 7218:1 7226:1 7388:1 10332:1 12492:1 12761:1 
0.857421875 1646:1 2079:1 7218:1 7226:1 10332:1 12492:1 
0.857421875 1646:1 7218:1 7226:1 
0.857421875 2079:1 10332:1 12492:1 
0.857421875 2079:1 12492:1 
0.857421875 842:1 2151:1 7388:1 12761:1 
0.857421875 842:1 
0.857421875 12761:1 
0.857421875 2151:1 7388:1 
1 5535:1 6111:1 7251:1 8409:1 8514:1 8643:1 9098:1 9654:1 10735:1 10779:1 12372:1 
49.857421875 5535:1 6111:1 7251:1 8409:1 8514:1 8643:1 9098:1 9654:1 10735:1 10779:1 12372:1 
0.857421875 5535:1 8409:1 8514:1 8643:1 9098:1 10735:1 10779:1 12372:1 
50 5535:1 8409:1 8643:1 9098:1 10779:1 12372:1 
0.857421875 8409:1 8643:1 9098:1 
0.857421875 5535:1 10779:1 12372:1 
0.857421875 8514:1 10735:1 
50 195:1 288:1 1230:1 2391:1 4711:1 4875:1 5315:1 5385:1 8151:1 9489:1 10229:1 11858:1 
0.857421875 5315:1 9489:1 
50 195:1 288:1 1230:1 2391:1 4711:1 4875:1 5385:1 8151:1 10229:1 11858:1 
50 195:1 1230:1 2391:1 4711:1 4875:1 5385:1 8151:1 10229:1 11858:1 
0.857421875 2391:1 
1 800:1 1230:1 1622:1 4875:1 5406:1 10059:1 10338:1 10542:1 11854:1 13240:1 
49.857421875 800:1 1230:1 1622:1 4875:1 5406:1 10059:1 10338:1 10542:1 11854:1 13240:1 
50 800:1 1622:1 
0.857421875 5406:1 10059:1 10338:1 10542:1 11854:1 13240:1 
0.857421875 10059:1 11854:1 
0.857421875 10059:1 
0.857421875 288:1 2276:1 2497:1 3233:1 5234:1 5427:1 5589:1 6100:1 7421:1 8389:1 9462:1 9616:1 10449:1 
0.857421875 288:1 6100:1 
0.857421875 6100:1 
0.857421875 2497:1 3233:1 8389:1 9462:1 
0.857421875 288:1 2276:1 5234:1 5427:1 5589:1 7421:1 9616:1 10449:1 
0.857421875 288:1 5234:1 
0.857421875 5234:1 
0.857421875 2276:1 5427:1 5589:1 7421:1 9616:1 10449:1 
0.857421875 10449:1 
0.857421875 2276:1 5427:1 5589:1 7421:1 9616:1 
50 1892:1 1940:1 1959:1 4066:1 5546:1 6112:1 7193:1 8759:1 8841:1 9384:1 10594:1 10861:1 12889:1 
50 5826:1 
50 93:1 416:1 677:1 2057:1 3416:1 3847:1 4370:1 4443:1 5433:1 5597:1 5814:1 6005:1 6746:1 6820:1 7176:1 7253:1 7354:1 7595:1 8004:1 8985:1 9298:1 9552:1 9933:1 10352:1 10369:1 10877:1 11469:1 11734:1 12249:1 12362:1 12763:1 12997:1 13102:1 13201:1 
50 93:1 416:1 677:1 2057:1 3416:1 3847:1 4370:1 4443:1 5433:1 5597:1 5814:1 6005:1 6746:1 6820:1 7176:1 7253:1 7354:1 7595:1 8004:1 8985:1 9298:1 9552:1 9933:1 10352:1 10369:1 10877:1 11469:1 11734:1 12249:1 12362:1 12763:1 12997:1 13102:1 13201:1 
0.857421875 5814:1 6005:1 7253:1 
0.857421875 2057:1 4370:1 6746:1 7595:1 8004:1 10369:1 12249:1 12362:1 12763:1 13102:1 13201:1 
0.857421875 2057:1 6746:1 8004:1 10369:1 12763:1 13102:1 
0.857421875 6746:1 8004:1 12763:1 13102:1 
0.857421875 4370:1 7595:1 12249:1 12362:1 13201:1 
0.857421875 7595:1 12249:1 12362:1 
0.857421875 93:1 416:1 677:1 3847:1 4443:1 5597:1 6820:1 7176:1 7354:1 8985:1 9298:1 9552:1 9933:1 10352:1 10877:1 11469:1 12997:1 
0.857421875 416:1 4443:1 6820:1 9298:1 9933:1 10352:1 12997:1 
0.857421875 12997:1 
0.857421875 416:1 4443:1 6820:1 9298:1 9933:1 10352:1 
0.857421875 416:1 4443:1 9298:1 9933:1 
0.857421875 6820:1 10352:1 
0.857421875 93:1 3847:1 5597:1 7176:1 7354:1 10877:1 11469:1 
0.857421875 93:1 5597:1 7354:1 
0.857421875 3847:1 7176:1 10877:1 11469:1 
0.857421875 3847:1 10877:1 11469:1 
50 677:1 
50 1329:1 3954:1 3962:1 6281:1 7859:1 10562:1 12264:1 12339:1 13010:1 13187:1 
0.857421875 6281:1 7859:1 10562:1 12264:1 13010:1 13187:1 
50 1200:1 1683:1 3338:1 3770:1 3830:1 3892:1 4209:1 5627:1 5861:1 5922:1 6150:1 6310:1 6401:1 6410:1 6680:1 7702:1 9487:1 10665:1 12410:1 
0.857421875 1683:1 3770:1 5627:1 5922:1 6150:1 6310:1 6401:1 6410:1 6680:1 7702:1 9487:1 
50 1683:1 3770:1 5627:1 6150:1 6310:1 6401:1 6410:1 6680:1 7702:1 9487:1 
0.857421875 6150:1 6310:1 6401:1 6410:1 6680:1 7702:1 
0.857421875 6310:1 6401:1 7702:1 
0.857421875 6410:1 6680:1 
0.857421875 1683:1 3770:1 5627:1 9487:1 
0.857421875 5627:1 9487:1 
0.857421875 1200:1 3338:1 3830:1 3892:1 4209:1 5861:1 10665:1 12410:1 
0.857421875 3338:1 3830:1 3892:1 12410:1 
0.857421875 1200:1 4209:1 5861:1 10665:1 
0.857421875 4209:1 
50 787:1 3647:1 4452:1 4477:1 4914:1 6746:1 7147:1 7247:1 7623:1 8004:1 8190:1 8379:1 8852:1 10083:1 12677:1 12763:1 12947:1 13102:1 
50 787:1 3647:1 4452:1 4477:1 4914:1 6746:1 7147:1 7623:1 8004:1 8190:1 8379:1 8852:1 10083:1 12677:1 12763:1 12947:1 13102:1 
0.857421875 4914:1 6746:1 8004:1 12763:1 13102:1 
0.857421875 787:1 4452:1 7147:1 8190:1 8379:1 8852:1 12677:1 12947:1 
50 8379:1 8852:1 
0.857421875 787:1 4452:1 7147:1 8190:1 12677:1 12947:1 
50 787:1 4452:1 12677:1 12947:1 
1 7147:1 8190:1 
49.857421875 7147:1 8190:1 
0.857421875 3276:1 3669:1 4327:1 4575:1 5158:1 5534:1 5555:1 5720:1 6356:1 6667:1 7245:1 7479:1 8176:1 8761:1 9598:1 9603:1 9903:1 11851:1 12199:1 12851:1 
50 3276:1 3669:1 4327:1 4575:1 5158:1 5534:1 5555:1 5720:1 6667:1 7245:1 8176:1 8761:1 9903:1 11851:1 12199:1 12851:1 
0.857421875 3276:1 3669:1 5158:1 5720:1 6667:1 8176:1 8761:1 9903:1 11851:1 12199:1 12851:1 
0.857421875 3669:1 11851:1 
0.857421875 3669:1 
0.857421875 11851:1 
1 3276:1 8176:1 12851:1 
49.857421875 3276:1 8176:1 12851:1 
0.857421875 5720:1 6667:1 8761:1 12199:1 
1 
50 4874:1 6111:1 12202:1 
0.857421875 293:1 
0.857421875 293:1 2751:1 6419:1 7253:1 7880:1 8449:1 10560:1 11420:1 12055:1 12058:1 
0.857421875 293:1 2751:1 6419:1 7880:1 10560:1 12055:1 12058:1 
49.857421875 2751:1 6419:1 7880:1 10560:1 12055:1 12058:1 
50 836:1 2195:1 2604:1 4357:1 4360:1 4902:1 5458:1 5546:1 6112:1 7193:1 8841:1 9000:1 10594:1 11326:1 11365:1 12034:1 12346:1 12892:1 
50 836:1 2195:1 2604:1 4357:1 4360:1 5458:1 5546:1 6112:1 7193:1 8841:1 9000:1 10594:1 11326:1 11365:1 12034:1 12346:1 12892:1 
0.857421875 2195:1 9000:1 12892:1 
0.857421875 2195:1 
0.857421875 836:1 2604:1 4357:1 4360:1 5458:1 11326:1 11365:1 12034:1 12346:1 
0.857421875 836:1 2604:1 5458:1 11365:1 12034:1 12346:1 
50 836:1 2604:1 12346:1 
0.857421875 2604:1 
0.857421875 5458:1 11365:1 12034:1 
0.857421875 11365:1 
0.857421875 5458:1 12034:1 
50 18:1 64:1 575:1 787:1 1003:1 1561:1 1904:1 2683:1 4178:1 4487:1 4492:1 4921:1 5231:1 6111:1 6638:1 6818:1 7688:1 7779:1 7941:1 9016:1 9119:1 9839:1 9877:1 11045:1 11103:1 11319:1 12325:1 12703:1 
50 
50 18:1 575:1 787:1 4487:1 5231:1 6111:1 6818:1 7688:1 7779:1 7941:1 9016:1 9119:1 11045:1 11319:1 12703:1 
0.857421875 5231:1 7941:1 
0.857421875 18:1 575:1 787:1 4487:1 6818:1 7688:1 7779:1 9016:1 9119:1 11045:1 11319:1 12703:1 
0.857421875 12703:1 
0.857421875 18:1 575:1 787:1 4487:1 6818:1 7688:1 7779:1 9016:1 9119:1 11045:1 11319:1 
0.857421875 7688:1 9016:1 9119:1 11319:1 
0.857421875 18:1 575:1 787:1 4487:1 6818:1 7779:1 11045:1 
0.857421875 575:1 787:1 11045:1 
0.857421875 575:1 11045:1 
50 64:1 1561:1 4178:1 6638:1 11103:1 12325:1 
0.857421875 11103:1 
0.857421875 4492:1 4921:1 9839:1 9877:1 
0.857421875 4921:1 
1 1003:1 1904:1 2683:1 
49.857421875 1003:1 1904:1 2683:1 
0.857421875 1904:1 2683:1 
1 2057:1 2336:1 5720:1 6670:1 6731:1 10016:1 10369:1 10402:1 11171:1 12199:1 
49.857421875 2057:1 2336:1 5720:1 6670:1 6731:1 10016:1 10369:1 10402:1 11171:1 12199:1 
0.857421875 2057:1 2336:1 5720:1 6670:1 10369:1 10402:1 11171:1 12199:1 
50 2057:1 
0.857421875 2336:1 6670:1 10402:1 11171:1 
0.857421875 2677:1 3647:1 4109:1 4423:1 4477:1 4706:1 5922:1 5992:1 7251:1 7623:1 8007:1 8620:1 9554:1 9654:1 9714:1 9875:1 10083:1 10432:1 11124:1 11342:1 11655:1 12267:1 12764:1 
0.857421875 2677:1 3647:1 4109:1 4477:1 7623:1 10083:1 11655:1 
0.857421875 2677:1 
50 
50 3647:1 4423:1 4477:1 4706:1 5922:1 5992:1 7251:1 7623:1 8007:1 8620:1 9654:1 9714:1 9875:1 10083:1 10432:1 11124:1 11342:1 12267:1 12764:1 
0.857421875 3647:1 4423:1 4477:1 4706:1 5922:1 7623:1 9714:1 9875:1 10083:1 
0.857421875 3647:1 4477:1 5922:1 7623:1 9875:1 10083:1 
0.857421875 3647:1 4477:1 7623:1 9875:1 10083:1 
0.857421875 12764:1 
0.857421875 5992:1 7251:1 8007:1 8620:1 9654:1 10432:1 11124:1 11342:1 12267:1 12764:1 
0.857421875 5992:1 8007:1 8620:1 10432:1 11124:1 11342:1 12267:1 12764:1 
0.857421875 8620:1 10432:1 11342:1 
0.857421875 5992:1 8007:1 11124:1 12267:1 
0.857421875 11124:1 
0.857421875 5992:1 8007:1 12267:1 
1 1017:1 3162:1 11071:1 
49.857421875 1017:1 3162:1 11071:1 
50 
0.857421875 11506:1 11557:1 
0.857421875 2578:1 4457:1 5806:1 5833:1 9159:1 9731:1 10142:1 12149:1 
50 2578:1 4457:1 5806:1 5833:1 9159:1 9731:1 12149:1 
0.857421875 9731:1 
0.857421875 4457:1 
0.857421875 5806:1 5833:1 9159:1 
0.857421875 288:1 3647:1 4477:1 5370:1 7623:1 10083:1 
0.857421875 288:1 5370:1 
50 425:1 2090:1 5464:1 
0.857421875 5464:1 
50 2943:1 
50 2674:1 6833:1 7772:1 9900:1 
0.857421875 6833:1 
1 1816:1 9714:1 
49.857421875 1816:1 9714:1 
0.857421875 2407:1 6637:1 7406:1 7408:1 9017:1 11006:1 
0.857421875 2777:1 4370:1 13201:1 
0.857421875 6919:1 
50 1690:1 9308:1 
50 1034:1 3511:1 7387:1 12723:1 
50 3511:1 7387:1 12723:1 
0.857421875 12723:1 
0.857421875 3511:1 7387:1 
50 286:1 677:1 5158:1 7418:1 8951:1 9903:1 
0.857421875 286:1 7418:1 8951:1 
0.857421875 5684:1 
0.857421875 2438:1 5238:1 5458:1 7870:1 10958:1 12034:1 
0.857421875 3833:1 6331:1 7253:1 7419:1 
0.857421875 3833:1 6331:1 7419:1 
0.857421875 3833:1 7419:1 
0.857421875 6331:1 
50 4500:1 7488:1 9264:1 9416:1 11770:1 
0.857421875 7488:1 9264:1 9416:1 
0.857421875 4500:1 11770:1 
50 2806:1 4718:1 5342:1 7017:1 9171:1 9671:1 11928:1 
1 4718:1 7017:1 9171:1 9671:1 11928:1 
49.857421875 4718:1 7017:1 9171:1 9671:1 11928:1 
0.857421875 4718:1 7017:1 9171:1 11928:1 
0.857421875 4718:1 
0.857421875 7017:1 9171:1 11928:1 
0.857421875 9671:1 
50 4329:1 8244:1 8438:1 
0.857421875 4329:1 8244:1 
0.857421875 8438:1 
0.857421875 1649:1 8960:1 
0.857421875 1224:1 1287:1 4620:1 4632:1 6133:1 11546:1 
50 482:1 6314:1 8906:1 8910:1 
50 2298:1 6621:1 6741:1 6867:1 7151:1 9574:1 9695:1 
0.857421875 6741:1 6867:1 9574:1 9695:1 
0.857421875 6867:1 9574:1 
0.857421875 6741:1 9695:1 
50 227:1 7143:1 10884:1 10888:1 11036:1 11140:1 12408:1 
50 10884:1 10888:1 11036:1 12408:1 
0.857421875 11100:1 
0.857421875 246:1 288:1 729:1 4036:1 5152:1 5305:1 5896:1 6016:1 8141:1 9494:1 9526:1 12660:1 
0.857421875 246:1 288:1 729:1 4036:1 5305:1 8141:1 12660:1 
0.857421875 246:1 729:1 4036:1 5305:1 8141:1 
0.857421875 246:1 4036:1 5305:1 8141:1 
0.857421875 4036:1 5305:1 8141:1 
0.857421875 4036:1 8141:1 
0.857421875 246:1 288:1 729:1 5152:1 5896:1 6016:1 9494:1 9526:1 
0.857421875 288:1 5152:1 6016:1 9494:1 9526:1 
0.857421875 246:1 729:1 5896:1 
0.857421875 246:1 5896:1 
0.857421875 5896:1 
50 
50 
0.857421875 323:1 4902:1 7489:1 8671:1 9333:1 9542:1 10329:1 
0.857421875 323:1 8671:1 9333:1 9542:1 10329:1 
0.857421875 8671:1 
0.857421875 323:1 9333:1 9542:1 10329:1 
0.857421875 323:1 
50 4902:1 7489:1 
50 
50 4902:1 7489:1 
1 4902:1 
50 
50 3673:1 5765:1 6770:1 7835:1 10338:1 10542:1 12911:1 
0.857421875 6770:1 12911:1 
0.857421875 12911:1 
0.857421875 6770:1 
50 
0.857421875 3673:1 5765:1 7835:1 10338:1 10542:1 
0.857421875 3673:1 5765:1 
0.857421875 7835:1 10338:1 10542:1 
0.857421875 7835:1 
50 288:1 1112:1 1692:1 2208:1 2716:1 3861:1 4708:1 6349:1 8725:1 8749:1 12864:1 13208:1 
0.857421875 3861:1 4708:1 8725:1 
50 1112:1 2208:1 2716:1 6349:1 8749:1 
0.857421875 7251:1 9654:1 
0.857421875 295:1 1944:1 3505:1 4357:1 4360:1 4959:1 7172:1 9424:1 11127:1 11326:1 
0.857421875 295:1 11127:1 
1 1944:1 3505:1 4357:1 4360:1 4959:1 7172:1 9424:1 11326:1 
49.857421875 1944:1 3505:1 4357:1 4360:1 4959:1 7172:1 9424:1 11326:1 
0.857421875 4357:1 4360:1 9424:1 11326:1 
50 638:1 1080:1 1788:1 1803:1 2636:1 3140:1 6828:1 
0.857421875 638:1 1788:1 1803:1 
50 
0.857421875 4233:1 
0.857421875 2241:1 6399:1 8022:1 
50 242:1 5387:1 7501:1 8430:1 10023:1 
0.857421875 5387:1 7501:1 8430:1 
0.857421875 2618:1 7966:1 10374:1 
0.857421875 7966:1 10374:1 
50 522:1 1064:1 1469:1 1629:1 3040:1 5119:1 5548:1 9626:1 
50 5548:1 9626:1 
0.857421875 522:1 1064:1 1469:1 1629:1 3040:1 5119:1 
50 522:1 1064:1 1469:1 5119:1 
0.857421875 1629:1 3040:1 
50 3040:1 
0.857421875 808:1 9714:1 
0.857421875 808:1 
50 998:1 1311:1 1683:1 2545:1 3426:1 3770:1 3966:1 5134:1 5546:1 6112:1 7193:1 8458:1 8841:1 10409:1 10594:1 11068:1 11401:1 12668:1 
50 998:1 1311:1 1683:1 2545:1 3426:1 3770:1 3966:1 5134:1 5546:1 6112:1 7193:1 8458:1 8841:1 10409:1 10594:1 11068:1 11401:1 12668:1 
1 1311:1 2545:1 3426:1 10409:1 11068:1 
0.857421875 998:1 1311:1 1683:1 2545:1 3426:1 3770:1 3966:1 5134:1 8458:1 10409:1 11068:1 11401:1 12668:1 
50 1311:1 1683:1 2545:1 3426:1 3770:1 3966:1 5134:1 8458:1 10409:1 11068:1 12668:1 
49.857421875 1311:1 2545:1 3426:1 10409:1 11068:1 
0.857421875 1683:1 3770:1 3966:1 5134:1 8458:1 12668:1 
0.857421875 3966:1 5134:1 8458:1 12668:1 
0.857421875 1683:1 3770:1 
50 
50 317:1 1200:1 1268:1 1269:1 3374:1 4370:1 5370:1 5861:1 6406:1 7253:1 9164:1 10665:1 10713:1 11634:1 13201:1 
0.857421875 317:1 1268:1 1269:1 3374:1 4370:1 5370:1 10713:1 13201:1 
0.857421875 4370:1 10713:1 13201:1 
0.857421875 10713:1 
0.857421875 317:1 5370:1 
50 1200:1 5861:1 6406:1 7253:1 9164:1 10665:1 11634:1 
0.857421875 9164:1 
0.857421875 1200:1 5861:1 10665:1 
0.857421875 6406:1 7253:1 11634:1 
0.857421875 6406:1 
0.857421875 11634:1 
50 13:1 280:1 350:1 364:1 370:1 2432:1 2905:1 3793:1 4259:1 4375:1 4860:1 4955:1 5536:1 5547:1 6157:1 6261:1 6549:1 6632:1 6754:1 7590:1 7997:1 9099:1 9302:1 9328:1 9979:1 10794:1 11255:1 11730:1 12070:1 12388:1 
50 280:1 364:1 370:1 4860:1 4955:1 6157:1 6549:1 7997:1 9328:1 9979:1 
1 350:1 4375:1 9099:1 12388:1 
0.857421875 3793:1 
0.857421875 13:1 2432:1 2905:1 4259:1 5536:1 5547:1 6261:1 6632:1 6754:1 7590:1 10794:1 11730:1 12070:1 
0.857421875 13:1 2432:1 2905:1 4259:1 5536:1 5547:1 6261:1 6632:1 7590:1 11730:1 12070:1 
50 2905:1 4259:1 5536:1 5547:1 6261:1 7590:1 
0.857421875 13:1 2432:1 6632:1 11730:1 12070:1 
0.857421875 12070:1 
0.857421875 13:1 2432:1 6632:1 11730:1 
0.857421875 244:1 851:1 992:1 1516:1 1520:1 2204:1 3559:1 3574:1 3584:1 3647:1 3880:1 3985:1 4056:1 4239:1 4477:1 5840:1 6029:1 6746:1 7376:1 7623:1 8004:1 8092:1 9783:1 10083:1 10720:1 11079:1 11485:1 12681:1 12763:1 13102:1 
50 244:1 851:1 3647:1 4056:1 4477:1 5840:1 7376:1 7623:1 8092:1 10083:1 11079:1 
50 244:1 851:1 4056:1 11079:1 
0.857421875 851:1 
0.857421875 992:1 3574:1 6029:1 9783:1 
0.857421875 992:1 3574:1 
0.857421875 6029:1 9783:1 
0.857421875 1516:1 1520:1 2204:1 3559:1 3584:1 3880:1 3985:1 4239:1 6746:1 8004:1 10720:1 11485:1 12681:1 12763:1 13102:1 
50 1516:1 1520:1 2204:1 3559:1 3584:1 3880:1 3985:1 6746:1 8004:1 10720:1 12681:1 12763:1 13102:1 
0.857421875 3985:1 10720:1 
0.857421875 1516:1 1520:1 2204:1 12681:1 
0.857421875 3559:1 3584:1 3880:1 6746:1 8004:1 12763:1 13102:1 
0.857421875 3559:1 3584:1 3880:1 
50 
50 
1 11717:1 
49.857421875 11717:1 
1 574:1 
50 
50 
49.857421875 574:1 
0.857421875 276:1 2944:1 5812:1 12633:1 13113:1 
50 276:1 5812:1 
50 
50 5720:1 12199:1 12973:1 
50 
50 
50 5720:1 12199:1 12973:1 
50 217:1 425:1 432:1 787:1 2090:1 2140:1 3586:1 4054:1 4197:1 4239:1 5159:1 6111:1 6132:1 6754:1 7268:1 7309:1 7322:1 7358:1 7719:1 8230:1 8974:1 9024:1 9217:1 9407:1 9554:1 10198:1 10730:1 10794:1 11020:1 11213:1 11485:1 11675:1 11961:1 12135:1 12960:1 
50 217:1 432:1 2140:1 3586:1 4054:1 6111:1 7309:1 7322:1 9024:1 9217:1 9407:1 9554:1 11675:1 11961:1 12135:1 12960:1 
50 217:1 432:1 2140:1 3586:1 4054:1 6111:1 7309:1 7322:1 9024:1 9217:1 9407:1 11675:1 11961:1 12135:1 12960:1 
0.857421875 217:1 4054:1 6111:1 7309:1 7322:1 9024:1 9217:1 
50 217:1 4054:1 7309:1 7322:1 9024:1 9217:1 
0.857421875 432:1 3586:1 9407:1 11675:1 11961:1 12135:1 
0.857421875 11675:1 12135:1 
0.857421875 432:1 3586:1 9407:1 11961:1 
0.857421875 2140:1 12960:1 
0.857421875 12960:1 
0.857421875 425:1 787:1 2090:1 4197:1 4239:1 5159:1 6132:1 6754:1 7268:1 7358:1 7719:1 8230:1 8974:1 10198:1 10730:1 10794:1 11020:1 11213:1 11485:1 
0.857421875 425:1 787:1 2090:1 4239:1 11485:1 
0.857421875 425:1 787:1 2090:1 
50 4239:1 11485:1 
1 4197:1 5159:1 6132:1 6754:1 7268:1 7358:1 7719:1 8230:1 8974:1 10198:1 10730:1 10794:1 11020:1 11213:1 
50 
49.857421875 4197:1 5159:1 6132:1 6754:1 7268:1 7358:1 7719:1 8230:1 8974:1 10198:1 10730:1 10794:1 11020:1 11213:1 
0.857421875 8974:1 
0.857421875 5159:1 6132:1 6754:1 7358:1 7719:1 8230:1 10198:1 10730:1 10794:1 
0.857421875 5159:1 6132:1 7358:1 7719:1 8230:1 10198:1 10730:1 
0.857421875 5159:1 7358:1 7719:1 
0.857421875 6132:1 8230:1 10198:1 10730:1 
0.857421875 6132:1 8230:1 10730:1 
0.857421875 8230:1 
0.857421875 6132:1 10730:1 
0.857421875 5014:1 8710:1 12121:1 12667:1 
0.857421875 288:1 2143:1 5175:1 5720:1 5951:1 6091:1 6657:1 7032:1 7651:1 7986:1 9157:1 10136:1 12199:1 
0.857421875 2143:1 5175:1 7651:1 
0.857421875 5951:1 6091:1 6657:1 7986:1 
0.857421875 6657:1 
0.857421875 6091:1 
0.857421875 5951:1 7986:1 
50 6731:1 10016:1 
50 4670:1 
50 4863:1 
0.857421875 1077:1 2181:1 4083:1 4357:1 4360:1 5121:1 7677:1 9096:1 11326:1 12820:1 
0.857421875 1077:1 2181:1 4083:1 4357:1 4360:1 5121:1 7677:1 11326:1 12820:1 
50 2181:1 4083:1 7677:1 
0.857421875 4083:1 
0.857421875 1077:1 4357:1 4360:1 5121:1 11326:1 12820:1 
0.857421875 1077:1 5121:1 12820:1 
50 9096:1 
50 
0.857421875 3624:1 4144:1 10069:1 10792:1 10798:1 
50 10792:1 10798:1 
50 3624:1 4144:1 10069:1 
50 
0.857421875 5426:1 6749:1 
50 3958:1 5074:1 8553:1 8556:1 10753:1 10991:1 11256:1 11640:1 13190:1 
0.857421875 3958:1 5074:1 13190:1 
0.857421875 430:1 2684:1 3565:1 4594:1 10106:1 12349:1 
0.857421875 2684:1 12349:1 
0.857421875 781:1 6517:1 
0.857421875 6517:1 
0.857421875 781:1 
0.857421875 795:1 1449:1 3276:1 4840:1 6448:1 8000:1 8001:1 8628:1 12409:1 12527:1 12851:1 
0.857421875 795:1 1449:1 3276:1 6448:1 8000:1 8628:1 12409:1 12527:1 12851:1 
0.857421875 3276:1 6448:1 8000:1 8628:1 12527:1 12851:1 
0.857421875 8000:1 8628:1 12527:1 
0.857421875 3276:1 6448:1 12851:1 
0.857421875 3276:1 12851:1 
0.857421875 6448:1 
0.857421875 795:1 1449:1 12409:1 
0.857421875 12409:1 
0.857421875 795:1 1449:1 
50 2154:1 2874:1 5767:1 
0.857421875 5767:1 
0.857421875 2154:1 2874:1 
50 16:1 168:1 1134:1 1480:1 2421:1 2459:1 2567:1 2603:1 2759:1 3647:1 4005:1 4253:1 4477:1 6038:1 7253:1 7623:1 8171:1 9153:1 9707:1 9726:1 10083:1 10137:1 10379:1 10498:1 11107:1 11866:1 12054:1 13037:1 13061:1 
50 168:1 1134:1 2459:1 3647:1 4477:1 7623:1 9153:1 9707:1 9726:1 10083:1 
0.857421875 168:1 1134:1 2459:1 3647:1 4477:1 7623:1 9707:1 9726:1 10083:1 
0.857421875 1134:1 2459:1 
0.857421875 168:1 3647:1 4477:1 7623:1 9707:1 9726:1 10083:1 
0.857421875 2567:1 6038:1 11866:1 13037:1 
0.857421875 1480:1 2759:1 10137:1 10379:1 13061:1 
0.857421875 9160:1 
50 527:1 4340:1 5582:1 7852:1 10667:1 12828:1 
49.857421875 527:1 4340:1 7852:1 10667:1 
0.857421875 10596:1 10870:1 
0.857421875 10596:1 
50 4090:1 6956:1 11761:1 12579:1 
0.857421875 11761:1 
0.857421875 4090:1 6956:1 12579:1 
0.857421875 235:1 1065:1 1589:1 1729:1 1747:1 1806:1 1808:1 1835:1 3126:1 4055:1 5360:1 6662:1 8914:1 9554:1 10608:1 10674:1 11021:1 11725:1 12281:1 12310:1 12377:1 12694:1 
0.857421875 235:1 1065:1 1589:1 1729:1 1747:1 1806:1 1808:1 1835:1 3126:1 4055:1 5360:1 6662:1 8914:1 10608:1 10674:1 11021:1 11725:1 12281:1 12310:1 12377:1 12694:1 
0.857421875 5360:1 
0.857421875 235:1 1065:1 1589:1 1729:1 1747:1 1806:1 1808:1 1835:1 3126:1 4055:1 6662:1 8914:1 10608:1 10674:1 11021:1 11725:1 12281:1 12310:1 12377:1 12694:1 
0.857421875 235:1 1065:1 1589:1 1729:1 1747:1 1806:1 1808:1 1835:1 3126:1 6662:1 8914:1 10608:1 10674:1 11021:1 11725:1 12281:1 12310:1 12377:1 12694:1 
0.857421875 1065:1 1806:1 1808:1 12694:1 
50 235:1 1589:1 1729:1 1747:1 1835:1 3126:1 6662:1 8914:1 10608:1 10674:1 11021:1 11725:1 12281:1 12310:1 12377:1 
50 3126:1 6662:1 11021:1 
49.857421875 3126:1 6662:1 11021:1 
0.857421875 1589:1 8914:1 12377:1 
0.857421875 1589:1 
0.857421875 8914:1 12377:1 
0.857421875 12377:1 
0.857421875 8914:1 
50 235:1 1729:1 1747:1 1835:1 10608:1 10674:1 11725:1 12281:1 12310:1 
0.857421875 235:1 1729:1 1747:1 1835:1 12281:1 12310:1 
50 721:1 2658:1 3802:1 4004:1 6312:1 6320:1 6631:1 8663:1 9344:1 12089:1 
0.857421875 6631:1 
0.857421875 5720:1 6770:1 12199:1 
0.857421875 322:1 833:1 1054:1 3149:1 3353:1 7817:1 11436:1 
1 833:1 3149:1 3353:1 7817:1 11436:1 
49.857421875 833:1 3149:1 3353:1 7817:1 11436:1 
0.857421875 3149:1 3353:1 7817:1 11436:1 
50 
0.857421875 1935:1 8675:1 12068:1 
50 2860:1 4026:1 4396:1 
0.857421875 4026:1 
0.857421875 2860:1 4396:1 
0.857421875 787:1 2057:1 2168:1 9168:1 9267:1 10369:1 
0.857421875 787:1 9168:1 9267:1 
0.857421875 9168:1 9267:1 
0.857421875 2057:1 2168:1 10369:1 
0.857421875 2168:1 10369:1 
50 
0.857421875 2168:1 
50 9562:1 
0.857421875 5720:1 11835:1 12199:1 
0.857421875 11835:1 
50 1136:1 6101:1 8085:1 10076:1 12798:1 
50 1136:1 6101:1 8085:1 10076:1 12798:1 
0.857421875 13060:1 
1 5406:1 10338:1 10542:1 13240:1 
1 10338:1 10542:1 
0.857421875 82:1 2004:1 3647:1 3868:1 4477:1 4711:1 4769:1 4837:1 4902:1 5812:1 7089:1 7623:1 7675:1 7756:1 8527:1 9741:1 10083:1 10229:1 10574:1 11193:1 12134:1 
0.857421875 2004:1 10574:1 11193:1 
50 
0.857421875 2004:1 11193:1 
0.857421875 11193:1 
0.857421875 2004:1 
0.857421875 9741:1 
0.857421875 82:1 4769:1 
0.857421875 3647:1 3868:1 4477:1 4837:1 7089:1 7623:1 10083:1 
0.857421875 3868:1 4837:1 
0.857421875 7089:1 
0.857421875 5812:1 
0.857421875 4711:1 7675:1 8527:1 10229:1 12134:1 
1 7675:1 8527:1 12134:1 
49.857421875 7675:1 8527:1 12134:1 
50 173:1 288:1 437:1 1155:1 1917:1 2276:1 2975:1 3647:1 4306:1 4370:1 4477:1 4622:1 5384:1 5409:1 5427:1 5498:1 7623:1 8040:1 8396:1 8869:1 9227:1 9432:1 9534:1 9888:1 10083:1 10480:1 11721:1 12122:1 12230:1 13092:1 13201:1 
50 5498:1 10480:1 
0.857421875 173:1 288:1 437:1 1155:1 1917:1 2276:1 2975:1 3647:1 4306:1 4370:1 4477:1 4622:1 5384:1 5409:1 5427:1 7623:1 8040:1 8396:1 9227:1 9432:1 9534:1 9888:1 10083:1 11721:1 12122:1 12230:1 13092:1 13201:1 
0.857421875 437:1 2975:1 9534:1 
0.857421875 173:1 288:1 1155:1 1917:1 2276:1 3647:1 4306:1 4370:1 4477:1 4622:1 5384:1 5409:1 5427:1 7623:1 8040:1 8396:1 9227:1 9432:1 9888:1 10083:1 11721:1 12122:1 12230:1 13092:1 13201:1 
0.857421875 173:1 1917:1 2276:1 4306:1 4370:1 4622:1 5427:1 8040:1 8396:1 9432:1 11721:1 12122:1 13092:1 13201:1 
0.857421875 8040:1 9432:1 11721:1 13092:1 
0.857421875 173:1 1917:1 2276:1 4306:1 4622:1 5427:1 8396:1 12122:1 
0.857421875 12230:1 
0.857421875 288:1 3647:1 4477:1 7623:1 10083:1 
50 5384:1 5409:1 9227:1 
0.857421875 12449:1 
0.857421875 490:1 10783:1 
0.857421875 9989:1 
0.857421875 430:1 1219:1 3565:1 4594:1 10106:1 11987:1 
0.857421875 1219:1 11987:1 
0.857421875 430:1 3565:1 4594:1 10106:1 
50 288:1 2950:1 6111:1 
50 
0.857421875 2950:1 
49.857421875 6111:1 
50 
50 
0.857421875 18:1 4487:1 6818:1 7779:1 8620:1 9164:1 9555:1 11233:1 11342:1 
0.857421875 8620:1 9555:1 11342:1 
0.857421875 9555:1 
0.857421875 18:1 4487:1 6818:1 7779:1 9164:1 11233:1 
0.857421875 18:1 4487:1 6818:1 7779:1 11233:1 
0.857421875 11233:1 
0.857421875 623:1 5291:1 5603:1 6667:1 8761:1 9102:1 12024:1 
0.857421875 12024:1 
0.857421875 5603:1 6667:1 8761:1 9102:1 
0.857421875 5603:1 9102:1 
50 3346:1 4321:1 8633:1 9428:1 9498:1 10155:1 
0.857421875 3346:1 4321:1 8633:1 10155:1 
0.857421875 4321:1 
50 288:1 1203:1 1893:1 4169:1 5258:1 5520:1 5708:1 5962:1 5983:1 12235:1 12818:1 
0.857421875 1203:1 5258:1 5962:1 5983:1 
50 288:1 1893:1 4169:1 5520:1 5708:1 12235:1 12818:1 
50 4169:1 12235:1 
0.857421875 12235:1 
0.857421875 4169:1 
0.857421875 288:1 1893:1 5520:1 5708:1 12818:1 
0.857421875 288:1 5520:1 
0.857421875 5520:1 
0.857421875 1893:1 5708:1 12818:1 
50 777:1 1021:1 4711:1 4881:1 6293:1 7096:1 9162:1 9533:1 9802:1 10229:1 10686:1 11967:1 
50 777:1 1021:1 4881:1 6293:1 7096:1 9162:1 9533:1 9802:1 10686:1 11967:1 
0.857421875 777:1 1021:1 4881:1 6293:1 7096:1 9162:1 10686:1 11967:1 
0.857421875 777:1 
0.857421875 1021:1 4881:1 6293:1 7096:1 9162:1 10686:1 11967:1 
0.857421875 1021:1 6293:1 7096:1 9162:1 
0.857421875 4881:1 10686:1 11967:1 
50 329:1 1219:1 1392:1 2057:1 5281:1 6410:1 6680:1 7253:1 7784:1 7827:1 7877:1 8205:1 9990:1 10369:1 10436:1 10908:1 11410:1 11987:1 13164:1 
50 
0.857421875 1219:1 1392:1 10436:1 11410:1 11987:1 13164:1 
0.857421875 1219:1 10436:1 11987:1 
0.857421875 1392:1 11410:1 13164:1 
0.857421875 2057:1 5281:1 6410:1 6680:1 7877:1 10369:1 10908:1 
50 5281:1 7877:1 
50 10908:1 
50 
0.857421875 329:1 7253:1 7784:1 7827:1 8205:1 9990:1 
0.857421875 329:1 7784:1 7827:1 8205:1 9990:1 
0.857421875 7784:1 
50 5498:1 5546:1 6112:1 7193:1 8841:1 10480:1 10594:1 
50 5498:1 10480:1 
0.857421875 291:1 
50 7174:1 
0.857421875 5546:1 6112:1 7193:1 8841:1 10594:1 
50 5720:1 6278:1 12199:1 
0.857421875 7066:1 7303:1 
0.857421875 1159:1 2857:1 3720:1 8020:1 8620:1 10432:1 11342:1 
0.857421875 1159:1 2857:1 3720:1 8020:1 
50 
0.857421875 2276:1 4327:1 4575:1 4590:1 5427:1 5534:1 5555:1 5621:1 7245:1 13036:1 
0.857421875 4590:1 13036:1 
0.857421875 13036:1 
0.857421875 4590:1 
0.857421875 2276:1 4327:1 4575:1 5427:1 5534:1 5555:1 5621:1 7245:1 
0.857421875 2276:1 4327:1 4575:1 5427:1 5534:1 5555:1 7245:1 
0.857421875 2276:1 5427:1 
50 998:1 4902:1 5384:1 5409:1 9227:1 10489:1 11401:1 
0.857421875 4902:1 5384:1 5409:1 9227:1 
0.857421875 9451:1 9672:1 11831:1 
0.857421875 11831:1 
1 9451:1 9672:1 
49.857421875 9451:1 9672:1 
50 288:1 574:1 1474:1 1492:1 1582:1 2392:1 2581:1 4357:1 4360:1 4630:1 5283:1 5821:1 6482:1 6502:1 6772:1 6812:1 8637:1 8665:1 8788:1 9435:1 9804:1 10072:1 10103:1 10337:1 10771:1 11326:1 13210:1 
0.857421875 1582:1 5821:1 8788:1 9804:1 
50 6772:1 6812:1 8637:1 10337:1 
0.857421875 8637:1 
0.857421875 6772:1 6812:1 10337:1 
0.857421875 288:1 574:1 1474:1 2392:1 
0.857421875 288:1 574:1 
0.857421875 288:1 1474:1 2392:1 
0.857421875 288:1 1474:1 
0.857421875 1474:1 
0.857421875 2392:1 
50 9435:1 10771:1 13210:1 
50 2581:1 6482:1 6502:1 
0.857421875 248:1 3345:1 6302:1 12591:1 
0.857421875 2808:1 10937:1 
0.857421875 5503:1 6222:1 8099:1 8238:1 11755:1 12703:1 
0.857421875 6222:1 8238:1 
0.857421875 5503:1 8099:1 11755:1 12703:1 
0.857421875 5503:1 8099:1 11755:1 
0.857421875 527:1 816:1 1683:1 1784:1 2289:1 3770:1 3966:1 4340:1 4576:1 4591:1 4630:1 5134:1 5283:1 6763:1 7074:1 7253:1 7852:1 8038:1 8458:1 9714:1 10390:1 10667:1 11926:1 12668:1 
0.857421875 7074:1 
0.857421875 527:1 1683:1 1784:1 2289:1 3770:1 3966:1 4340:1 4576:1 4591:1 4630:1 5134:1 5283:1 6763:1 7852:1 8458:1 10390:1 10667:1 11926:1 12668:1 
0.857421875 527:1 1784:1 4340:1 4576:1 6763:1 7852:1 10390:1 10667:1 
0.857421875 1784:1 4576:1 6763:1 10390:1 
50 1683:1 2289:1 3770:1 3966:1 4591:1 4630:1 5134:1 5283:1 8458:1 11926:1 12668:1 
50 
50 1683:1 2289:1 3770:1 3966:1 4591:1 4630:1 5134:1 5283:1 8458:1 11926:1 12668:1 
0.857421875 2289:1 11926:1 
50 1683:1 3770:1 3966:1 4591:1 4630:1 5134:1 5283:1 8458:1 12668:1 
0.857421875 1683:1 3770:1 3966:1 4630:1 5134:1 5283:1 8458:1 12668:1 
50 1683:1 3770:1 4630:1 5283:1 
0.857421875 322:1 1054:1 1159:1 1940:1 2857:1 3720:1 4066:1 6356:1 7479:1 8020:1 8031:1 9384:1 9598:1 9603:1 10861:1 11699:1 
50 6356:1 7479:1 9598:1 9603:1 
50 322:1 1054:1 1159:1 1940:1 2857:1 3720:1 4066:1 8020:1 8031:1 9384:1 10861:1 11699:1 
0.857421875 1940:1 4066:1 9384:1 10861:1 
50 322:1 1054:1 1159:1 2857:1 3720:1 8020:1 8031:1 11699:1 
0.857421875 1159:1 2857:1 3720:1 8020:1 8031:1 11699:1 
0.857421875 8031:1 11699:1 
0.857421875 119:1 5622:1 7286:1 8889:1 11180:1 
0.857421875 11180:1 
0.857421875 119:1 5622:1 7286:1 8889:1 
