svm_type c_svc
kernel_type rbf
gamma 50
nr_class 2
total_sv 4066
rho 0.918649
label 1 -1
nr_sv 290 3776
SV
1.91796875 403:1 2013:1 3852:1 4776:1 5331:1 5436:1 6264:1 8719:1 9606:1 10180:1 10306:1 11858:1 12509:1 12975:1 
1.91796875 403:1 3852:1 5331:1 5436:1 6264:1 8719:1 9606:1 10306:1 12509:1 
50 403:1 5436:1 6264:1 10306:1 12509:1 
50 2013:1 10180:1 11858:1 12975:1 
50 269:1 1576:1 1918:1 2748:1 3906:1 5067:1 5401:1 5835:1 6003:1 6027:1 6304:1 6824:1 7394:1 8143:1 8317:1 8563:1 8703:1 8780:1 8872:1 8999:1 9042:1 9792:1 9917:1 10117:1 10174:1 10226:1 10287:1 10295:1 10656:1 11030:1 12241:1 13152:1 
1.91796875 269:1 1576:1 1918:1 5067:1 6003:1 6027:1 6304:1 7394:1 8143:1 8317:1 8563:1 8703:1 8780:1 8872:1 9042:1 9792:1 9917:1 10117:1 10226:1 10287:1 10295:1 10656:1 11030:1 12241:1 13152:1 
1.91796875 8317:1 8780:1 9042:1 13152:1 
1.91796875 109:1 688:1 1260:1 2045:1 2475:1 3183:1 3189:1 3541:1 3792:1 4992:1 5599:1 5788:1 6663:1 7081:1 7253:1 7668:1 8058:1 8623:1 8865:1 8867:1 9188:1 9236:1 10439:1 10440:1 10907:1 10922:1 10949:1 11753:1 12790:1 
1.91796875 2475:1 3189:1 
50 109:1 2045:1 3183:1 3541:1 3792:1 4992:1 5599:1 5788:1 6663:1 7081:1 7253:1 7668:1 8058:1 8623:1 8865:1 8867:1 9188:1 9236:1 10439:1 10440:1 10907:1 10922:1 10949:1 11753:1 12790:1 
1.91796875 4992:1 5599:1 5788:1 7081:1 7253:1 8058:1 10439:1 10440:1 10907:1 10922:1 10949:1 11753:1 
1.91796875 4992:1 5599:1 5788:1 7081:1 8058:1 10439:1 10440:1 10907:1 10922:1 10949:1 11753:1 
50 727:1 1668:1 3006:1 4826:1 8349:1 11412:1 13021:1 
50 3068:1 12639:1 
1.91796875 125:1 4731:1 4992:1 5600:1 5788:1 6542:1 8420:1 10439:1 10440:1 10907:1 10922:1 10949:1 11753:1 
50 125:1 4731:1 5600:1 6542:1 8420:1 
50 125:1 4731:1 5600:1 6542:1 8420:1 
1.91796875 5600:1 6542:1 8420:1 
1.91796875 12186:1 
50 10198:1 
50 2276:1 2336:1 2677:1 5427:1 5541:1 6670:1 7992:1 8008:1 8687:1 11044:1 11975:1 
50 2276:1 2336:1 5427:1 5541:1 6670:1 7992:1 8008:1 8687:1 11044:1 11975:1 
50 5541:1 7992:1 8008:1 
50 5541:1 7992:1 
1.91796875 2276:1 2336:1 5427:1 6670:1 8687:1 11044:1 11975:1 
50 3316:1 10522:1 
1.91796875 317:1 2581:1 2618:1 6482:1 6502:1 
50 2581:1 6482:1 6502:1 
1.91796875 2817:1 3844:1 
1.91796875 3844:1 
50 2817:1 
1.91796875 12112:1 
50 5052:1 10348:1 11278:1 
50 430:1 674:1 1901:1 3354:1 3565:1 4357:1 4360:1 4594:1 5042:1 5045:1 5720:1 5922:1 7516:1 10106:1 11326:1 12062:1 12199:1 
1.91796875 787:1 3647:1 4477:1 5772:1 5822:1 6509:1 7170:1 7623:1 10083:1 11701:1 13078:1 13198:1 
50 5772:1 5822:1 7170:1 11701:1 13078:1 13198:1 
50 8553:1 8556:1 10991:1 11256:1 11640:1 
50 5406:1 13240:1 
1.91796875 288:1 1442:1 3596:1 4471:1 4901:1 5014:1 5475:1 5584:1 5716:1 5720:1 5845:1 6076:1 7019:1 7347:1 8710:1 9239:1 9554:1 12081:1 12199:1 
1.91796875 3596:1 4471:1 5716:1 6076:1 9239:1 9554:1 
1.91796875 9239:1 
50 9239:1 
50 2057:1 2444:1 4357:1 4360:1 4414:1 4902:1 5029:1 5494:1 5999:1 7253:1 8617:1 8713:1 9899:1 10369:1 11326:1 11497:1 11619:1 12541:1 
50 5494:1 8617:1 11497:1 
1.91796875 5494:1 11497:1 
1.91796875 2288:1 4572:1 4595:1 7920:1 
1.91796875 867:1 1942:1 2239:1 2433:1 3689:1 3993:1 4732:1 5163:1 5764:1 6663:1 8907:1 10133:1 10166:1 11196:1 11200:1 11208:1 11210:1 12573:1 12790:1 12970:1 
1.91796875 867:1 1942:1 2239:1 2433:1 3993:1 4732:1 5163:1 5764:1 6663:1 8907:1 10133:1 10166:1 11196:1 11200:1 11208:1 11210:1 12573:1 12790:1 12970:1 
50 867:1 1942:1 2239:1 2433:1 3993:1 4732:1 5163:1 5764:1 6663:1 8907:1 10133:1 10166:1 11196:1 11200:1 11208:1 11210:1 12573:1 12790:1 12970:1 
1.91796875 867:1 2433:1 6663:1 11196:1 11200:1 12573:1 12790:1 
1.91796875 867:1 11196:1 11200:1 12573:1 
1.91796875 5163:1 
1.91796875 1822:1 2394:1 2499:1 2677:1 4217:1 4361:1 4711:1 4754:1 5187:1 5720:1 6895:1 7079:1 8013:1 8873:1 9164:1 10055:1 10150:1 10229:1 11085:1 11748:1 12199:1 12781:1 
1.91796875 2394:1 2499:1 2677:1 4217:1 4361:1 4711:1 5187:1 5720:1 6895:1 7079:1 8013:1 8873:1 9164:1 10055:1 10150:1 10229:1 11085:1 11748:1 12199:1 12781:1 
1.91796875 2499:1 2677:1 4361:1 4711:1 5187:1 5720:1 6895:1 8013:1 8873:1 9164:1 10055:1 10150:1 10229:1 11085:1 12199:1 12781:1 
1.91796875 2677:1 4711:1 5720:1 6895:1 8873:1 10229:1 11085:1 12199:1 
1.91796875 2677:1 5720:1 6895:1 8873:1 11085:1 12199:1 
1.91796875 5720:1 6895:1 8873:1 11085:1 12199:1 
50 5720:1 6895:1 8873:1 11085:1 12199:1 
50 288:1 3647:1 4361:1 4477:1 4762:1 4785:1 7623:1 7907:1 8371:1 9699:1 9704:1 10055:1 10083:1 10150:1 11131:1 
50 288:1 3647:1 4361:1 4477:1 4762:1 4785:1 7623:1 7907:1 8371:1 9699:1 9704:1 10055:1 10083:1 10150:1 11131:1 
50 4762:1 4785:1 7907:1 11131:1 
50 4772:1 4992:1 5788:1 6394:1 10439:1 10440:1 10809:1 10907:1 10922:1 10949:1 11753:1 
1.91796875 7273:1 8176:1 10338:1 10542:1 
50 7273:1 8176:1 10338:1 10542:1 
1.91796875 7273:1 
50 217:1 4054:1 7309:1 7322:1 9024:1 9217:1 
1.91796875 4591:1 7756:1 
1.91796875 7756:1 
1.91796875 1251:1 2070:1 2140:1 2439:1 2475:1 4887:1 6111:1 7043:1 7273:1 10953:1 10967:1 11833:1 11838:1 
1.91796875 2439:1 2475:1 4887:1 7273:1 10953:1 11833:1 11838:1 
50 2439:1 4887:1 7273:1 10953:1 
50 2439:1 4887:1 10953:1 
50 2475:1 11833:1 11838:1 
1.91796875 2618:1 6731:1 10016:1 
50 360:1 1124:1 2605:1 2676:1 3103:1 3340:1 4093:1 4219:1 4310:1 5158:1 5720:1 5731:1 6061:1 6143:1 6272:1 6345:1 6573:1 6663:1 7628:1 8757:1 9034:1 9167:1 9300:1 9640:1 9903:1 12103:1 12199:1 12480:1 12790:1 13136:1 13196:1 
50 360:1 1124:1 2605:1 2676:1 3103:1 3340:1 4093:1 4219:1 4310:1 5158:1 5720:1 5731:1 6061:1 6143:1 6272:1 6345:1 6573:1 6663:1 7628:1 8757:1 9034:1 9167:1 9300:1 9640:1 9903:1 12103:1 12199:1 12480:1 12790:1 13136:1 13196:1 
50 360:1 1124:1 2676:1 3103:1 3340:1 4093:1 4310:1 5731:1 6061:1 6143:1 6345:1 6573:1 6663:1 7628:1 8757:1 9034:1 9167:1 9300:1 9640:1 12103:1 12480:1 12790:1 13136:1 13196:1 
1.91796875 1124:1 7628:1 
1.91796875 2276:1 4776:1 5427:1 9392:1 
50 2276:1 5427:1 9392:1 
1.91796875 1940:1 3260:1 4066:1 5163:1 8759:1 9384:1 9451:1 9672:1 10861:1 12104:1 12889:1 
50 1940:1 3260:1 4066:1 5163:1 8759:1 9384:1 10861:1 12889:1 
50 1940:1 3260:1 4066:1 5163:1 9384:1 10861:1 
50 9451:1 9672:1 12104:1 
1.91796875 12104:1 
50 288:1 435:1 437:1 546:1 1883:1 2276:1 2677:1 2975:1 4253:1 4591:1 5427:1 6150:1 6627:1 6754:1 7251:1 7989:1 8620:1 9445:1 9534:1 9654:1 10294:1 10692:1 10794:1 10862:1 11107:1 11342:1 11523:1 11807:1 
50 288:1 435:1 437:1 546:1 1883:1 2276:1 2677:1 2975:1 4253:1 4591:1 5427:1 6150:1 6627:1 6754:1 7251:1 7989:1 8620:1 9445:1 9534:1 9654:1 10294:1 10692:1 10794:1 10862:1 11107:1 11342:1 11523:1 11807:1 
1.91796875 435:1 
1.91796875 288:1 437:1 546:1 2276:1 2677:1 2975:1 4253:1 5427:1 6150:1 6754:1 7251:1 7989:1 8620:1 9445:1 9534:1 9654:1 10294:1 10794:1 10862:1 11107:1 11342:1 11523:1 11807:1 
50 7756:1 
1.91796875 104:1 11856:1 
50 282:1 1431:1 1434:1 2276:1 4089:1 5427:1 6560:1 6636:1 7788:1 7810:1 10350:1 
1.91796875 282:1 1431:1 1434:1 2276:1 4089:1 5427:1 6636:1 7788:1 7810:1 10350:1 
1.91796875 727:1 1397:1 1875:1 3006:1 3079:1 3837:1 5560:1 6177:1 6333:1 6896:1 6969:1 8283:1 8349:1 8524:1 9148:1 9896:1 10869:1 12589:1 12682:1 13021:1 13208:1 
50 727:1 1397:1 1875:1 3006:1 3079:1 3837:1 5560:1 6177:1 6333:1 6896:1 6969:1 8283:1 8349:1 8524:1 9148:1 9896:1 10869:1 12589:1 12682:1 13021:1 13208:1 
50 727:1 3006:1 8349:1 13021:1 
1.91796875 1397:1 3079:1 3837:1 5560:1 6177:1 6333:1 6896:1 8524:1 9148:1 9896:1 10869:1 12589:1 12682:1 13208:1 
1.91796875 1397:1 5560:1 8524:1 10869:1 13208:1 
1.91796875 13208:1 
1.91796875 288:1 360:1 1159:1 2857:1 3005:1 3720:1 4310:1 5589:1 5731:1 6573:1 7253:1 7421:1 8020:1 8757:1 9034:1 9616:1 9640:1 13196:1 
50 288:1 360:1 1159:1 2857:1 3720:1 4310:1 5731:1 6573:1 8020:1 8757:1 9034:1 9640:1 13196:1 
1.91796875 360:1 1159:1 2857:1 3720:1 4310:1 5731:1 6573:1 8020:1 8757:1 9034:1 9640:1 13196:1 
50 916:1 3926:1 8122:1 8296:1 9739:1 12837:1 12839:1 
1.91796875 1798:1 7024:1 8630:1 12366:1 
1.91796875 667:1 1158:1 1992:1 5023:1 5737:1 6746:1 8004:1 9960:1 9978:1 12763:1 13102:1 
1.91796875 667:1 1158:1 1992:1 5023:1 5737:1 9960:1 9978:1 
1.91796875 2519:1 3647:1 4477:1 4591:1 7623:1 10083:1 
1.91796875 2519:1 4591:1 
50 2905:1 4224:1 4259:1 5536:1 5547:1 6261:1 7161:1 7590:1 8370:1 
1.91796875 288:1 975:1 1414:1 1651:1 2451:1 3559:1 3584:1 3647:1 3880:1 4380:1 4477:1 4871:1 5540:1 5617:1 5708:1 6607:1 6892:1 7344:1 7413:1 7623:1 8701:1 9158:1 9819:1 9968:1 10078:1 10083:1 10880:1 12047:1 12311:1 12818:1 
1.91796875 288:1 975:1 1414:1 1651:1 2451:1 3647:1 4380:1 4477:1 4871:1 5540:1 5617:1 6892:1 7344:1 7413:1 7623:1 8701:1 9158:1 9819:1 9968:1 10078:1 10083:1 10880:1 12047:1 12311:1 
50 6892:1 9819:1 12311:1 
1.91796875 64:1 1454:1 1561:1 3096:1 3825:1 4178:1 4464:1 5331:1 6361:1 6472:1 6638:1 6836:1 7696:1 9620:1 9924:1 10188:1 10348:1 10787:1 10916:1 11227:1 11278:1 11376:1 11385:1 12243:1 12325:1 12622:1 13083:1 13171:1 
1.91796875 64:1 1454:1 1561:1 3096:1 3825:1 4178:1 4464:1 5331:1 6361:1 6472:1 6638:1 6836:1 7696:1 9620:1 9924:1 10188:1 10348:1 10787:1 10916:1 11227:1 11278:1 11376:1 11385:1 12243:1 12325:1 13083:1 
1.91796875 64:1 1454:1 1561:1 3096:1 3825:1 4178:1 4464:1 5331:1 6361:1 6472:1 6638:1 6836:1 7696:1 9620:1 9924:1 10188:1 10348:1 10787:1 10916:1 11278:1 11376:1 11385:1 12243:1 12325:1 13083:1 
50 64:1 1561:1 3096:1 3825:1 4178:1 5331:1 6361:1 6472:1 6638:1 6836:1 9620:1 9924:1 10348:1 10787:1 10916:1 11278:1 11376:1 11385:1 12243:1 12325:1 13083:1 
1.91796875 64:1 1561:1 3096:1 3825:1 4178:1 5331:1 6361:1 6472:1 6638:1 6836:1 9620:1 9924:1 10787:1 10916:1 11376:1 11385:1 12243:1 12325:1 13083:1 
1.91796875 64:1 1561:1 3096:1 4178:1 5331:1 6472:1 6638:1 6836:1 9620:1 9924:1 10787:1 10916:1 11376:1 11385:1 12243:1 12325:1 
1.91796875 64:1 1561:1 4178:1 6472:1 6638:1 6836:1 9620:1 10787:1 12325:1 
1.91796875 9923:1 
50 64:1 1561:1 2353:1 2805:1 3380:1 4178:1 6638:1 10403:1 12325:1 
1.91796875 6303:1 9653:1 10075:1 10824:1 
1.91796875 590:1 2123:1 2157:1 3479:1 4356:1 4679:1 4973:1 4992:1 4994:1 5288:1 5788:1 6742:1 7320:1 8086:1 8093:1 10418:1 10439:1 10440:1 10597:1 10907:1 10922:1 10949:1 11753:1 12821:1 
50 590:1 2123:1 2157:1 3479:1 4356:1 4679:1 4973:1 4992:1 4994:1 5288:1 5788:1 6742:1 7320:1 8086:1 8093:1 10418:1 10439:1 10440:1 10597:1 10907:1 10922:1 10949:1 11753:1 12821:1 
1.91796875 590:1 2157:1 4356:1 4679:1 4973:1 4992:1 5288:1 5788:1 7320:1 8086:1 8093:1 10418:1 10439:1 10440:1 10597:1 10907:1 10922:1 10949:1 11753:1 12821:1 
1.91796875 4992:1 5788:1 7320:1 10418:1 10439:1 10440:1 10907:1 10922:1 10949:1 11753:1 12821:1 
1.91796875 7320:1 10418:1 12821:1 
1.91796875 168:1 211:1 1893:1 2233:1 2362:1 7301:1 8144:1 9707:1 9726:1 10119:1 10412:1 10715:1 11449:1 
50 211:1 2233:1 2362:1 7301:1 10119:1 10715:1 
50 18:1 3825:1 4487:1 4591:1 6361:1 6818:1 7779:1 13083:1 
50 787:1 3201:1 7253:1 8342:1 8826:1 11309:1 12386:1 
50 787:1 7253:1 8342:1 11309:1 12386:1 
1.91796875 729:1 782:1 2008:1 2751:1 3858:1 4591:1 4612:1 4874:1 6419:1 7424:1 7880:1 8068:1 8271:1 8545:1 9526:1 10198:1 10202:1 10250:1 10501:1 10560:1 11688:1 11875:1 12055:1 12058:1 12202:1 
1.91796875 782:1 2008:1 2751:1 3858:1 4591:1 4612:1 4874:1 6419:1 7424:1 7880:1 8068:1 8271:1 8545:1 9526:1 10198:1 10202:1 10250:1 10501:1 10560:1 11688:1 11875:1 12055:1 12058:1 12202:1 
1.91796875 782:1 2008:1 2751:1 3858:1 4591:1 4612:1 4874:1 6419:1 7424:1 7880:1 8068:1 8271:1 8545:1 9526:1 10198:1 10202:1 10250:1 10560:1 11688:1 11875:1 12055:1 12058:1 12202:1 
1.91796875 2008:1 8271:1 10198:1 10202:1 
1.91796875 2751:1 4591:1 4612:1 4874:1 6419:1 7424:1 7880:1 8271:1 8545:1 10250:1 10560:1 11875:1 12055:1 12058:1 12202:1 
50 143:1 2276:1 3937:1 4290:1 4297:1 4902:1 5427:1 6287:1 6555:1 8265:1 8291:1 8383:1 8752:1 12115:1 
1.91796875 3937:1 8291:1 8383:1 
1.91796875 8291:1 8383:1 
50 488:1 522:1 527:1 1043:1 1064:1 1469:1 1574:1 1609:1 2199:1 2326:1 2905:1 3647:1 4259:1 4340:1 4477:1 5292:1 5536:1 5547:1 6261:1 6274:1 6966:1 7107:1 7590:1 7623:1 7852:1 7926:1 8620:1 8721:1 8762:1 10083:1 10344:1 10389:1 10667:1 11342:1 11789:1 
1.91796875 7926:1 
50 488:1 522:1 1043:1 1064:1 1469:1 1574:1 5292:1 7107:1 8721:1 8762:1 10344:1 
1.91796875 1574:1 5292:1 10344:1 
50 288:1 949:1 998:1 4865:1 5541:1 6082:1 6118:1 7758:1 7834:1 7992:1 11401:1 
50 288:1 949:1 998:1 4865:1 5541:1 6082:1 6118:1 7758:1 7834:1 7992:1 11401:1 
1.91796875 998:1 5541:1 7834:1 7992:1 11401:1 
1.91796875 7834:1 
1.91796875 201:1 787:1 1035:1 1068:1 1381:1 1575:1 1683:1 2020:1 2336:1 2493:1 2548:1 2593:1 3096:1 3298:1 3581:1 3770:1 4197:1 4791:1 6410:1 6670:1 6680:1 6892:1 7268:1 7311:1 7487:1 8370:1 9373:1 9819:1 9924:1 10182:1 10302:1 10558:1 10576:1 10588:1 10916:1 11020:1 11075:1 11376:1 11385:1 11871:1 12243:1 12311:1 12973:1 
1.91796875 201:1 2593:1 6892:1 7311:1 8370:1 9819:1 10302:1 10576:1 10588:1 12311:1 
50 3096:1 9924:1 10916:1 11376:1 11385:1 12243:1 
1.91796875 8175:1 
1.91796875 719:1 1017:1 1906:1 3025:1 3039:1 3647:1 4110:1 4120:1 4477:1 4789:1 4940:1 5073:1 7064:1 7199:1 7623:1 7687:1 7884:1 9894:1 10083:1 11725:1 12903:1 
50 3025:1 3039:1 
1.91796875 719:1 1017:1 1906:1 3647:1 4110:1 4120:1 4477:1 4789:1 4940:1 5073:1 7064:1 7199:1 7623:1 7687:1 7884:1 9894:1 10083:1 11725:1 12903:1 
1.91796875 677:1 1431:1 1434:1 4089:1 4789:1 4940:1 7788:1 7810:1 9306:1 13154:1 
1.91796875 288:1 867:1 1871:1 1969:1 6607:1 6663:1 11196:1 11200:1 11867:1 11900:1 12573:1 12790:1 
1.91796875 3331:1 3423:1 9698:1 
50 3331:1 3423:1 9698:1 
1.91796875 5653:1 5957:1 
50 4379:1 
50 288:1 3195:1 3433:1 4780:1 6572:1 6702:1 7750:1 10369:1 10999:1 
1.91796875 3195:1 4780:1 6702:1 10999:1 
1.91796875 3195:1 6702:1 10999:1 
1.91796875 387:1 787:1 2752:1 3566:1 4036:1 4452:1 4992:1 5308:1 5788:1 6645:1 7253:1 7314:1 8141:1 8873:1 8958:1 9882:1 10376:1 10439:1 10440:1 10907:1 10922:1 10949:1 11224:1 11753:1 12123:1 12543:1 12701:1 12765:1 
50 387:1 787:1 2752:1 4036:1 4452:1 4992:1 5788:1 6645:1 7253:1 7314:1 8141:1 8873:1 10376:1 10439:1 10440:1 10907:1 10922:1 10949:1 11224:1 11753:1 12765:1 
1.91796875 288:1 2073:1 3141:1 3145:1 6339:1 6472:1 6836:1 9620:1 10787:1 10993:1 12418:1 12542:1 
1.91796875 6472:1 6836:1 9620:1 10787:1 
1.91796875 1940:1 3647:1 3758:1 4066:1 4327:1 4477:1 4528:1 4575:1 4902:1 5534:1 5555:1 5720:1 6169:1 7245:1 7623:1 7773:1 8535:1 9377:1 9384:1 10083:1 10092:1 10861:1 11136:1 11258:1 12199:1 12610:1 
50 1940:1 3758:1 4066:1 4902:1 5720:1 6169:1 7773:1 8535:1 9377:1 9384:1 10861:1 11136:1 11258:1 12199:1 12610:1 
1.91796875 1940:1 3758:1 4066:1 5720:1 6169:1 7773:1 8535:1 9377:1 9384:1 10861:1 12199:1 12610:1 
50 1940:1 3758:1 4066:1 5720:1 7773:1 8535:1 9384:1 10861:1 12199:1 12610:1 
50 1940:1 4066:1 5720:1 7773:1 8535:1 9384:1 10861:1 12199:1 12610:1 
50 1940:1 4066:1 5720:1 8535:1 9384:1 10861:1 12199:1 
50 802:1 1992:1 3098:1 5023:1 7641:1 9960:1 9978:1 
50 1992:1 3098:1 5023:1 7641:1 9960:1 9978:1 
50 403:1 949:1 4865:1 5436:1 6082:1 6118:1 6264:1 7249:1 8271:1 10306:1 12509:1 
1.91796875 7249:1 
50 195:1 1230:1 2391:1 4711:1 4875:1 5385:1 8151:1 10229:1 11858:1 
50 288:1 1892:1 1940:1 1959:1 2276:1 2497:1 3233:1 4066:1 5234:1 5427:1 5546:1 5589:1 6100:1 6112:1 7193:1 7421:1 8389:1 8759:1 8841:1 9384:1 9462:1 9554:1 9616:1 10449:1 10594:1 10861:1 12889:1 
50 1892:1 1940:1 1959:1 4066:1 5546:1 6112:1 7193:1 8759:1 8841:1 9384:1 10594:1 10861:1 12889:1 
50 1892:1 1940:1 1959:1 4066:1 5546:1 6112:1 7193:1 8759:1 8841:1 9384:1 10594:1 10861:1 12889:1 
1.91796875 1892:1 5546:1 6112:1 7193:1 8841:1 10594:1 
1.91796875 1892:1 
50 787:1 3647:1 4452:1 4477:1 4914:1 6746:1 7147:1 7247:1 7623:1 8004:1 8190:1 8379:1 8852:1 10083:1 12677:1 12763:1 12947:1 13102:1 
1.91796875 7247:1 
50 4874:1 6111:1 12202:1 
50 
50 2057:1 2336:1 5720:1 6670:1 6731:1 10016:1 10369:1 10402:1 11171:1 12199:1 
50 
50 288:1 425:1 2090:1 3647:1 4477:1 5370:1 5464:1 7253:1 7623:1 10083:1 
1.91796875 286:1 677:1 867:1 1034:1 1690:1 2407:1 2777:1 2873:1 3511:1 3825:1 4370:1 5158:1 6361:1 6637:1 6919:1 7387:1 7406:1 7408:1 7418:1 7453:1 8951:1 9017:1 9308:1 9903:1 11006:1 11196:1 11200:1 12165:1 12573:1 12723:1 13083:1 13201:1 
1.91796875 7453:1 
50 286:1 677:1 867:1 1034:1 1690:1 2407:1 2777:1 2873:1 3511:1 3825:1 4370:1 5158:1 6361:1 6637:1 6919:1 7387:1 7406:1 7408:1 7418:1 8951:1 9017:1 9308:1 9903:1 11006:1 11196:1 11200:1 12165:1 12573:1 12723:1 13083:1 13201:1 
1.91796875 286:1 677:1 867:1 1034:1 1690:1 2407:1 2777:1 3511:1 3825:1 4370:1 5158:1 6361:1 6637:1 6919:1 7387:1 7406:1 7408:1 7418:1 8951:1 9017:1 9308:1 9903:1 11006:1 11196:1 11200:1 12573:1 12723:1 13083:1 13201:1 
1.91796875 286:1 677:1 1034:1 1690:1 2407:1 2777:1 3511:1 3825:1 4370:1 5158:1 6361:1 6637:1 6919:1 7387:1 7406:1 7408:1 7418:1 8951:1 9017:1 9308:1 9903:1 11006:1 12723:1 13083:1 13201:1 
50 286:1 677:1 1034:1 1690:1 2407:1 2777:1 3511:1 4370:1 5158:1 6637:1 6919:1 7387:1 7406:1 7408:1 7418:1 8951:1 9017:1 9308:1 9903:1 11006:1 12723:1 13201:1 
50 286:1 677:1 1034:1 1690:1 3511:1 5158:1 7387:1 7418:1 8951:1 9308:1 9903:1 12723:1 
50 482:1 638:1 1224:1 1287:1 1649:1 1788:1 1803:1 2298:1 3096:1 3647:1 4477:1 4620:1 4632:1 5512:1 5672:1 5698:1 6133:1 6314:1 6621:1 6741:1 6867:1 7151:1 7623:1 8906:1 8910:1 8960:1 9574:1 9695:1 9924:1 10083:1 10916:1 11376:1 11385:1 11546:1 11815:1 12243:1 12930:1 
50 482:1 638:1 1224:1 1287:1 1788:1 1803:1 2298:1 3096:1 4620:1 4632:1 5512:1 5672:1 5698:1 6133:1 6314:1 6621:1 6741:1 6867:1 7151:1 8906:1 8910:1 9574:1 9695:1 9924:1 10916:1 11376:1 11385:1 11546:1 11815:1 12243:1 12930:1 
1.91796875 482:1 2298:1 3096:1 5512:1 5672:1 5698:1 6314:1 6621:1 6741:1 6867:1 7151:1 8906:1 8910:1 9574:1 9695:1 9924:1 10916:1 11376:1 11385:1 11815:1 12243:1 
50 2298:1 3096:1 5512:1 5672:1 5698:1 6621:1 6741:1 6867:1 7151:1 9574:1 9695:1 9924:1 10916:1 11376:1 11385:1 11815:1 12243:1 
1.91796875 3096:1 5512:1 5672:1 5698:1 9924:1 10916:1 11376:1 11385:1 11815:1 12243:1 
1.91796875 227:1 246:1 288:1 729:1 4036:1 5152:1 5305:1 5896:1 6016:1 7143:1 7756:1 8141:1 9494:1 9526:1 10884:1 10888:1 11036:1 11100:1 11140:1 12408:1 12660:1 
50 227:1 246:1 288:1 729:1 4036:1 5152:1 5305:1 5896:1 6016:1 7143:1 7756:1 8141:1 9494:1 9526:1 10884:1 10888:1 11036:1 11100:1 11140:1 12408:1 12660:1 
50 246:1 288:1 729:1 4036:1 5152:1 5305:1 5896:1 6016:1 7756:1 8141:1 9494:1 9526:1 11100:1 12660:1 
1.91796875 246:1 288:1 729:1 4036:1 5152:1 5305:1 5896:1 6016:1 7756:1 8141:1 9494:1 9526:1 12660:1 
50 246:1 288:1 729:1 4036:1 5152:1 5305:1 5896:1 6016:1 7756:1 8141:1 9494:1 9526:1 12660:1 
50 7756:1 
50 2312:1 3664:1 5446:1 5512:1 5672:1 5698:1 6548:1 6731:1 8961:1 10016:1 11446:1 11815:1 12295:1 13044:1 
50 3664:1 5512:1 5672:1 5698:1 6731:1 8961:1 10016:1 11815:1 13044:1 
1.91796875 3664:1 5512:1 5672:1 5698:1 8961:1 11815:1 13044:1 
50 223:1 808:1 1531:1 3125:1 5780:1 9714:1 11422:1 13048:1 
50 4239:1 11485:1 
1.91796875 3839:1 4776:1 5014:1 8710:1 12121:1 12667:1 
1.91796875 3839:1 5014:1 8710:1 12121:1 12667:1 
50 3839:1 5014:1 8710:1 12121:1 12667:1 
50 4863:1 
1.91796875 3624:1 4144:1 5426:1 6749:1 6754:1 9554:1 10069:1 10792:1 10794:1 10798:1 
50 3624:1 4144:1 10069:1 
1.91796875 781:1 795:1 1259:1 1261:1 1449:1 2276:1 3276:1 4537:1 4840:1 5427:1 6448:1 6517:1 6859:1 7582:1 8000:1 8001:1 8628:1 12409:1 12527:1 12851:1 
1.91796875 795:1 1259:1 1261:1 1449:1 2276:1 3276:1 4537:1 4840:1 5427:1 6448:1 7582:1 8000:1 8001:1 8628:1 12409:1 12527:1 12851:1 
1.91796875 2276:1 5427:1 7582:1 
1.91796875 16:1 168:1 288:1 1134:1 1480:1 2154:1 2421:1 2459:1 2567:1 2603:1 2759:1 2874:1 3647:1 4005:1 4253:1 4477:1 5767:1 6038:1 7253:1 7623:1 8171:1 9153:1 9707:1 9726:1 10083:1 10137:1 10379:1 10498:1 11107:1 11866:1 12054:1 13037:1 13061:1 
1.91796875 16:1 168:1 1134:1 1480:1 2154:1 2421:1 2459:1 2567:1 2603:1 2759:1 2874:1 3647:1 4005:1 4253:1 4477:1 5767:1 6038:1 7253:1 7623:1 8171:1 9153:1 9707:1 9726:1 10083:1 10137:1 10379:1 10498:1 11107:1 11866:1 12054:1 13037:1 13061:1 
50 16:1 168:1 1134:1 1480:1 2421:1 2459:1 2567:1 2603:1 2759:1 3647:1 4005:1 4477:1 6038:1 7253:1 7623:1 8171:1 9153:1 9707:1 9726:1 10083:1 10137:1 10379:1 10498:1 11866:1 12054:1 13037:1 13061:1 
50 2603:1 
1.91796875 527:1 1638:1 1641:1 2996:1 4340:1 5408:1 5582:1 7852:1 9160:1 9306:1 10052:1 10596:1 10667:1 10870:1 12828:1 13154:1 13165:1 
50 9160:1 9306:1 13154:1 
50 179:1 288:1 4478:1 7472:1 
1.91796875 9533:1 9802:1 
50 16:1 1705:1 2057:1 2635:1 4005:1 5934:1 8526:1 10342:1 11114:1 12054:1 
1.91796875 1035:1 1068:1 2493:1 2859:1 4651:1 4791:1 8241:1 8532:1 9080:1 10299:1 10603:1 10638:1 10897:1 12059:1 
50 7021:1 7989:1 10294:1 10338:1 10542:1 10862:1 11523:1 
1.91796875 5814:1 6005:1 6892:1 9554:1 9819:1 10509:1 12311:1 12677:1 12947:1 
1.91796875 288:1 679:1 1223:1 2677:1 4414:1 5029:1 6728:1 7785:1 8268:1 8713:1 9104:1 10028:1 10918:1 11199:1 11720:1 11725:1 11747:1 
1.91796875 288:1 679:1 1223:1 2677:1 4414:1 5029:1 6728:1 7785:1 8268:1 8713:1 9104:1 10028:1 11199:1 11720:1 11725:1 11747:1 
1.91796875 288:1 679:1 1223:1 2677:1 6728:1 7785:1 8268:1 9104:1 10028:1 11199:1 11720:1 11725:1 11747:1 
50 288:1 679:1 1223:1 6728:1 7785:1 8268:1 9104:1 10028:1 11199:1 11720:1 11725:1 11747:1 
1.91796875 679:1 1223:1 6728:1 7785:1 8268:1 9104:1 10028:1 11720:1 11747:1 
50 8268:1 
1.91796875 317:1 1513:1 1678:1 2322:1 3758:1 4239:1 4278:1 4969:1 5720:1 6252:1 6663:1 8553:1 8556:1 9404:1 9452:1 10338:1 10542:1 10605:1 10991:1 11256:1 11485:1 11640:1 12199:1 12790:1 
1.91796875 317:1 1513:1 2322:1 3758:1 4278:1 4969:1 5720:1 10338:1 10542:1 10605:1 12199:1 
1.91796875 1513:1 2322:1 3758:1 4278:1 4969:1 5720:1 10338:1 10542:1 10605:1 12199:1 
1.91796875 1678:1 4239:1 6252:1 6663:1 8553:1 8556:1 9404:1 9452:1 10991:1 11256:1 11485:1 11640:1 12790:1 
50 4239:1 6252:1 6663:1 8553:1 8556:1 10991:1 11256:1 11485:1 11640:1 12790:1 
1.91796875 6663:1 8553:1 8556:1 10991:1 11256:1 11640:1 12790:1 
1.91796875 9404:1 9452:1 
50 288:1 932:1 1842:1 3560:1 4357:1 4360:1 4812:1 5281:1 7877:1 8034:1 10875:1 11326:1 12072:1 
1.91796875 3560:1 4812:1 12072:1 
50 10753:1 
1.91796875 787:1 3025:1 3039:1 
50 3025:1 3039:1 
50 280:1 288:1 364:1 370:1 1223:1 1791:1 1875:1 1893:1 2355:1 2677:1 2960:1 3827:1 4776:1 4860:1 4955:1 5355:1 5358:1 5532:1 5720:1 5980:1 6157:1 6549:1 6728:1 6969:1 7997:1 8283:1 8799:1 8869:1 9063:1 9104:1 9328:1 9348:1 9401:1 9411:1 9835:1 9979:1 10993:1 11475:1 11553:1 11717:1 11720:1 11747:1 12199:1 12973:1 
1.91796875 1791:1 2355:1 2960:1 5532:1 8799:1 8869:1 9835:1 12973:1 
50 1791:1 2355:1 2960:1 5532:1 8799:1 8869:1 9835:1 12973:1 
1.91796875 1791:1 2355:1 2960:1 5532:1 8799:1 9835:1 
50 1791:1 2355:1 2960:1 5532:1 8799:1 9835:1 
50 280:1 288:1 364:1 370:1 1223:1 1875:1 1893:1 2677:1 3827:1 4860:1 4955:1 5355:1 5358:1 5980:1 6157:1 6549:1 6728:1 6969:1 7997:1 8283:1 9063:1 9104:1 9328:1 9348:1 9401:1 9411:1 9979:1 10993:1 11475:1 11553:1 11717:1 11720:1 11747:1 
50 280:1 364:1 370:1 3827:1 4860:1 4955:1 6157:1 6549:1 7997:1 9328:1 9979:1 
50 18:1 2057:1 2618:1 4487:1 4591:1 6296:1 6818:1 7252:1 7758:1 7779:1 8741:1 8873:1 9072:1 9934:1 10369:1 11199:1 
1.91796875 18:1 2618:1 4487:1 4591:1 6818:1 7779:1 
50 230:1 715:1 1574:1 2334:1 3053:1 4506:1 5292:1 5384:1 5409:1 7253:1 7940:1 8042:1 8748:1 9227:1 10344:1 12011:1 12875:1 
50 227:1 1295:1 1958:1 3259:1 3455:1 4224:1 4802:1 4992:1 5788:1 7143:1 7161:1 10034:1 10439:1 10440:1 10907:1 10922:1 10949:1 11140:1 11153:1 11176:1 11753:1 13118:1 
1.91796875 1958:1 3455:1 4224:1 4992:1 5788:1 7161:1 10034:1 10439:1 10440:1 10907:1 10922:1 10949:1 11153:1 11753:1 13118:1 
50 1958:1 3455:1 4224:1 4992:1 5788:1 7161:1 10034:1 10439:1 10440:1 10907:1 10922:1 10949:1 11153:1 11753:1 
1.91796875 430:1 608:1 949:1 1893:1 1944:1 2443:1 2677:1 2972:1 3505:1 3565:1 3586:1 3647:1 3860:1 3918:1 4055:1 4357:1 4360:1 4477:1 4594:1 4794:1 4865:1 4959:1 5604:1 5708:1 5922:1 5997:1 6082:1 6118:1 7172:1 7253:1 7623:1 8729:1 9849:1 10083:1 10106:1 11049:1 11326:1 11783:1 11876:1 11961:1 11993:1 11997:1 12818:1 
50 949:1 3586:1 4865:1 5604:1 6082:1 6118:1 8729:1 11961:1 
1.91796875 430:1 608:1 1893:1 1944:1 2443:1 2972:1 3505:1 3565:1 3647:1 3860:1 3918:1 4055:1 4357:1 4360:1 4477:1 4594:1 4794:1 4959:1 5708:1 5922:1 7172:1 7253:1 7623:1 9849:1 10083:1 10106:1 11326:1 11783:1 11876:1 12818:1 
1.91796875 430:1 1893:1 3565:1 3647:1 4357:1 4360:1 4477:1 4594:1 5708:1 5922:1 7253:1 7623:1 10083:1 10106:1 11326:1 12818:1 
1.91796875 1484:1 1591:1 2037:1 2423:1 2527:1 3647:1 3814:1 4451:1 4465:1 4477:1 4857:1 5020:1 5355:1 5358:1 5381:1 6303:1 6619:1 7262:1 7565:1 7623:1 9063:1 9348:1 9401:1 9411:1 9653:1 10083:1 10378:1 10678:1 10717:1 10824:1 11475:1 
1.91796875 1484:1 1591:1 2037:1 2423:1 2527:1 3647:1 3814:1 4451:1 4465:1 4477:1 4857:1 5020:1 5355:1 5358:1 5381:1 6303:1 7262:1 7565:1 7623:1 9063:1 9348:1 9401:1 9411:1 9653:1 10083:1 10378:1 10678:1 10717:1 10824:1 11475:1 
50 1484:1 1591:1 2037:1 2423:1 2527:1 3814:1 4451:1 4465:1 4857:1 5020:1 5355:1 5358:1 5381:1 6303:1 7262:1 7565:1 9063:1 9348:1 9401:1 9411:1 9653:1 10378:1 10678:1 10717:1 10824:1 11475:1 
1.91796875 3557:1 
1.91796875 1088:1 1651:1 2154:1 2874:1 3797:1 4397:1 4399:1 4789:1 4871:1 4940:1 5406:1 7413:1 8936:1 10078:1 10338:1 10492:1 10542:1 10753:1 10880:1 12632:1 13240:1 
1.91796875 144:1 869:1 1171:1 1431:1 1434:1 3825:1 4003:1 4089:1 4271:1 4787:1 4858:1 4992:1 5788:1 5819:1 6361:1 6717:1 7253:1 7788:1 7810:1 8575:1 9406:1 10439:1 10440:1 10907:1 10922:1 10949:1 11096:1 11753:1 12825:1 13083:1 
1.91796875 1431:1 1434:1 3825:1 4003:1 4089:1 4858:1 4992:1 5788:1 5819:1 6361:1 7788:1 7810:1 8575:1 10439:1 10440:1 10907:1 10922:1 10949:1 11753:1 13083:1 
50 1431:1 1434:1 3825:1 4003:1 4089:1 4858:1 4992:1 5788:1 5819:1 6361:1 7788:1 7810:1 8575:1 10439:1 10440:1 10907:1 10922:1 10949:1 11753:1 13083:1 
1.91796875 5819:1 8575:1 
50 1431:1 1434:1 4089:1 4992:1 5788:1 7788:1 7810:1 10439:1 10440:1 10907:1 10922:1 10949:1 11753:1 
50 144:1 869:1 1171:1 4271:1 6717:1 
50 294:1 1190:1 1969:1 4357:1 4360:1 4370:1 4612:1 5729:1 6853:1 7424:1 7764:1 8113:1 8291:1 8383:1 8545:1 8891:1 9027:1 9029:1 9941:1 11326:1 11875:1 11900:1 12804:1 12865:1 12973:1 13201:1 
50 1969:1 4612:1 7424:1 8113:1 8291:1 8383:1 8545:1 11875:1 11900:1 
1.91796875 1006:1 3260:1 3626:1 3634:1 6413:1 7140:1 9433:1 9526:1 10874:1 
50 3260:1 7140:1 9433:1 10874:1 
1.91796875 7140:1 10874:1 
50 5482:1 11858:1 
50 281:1 288:1 2674:1 3575:1 5141:1 6210:1 7207:1 7772:1 7937:1 8302:1 9900:1 10422:1 11217:1 12427:1 13131:1 13239:1 13244:1 
50 281:1 
-0.0810546875 215:1 256:1 1127:1 1226:1 1244:1 2183:1 2276:1 2924:1 3534:1 4591:1 5427:1 6868:1 7317:1 7790:1 8113:1 8553:1 8556:1 9475:1 10991:1 11256:1 11494:1 11640:1 12495:1 12817:1 
-0.0810546875 215:1 256:1 1226:1 1244:1 3534:1 4591:1 6868:1 8113:1 9475:1 11494:1 12817:1 
-0.0810546875 8113:1 
-0.0810546875 215:1 256:1 1226:1 1244:1 3534:1 4591:1 6868:1 9475:1 11494:1 12817:1 
-0.0810546875 3534:1 12817:1 
-0.0810546875 215:1 256:1 1226:1 1244:1 4591:1 6868:1 9475:1 11494:1 
-0.0810546875 215:1 256:1 1226:1 1244:1 9475:1 11494:1 
-0.0810546875 215:1 256:1 1226:1 1244:1 9475:1 
-0.0810546875 11494:1 
-0.0810546875 4591:1 6868:1 
-0.0810546875 6868:1 
-0.0810546875 1127:1 2183:1 2276:1 2924:1 4591:1 5427:1 7317:1 7790:1 8553:1 8556:1 10991:1 11256:1 11640:1 12495:1 
-0.0810546875 1127:1 2183:1 2276:1 2924:1 5427:1 7317:1 7790:1 8553:1 8556:1 10991:1 11256:1 11640:1 12495:1 
-0.0810546875 2183:1 
-0.0810546875 1127:1 2276:1 2924:1 5427:1 7317:1 7790:1 8553:1 8556:1 10991:1 11256:1 11640:1 12495:1 
-0.0810546875 2276:1 2924:1 5427:1 7317:1 8553:1 8556:1 10991:1 11256:1 11640:1 12495:1 
-0.0810546875 8553:1 8556:1 10991:1 11256:1 11640:1 
-0.0810546875 2276:1 2924:1 5427:1 7317:1 12495:1 
-0.0810546875 12495:1 
-0.0810546875 2276:1 2924:1 5427:1 7317:1 
-0.0810546875 2924:1 7317:1 
-0.0810546875 403:1 3852:1 4776:1 5331:1 5436:1 6264:1 8719:1 9606:1 10306:1 12509:1 
-0.0810546875 4776:1 
-0.0810546875 403:1 5331:1 5436:1 6264:1 8719:1 9606:1 10306:1 12509:1 
-0.0810546875 5331:1 
-0.0810546875 403:1 5436:1 6264:1 8719:1 9606:1 10306:1 12509:1 
-0.0810546875 8719:1 9606:1 
-0.0810546875 3852:1 
-50 2013:1 10180:1 11858:1 12975:1 
-0.0810546875 2013:1 10180:1 12975:1 
-0.0810546875 18:1 288:1 2677:1 2987:1 4449:1 4487:1 5558:1 6040:1 6201:1 6818:1 7435:1 7675:1 7779:1 8527:1 9102:1 12134:1 13141:1 
-0.0810546875 288:1 2987:1 4449:1 6040:1 7435:1 
-0.0810546875 288:1 2987:1 4449:1 
-0.0810546875 4449:1 
-0.0810546875 288:1 2987:1 
-0.0810546875 2987:1 
-0.0810546875 18:1 2677:1 4487:1 5558:1 6201:1 6818:1 7675:1 7779:1 8527:1 9102:1 12134:1 13141:1 
-0.0810546875 5558:1 6201:1 13141:1 
-0.0810546875 18:1 2677:1 4487:1 6818:1 7675:1 7779:1 8527:1 9102:1 12134:1 
-0.0810546875 18:1 4487:1 6818:1 7779:1 9102:1 
-0.0810546875 9102:1 
-0.0810546875 2677:1 7675:1 8527:1 12134:1 
-50 269:1 1576:1 1918:1 2748:1 3906:1 5067:1 5401:1 5835:1 6003:1 6027:1 6304:1 6824:1 7394:1 8143:1 8317:1 8563:1 8703:1 8780:1 8872:1 8999:1 9042:1 9792:1 9917:1 10117:1 10174:1 10226:1 10287:1 10295:1 10656:1 11030:1 12241:1 13152:1 
-0.0810546875 269:1 1576:1 6003:1 6027:1 8143:1 8317:1 8780:1 9042:1 9917:1 10117:1 10287:1 10295:1 10656:1 13152:1 
-0.0810546875 1576:1 6003:1 6027:1 8143:1 9917:1 
-0.0810546875 269:1 8317:1 8780:1 9042:1 10117:1 10287:1 10295:1 10656:1 13152:1 
-0.0810546875 269:1 10117:1 10287:1 10295:1 10656:1 
-0.0810546875 1918:1 5067:1 6304:1 7394:1 8563:1 8703:1 8872:1 9792:1 10226:1 11030:1 12241:1 
-0.0810546875 5067:1 
-0.0810546875 1918:1 6304:1 7394:1 8563:1 8703:1 8872:1 9792:1 10226:1 11030:1 12241:1 
-0.0810546875 1918:1 8563:1 8703:1 8872:1 10226:1 11030:1 12241:1 
-0.0810546875 8563:1 8872:1 
-0.0810546875 1918:1 8703:1 10226:1 11030:1 12241:1 
-0.0810546875 1918:1 
-0.0810546875 8703:1 10226:1 11030:1 12241:1 
-0.0810546875 2748:1 3906:1 5401:1 5835:1 6824:1 8999:1 10174:1 
-0.0810546875 3906:1 5835:1 8999:1 
-0.0810546875 5835:1 
-0.0810546875 2748:1 5401:1 6824:1 10174:1 
-0.0810546875 2748:1 
-0.0810546875 5401:1 6824:1 10174:1 
-0.0810546875 10174:1 
-0.0810546875 5401:1 6824:1 
-0.0810546875 2938:1 2981:1 3109:1 5652:1 6616:1 
-0.0810546875 5652:1 
-0.0810546875 2938:1 2981:1 3109:1 6616:1 
-0.0810546875 2938:1 2981:1 3109:1 
-0.0810546875 6616:1 
-0.0810546875 688:1 1260:1 2475:1 3189:1 
-0.0810546875 688:1 
-0.0810546875 1260:1 2475:1 3189:1 
-0.0810546875 1260:1 
-50 109:1 2045:1 3183:1 3541:1 3792:1 4992:1 5599:1 5788:1 6663:1 7081:1 7253:1 7668:1 8058:1 8623:1 8865:1 8867:1 9188:1 9236:1 10439:1 10440:1 10907:1 10922:1 10949:1 11753:1 12790:1 
-0.0810546875 109:1 4992:1 5599:1 5788:1 7081:1 7253:1 8058:1 8623:1 9188:1 9236:1 10439:1 10440:1 10907:1 10922:1 10949:1 11753:1 
-0.0810546875 109:1 8623:1 9188:1 9236:1 
-0.0810546875 5599:1 7081:1 8058:1 
-0.0810546875 2045:1 3183:1 3541:1 3792:1 6663:1 7668:1 8865:1 8867:1 12790:1 
-0.0810546875 2045:1 6663:1 8865:1 8867:1 12790:1 
-0.0810546875 3183:1 3541:1 3792:1 7668:1 
-0.0810546875 3183:1 3792:1 
-0.0810546875 3541:1 7668:1 
-0.0810546875 7668:1 
-0.0810546875 3541:1 
-0.0810546875 53:1 213:1 1368:1 1727:1 3298:1 9035:1 9105:1 10558:1 
-0.0810546875 53:1 1368:1 1727:1 
-0.0810546875 53:1 
-0.0810546875 1368:1 1727:1 
-0.0810546875 213:1 3298:1 9035:1 9105:1 10558:1 
-0.0810546875 213:1 9035:1 9105:1 
-0.0810546875 288:1 417:1 428:1 1077:1 2804:1 4357:1 4360:1 4642:1 5121:1 5546:1 6112:1 7067:1 7193:1 8841:1 10594:1 11037:1 11326:1 11501:1 12385:1 12596:1 12820:1 
-0.0810546875 288:1 417:1 428:1 1077:1 2804:1 4357:1 4360:1 4642:1 5121:1 5546:1 6112:1 7067:1 7193:1 8841:1 10594:1 11037:1 11326:1 11501:1 12596:1 12820:1 
-0.0810546875 12596:1 
-0.0810546875 288:1 417:1 428:1 1077:1 2804:1 4357:1 4360:1 4642:1 5121:1 5546:1 6112:1 7067:1 7193:1 8841:1 10594:1 11037:1 11326:1 11501:1 12820:1 
-0.0810546875 288:1 1077:1 2804:1 4357:1 4360:1 4642:1 5121:1 5546:1 6112:1 7067:1 7193:1 8841:1 10594:1 11326:1 12820:1 
-0.0810546875 288:1 1077:1 2804:1 4357:1 4360:1 4642:1 5121:1 7067:1 11326:1 12820:1 
-0.0810546875 288:1 1077:1 2804:1 4642:1 5121:1 7067:1 12820:1 
-0.0810546875 288:1 2804:1 4642:1 7067:1 
-0.0810546875 288:1 2804:1 
-0.0810546875 2804:1 
-0.0810546875 4642:1 7067:1 
-0.0810546875 4642:1 
-0.0810546875 7067:1 
-0.0810546875 2605:1 4219:1 6272:1 9714:1 
-0.0810546875 2605:1 4219:1 6272:1 
-0.0810546875 1329:1 3954:1 3962:1 6866:1 6869:1 9095:1 9143:1 9396:1 12339:1 
-0.0810546875 6866:1 6869:1 9143:1 9396:1 
-0.0810546875 1329:1 3954:1 3962:1 9095:1 12339:1 
-0.0810546875 9095:1 
-0.0810546875 1329:1 3954:1 3962:1 12339:1 
-0.0810546875 288:1 516:1 727:1 1668:1 2677:1 2888:1 3006:1 3068:1 3404:1 3706:1 4826:1 4989:1 5808:1 6845:1 8349:1 8371:1 8418:1 8837:1 8990:1 9699:1 9704:1 10753:1 10858:1 11412:1 12544:1 12547:1 12639:1 12864:1 13021:1 
-0.0810546875 288:1 727:1 1668:1 3006:1 4826:1 8349:1 10753:1 11412:1 13021:1 
-0.0810546875 727:1 1668:1 3006:1 4826:1 8349:1 10753:1 11412:1 13021:1 
-50 727:1 1668:1 3006:1 4826:1 8349:1 11412:1 13021:1 
-50 727:1 3006:1 8349:1 13021:1 
-0.0810546875 1668:1 4826:1 11412:1 
-0.0810546875 4826:1 
-0.0810546875 1668:1 11412:1 
-0.0810546875 516:1 2677:1 2888:1 3068:1 3404:1 3706:1 4989:1 5808:1 6845:1 8371:1 8418:1 8837:1 8990:1 9699:1 9704:1 10858:1 12544:1 12547:1 12639:1 12864:1 
-0.0810546875 516:1 
-0.0810546875 2677:1 2888:1 3068:1 3404:1 3706:1 4989:1 5808:1 6845:1 8371:1 8418:1 8837:1 8990:1 9699:1 9704:1 10858:1 12544:1 12547:1 12639:1 12864:1 
-0.0810546875 2888:1 3068:1 3404:1 3706:1 4989:1 5808:1 6845:1 8371:1 8418:1 8837:1 8990:1 9699:1 9704:1 10858:1 12544:1 12547:1 12639:1 12864:1 
-0.0810546875 2888:1 3068:1 3404:1 5808:1 8371:1 8418:1 8837:1 9699:1 9704:1 10858:1 12544:1 12547:1 12639:1 12864:1 
-0.0810546875 5808:1 8371:1 8418:1 8837:1 9699:1 9704:1 10858:1 12544:1 12547:1 12864:1 
-0.0810546875 8371:1 9699:1 9704:1 12864:1 
-0.0810546875 12864:1 
-0.0810546875 5808:1 8418:1 8837:1 10858:1 12544:1 12547:1 
-0.0810546875 8418:1 10858:1 
-0.0810546875 5808:1 8837:1 12544:1 12547:1 
-0.0810546875 2888:1 3068:1 3404:1 12639:1 
-50 3068:1 12639:1 
-0.0810546875 12639:1 
-0.0810546875 3068:1 
-0.0810546875 288:1 787:1 1179:1 2268:1 3141:1 3145:1 4204:1 4290:1 4297:1 4406:1 5129:1 5350:1 6339:1 7253:1 8118:1 8265:1 8405:1 8419:1 8540:1 10247:1 10970:1 11446:1 11723:1 11955:1 12050:1 12115:1 12121:1 12295:1 12418:1 12542:1 12667:1 
-0.0810546875 2268:1 8540:1 
-0.0810546875 8540:1 
-0.0810546875 2268:1 
-0.0810546875 288:1 787:1 1179:1 3141:1 3145:1 4204:1 4290:1 4297:1 4406:1 5129:1 5350:1 6339:1 7253:1 8118:1 8265:1 8405:1 8419:1 10247:1 10970:1 11446:1 11723:1 11955:1 12050:1 12115:1 12121:1 12295:1 12418:1 12542:1 12667:1 
-0.0810546875 288:1 787:1 3141:1 3145:1 4406:1 5350:1 6339:1 7253:1 8405:1 10247:1 10970:1 11723:1 11955:1 12121:1 12418:1 12542:1 12667:1 
-0.0810546875 288:1 787:1 3141:1 3145:1 4406:1 6339:1 8405:1 10247:1 10970:1 11723:1 11955:1 12418:1 12542:1 
-0.0810546875 288:1 3141:1 3145:1 6339:1 11723:1 12418:1 12542:1 
-0.0810546875 288:1 11723:1 
-0.0810546875 11723:1 
-0.0810546875 3141:1 3145:1 6339:1 12418:1 12542:1 
-0.0810546875 787:1 4406:1 8405:1 10247:1 10970:1 11955:1 
-0.0810546875 787:1 
-0.0810546875 4406:1 8405:1 10247:1 10970:1 11955:1 
-0.0810546875 10247:1 
-0.0810546875 5350:1 7253:1 12121:1 12667:1 
-0.0810546875 5350:1 12121:1 12667:1 
-0.0810546875 5350:1 
-0.0810546875 1179:1 4204:1 4290:1 4297:1 4406:1 5129:1 8118:1 8265:1 8405:1 8419:1 10970:1 11446:1 11955:1 12050:1 12115:1 12295:1 
-0.0810546875 1179:1 4204:1 4406:1 5129:1 8118:1 8405:1 8419:1 10970:1 11446:1 11955:1 12050:1 12295:1 
-0.0810546875 11446:1 12295:1 
-0.0810546875 1179:1 4204:1 4406:1 5129:1 8118:1 8405:1 8419:1 10970:1 11955:1 12050:1 
-0.0810546875 4204:1 4406:1 8405:1 10970:1 11955:1 12050:1 
-0.0810546875 4406:1 8405:1 10970:1 11955:1 
-0.0810546875 4204:1 12050:1 
-0.0810546875 1179:1 5129:1 8118:1 8419:1 
-0.0810546875 4992:1 5788:1 10439:1 10440:1 10907:1 10922:1 10949:1 11753:1 
-50 125:1 4731:1 5600:1 6542:1 8420:1 
-50 125:1 4731:1 5600:1 6542:1 8420:1 
-0.0810546875 125:1 4731:1 
-0.0810546875 425:1 1003:1 1479:1 1569:1 2090:1 2727:1 3709:1 3948:1 4055:1 4591:1 5252:1 5738:1 6357:1 6835:1 6882:1 7004:1 7253:1 7405:1 10201:1 11035:1 12183:1 12186:1 
-0.0810546875 1569:1 
-0.0810546875 425:1 1003:1 1479:1 2090:1 2727:1 3709:1 3948:1 4055:1 4591:1 5252:1 5738:1 6357:1 6835:1 6882:1 7004:1 7253:1 7405:1 10201:1 11035:1 12183:1 12186:1 
-0.0810546875 3948:1 
-0.0810546875 425:1 1003:1 1479:1 2090:1 2727:1 3709:1 4055:1 4591:1 5252:1 5738:1 6357:1 6835:1 6882:1 7004:1 7253:1 7405:1 10201:1 11035:1 12183:1 12186:1 
-0.0810546875 425:1 1003:1 1479:1 2090:1 2727:1 3709:1 4055:1 4591:1 5252:1 5738:1 6357:1 6835:1 6882:1 7004:1 7253:1 7405:1 11035:1 12183:1 12186:1 
-0.0810546875 425:1 1003:1 1479:1 2090:1 2727:1 3709:1 4055:1 4591:1 5252:1 5738:1 6357:1 6835:1 6882:1 7004:1 7405:1 11035:1 12183:1 12186:1 
-0.0810546875 1479:1 7405:1 12186:1 
-0.0810546875 1479:1 7405:1 
-0.0810546875 425:1 1003:1 2090:1 2727:1 3709:1 4055:1 4591:1 5252:1 5738:1 6357:1 6835:1 6882:1 7004:1 11035:1 12183:1 
-0.0810546875 4055:1 
-0.0810546875 425:1 1003:1 2090:1 2727:1 3709:1 4591:1 5252:1 5738:1 6357:1 6835:1 6882:1 7004:1 11035:1 12183:1 
-0.0810546875 1003:1 2727:1 5252:1 6835:1 7004:1 12183:1 
-0.0810546875 6835:1 7004:1 12183:1 
-0.0810546875 1003:1 2727:1 5252:1 
-0.0810546875 1003:1 
-0.0810546875 2727:1 5252:1 
-0.0810546875 425:1 2090:1 3709:1 4591:1 5738:1 6357:1 6882:1 11035:1 
-0.0810546875 6357:1 6882:1 11035:1 
-0.0810546875 425:1 2090:1 3709:1 4591:1 5738:1 
-0.0810546875 3709:1 5738:1 
-0.0810546875 425:1 2090:1 4591:1 
-0.0810546875 453:1 3104:1 4061:1 4357:1 4360:1 4820:1 7758:1 8002:1 8412:1 10198:1 11326:1 
-0.0810546875 453:1 3104:1 4061:1 4357:1 4360:1 4820:1 8002:1 8412:1 10198:1 11326:1 
-0.0810546875 453:1 3104:1 4061:1 4820:1 8002:1 8412:1 10198:1 
-0.0810546875 3104:1 4061:1 8002:1 10198:1 
-0.0810546875 3104:1 
-0.0810546875 4061:1 8002:1 10198:1 
-0.0810546875 8002:1 
-0.0810546875 4061:1 10198:1 
-0.0810546875 4061:1 
-0.0810546875 453:1 4820:1 8412:1 
-0.0810546875 14:1 2276:1 2336:1 2677:1 2986:1 3969:1 4765:1 5427:1 5541:1 5720:1 6670:1 7891:1 7896:1 7992:1 8008:1 8687:1 9102:1 10827:1 10835:1 11044:1 11156:1 11495:1 11975:1 12199:1 
-0.0810546875 14:1 2986:1 3969:1 4765:1 5720:1 7891:1 7896:1 9102:1 10827:1 10835:1 11156:1 11495:1 12199:1 
-0.0810546875 14:1 3969:1 7891:1 7896:1 
-0.0810546875 3969:1 7891:1 7896:1 
-0.0810546875 14:1 
-0.0810546875 2986:1 4765:1 5720:1 9102:1 10827:1 10835:1 11156:1 11495:1 12199:1 
-0.0810546875 4765:1 5720:1 12199:1 
-0.0810546875 4765:1 
-0.0810546875 2986:1 9102:1 10827:1 10835:1 11156:1 11495:1 
-0.0810546875 2986:1 9102:1 
-0.0810546875 2986:1 
-50 2276:1 2336:1 2677:1 5427:1 5541:1 6670:1 7992:1 8008:1 8687:1 11044:1 11975:1 
-0.0810546875 2276:1 2336:1 5427:1 5541:1 6670:1 7992:1 8008:1 8687:1 11044:1 11975:1 
-50 2276:1 2336:1 5427:1 5541:1 6670:1 7992:1 8008:1 8687:1 11044:1 11975:1 
-0.0810546875 5541:1 7992:1 8008:1 
-50 5541:1 7992:1 8008:1 
-0.0810546875 5541:1 7992:1 
-0.0810546875 8008:1 
-0.0810546875 2336:1 6670:1 
-0.0810546875 2276:1 5427:1 8687:1 11044:1 11975:1 
-0.0810546875 8687:1 11044:1 11975:1 
-0.0810546875 1543:1 1545:1 1551:1 1580:1 4357:1 4360:1 5619:1 7995:1 8618:1 11326:1 11335:1 13234:1 
-0.0810546875 1580:1 5619:1 
-0.0810546875 1580:1 
-0.0810546875 5619:1 
-0.0810546875 1543:1 1545:1 1551:1 4357:1 4360:1 7995:1 8618:1 11326:1 11335:1 13234:1 
-0.0810546875 1543:1 1545:1 1551:1 7995:1 8618:1 11335:1 13234:1 
-0.0810546875 13234:1 
-0.0810546875 1543:1 1545:1 1551:1 7995:1 8618:1 11335:1 
-0.0810546875 288:1 317:1 520:1 2581:1 2618:1 3201:1 3316:1 4612:1 5720:1 6417:1 6482:1 6502:1 7117:1 7424:1 8545:1 9120:1 9253:1 9931:1 10522:1 11875:1 11937:1 12199:1 12937:1 
-0.0810546875 3316:1 6417:1 10522:1 11937:1 
-50 3316:1 10522:1 
-0.0810546875 10522:1 
-0.0810546875 3316:1 
-0.0810546875 6417:1 11937:1 
-0.0810546875 288:1 317:1 520:1 2581:1 2618:1 4612:1 5720:1 6482:1 6502:1 7117:1 7424:1 8545:1 9120:1 9253:1 9931:1 11875:1 12199:1 12937:1 
-0.0810546875 12937:1 
-0.0810546875 288:1 317:1 520:1 2581:1 2618:1 4612:1 5720:1 6482:1 6502:1 7117:1 7424:1 8545:1 9120:1 9253:1 9931:1 11875:1 12199:1 
-0.0810546875 288:1 317:1 520:1 2581:1 2618:1 5720:1 6482:1 6502:1 9120:1 9931:1 12199:1 
-0.0810546875 317:1 520:1 2581:1 2618:1 5720:1 6482:1 6502:1 9120:1 9931:1 12199:1 
-0.0810546875 9120:1 
-0.0810546875 317:1 520:1 2581:1 2618:1 5720:1 6482:1 6502:1 9931:1 12199:1 
-0.0810546875 317:1 2581:1 6482:1 6502:1 
-0.0810546875 520:1 5720:1 9931:1 12199:1 
-0.0810546875 520:1 
-0.0810546875 5720:1 9931:1 12199:1 
-0.0810546875 9931:1 
-0.0810546875 4612:1 7117:1 7424:1 8545:1 9253:1 11875:1 
-0.0810546875 7117:1 
-0.0810546875 4612:1 7424:1 8545:1 9253:1 11875:1 
-0.0810546875 9253:1 
-0.0810546875 818:1 2652:1 4109:1 5688:1 8433:1 11000:1 11655:1 
-0.0810546875 2652:1 
-0.0810546875 818:1 4109:1 5688:1 8433:1 11000:1 11655:1 
-0.0810546875 818:1 5688:1 8433:1 
-0.0810546875 5688:1 
-0.0810546875 818:1 8433:1 
-0.0810546875 4109:1 11000:1 11655:1 
-0.0810546875 11000:1 
-0.0810546875 276:1 288:1 317:1 4902:1 6193:1 6844:1 7201:1 9127:1 10838:1 12981:1 
-0.0810546875 276:1 317:1 4902:1 6193:1 6844:1 7201:1 9127:1 10838:1 12981:1 
-0.0810546875 276:1 
-0.0810546875 317:1 4902:1 6193:1 6844:1 7201:1 9127:1 10838:1 12981:1 
-0.0810546875 317:1 6193:1 6844:1 7201:1 9127:1 10838:1 12981:1 
-0.0810546875 2817:1 
-50 2817:1 
-0.0810546875 288:1 425:1 1769:1 1784:1 1865:1 2090:1 3028:1 3175:1 4517:1 4576:1 4711:1 5344:1 5720:1 5837:1 5947:1 6281:1 6763:1 7253:1 7859:1 9346:1 10229:1 10243:1 10296:1 10390:1 10470:1 10562:1 10573:1 11725:1 12199:1 12264:1 12301:1 12309:1 13010:1 13117:1 13187:1 
-0.0810546875 3028:1 3175:1 4711:1 5344:1 10229:1 
-0.0810546875 3028:1 3175:1 5344:1 
-0.0810546875 5344:1 
-0.0810546875 288:1 425:1 1769:1 1784:1 1865:1 2090:1 4517:1 4576:1 5720:1 5837:1 5947:1 6281:1 6763:1 7253:1 7859:1 9346:1 10243:1 10296:1 10390:1 10470:1 10562:1 10573:1 11725:1 12199:1 12264:1 12301:1 12309:1 13010:1 13117:1 13187:1 
-0.0810546875 425:1 2090:1 7253:1 
-0.0810546875 288:1 1769:1 1784:1 1865:1 4517:1 4576:1 5720:1 5837:1 5947:1 6281:1 6763:1 7859:1 9346:1 10243:1 10296:1 10390:1 10470:1 10562:1 10573:1 11725:1 12199:1 12264:1 12301:1 12309:1 13010:1 13117:1 13187:1 
-0.0810546875 1865:1 5947:1 10243:1 10296:1 11725:1 12301:1 12309:1 
-0.0810546875 5947:1 10243:1 10296:1 11725:1 12301:1 12309:1 
-0.0810546875 5947:1 10296:1 11725:1 
-0.0810546875 5947:1 
-0.0810546875 10296:1 11725:1 
-0.0810546875 10296:1 
-0.0810546875 288:1 1769:1 1784:1 4517:1 4576:1 5720:1 5837:1 6281:1 6763:1 7859:1 9346:1 10243:1 10390:1 10470:1 10562:1 10573:1 12199:1 12264:1 12301:1 12309:1 13010:1 13117:1 13187:1 
-0.0810546875 288:1 1769:1 4517:1 5720:1 5837:1 6281:1 7859:1 9346:1 10243:1 10470:1 10562:1 10573:1 12199:1 12264:1 12301:1 12309:1 13010:1 13117:1 13187:1 
-0.0810546875 10243:1 12301:1 12309:1 
-0.0810546875 288:1 1769:1 4517:1 5720:1 5837:1 6281:1 7859:1 9346:1 10470:1 10562:1 10573:1 12199:1 12264:1 13010:1 13117:1 13187:1 
-0.0810546875 5837:1 6281:1 7859:1 9346:1 10562:1 12264:1 13010:1 13187:1 
-0.0810546875 5837:1 9346:1 
-0.0810546875 288:1 1769:1 4517:1 5720:1 10470:1 10573:1 12199:1 13117:1 
-0.0810546875 288:1 5720:1 12199:1 
-0.0810546875 1769:1 4517:1 10470:1 10573:1 13117:1 
-0.0810546875 1769:1 10470:1 10573:1 13117:1 
-0.0810546875 4517:1 
-0.0810546875 288:1 3629:1 4232:1 4236:1 4357:1 4360:1 4440:1 5679:1 5992:1 7848:1 7978:1 8007:1 9223:1 9324:1 10290:1 11326:1 12267:1 
-0.0810546875 3629:1 4232:1 4236:1 4357:1 4360:1 4440:1 5679:1 5992:1 7848:1 7978:1 8007:1 9223:1 9324:1 10290:1 11326:1 12267:1 
-0.0810546875 3629:1 4232:1 4236:1 4440:1 5679:1 5992:1 7848:1 7978:1 8007:1 9223:1 9324:1 10290:1 12267:1 
-0.0810546875 3629:1 5992:1 8007:1 9324:1 12267:1 
-0.0810546875 3629:1 9324:1 
-0.0810546875 4232:1 4236:1 4440:1 5679:1 7848:1 7978:1 9223:1 10290:1 
-0.0810546875 4232:1 4236:1 4440:1 5679:1 
-0.0810546875 7848:1 7978:1 9223:1 10290:1 
-0.0810546875 7848:1 
-0.0810546875 7978:1 9223:1 10290:1 
-0.0810546875 7978:1 
-0.0810546875 9223:1 10290:1 
-0.0810546875 9223:1 
-0.0810546875 10290:1 
-0.0810546875 18:1 246:1 681:1 729:1 924:1 1417:1 2292:1 3647:1 4096:1 4240:1 4246:1 4477:1 4487:1 4591:1 6792:1 6818:1 7623:1 7669:1 7779:1 10083:1 12420:1 
-0.0810546875 246:1 729:1 1417:1 2292:1 7669:1 
-0.0810546875 729:1 
-0.0810546875 246:1 1417:1 2292:1 7669:1 
-0.0810546875 1417:1 
-0.0810546875 246:1 2292:1 7669:1 
-0.0810546875 2292:1 7669:1 
-0.0810546875 246:1 
-0.0810546875 18:1 681:1 924:1 3647:1 4096:1 4240:1 4246:1 4477:1 4487:1 4591:1 6792:1 6818:1 7623:1 7779:1 10083:1 12420:1 
-0.0810546875 6792:1 12420:1 
-0.0810546875 18:1 681:1 924:1 3647:1 4096:1 4240:1 4246:1 4477:1 4487:1 4591:1 6818:1 7623:1 7779:1 10083:1 
-0.0810546875 18:1 924:1 4487:1 6818:1 7779:1 
-0.0810546875 681:1 3647:1 4096:1 4240:1 4246:1 4477:1 4591:1 7623:1 10083:1 
-0.0810546875 681:1 4096:1 4246:1 4591:1 
-0.0810546875 681:1 4096:1 4246:1 
-0.0810546875 3647:1 4240:1 4477:1 7623:1 10083:1 
-0.0810546875 4240:1 
-0.0810546875 350:1 1062:1 3216:1 3251:1 4375:1 4402:1 4676:1 5406:1 5811:1 9099:1 10135:1 10338:1 10542:1 12359:1 12388:1 13076:1 13240:1 
-0.0810546875 1062:1 3216:1 3251:1 4402:1 4676:1 5406:1 5811:1 10135:1 10338:1 10542:1 12359:1 13076:1 13240:1 
-0.0810546875 1062:1 4402:1 4676:1 5406:1 5811:1 10338:1 10542:1 13076:1 13240:1 
-0.0810546875 4402:1 5406:1 10338:1 10542:1 13240:1 
-0.0810546875 4402:1 10338:1 10542:1 
-0.0810546875 4402:1 
-0.0810546875 3216:1 3251:1 10135:1 12359:1 
-0.0810546875 350:1 1246:1 3810:1 3832:1 4375:1 5143:1 5173:1 5208:1 7935:1 8807:1 9099:1 9448:1 10930:1 10935:1 12112:1 12388:1 
-0.0810546875 350:1 1246:1 3810:1 3832:1 4375:1 5173:1 5208:1 8807:1 9099:1 9448:1 12112:1 12388:1 
-0.0810546875 5173:1 8807:1 9448:1 12112:1 
-0.0810546875 5173:1 8807:1 9448:1 
-0.0810546875 5173:1 
-0.0810546875 8807:1 9448:1 
-0.0810546875 9448:1 
-0.0810546875 8807:1 
-0.0810546875 350:1 1246:1 3810:1 3832:1 4375:1 5208:1 9099:1 12388:1 
-0.0810546875 3832:1 
-0.0810546875 350:1 1246:1 3810:1 4375:1 5208:1 9099:1 12388:1 
-0.0810546875 1246:1 3810:1 5208:1 
-0.0810546875 1306:1 3617:1 3647:1 4477:1 5993:1 7623:1 8046:1 8823:1 10083:1 11167:1 11735:1 12638:1 
-0.0810546875 1306:1 3617:1 3647:1 4477:1 7623:1 8823:1 10083:1 
-0.0810546875 5993:1 8046:1 11167:1 11735:1 12638:1 
-0.0810546875 5993:1 11167:1 11735:1 
-0.0810546875 5993:1 11167:1 
-0.0810546875 11735:1 
-0.0810546875 8046:1 12638:1 
-0.0810546875 288:1 327:1 417:1 428:1 1127:1 1329:1 1784:1 2742:1 3069:1 3114:1 3130:1 3954:1 3962:1 4109:1 4452:1 4576:1 4992:1 5788:1 6763:1 6817:1 7253:1 7790:1 8564:1 8790:1 8918:1 9714:1 9942:1 10390:1 10439:1 10440:1 10690:1 10907:1 10922:1 10949:1 11037:1 11501:1 11615:1 11655:1 11753:1 11787:1 12339:1 12385:1 12670:1 
-0.0810546875 327:1 1127:1 1784:1 3069:1 3114:1 3130:1 4576:1 6763:1 6817:1 7790:1 8790:1 10390:1 11615:1 11787:1 12385:1 12670:1 
-0.0810546875 12385:1 
-0.0810546875 327:1 1127:1 1784:1 3069:1 3114:1 3130:1 4576:1 6763:1 6817:1 7790:1 8790:1 10390:1 11615:1 11787:1 12670:1 
-0.0810546875 327:1 1127:1 1784:1 3069:1 3114:1 3130:1 4576:1 6763:1 7790:1 8790:1 10390:1 11615:1 
-0.0810546875 327:1 1127:1 3069:1 3114:1 3130:1 7790:1 8790:1 11615:1 
-0.0810546875 327:1 3114:1 3130:1 
-0.0810546875 1127:1 3069:1 7790:1 8790:1 11615:1 
-0.0810546875 1127:1 7790:1 
-0.0810546875 6817:1 11787:1 12670:1 
-0.0810546875 288:1 417:1 428:1 1329:1 2742:1 3954:1 3962:1 4109:1 4452:1 4992:1 5788:1 7253:1 8564:1 8918:1 9714:1 9942:1 10439:1 10440:1 10690:1 10907:1 10922:1 10949:1 11037:1 11501:1 11655:1 11753:1 12339:1 
-0.0810546875 288:1 417:1 428:1 1329:1 2742:1 3954:1 3962:1 4109:1 4452:1 4992:1 5788:1 7253:1 8564:1 8918:1 9942:1 10439:1 10440:1 10690:1 10907:1 10922:1 10949:1 11037:1 11501:1 11655:1 11753:1 12339:1 
-0.0810546875 288:1 417:1 428:1 1329:1 2742:1 3954:1 3962:1 4109:1 4992:1 5788:1 7253:1 8564:1 8918:1 9942:1 10439:1 10440:1 10690:1 10907:1 10922:1 10949:1 11037:1 11501:1 11655:1 11753:1 12339:1 
-0.0810546875 288:1 417:1 428:1 2742:1 4109:1 4992:1 5788:1 7253:1 8564:1 8918:1 9942:1 10439:1 10440:1 10690:1 10907:1 10922:1 10949:1 11037:1 11501:1 11655:1 11753:1 
-0.0810546875 7253:1 9942:1 10690:1 
-0.0810546875 9942:1 10690:1 
-0.0810546875 288:1 417:1 428:1 2742:1 4109:1 4992:1 5788:1 8564:1 8918:1 10439:1 10440:1 10907:1 10922:1 10949:1 11037:1 11501:1 11655:1 11753:1 
-0.0810546875 8918:1 
-0.0810546875 288:1 417:1 428:1 2742:1 4109:1 4992:1 5788:1 8564:1 10439:1 10440:1 10907:1 10922:1 10949:1 11037:1 11501:1 11655:1 11753:1 
-0.0810546875 288:1 417:1 428:1 4109:1 11037:1 11501:1 11655:1 
-0.0810546875 288:1 4109:1 11655:1 
-0.0810546875 4109:1 11655:1 
-0.0810546875 2742:1 4992:1 5788:1 8564:1 10439:1 10440:1 10907:1 10922:1 10949:1 11753:1 
-0.0810546875 288:1 2742:1 3475:1 4999:1 5458:1 5732:1 6762:1 8400:1 8564:1 9596:1 11949:1 12034:1 
-0.0810546875 288:1 2742:1 4999:1 5458:1 8564:1 12034:1 
-0.0810546875 4999:1 
-0.0810546875 288:1 2742:1 5458:1 8564:1 12034:1 
-0.0810546875 288:1 2742:1 8564:1 
-0.0810546875 288:1 3475:1 5732:1 6762:1 8400:1 9596:1 11949:1 
-0.0810546875 3475:1 6762:1 8400:1 9596:1 
-0.0810546875 6762:1 9596:1 
-0.0810546875 3475:1 8400:1 
-0.0810546875 288:1 5732:1 11949:1 
-0.0810546875 288:1 5732:1 
-0.0810546875 5732:1 
-0.0810546875 11949:1 
-0.0810546875 288:1 618:1 1245:1 2011:1 4045:1 5052:1 5541:1 7992:1 9822:1 10348:1 11278:1 11624:1 
-0.0810546875 1245:1 5052:1 10348:1 11278:1 
-0.0810546875 1245:1 
-0.0810546875 5052:1 10348:1 11278:1 
-50 5052:1 10348:1 11278:1 
-0.0810546875 5052:1 
-0.0810546875 288:1 618:1 2011:1 4045:1 5541:1 7992:1 9822:1 11624:1 
-0.0810546875 2011:1 4045:1 
-0.0810546875 288:1 618:1 5541:1 7992:1 9822:1 11624:1 
-0.0810546875 618:1 5541:1 7992:1 9822:1 11624:1 
-0.0810546875 618:1 9822:1 11624:1 
-0.0810546875 11624:1 
-0.0810546875 618:1 9822:1 
-50 5541:1 7992:1 
-0.0810546875 4902:1 7989:1 9847:1 10294:1 10862:1 11523:1 12121:1 12667:1 
-0.0810546875 4902:1 7989:1 9847:1 10294:1 10862:1 11523:1 
-0.0810546875 7989:1 9847:1 10294:1 10862:1 11523:1 
-0.0810546875 9847:1 
-0.0810546875 248:1 317:1 608:1 1587:1 1678:1 2312:1 2544:1 2972:1 3171:1 3345:1 4357:1 4360:1 4534:1 4794:1 5446:1 6302:1 6548:1 8236:1 8620:1 8779:1 9554:1 11326:1 11342:1 12591:1 12783:1 
-0.0810546875 248:1 317:1 3171:1 3345:1 6302:1 8236:1 8779:1 9554:1 12591:1 
-0.0810546875 248:1 317:1 3171:1 3345:1 6302:1 8236:1 8779:1 12591:1 
-0.0810546875 317:1 8236:1 
-0.0810546875 8236:1 
-0.0810546875 248:1 3171:1 3345:1 6302:1 8779:1 12591:1 
-0.0810546875 9554:1 
-0.0810546875 608:1 1587:1 1678:1 2312:1 2544:1 2972:1 4357:1 4360:1 4534:1 4794:1 5446:1 6548:1 8620:1 11326:1 11342:1 12783:1 
-0.0810546875 2312:1 4534:1 5446:1 6548:1 
-0.0810546875 2312:1 5446:1 6548:1 
-0.0810546875 4534:1 
-0.0810546875 608:1 1587:1 1678:1 2544:1 2972:1 4357:1 4360:1 4794:1 8620:1 11326:1 11342:1 12783:1 
-0.0810546875 8620:1 11342:1 
-0.0810546875 608:1 1587:1 2544:1 2972:1 4357:1 4360:1 4794:1 11326:1 12783:1 
-0.0810546875 608:1 2972:1 4794:1 
-0.0810546875 1587:1 2544:1 4357:1 4360:1 11326:1 12783:1 
-0.0810546875 1587:1 2544:1 12783:1 
-0.0810546875 430:1 674:1 776:1 1040:1 1210:1 1901:1 3354:1 3565:1 4020:1 4193:1 4215:1 4357:1 4360:1 4594:1 4711:1 5042:1 5045:1 5720:1 5922:1 7516:1 10106:1 10229:1 10780:1 11326:1 12062:1 12199:1 
-0.0810546875 430:1 674:1 776:1 1040:1 1901:1 3354:1 3565:1 4357:1 4360:1 4594:1 5042:1 5045:1 5720:1 5922:1 7516:1 10106:1 11326:1 12062:1 12199:1 
-0.0810546875 776:1 1040:1 
-0.0810546875 776:1 
-0.0810546875 1040:1 
-50 430:1 674:1 1901:1 3354:1 3565:1 4357:1 4360:1 4594:1 5042:1 5045:1 5720:1 5922:1 7516:1 10106:1 11326:1 12062:1 12199:1 
-0.0810546875 674:1 1901:1 3354:1 5042:1 5045:1 7516:1 12062:1 
-0.0810546875 1901:1 
-0.0810546875 674:1 3354:1 5042:1 5045:1 7516:1 12062:1 
-0.0810546875 674:1 5042:1 5045:1 7516:1 
-0.0810546875 3354:1 12062:1 
-0.0810546875 430:1 3565:1 4357:1 4360:1 4594:1 5720:1 5922:1 10106:1 11326:1 12199:1 
-0.0810546875 4357:1 4360:1 5720:1 5922:1 11326:1 12199:1 
-0.0810546875 5720:1 5922:1 12199:1 
-0.0810546875 5922:1 
-0.0810546875 1210:1 4020:1 4193:1 4215:1 4711:1 10229:1 10780:1 
-0.0810546875 1210:1 4020:1 4193:1 4215:1 10780:1 
-0.0810546875 1210:1 
-0.0810546875 4020:1 4193:1 4215:1 10780:1 
-0.0810546875 288:1 425:1 1203:1 2090:1 2618:1 4030:1 4293:1 4302:1 4712:1 4783:1 5258:1 5962:1 5983:1 7196:1 8371:1 8620:1 9699:1 9704:1 10753:1 11342:1 13138:1 
-0.0810546875 288:1 425:1 2090:1 2618:1 10753:1 
-0.0810546875 425:1 2090:1 2618:1 10753:1 
-0.0810546875 2618:1 10753:1 
-0.0810546875 1203:1 4030:1 4293:1 4302:1 4712:1 4783:1 5258:1 5962:1 5983:1 7196:1 8371:1 8620:1 9699:1 9704:1 11342:1 13138:1 
-0.0810546875 4712:1 7196:1 
-0.0810546875 1203:1 4030:1 4293:1 4302:1 4783:1 5258:1 5962:1 5983:1 8371:1 8620:1 9699:1 9704:1 11342:1 13138:1 
-0.0810546875 1203:1 5258:1 5962:1 5983:1 8620:1 11342:1 
-0.0810546875 4030:1 4293:1 4302:1 4783:1 8371:1 9699:1 9704:1 13138:1 
-0.0810546875 4030:1 4293:1 4302:1 4783:1 13138:1 
-0.0810546875 4030:1 4293:1 4302:1 
-0.0810546875 4783:1 13138:1 
-0.0810546875 278:1 787:1 1725:1 1993:1 2807:1 2851:1 3647:1 4477:1 5772:1 5822:1 6509:1 7170:1 7623:1 9623:1 9876:1 10083:1 11701:1 12152:1 13078:1 13198:1 
-0.0810546875 2851:1 
-0.0810546875 278:1 787:1 1725:1 1993:1 2807:1 3647:1 4477:1 5772:1 5822:1 6509:1 7170:1 7623:1 9623:1 9876:1 10083:1 11701:1 12152:1 13078:1 13198:1 
-0.0810546875 278:1 787:1 1725:1 2807:1 3647:1 4477:1 5772:1 5822:1 6509:1 7170:1 7623:1 9623:1 9876:1 10083:1 11701:1 13078:1 13198:1 
-0.0810546875 278:1 1725:1 2807:1 9623:1 9876:1 
-50 5772:1 5822:1 7170:1 11701:1 13078:1 13198:1 
-0.0810546875 7170:1 
-0.0810546875 5772:1 5822:1 11701:1 13078:1 13198:1 
-0.0810546875 787:1 3647:1 4477:1 6509:1 7623:1 10083:1 
-0.0810546875 6509:1 
-0.0810546875 1993:1 12152:1 
-0.0810546875 1203:1 1488:1 1755:1 2139:1 2536:1 3741:1 4692:1 5014:1 5258:1 5299:1 5720:1 5962:1 5983:1 6071:1 6234:1 6291:1 6294:1 7949:1 8010:1 8130:1 8379:1 8710:1 8852:1 8965:1 9815:1 9865:1 10827:1 10835:1 11144:1 11156:1 11495:1 12199:1 12956:1 
-0.0810546875 8965:1 
-0.0810546875 1203:1 1488:1 1755:1 2139:1 2536:1 3741:1 4692:1 5014:1 5258:1 5299:1 5720:1 5962:1 5983:1 6071:1 6234:1 6291:1 6294:1 7949:1 8010:1 8130:1 8379:1 8710:1 8852:1 9815:1 9865:1 10827:1 10835:1 11144:1 11156:1 11495:1 12199:1 12956:1 
-0.0810546875 1488:1 1755:1 2536:1 4692:1 5299:1 6071:1 6291:1 6294:1 9815:1 9865:1 12956:1 
-0.0810546875 1488:1 1755:1 9815:1 9865:1 12956:1 
-0.0810546875 12956:1 
-0.0810546875 1488:1 1755:1 9815:1 9865:1 
-0.0810546875 1755:1 
-0.0810546875 1203:1 2139:1 3741:1 5014:1 5258:1 5720:1 5962:1 5983:1 6234:1 7949:1 8010:1 8130:1 8379:1 8710:1 8852:1 10827:1 10835:1 11144:1 11156:1 11495:1 12199:1 
-0.0810546875 2139:1 3741:1 5014:1 5720:1 6234:1 7949:1 8010:1 8130:1 8379:1 8710:1 8852:1 10827:1 10835:1 11144:1 11156:1 11495:1 12199:1 
-0.0810546875 2139:1 5014:1 5720:1 6234:1 7949:1 8010:1 8130:1 8379:1 8710:1 8852:1 10827:1 10835:1 11144:1 11156:1 11495:1 12199:1 
-0.0810546875 2139:1 7949:1 8130:1 
-0.0810546875 5014:1 5720:1 6234:1 8010:1 8379:1 8710:1 8852:1 10827:1 10835:1 11144:1 11156:1 11495:1 12199:1 
-0.0810546875 5014:1 5720:1 8379:1 8710:1 8852:1 12199:1 
-0.0810546875 5014:1 5720:1 8710:1 12199:1 
-0.0810546875 5014:1 8710:1 
-0.0810546875 6234:1 8010:1 10827:1 10835:1 11144:1 11156:1 11495:1 
-0.0810546875 6234:1 8010:1 11144:1 
-0.0810546875 403:1 430:1 3565:1 4594:1 4902:1 5436:1 5720:1 6264:1 7253:1 8553:1 8556:1 10106:1 10306:1 10991:1 11256:1 11640:1 12199:1 12509:1 
-0.0810546875 403:1 4902:1 5436:1 5720:1 6264:1 7253:1 8553:1 8556:1 10306:1 10991:1 11256:1 11640:1 12199:1 12509:1 
-0.0810546875 403:1 4902:1 5436:1 6264:1 7253:1 8553:1 8556:1 10306:1 10991:1 11256:1 11640:1 12509:1 
-0.0810546875 403:1 4902:1 5436:1 6264:1 7253:1 10306:1 12509:1 
-0.0810546875 403:1 5436:1 6264:1 7253:1 10306:1 12509:1 
-50 403:1 5436:1 6264:1 10306:1 12509:1 
-0.0810546875 7253:1 8553:1 8556:1 10991:1 11256:1 11640:1 
-50 8553:1 8556:1 10991:1 11256:1 11640:1 
-0.0810546875 248:1 288:1 952:1 1157:1 1306:1 1813:1 2765:1 3297:1 3304:1 3345:1 3617:1 3696:1 4043:1 4452:1 5047:1 5454:1 5720:1 6302:1 7969:1 8176:1 8823:1 9447:1 10520:1 11451:1 11889:1 12199:1 12591:1 
-0.0810546875 288:1 1157:1 1813:1 2765:1 3297:1 3304:1 5047:1 5720:1 7969:1 9447:1 11889:1 12199:1 
-0.0810546875 288:1 3297:1 3304:1 5720:1 9447:1 12199:1 
-0.0810546875 3297:1 3304:1 9447:1 
-0.0810546875 1157:1 1813:1 2765:1 5047:1 7969:1 11889:1 
-0.0810546875 1157:1 2765:1 5047:1 11889:1 
-0.0810546875 1813:1 7969:1 
-0.0810546875 248:1 952:1 1306:1 3345:1 3617:1 3696:1 4043:1 4452:1 5454:1 6302:1 8176:1 8823:1 10520:1 11451:1 12591:1 
-0.0810546875 1306:1 3617:1 4452:1 8176:1 8823:1 
-0.0810546875 1306:1 3617:1 8176:1 8823:1 
-0.0810546875 8176:1 
-0.0810546875 1306:1 3617:1 8823:1 
-0.0810546875 248:1 952:1 3345:1 3696:1 4043:1 5454:1 6302:1 10520:1 11451:1 12591:1 
-0.0810546875 11451:1 
-0.0810546875 248:1 952:1 3345:1 3696:1 4043:1 5454:1 6302:1 10520:1 12591:1 
-0.0810546875 3696:1 5454:1 10520:1 
-0.0810546875 248:1 952:1 3345:1 4043:1 6302:1 12591:1 
-0.0810546875 952:1 4043:1 
-0.0810546875 288:1 646:1 677:1 1060:1 1230:1 2276:1 2677:1 3575:1 4789:1 4875:1 4940:1 5141:1 5427:1 5907:1 7207:1 7253:1 9714:1 10104:1 11160:1 12427:1 12620:1 13131:1 13239:1 13244:1 
-0.0810546875 2677:1 9714:1 10104:1 11160:1 
-0.0810546875 2677:1 10104:1 11160:1 
-0.0810546875 2677:1 11160:1 
-0.0810546875 11160:1 
-0.0810546875 288:1 646:1 677:1 1060:1 1230:1 2276:1 3575:1 4789:1 4875:1 4940:1 5141:1 5427:1 5907:1 7207:1 7253:1 12427:1 12620:1 13131:1 13239:1 13244:1 
-0.0810546875 288:1 1060:1 2276:1 4789:1 4940:1 5427:1 
-0.0810546875 1060:1 2276:1 4789:1 4940:1 5427:1 
-0.0810546875 1060:1 2276:1 5427:1 
-0.0810546875 1060:1 
-0.0810546875 646:1 677:1 1230:1 3575:1 4875:1 5141:1 5907:1 7207:1 7253:1 12427:1 12620:1 13131:1 13239:1 13244:1 
-0.0810546875 646:1 1230:1 3575:1 4875:1 5141:1 5907:1 7207:1 7253:1 12427:1 12620:1 13131:1 13239:1 13244:1 
-0.0810546875 646:1 3575:1 5141:1 5907:1 7207:1 7253:1 12427:1 12620:1 13131:1 13239:1 13244:1 
-0.0810546875 646:1 3575:1 5141:1 5907:1 7207:1 12427:1 12620:1 13131:1 13239:1 13244:1 
-0.0810546875 646:1 5907:1 12620:1 
-0.0810546875 646:1 12620:1 
-0.0810546875 5907:1 
-0.0810546875 458:1 1017:1 4774:1 5406:1 12792:1 12808:1 13240:1 
-0.83203125 5406:1 13240:1 
-0.0810546875 458:1 1017:1 4774:1 12792:1 12808:1 
-0.0810546875 458:1 4774:1 12792:1 12808:1 
-0.0810546875 63:1 64:1 288:1 1561:1 2331:1 3096:1 3390:1 3697:1 4178:1 4316:1 4970:1 5353:1 5875:1 6638:1 7698:1 8027:1 8415:1 8455:1 9924:1 10348:1 10916:1 11278:1 11376:1 11385:1 11572:1 11675:1 11931:1 12125:1 12135:1 12243:1 12325:1 12535:1 
-0.0810546875 64:1 288:1 1561:1 3096:1 3390:1 3697:1 4178:1 4970:1 5353:1 6638:1 8455:1 9924:1 10916:1 11376:1 11385:1 11931:1 12243:1 12325:1 12535:1 
-0.0810546875 288:1 3390:1 3697:1 4970:1 
-0.0810546875 3390:1 3697:1 4970:1 
-0.0810546875 64:1 1561:1 3096:1 4178:1 5353:1 6638:1 8455:1 9924:1 10916:1 11376:1 11385:1 11931:1 12243:1 12325:1 12535:1 
-0.0810546875 3096:1 5353:1 9924:1 10916:1 11376:1 11385:1 12243:1 
-0.0810546875 5353:1 
-0.0810546875 64:1 1561:1 4178:1 6638:1 8455:1 11931:1 12325:1 12535:1 
-0.0810546875 8455:1 11931:1 12535:1 
-0.0810546875 63:1 2331:1 4316:1 5875:1 7698:1 8027:1 8415:1 10348:1 11278:1 11572:1 11675:1 12125:1 12135:1 
-0.0810546875 4316:1 11675:1 12135:1 
-0.0810546875 4316:1 
-0.0810546875 63:1 2331:1 5875:1 7698:1 8027:1 8415:1 10348:1 11278:1 11572:1 12125:1 
-0.0810546875 2331:1 11572:1 
-0.0810546875 63:1 5875:1 7698:1 8027:1 8415:1 10348:1 11278:1 12125:1 
-0.0810546875 63:1 8027:1 8415:1 12125:1 
-0.0810546875 63:1 8027:1 12125:1 
-0.0810546875 8415:1 
-0.0810546875 5875:1 7698:1 10348:1 11278:1 
-0.0810546875 5875:1 7698:1 
-0.0810546875 415:1 787:1 1168:1 2724:1 4630:1 5267:1 5283:1 5546:1 6112:1 6545:1 6754:1 7193:1 7253:1 7913:1 8494:1 8729:1 8841:1 9168:1 9267:1 10594:1 10794:1 13135:1 
-0.0810546875 2724:1 
-0.0810546875 415:1 787:1 1168:1 4630:1 5267:1 5283:1 5546:1 6112:1 6545:1 6754:1 7193:1 7253:1 7913:1 8494:1 8729:1 8841:1 9168:1 9267:1 10594:1 10794:1 13135:1 
-0.0810546875 415:1 7253:1 7913:1 8494:1 8729:1 13135:1 
-0.0810546875 7913:1 13135:1 
-0.0810546875 415:1 7253:1 8494:1 8729:1 
-0.0810546875 415:1 8494:1 8729:1 
-0.0810546875 8729:1 
-0.0810546875 415:1 8494:1 
-0.0810546875 787:1 1168:1 4630:1 5267:1 5283:1 5546:1 6112:1 6545:1 6754:1 7193:1 8841:1 9168:1 9267:1 10594:1 10794:1 
-0.0810546875 787:1 1168:1 4630:1 5267:1 5283:1 6545:1 6754:1 9168:1 9267:1 10794:1 
-0.0810546875 1168:1 4630:1 5267:1 5283:1 6545:1 6754:1 9168:1 9267:1 10794:1 
-0.0810546875 1168:1 4630:1 5267:1 5283:1 6545:1 9168:1 9267:1 
-0.0810546875 4630:1 5283:1 
-0.0810546875 1168:1 5267:1 6545:1 9168:1 9267:1 
-0.0810546875 1168:1 9168:1 9267:1 
-0.0810546875 1168:1 
-0.0810546875 288:1 1442:1 4901:1 5014:1 5475:1 5584:1 5720:1 5845:1 7019:1 7347:1 8710:1 12081:1 12199:1 
-0.0810546875 288:1 1442:1 5014:1 5720:1 5845:1 7019:1 8710:1 12199:1 
-0.0810546875 288:1 5014:1 5720:1 8710:1 12199:1 
-0.0810546875 1442:1 5845:1 7019:1 
-0.0810546875 7019:1 
-0.0810546875 1442:1 5845:1 
-0.0810546875 4901:1 5475:1 5584:1 7347:1 12081:1 
-0.0810546875 5584:1 7347:1 
-0.0810546875 4901:1 5475:1 12081:1 
-0.0810546875 9239:1 9554:1 
-50 9239:1 
-0.0810546875 3596:1 4471:1 5716:1 6076:1 
-0.0810546875 3596:1 
-0.0810546875 4471:1 5716:1 6076:1 
-0.0810546875 6076:1 
-0.0810546875 4471:1 5716:1 
-0.0810546875 331:1 1878:1 4776:1 4813:1 5720:1 9333:1 9542:1 10329:1 12199:1 12974:1 
-0.0810546875 4776:1 4813:1 5720:1 12199:1 
-0.0810546875 4813:1 5720:1 12199:1 
-0.0810546875 4813:1 
-0.0810546875 331:1 1878:1 9333:1 9542:1 10329:1 12974:1 
-0.0810546875 331:1 9333:1 9542:1 10329:1 
-0.0810546875 331:1 
-0.0810546875 9333:1 9542:1 10329:1 
-0.0810546875 1878:1 12974:1 
-0.0810546875 1878:1 
-0.0810546875 12974:1 
-0.0810546875 1070:1 4767:1 7159:1 7758:1 
-0.0810546875 7159:1 
-0.0810546875 1070:1 4767:1 7758:1 
-0.0810546875 1070:1 4767:1 
-0.0810546875 2057:1 2444:1 4357:1 4360:1 4414:1 4902:1 5029:1 5494:1 5999:1 7253:1 8617:1 8713:1 9899:1 10369:1 11326:1 11497:1 11619:1 12541:1 
-50 2057:1 2444:1 4357:1 4360:1 4414:1 4902:1 5029:1 5494:1 5999:1 7253:1 8617:1 8713:1 9899:1 10369:1 11326:1 11497:1 11619:1 12541:1 
-0.0810546875 2444:1 4357:1 4360:1 4414:1 4902:1 5029:1 5494:1 5999:1 7253:1 8617:1 8713:1 9899:1 11326:1 11497:1 11619:1 
-50 5494:1 8617:1 11497:1 
-0.0810546875 8617:1 
-0.0810546875 2444:1 4357:1 4360:1 4414:1 4902:1 5029:1 5999:1 7253:1 8713:1 9899:1 11326:1 11619:1 
-0.0810546875 2444:1 11619:1 
-0.0810546875 11619:1 
-0.0810546875 2444:1 
-0.0810546875 4357:1 4360:1 4414:1 4902:1 5029:1 5999:1 7253:1 8713:1 9899:1 11326:1 
-0.0810546875 4414:1 4902:1 5029:1 5999:1 7253:1 8713:1 9899:1 
-0.0810546875 4902:1 5999:1 9899:1 
-0.0810546875 5999:1 9899:1 
-0.0810546875 4414:1 5029:1 7253:1 8713:1 
-0.0810546875 2057:1 10369:1 12541:1 
-0.0810546875 10369:1 12541:1 
-0.0810546875 12541:1 
-0.0810546875 288:1 1360:1 2288:1 2327:1 3260:1 3775:1 4572:1 4595:1 5608:1 7087:1 7409:1 7920:1 12660:1 
-0.0810546875 2288:1 4572:1 4595:1 7087:1 7920:1 
-0.0810546875 7087:1 
-0.0810546875 288:1 1360:1 2327:1 3260:1 3775:1 5608:1 7409:1 12660:1 
-0.0810546875 288:1 12660:1 
-0.0810546875 12660:1 
-0.0810546875 1360:1 2327:1 3260:1 3775:1 5608:1 7409:1 
-0.0810546875 1360:1 
-0.0810546875 2327:1 3260:1 3775:1 5608:1 7409:1 
-0.0810546875 3260:1 
-0.0810546875 2327:1 3775:1 5608:1 7409:1 
-0.0810546875 5608:1 
-0.0810546875 2327:1 3775:1 7409:1 
-0.0810546875 290:1 3825:1 4423:1 4706:1 4822:1 5482:1 6361:1 9714:1 11783:1 12094:1 13083:1 
-0.0810546875 3825:1 4423:1 4706:1 4822:1 5482:1 6361:1 9714:1 11783:1 12094:1 13083:1 
-0.0810546875 12094:1 
-0.0810546875 3825:1 4423:1 4706:1 4822:1 5482:1 6361:1 9714:1 11783:1 13083:1 
-0.0810546875 3825:1 4822:1 6361:1 13083:1 
-0.0810546875 4822:1 
-0.0810546875 4423:1 4706:1 5482:1 9714:1 11783:1 
-0.0810546875 11783:1 
-0.0810546875 4423:1 4706:1 5482:1 9714:1 
-0.0810546875 3689:1 
-50 867:1 1942:1 2239:1 2433:1 3993:1 4732:1 5163:1 5764:1 6663:1 8907:1 10133:1 10166:1 11196:1 11200:1 11208:1 11210:1 12573:1 12790:1 12970:1 
-0.0810546875 1942:1 2239:1 8907:1 10133:1 11208:1 11210:1 
-0.0810546875 2239:1 11208:1 11210:1 
-0.0810546875 1942:1 8907:1 10133:1 
-0.0810546875 8907:1 
-0.0810546875 867:1 2433:1 3993:1 4732:1 5163:1 5764:1 6663:1 10166:1 11196:1 11200:1 12573:1 12790:1 12970:1 
-0.0810546875 2433:1 
-0.0810546875 867:1 6663:1 11196:1 11200:1 12573:1 12790:1 
-0.0810546875 3993:1 4732:1 5163:1 5764:1 10166:1 12970:1 
-0.0810546875 3993:1 4732:1 5764:1 10166:1 
-0.0810546875 5764:1 10166:1 
-0.0810546875 3993:1 4732:1 
-0.0810546875 5163:1 12970:1 
-0.0810546875 12970:1 
-0.0810546875 1822:1 4754:1 
-0.0810546875 1822:1 
-0.0810546875 4754:1 
-0.0810546875 2499:1 4361:1 5187:1 8013:1 9164:1 10055:1 10150:1 12781:1 
-0.0810546875 4361:1 10055:1 10150:1 
-0.0810546875 2499:1 5187:1 8013:1 9164:1 12781:1 
-0.0810546875 2499:1 5187:1 12781:1 
-0.0810546875 8013:1 9164:1 
-0.0810546875 8013:1 
-50 5720:1 6895:1 8873:1 11085:1 12199:1 
-0.0810546875 5720:1 6895:1 11085:1 12199:1 
-0.0810546875 6895:1 11085:1 
-0.0810546875 2333:1 3658:1 3783:1 4228:1 4262:1 4338:1 4451:1 4465:1 4857:1 5130:1 5381:1 5701:1 7157:1 7253:1 7262:1 7565:1 9430:1 9943:1 10297:1 11717:1 13009:1 
-0.0810546875 2333:1 4228:1 5701:1 9943:1 
-0.0810546875 5701:1 9943:1 
-0.0810546875 5701:1 
-0.0810546875 9943:1 
-0.0810546875 2333:1 4228:1 
-0.0810546875 3658:1 3783:1 4262:1 4338:1 4451:1 4465:1 4857:1 5130:1 5381:1 7157:1 7253:1 7262:1 7565:1 9430:1 10297:1 11717:1 13009:1 
-0.0810546875 3658:1 4262:1 4338:1 10297:1 13009:1 
-0.0810546875 3658:1 
-0.0810546875 3783:1 4451:1 4465:1 4857:1 5130:1 5381:1 7157:1 7253:1 7262:1 7565:1 9430:1 11717:1 
-0.0810546875 3783:1 4451:1 4465:1 4857:1 5130:1 5381:1 7157:1 7262:1 7565:1 9430:1 11717:1 
-0.0810546875 3783:1 4451:1 4465:1 4857:1 5130:1 5381:1 7157:1 7262:1 7565:1 9430:1 
-0.0810546875 3783:1 5130:1 7157:1 9430:1 
-0.0810546875 7157:1 
-0.0810546875 3783:1 5130:1 9430:1 
-0.0810546875 5130:1 
-0.0810546875 3783:1 9430:1 
-0.0810546875 9430:1 
-0.0810546875 3783:1 
-0.0810546875 288:1 653:1 1389:1 2950:1 3028:1 3049:1 3128:1 3175:1 3827:1 4253:1 4711:1 7147:1 7253:1 7393:1 8148:1 8190:1 9746:1 9817:1 10229:1 10577:1 11107:1 11712:1 11740:1 12228:1 12239:1 12930:1 
-0.0810546875 288:1 653:1 3028:1 3128:1 3175:1 3827:1 4253:1 4711:1 7253:1 7393:1 9817:1 10229:1 10577:1 11107:1 11740:1 12228:1 12239:1 
-0.0810546875 288:1 653:1 3028:1 3128:1 3175:1 3827:1 4253:1 7253:1 7393:1 9817:1 10577:1 11107:1 11740:1 12228:1 12239:1 
-0.0810546875 288:1 653:1 3028:1 3128:1 3175:1 3827:1 4253:1 7393:1 9817:1 11107:1 11740:1 12228:1 
-0.0810546875 288:1 3128:1 3827:1 4253:1 9817:1 11107:1 
-0.0810546875 288:1 3128:1 3827:1 9817:1 
-0.0810546875 288:1 9817:1 
-0.0810546875 9817:1 
-0.0810546875 3128:1 3827:1 
-0.0810546875 3827:1 
-0.0810546875 3128:1 
-0.08203125 653:1 3028:1 3175:1 7393:1 11740:1 12228:1 
-0.08203125 3028:1 3175:1 
-0.08203125 653:1 7393:1 11740:1 12228:1 
-0.08203125 653:1 
-0.08203125 7393:1 11740:1 12228:1 
-0.08203125 7253:1 10577:1 12239:1 
-0.08203125 10577:1 
-0.08203125 7253:1 12239:1 
-0.08203125 12239:1 
-0.08203125 1389:1 2950:1 3049:1 7147:1 8148:1 8190:1 9746:1 11712:1 12930:1 
-0.08203125 12930:1 
-0.08203125 1389:1 2950:1 3049:1 7147:1 8148:1 8190:1 9746:1 11712:1 
-0.08203125 1389:1 3049:1 7147:1 8148:1 8190:1 9746:1 11712:1 
-0.08203125 3049:1 7147:1 8148:1 8190:1 
-0.08203125 3049:1 8148:1 
-0.08203125 1389:1 9746:1 11712:1 
-0.08203125 317:1 383:1 3029:1 3647:1 4090:1 4477:1 5210:1 5985:1 6956:1 7253:1 7364:1 7374:1 7623:1 9333:1 9542:1 9821:1 10083:1 10160:1 10329:1 10774:1 11694:1 12577:1 12579:1 12700:1 13116:1 13125:1 
-0.08203125 317:1 383:1 4090:1 6956:1 7253:1 9333:1 9542:1 9821:1 10160:1 10329:1 10774:1 11694:1 12579:1 12700:1 13116:1 13125:1 
-0.08203125 383:1 4090:1 6956:1 7253:1 9333:1 9542:1 9821:1 10160:1 10329:1 10774:1 11694:1 12579:1 12700:1 13116:1 13125:1 
-0.08203125 9821:1 
-0.08203125 383:1 4090:1 6956:1 7253:1 9333:1 9542:1 10160:1 10329:1 10774:1 11694:1 12579:1 12700:1 13116:1 13125:1 
-0.08203125 10160:1 10774:1 11694:1 12700:1 13116:1 13125:1 
-0.08203125 383:1 4090:1 6956:1 7253:1 9333:1 9542:1 10329:1 12579:1 
-0.08203125 383:1 7253:1 9333:1 9542:1 10329:1 
-0.08203125 383:1 9333:1 9542:1 10329:1 
-0.08203125 383:1 
-0.08203125 3029:1 3647:1 4477:1 5210:1 5985:1 7364:1 7374:1 7623:1 10083:1 12577:1 
-0.08203125 5210:1 12577:1 
-0.08203125 3029:1 3647:1 4477:1 5985:1 7364:1 7374:1 7623:1 10083:1 
-0.08203125 3029:1 5985:1 7364:1 7374:1 
-0.08203125 3029:1 
-0.08203125 5985:1 7364:1 7374:1 
-0.08203125 195:1 430:1 3565:1 4594:1 5385:1 7545:1 8151:1 9456:1 9554:1 9558:1 10106:1 10402:1 11171:1 12371:1 
-0.08203125 195:1 430:1 3565:1 4594:1 5385:1 7545:1 8151:1 9554:1 9558:1 10106:1 12371:1 
-0.08203125 195:1 5385:1 7545:1 8151:1 9554:1 9558:1 12371:1 
-0.08203125 12371:1 
-0.08203125 195:1 5385:1 7545:1 8151:1 9554:1 9558:1 
-0.08203125 195:1 5385:1 7545:1 8151:1 9558:1 
-0.08203125 7545:1 9558:1 
-0.08203125 9558:1 
-0.08203125 9456:1 10402:1 11171:1 
-0.08203125 10402:1 11171:1 
-0.08203125 9456:1 
-0.08203125 288:1 3647:1 4361:1 4477:1 4762:1 4785:1 7623:1 7907:1 8371:1 9699:1 9704:1 10055:1 10083:1 10150:1 11131:1 
-50 288:1 3647:1 4361:1 4477:1 4762:1 4785:1 7623:1 7907:1 8371:1 9699:1 9704:1 10055:1 10083:1 10150:1 11131:1 
-50 288:1 3647:1 4361:1 4477:1 4762:1 4785:1 7623:1 7907:1 8371:1 9699:1 9704:1 10055:1 10083:1 10150:1 11131:1 
-0.08203125 3647:1 4361:1 4477:1 4762:1 4785:1 7623:1 7907:1 8371:1 9699:1 9704:1 10055:1 10083:1 10150:1 11131:1 
-0.08203125 8371:1 9699:1 9704:1 
-0.08203125 3647:1 4361:1 4477:1 4762:1 4785:1 7623:1 7907:1 10055:1 10083:1 10150:1 11131:1 
-0.08203125 3647:1 4477:1 4762:1 4785:1 7623:1 7907:1 10083:1 11131:1 
-50 4762:1 4785:1 7907:1 11131:1 
-0.08203125 4772:1 4992:1 5788:1 6394:1 10439:1 10440:1 10809:1 10907:1 10922:1 10949:1 11753:1 
-50 4772:1 4992:1 5788:1 6394:1 10439:1 10440:1 10809:1 10907:1 10922:1 10949:1 11753:1 
-0.08203125 4772:1 6394:1 10809:1 
-0.08203125 2676:1 3340:1 4314:1 6061:1 6143:1 13136:1 
-0.08203125 4314:1 
-0.08203125 288:1 1156:1 2514:1 2613:1 3321:1 3372:1 4327:1 4371:1 4575:1 5534:1 5555:1 7245:1 7253:1 8856:1 9306:1 10011:1 12497:1 13154:1 13247:1 
-0.08203125 288:1 1156:1 2514:1 8856:1 9306:1 13154:1 13247:1 
-0.08203125 288:1 1156:1 
-0.08203125 1156:1 
-0.08203125 2514:1 8856:1 9306:1 13154:1 13247:1 
-0.08203125 2514:1 8856:1 13247:1 
-0.08203125 2613:1 3321:1 3372:1 4327:1 4371:1 4575:1 5534:1 5555:1 7245:1 7253:1 10011:1 12497:1 
-0.08203125 3372:1 10011:1 
-0.08203125 10011:1 
-0.08203125 3372:1 
-0.08203125 2613:1 3321:1 4327:1 4371:1 4575:1 5534:1 5555:1 7245:1 7253:1 12497:1 
-0.08203125 3321:1 4371:1 12497:1 
-0.08203125 3321:1 12497:1 
-0.08203125 4371:1 
-0.08203125 2613:1 4327:1 4575:1 5534:1 5555:1 7245:1 7253:1 
-0.08203125 2613:1 4327:1 4575:1 5534:1 5555:1 7245:1 
-0.08203125 2613:1 
-0.08203125 288:1 1331:1 1568:1 2650:1 3407:1 4966:1 5607:1 6623:1 6663:1 8135:1 9243:1 9254:1 9490:1 10565:1 10837:1 11625:1 12425:1 12790:1 12998:1 
-0.08203125 288:1 3407:1 12998:1 
-0.08203125 288:1 3407:1 
-0.08203125 3407:1 
-0.08203125 12998:1 
-0.08203125 1331:1 1568:1 2650:1 4966:1 5607:1 6623:1 6663:1 8135:1 9243:1 9254:1 9490:1 10565:1 10837:1 11625:1 12425:1 12790:1 
-0.08203125 9243:1 
-0.08203125 1331:1 1568:1 2650:1 4966:1 5607:1 6623:1 6663:1 8135:1 9254:1 9490:1 10565:1 10837:1 11625:1 12425:1 12790:1 
-0.08203125 5607:1 10565:1 
-0.08203125 10565:1 
-0.08203125 5607:1 
-0.08203125 1331:1 1568:1 2650:1 4966:1 6623:1 6663:1 8135:1 9254:1 9490:1 10837:1 11625:1 12425:1 12790:1 
-0.08203125 6663:1 10837:1 12790:1 
-0.08203125 10837:1 
-0.08203125 1331:1 1568:1 2650:1 4966:1 6623:1 8135:1 9254:1 9490:1 11625:1 12425:1 
-0.08203125 2650:1 8135:1 9490:1 11625:1 
-0.08203125 2650:1 8135:1 
-0.08203125 9490:1 11625:1 
-0.08203125 1331:1 1568:1 4966:1 6623:1 9254:1 12425:1 
-0.08203125 6623:1 
-0.08203125 1331:1 1568:1 4966:1 9254:1 12425:1 
-0.08203125 1331:1 
-0.08203125 1568:1 4966:1 9254:1 12425:1 
-0.08203125 4966:1 12425:1 
-0.08203125 288:1 1396:1 2057:1 2677:1 3906:1 7273:1 8176:1 8999:1 10338:1 10369:1 10542:1 
-0.08203125 288:1 1396:1 2057:1 2677:1 3906:1 8999:1 10369:1 
-0.08203125 288:1 1396:1 2057:1 3906:1 8999:1 10369:1 
-0.08203125 288:1 2057:1 10369:1 
-0.08203125 288:1 10369:1 
-0.08203125 1396:1 3906:1 8999:1 
-0.08203125 1396:1 
-50 7273:1 8176:1 10338:1 10542:1 
-0.08203125 8176:1 10338:1 10542:1 
-0.08203125 2143:1 3466:1 3586:1 4711:1 5175:1 5805:1 6363:1 7171:1 8762:1 9554:1 10229:1 10563:1 11961:1 
-0.08203125 2143:1 3466:1 3586:1 5175:1 7171:1 11961:1 
-0.08203125 2143:1 5175:1 
-0.08203125 3466:1 3586:1 7171:1 11961:1 
-0.08203125 7171:1 
-0.08203125 3466:1 3586:1 11961:1 
-0.08203125 3466:1 
-0.08203125 4711:1 5805:1 6363:1 8762:1 9554:1 10229:1 10563:1 
-0.08203125 4711:1 5805:1 6363:1 8762:1 10229:1 10563:1 
-0.08203125 8762:1 
-0.08203125 4711:1 5805:1 6363:1 10229:1 10563:1 
-0.08203125 5805:1 6363:1 10563:1 
-0.08203125 5805:1 
-0.08203125 6363:1 10563:1 
-0.08203125 1784:1 1893:1 2208:1 2218:1 2519:1 2716:1 4576:1 4620:1 4632:1 4789:1 4940:1 5008:1 5011:1 5143:1 6647:1 6763:1 7009:1 7253:1 7898:1 7935:1 7975:1 10390:1 10930:1 10935:1 11546:1 12854:1 
-0.08203125 1893:1 2208:1 2519:1 2716:1 4789:1 4940:1 5143:1 7253:1 7935:1 10930:1 10935:1 
-0.08203125 5143:1 7935:1 10930:1 10935:1 
-0.08203125 1893:1 2208:1 2519:1 2716:1 4789:1 4940:1 7253:1 
-0.08203125 2208:1 2519:1 2716:1 4789:1 4940:1 
-0.08203125 2519:1 4789:1 4940:1 
-0.08203125 2519:1 
-0.08203125 1893:1 7253:1 
-0.08203125 1784:1 2218:1 4576:1 4620:1 4632:1 5008:1 5011:1 6647:1 6763:1 7009:1 7898:1 7975:1 10390:1 11546:1 12854:1 
-0.08203125 2218:1 4620:1 4632:1 5008:1 5011:1 6647:1 7009:1 7898:1 7975:1 11546:1 12854:1 
-0.08203125 2218:1 4620:1 4632:1 5008:1 5011:1 6647:1 7009:1 7975:1 11546:1 12854:1 
-0.08203125 2218:1 5008:1 5011:1 6647:1 7009:1 7975:1 12854:1 
-0.08203125 12854:1 
-0.08203125 2218:1 5008:1 5011:1 6647:1 7009:1 7975:1 
-0.08203125 4620:1 4632:1 11546:1 
-0.08203125 7898:1 
-0.08203125 280:1 364:1 370:1 931:1 1818:1 2057:1 2123:1 2966:1 3276:1 3479:1 4860:1 4955:1 4994:1 5588:1 5922:1 6157:1 6304:1 6549:1 6731:1 6742:1 6829:1 7316:1 7394:1 7989:1 7997:1 9094:1 9328:1 9792:1 9979:1 10016:1 10294:1 10369:1 10862:1 11523:1 11581:1 11660:1 12729:1 12851:1 
-0.08203125 280:1 364:1 370:1 931:1 1818:1 2057:1 2966:1 4860:1 4955:1 5588:1 5922:1 6157:1 6304:1 6549:1 6731:1 6829:1 7394:1 7997:1 9094:1 9328:1 9792:1 9979:1 10016:1 10369:1 11581:1 11660:1 12729:1 
-0.08203125 280:1 364:1 370:1 4860:1 4955:1 5588:1 6157:1 6549:1 7997:1 9328:1 9979:1 11660:1 12729:1 
-0.08203125 5588:1 11660:1 12729:1 
-0.08203125 931:1 1818:1 2057:1 2966:1 5922:1 6304:1 6731:1 6829:1 7394:1 9094:1 9792:1 10016:1 10369:1 11581:1 
-0.08203125 2057:1 5922:1 6304:1 6731:1 6829:1 7394:1 9094:1 9792:1 10016:1 10369:1 
-0.08203125 6304:1 7394:1 9792:1 
-0.08203125 2057:1 5922:1 6731:1 6829:1 9094:1 10016:1 10369:1 
-0.08203125 5922:1 6731:1 6829:1 9094:1 10016:1 10369:1 
-0.08203125 5922:1 6731:1 6829:1 9094:1 10016:1 
-0.08203125 6731:1 6829:1 9094:1 10016:1 
-0.08203125 6829:1 9094:1 
-0.08203125 2123:1 3276:1 3479:1 4994:1 6742:1 7316:1 7989:1 10294:1 10862:1 11523:1 12851:1 
-0.08203125 3276:1 7989:1 10294:1 10862:1 11523:1 12851:1 
-0.08203125 2123:1 3479:1 4994:1 6742:1 7316:1 
-0.08203125 7316:1 
-0.08203125 1959:1 3647:1 4477:1 4902:1 6663:1 6892:1 7253:1 7623:1 9819:1 10083:1 11450:1 12311:1 12790:1 
-0.08203125 1959:1 3647:1 4477:1 4902:1 6892:1 7253:1 7623:1 9819:1 10083:1 11450:1 12311:1 
-0.08203125 1959:1 4902:1 
-0.08203125 1959:1 
-0.08203125 3647:1 4477:1 6892:1 7253:1 7623:1 9819:1 10083:1 11450:1 12311:1 
-0.08203125 3647:1 4477:1 7253:1 7623:1 10083:1 11450:1 
-0.08203125 3647:1 4477:1 7623:1 10083:1 11450:1 
-0.08203125 11450:1 
-0.08203125 217:1 3260:1 3647:1 4054:1 4477:1 4591:1 7117:1 7309:1 7322:1 7442:1 7623:1 7756:1 7758:1 7932:1 9024:1 9217:1 10083:1 11959:1 11999:1 12009:1 12801:1 
-0.08203125 217:1 3260:1 4054:1 4591:1 7117:1 7309:1 7322:1 7442:1 7756:1 7758:1 7932:1 9024:1 9217:1 11959:1 11999:1 12009:1 12801:1 
-0.08203125 217:1 3260:1 4054:1 7117:1 7309:1 7322:1 7442:1 7932:1 9024:1 9217:1 11959:1 11999:1 12009:1 12801:1 
-0.08203125 217:1 3260:1 4054:1 7309:1 7322:1 7442:1 7932:1 9024:1 9217:1 11959:1 11999:1 12009:1 12801:1 
-0.08203125 3260:1 7442:1 7932:1 11959:1 11999:1 12009:1 12801:1 
-0.08203125 11959:1 
-0.08203125 3260:1 7442:1 7932:1 11999:1 12009:1 12801:1 
-0.08203125 4591:1 7756:1 7758:1 
-0.08203125 60:1 246:1 248:1 288:1 729:1 922:1 1957:1 2060:1 2182:1 2976:1 3345:1 3381:1 3398:1 3647:1 4477:1 4922:1 5147:1 5739:1 6302:1 6596:1 6985:1 7504:1 7623:1 7670:1 8155:1 8276:1 8544:1 9292:1 9662:1 10083:1 10455:1 11984:1 12591:1 
-0.08203125 9292:1 
-0.08203125 60:1 246:1 248:1 288:1 729:1 922:1 1957:1 2060:1 2182:1 2976:1 3345:1 3381:1 3398:1 3647:1 4477:1 4922:1 5147:1 5739:1 6302:1 6596:1 6985:1 7504:1 7623:1 7670:1 8155:1 8276:1 8544:1 9662:1 10083:1 10455:1 11984:1 12591:1 
-0.08203125 248:1 288:1 2060:1 2182:1 2976:1 3345:1 3381:1 4922:1 6302:1 6985:1 7504:1 8276:1 8544:1 12591:1 
-0.08203125 248:1 288:1 2976:1 3345:1 3381:1 4922:1 6302:1 6985:1 12591:1 
-0.08203125 248:1 288:1 3345:1 6302:1 12591:1 
-0.08203125 2976:1 3381:1 4922:1 6985:1 
-0.08203125 4922:1 
-0.08203125 2976:1 3381:1 6985:1 
-0.08203125 2060:1 2182:1 7504:1 8276:1 8544:1 
-0.08203125 2182:1 7504:1 
-0.08203125 2182:1 
-0.08203125 7504:1 
-0.08203125 2060:1 8276:1 8544:1 
-0.08203125 8544:1 
-0.08203125 60:1 246:1 248:1 729:1 922:1 1957:1 3345:1 3398:1 3647:1 4477:1 5147:1 5739:1 6302:1 6596:1 7623:1 7670:1 8155:1 9662:1 10083:1 10455:1 11984:1 12591:1 
-0.08203125 248:1 3345:1 5147:1 6302:1 11984:1 12591:1 
-0.08203125 5147:1 11984:1 
-0.08203125 60:1 246:1 729:1 922:1 1957:1 3398:1 3647:1 4477:1 5739:1 6596:1 7623:1 7670:1 8155:1 9662:1 10083:1 10455:1 
-0.08203125 60:1 
-0.08203125 246:1 729:1 922:1 1957:1 3398:1 3647:1 4477:1 5739:1 6596:1 7623:1 7670:1 8155:1 9662:1 10083:1 10455:1 
-0.08203125 1957:1 9662:1 
-0.08203125 246:1 729:1 922:1 3398:1 3647:1 4477:1 5739:1 6596:1 7623:1 7670:1 8155:1 10083:1 10455:1 
-0.08203125 922:1 3398:1 
-0.08203125 246:1 729:1 3647:1 4477:1 5739:1 6596:1 7623:1 7670:1 8155:1 10083:1 10455:1 
-0.08203125 246:1 729:1 5739:1 6596:1 7670:1 8155:1 10455:1 
-0.08203125 246:1 5739:1 6596:1 7670:1 8155:1 10455:1 
-0.08203125 10455:1 
-0.08203125 246:1 5739:1 6596:1 7670:1 8155:1 
-0.08203125 5739:1 6596:1 7670:1 8155:1 
-0.08203125 7670:1 
-0.08203125 5739:1 6596:1 8155:1 
-50 2439:1 4887:1 7273:1 10953:1 
-50 2439:1 4887:1 10953:1 
-0.08203125 4887:1 
-0.08203125 2439:1 10953:1 
-0.08203125 2475:1 11833:1 11838:1 
-50 2475:1 11833:1 11838:1 
-0.08203125 2475:1 
-0.08203125 11833:1 11838:1 
-0.08203125 1251:1 2070:1 2140:1 6111:1 7043:1 10967:1 
-0.08203125 1251:1 2070:1 2140:1 7043:1 10967:1 
-0.08203125 10967:1 
-0.08203125 1251:1 2070:1 2140:1 7043:1 
-0.08203125 1251:1 2070:1 7043:1 
-0.08203125 1251:1 
-0.08203125 2070:1 7043:1 
-0.08203125 7043:1 
-0.08203125 2070:1 
-0.08203125 288:1 4357:1 4360:1 11326:1 12823:1 
-0.08203125 4357:1 4360:1 11326:1 12823:1 
-0.08203125 12823:1 
-0.08203125 156:1 288:1 317:1 2045:1 2181:1 2276:1 2390:1 3992:1 4327:1 4519:1 4575:1 5427:1 5534:1 5555:1 7245:1 7377:1 7677:1 8714:1 8865:1 8867:1 12121:1 12667:1 
-0.08203125 156:1 317:1 2181:1 2390:1 3992:1 4519:1 7377:1 7677:1 12121:1 12667:1 
-0.08203125 156:1 2181:1 2390:1 3992:1 4519:1 7377:1 7677:1 12121:1 12667:1 
-0.08203125 156:1 3992:1 4519:1 7377:1 12121:1 12667:1 
-0.08203125 3992:1 7377:1 12121:1 12667:1 
-0.08203125 7377:1 
-0.08203125 3992:1 12121:1 12667:1 
-0.08203125 3992:1 
-0.08203125 156:1 4519:1 
-0.08203125 4519:1 
-0.08203125 156:1 
-0.08203125 2181:1 2390:1 7677:1 
-0.08203125 2181:1 7677:1 
-0.08203125 2390:1 
-0.08203125 288:1 2045:1 2276:1 4327:1 4575:1 5427:1 5534:1 5555:1 7245:1 8714:1 8865:1 8867:1 
-0.08203125 2045:1 2276:1 4327:1 4575:1 5427:1 5534:1 5555:1 7245:1 8714:1 8865:1 8867:1 
-0.08203125 2276:1 4327:1 4575:1 5427:1 5534:1 5555:1 7245:1 8714:1 
-0.08203125 8714:1 
-0.08203125 985:1 1344:1 1609:1 1795:1 2099:1 2618:1 2667:1 3052:1 3110:1 3551:1 4659:1 5320:1 5406:1 6274:1 6731:1 7599:1 7603:1 9082:1 10016:1 10338:1 10542:1 10632:1 11147:1 12979:1 13240:1 
-0.08203125 985:1 1344:1 1609:1 1795:1 2099:1 2618:1 2667:1 4659:1 5406:1 6274:1 6731:1 10016:1 10338:1 10542:1 11147:1 12979:1 13240:1 
-0.08203125 2618:1 5406:1 6731:1 10016:1 10338:1 10542:1 13240:1 
-0.08203125 985:1 1344:1 1609:1 1795:1 2099:1 2667:1 4659:1 6274:1 11147:1 12979:1 
-0.08203125 985:1 1344:1 2667:1 4659:1 11147:1 12979:1 
-0.08203125 985:1 
-0.08203125 1344:1 2667:1 4659:1 11147:1 12979:1 
-0.08203125 1344:1 2667:1 4659:1 11147:1 
-0.08203125 11147:1 
-0.08203125 1344:1 2667:1 4659:1 
-0.08203125 1609:1 1795:1 2099:1 6274:1 
-0.08203125 1795:1 2099:1 
-0.08203125 3052:1 3110:1 3551:1 5320:1 7599:1 7603:1 9082:1 10632:1 
-0.08203125 3052:1 3110:1 7599:1 7603:1 9082:1 
-0.08203125 3052:1 3110:1 7599:1 7603:1 
-0.08203125 9082:1 
-0.08203125 3551:1 5320:1 10632:1 
-0.08203125 3551:1 10632:1 
-0.08203125 5320:1 
-0.08203125 1942:1 2207:1 5932:1 10133:1 10201:1 13163:1 
-0.08203125 1942:1 5932:1 10133:1 10201:1 13163:1 
-0.08203125 5932:1 13163:1 
-0.08203125 1942:1 10133:1 10201:1 
-0.08203125 10201:1 
-0.08203125 1942:1 10133:1 
-0.08203125 2207:1 
-0.08203125 360:1 1124:1 2057:1 2605:1 2676:1 3103:1 3340:1 4093:1 4219:1 4310:1 5158:1 5720:1 5731:1 6061:1 6143:1 6272:1 6345:1 6573:1 6663:1 7190:1 7628:1 8757:1 9034:1 9167:1 9300:1 9640:1 9903:1 10369:1 12103:1 12199:1 12480:1 12790:1 13136:1 13196:1 
-0.08203125 2057:1 7190:1 10369:1 
-0.08203125 7190:1 10369:1 
-0.08203125 7190:1 
-50 360:1 1124:1 2605:1 2676:1 3103:1 3340:1 4093:1 4219:1 4310:1 5158:1 5720:1 5731:1 6061:1 6143:1 6272:1 6345:1 6573:1 6663:1 7628:1 8757:1 9034:1 9167:1 9300:1 9640:1 9903:1 12103:1 12199:1 12480:1 12790:1 13136:1 13196:1 
-50 360:1 1124:1 2605:1 2676:1 3103:1 3340:1 4093:1 4219:1 4310:1 5158:1 5720:1 5731:1 6061:1 6143:1 6272:1 6345:1 6573:1 6663:1 7628:1 8757:1 9034:1 9167:1 9300:1 9640:1 9903:1 12103:1 12199:1 12480:1 12790:1 13136:1 13196:1 
-0.08203125 360:1 1124:1 2605:1 2676:1 3103:1 3340:1 4093:1 4219:1 4310:1 5158:1 5731:1 6061:1 6143:1 6272:1 6345:1 6573:1 6663:1 7628:1 8757:1 9034:1 9167:1 9300:1 9640:1 9903:1 12103:1 12480:1 12790:1 13136:1 13196:1 
-0.08203125 360:1 1124:1 2605:1 2676:1 3103:1 3340:1 4093:1 4219:1 4310:1 5731:1 6061:1 6143:1 6272:1 6345:1 6573:1 6663:1 7628:1 8757:1 9034:1 9167:1 9300:1 9640:1 12103:1 12480:1 12790:1 13136:1 13196:1 
-50 360:1 1124:1 2676:1 3103:1 3340:1 4093:1 4310:1 5731:1 6061:1 6143:1 6345:1 6573:1 6663:1 7628:1 8757:1 9034:1 9167:1 9300:1 9640:1 12103:1 12480:1 12790:1 13136:1 13196:1 
-0.08203125 360:1 2676:1 3340:1 4310:1 5731:1 6061:1 6143:1 6573:1 6663:1 8757:1 9034:1 9640:1 12790:1 13136:1 13196:1 
-0.08203125 2676:1 3340:1 6061:1 6143:1 6663:1 12790:1 13136:1 
-0.08203125 1124:1 3103:1 4093:1 6345:1 7628:1 9167:1 9300:1 12103:1 12480:1 
-0.08203125 3103:1 4093:1 6345:1 9167:1 9300:1 12103:1 12480:1 
-0.08203125 3103:1 4093:1 6345:1 
-0.08203125 9167:1 9300:1 12103:1 12480:1 
-0.08203125 2057:1 2083:1 4182:1 4760:1 7954:1 9527:1 10369:1 11711:1 
-0.08203125 2057:1 10369:1 
-0.08203125 2083:1 4182:1 4760:1 7954:1 9527:1 11711:1 
-0.08203125 2083:1 4182:1 4760:1 7954:1 
-0.08203125 9527:1 11711:1 
-0.08203125 1062:1 3216:1 3251:1 4676:1 5811:1 8344:1 10135:1 11122:1 12359:1 13076:1 
-0.08203125 8344:1 11122:1 
-0.08203125 8344:1 
-0.08203125 11122:1 
-0.08203125 1062:1 3216:1 3251:1 4676:1 5811:1 10135:1 12359:1 13076:1 
-0.08203125 1062:1 4676:1 5811:1 13076:1 
-0.08203125 317:1 1944:1 2761:1 3505:1 3647:1 4357:1 4360:1 4477:1 4959:1 7172:1 7389:1 7623:1 7758:1 8113:1 10083:1 11326:1 11906:1 12778:1 
-0.08203125 317:1 2761:1 4357:1 4360:1 8113:1 11326:1 
-0.08203125 2761:1 4357:1 4360:1 8113:1 11326:1 
-0.08203125 2761:1 8113:1 
-0.08203125 2761:1 
-0.08203125 1944:1 3505:1 3647:1 4477:1 4959:1 7172:1 7389:1 7623:1 7758:1 10083:1 11906:1 12778:1 
-0.08203125 7389:1 
-0.08203125 1944:1 3505:1 3647:1 4477:1 4959:1 7172:1 7623:1 7758:1 10083:1 11906:1 12778:1 
-0.08203125 1944:1 3505:1 4959:1 7172:1 7758:1 11906:1 12778:1 
-0.08203125 1944:1 3505:1 4959:1 7172:1 11906:1 12778:1 
-0.08203125 11906:1 12778:1 
-0.08203125 11906:1 
-0.08203125 12778:1 
-0.08203125 9751:1 10619:1 
-0.08203125 9751:1 
-0.08203125 10619:1 
-0.08203125 924:1 4166:1 5624:1 5720:1 6663:1 8614:1 8952:1 10123:1 11548:1 12133:1 12199:1 12790:1 
-0.08203125 924:1 4166:1 8952:1 
-0.08203125 4166:1 8952:1 
-0.08203125 924:1 
-0.08203125 5624:1 5720:1 6663:1 8614:1 10123:1 11548:1 12133:1 12199:1 12790:1 
-0.08203125 5720:1 12133:1 12199:1 
-0.08203125 12133:1 
-0.08203125 5624:1 6663:1 8614:1 10123:1 11548:1 12790:1 
-0.08203125 5624:1 10123:1 11548:1 
-0.08203125 6663:1 8614:1 12790:1 
-0.08203125 8614:1 
-0.08203125 239:1 1155:1 1465:1 1488:1 1521:1 1811:1 3148:1 3527:1 4357:1 4360:1 4362:1 4920:1 6037:1 6132:1 7119:1 7253:1 7622:1 9731:1 9815:1 9865:1 9888:1 10730:1 11326:1 12498:1 12639:1 
-0.08203125 4357:1 4360:1 4362:1 7622:1 11326:1 
-0.08203125 4362:1 
-0.08203125 4357:1 4360:1 7622:1 11326:1 
-0.08203125 7622:1 
-0.08203125 239:1 1155:1 1465:1 1488:1 1521:1 1811:1 3148:1 3527:1 4920:1 6037:1 6132:1 7119:1 7253:1 9731:1 9815:1 9865:1 9888:1 10730:1 12498:1 12639:1 
-0.08203125 3148:1 4920:1 
-0.08203125 239:1 1155:1 1465:1 1488:1 1521:1 1811:1 3527:1 6037:1 6132:1 7119:1 7253:1 9731:1 9815:1 9865:1 9888:1 10730:1 12498:1 12639:1 
-0.08203125 1465:1 6037:1 
-0.08203125 6037:1 
-0.08203125 239:1 1155:1 1488:1 1521:1 1811:1 3527:1 6132:1 7119:1 7253:1 9731:1 9815:1 9865:1 9888:1 10730:1 12498:1 12639:1 
-0.08203125 239:1 1155:1 3527:1 9888:1 
-0.08203125 3527:1 
-0.08203125 239:1 1155:1 9888:1 
-0.08203125 239:1 
-0.08203125 1155:1 9888:1 
-0.08203125 1488:1 1521:1 1811:1 6132:1 7119:1 7253:1 9731:1 9815:1 9865:1 10730:1 12498:1 12639:1 
-0.08203125 1488:1 1521:1 1811:1 6132:1 7119:1 9731:1 9815:1 9865:1 10730:1 12498:1 12639:1 
-0.08203125 1521:1 1811:1 6132:1 7119:1 10730:1 12639:1 
-0.08203125 1521:1 1811:1 6132:1 7119:1 10730:1 
-0.08203125 1521:1 1811:1 7119:1 
-0.08203125 1488:1 9731:1 9815:1 9865:1 12498:1 
-0.08203125 1488:1 9815:1 9865:1 12498:1 
-0.08203125 1488:1 9815:1 9865:1 
-0.08203125 12498:1 
-0.08203125 2276:1 2618:1 2677:1 4776:1 4890:1 4896:1 4946:1 5427:1 8785:1 9392:1 9554:1 9714:1 
-0.08203125 2276:1 4776:1 5427:1 9392:1 9554:1 
-0.08203125 2276:1 5427:1 9392:1 
-50 2276:1 5427:1 9392:1 
-0.08203125 9392:1 
-0.08203125 2618:1 2677:1 4890:1 4896:1 4946:1 8785:1 9714:1 
-0.08203125 2618:1 9714:1 
-0.08203125 2618:1 
-0.08203125 2677:1 4890:1 4896:1 4946:1 8785:1 
-0.08203125 1940:1 3260:1 4066:1 5163:1 8759:1 9384:1 10861:1 12889:1 
-50 1940:1 3260:1 4066:1 5163:1 8759:1 9384:1 10861:1 12889:1 
-0.08203125 8759:1 12889:1 
-50 1940:1 3260:1 4066:1 5163:1 9384:1 10861:1 
-0.08203125 1940:1 3260:1 4066:1 9384:1 10861:1 
-0.08203125 9451:1 9672:1 12104:1 
-50 9451:1 9672:1 12104:1 
-0.08203125 288:1 435:1 437:1 546:1 1883:1 2276:1 2677:1 2975:1 4253:1 4591:1 5427:1 6150:1 6627:1 6754:1 7251:1 7253:1 7989:1 8620:1 9445:1 9534:1 9654:1 10294:1 10692:1 10794:1 10862:1 11107:1 11342:1 11523:1 11807:1 
-0.08203125 7253:1 
-0.08203125 288:1 435:1 437:1 546:1 1883:1 2276:1 2677:1 2975:1 4253:1 4591:1 5427:1 6150:1 6627:1 6754:1 7251:1 7989:1 8620:1 9445:1 9534:1 9654:1 10294:1 10692:1 10794:1 10862:1 11107:1 11342:1 11523:1 11807:1 
-50 288:1 435:1 437:1 546:1 1883:1 2276:1 2677:1 2975:1 4253:1 4591:1 5427:1 6150:1 6627:1 6754:1 7251:1 7989:1 8620:1 9445:1 9534:1 9654:1 10294:1 10692:1 10794:1 10862:1 11107:1 11342:1 11523:1 11807:1 
-50 288:1 435:1 437:1 546:1 1883:1 2276:1 2677:1 2975:1 4253:1 4591:1 5427:1 6150:1 6627:1 6754:1 7251:1 7989:1 8620:1 9445:1 9534:1 9654:1 10294:1 10692:1 10794:1 10862:1 11107:1 11342:1 11523:1 11807:1 
-0.08203125 435:1 1883:1 4591:1 6627:1 10692:1 
-0.08203125 435:1 4591:1 
-0.08203125 1883:1 6627:1 10692:1 
-0.08203125 288:1 437:1 546:1 2677:1 2975:1 4253:1 6150:1 6754:1 7251:1 7989:1 8620:1 9445:1 9534:1 9654:1 10294:1 10794:1 10862:1 11107:1 11342:1 11523:1 11807:1 
-0.08203125 288:1 2677:1 7251:1 9654:1 11807:1 
-0.08203125 2677:1 7251:1 9654:1 11807:1 
-0.08203125 2677:1 11807:1 
-0.08203125 11807:1 
-0.08203125 437:1 546:1 2975:1 4253:1 6150:1 6754:1 7989:1 8620:1 9445:1 9534:1 10294:1 10794:1 10862:1 11107:1 11342:1 11523:1 
-0.08203125 437:1 2975:1 6150:1 7989:1 9534:1 10294:1 10862:1 11523:1 
-0.08203125 6150:1 
-0.08203125 437:1 2975:1 7989:1 9534:1 10294:1 10862:1 11523:1 
-0.08203125 546:1 4253:1 6754:1 8620:1 9445:1 10794:1 11107:1 11342:1 
-0.08203125 546:1 4253:1 8620:1 9445:1 11107:1 11342:1 
-0.08203125 4253:1 8620:1 11107:1 11342:1 
-0.08203125 288:1 317:1 787:1 1159:1 2141:1 2421:1 2536:1 2742:1 2857:1 3017:1 3720:1 4306:1 4604:1 4622:1 4692:1 5299:1 6071:1 6291:1 6294:1 6352:1 7253:1 7437:1 8020:1 8171:1 8396:1 8564:1 8814:1 10498:1 10771:1 11790:1 12093:1 13210:1 
-0.08203125 288:1 317:1 787:1 2141:1 2536:1 2742:1 3017:1 4306:1 4604:1 4622:1 4692:1 5299:1 6071:1 6291:1 6294:1 6352:1 7437:1 8396:1 8564:1 8814:1 12093:1 
-0.08203125 317:1 787:1 2141:1 2742:1 3017:1 8564:1 8814:1 
-0.08203125 787:1 2742:1 3017:1 8564:1 8814:1 
-0.08203125 3017:1 8814:1 
-0.08203125 8814:1 
-0.08203125 3017:1 
-0.08203125 787:1 2742:1 8564:1 
-0.08203125 317:1 787:1 2141:1 
-0.08203125 317:1 
-0.08203125 787:1 2141:1 
-0.08203125 2141:1 
-0.08203125 288:1 2536:1 4306:1 4604:1 4622:1 4692:1 5299:1 6071:1 6291:1 6294:1 6352:1 7437:1 8396:1 12093:1 
-0.08203125 4306:1 4622:1 8396:1 
-0.08203125 288:1 2536:1 4604:1 4692:1 5299:1 6071:1 6291:1 6294:1 6352:1 7437:1 12093:1 
-0.08203125 2536:1 4604:1 4692:1 5299:1 6071:1 6291:1 6294:1 7437:1 
-0.08203125 4604:1 7437:1 
-0.08203125 288:1 6352:1 12093:1 
-0.08203125 288:1 6352:1 
-0.08203125 12093:1 
-0.08203125 288:1 1159:1 2421:1 2857:1 3720:1 7253:1 8020:1 8171:1 10498:1 10771:1 11790:1 13210:1 
-0.08203125 1159:1 2421:1 2857:1 3720:1 7253:1 8020:1 8171:1 10498:1 10771:1 11790:1 13210:1 
-0.08203125 2421:1 7253:1 8171:1 10498:1 10771:1 11790:1 13210:1 
-0.08203125 2421:1 8171:1 10498:1 10771:1 11790:1 13210:1 
-0.08203125 10771:1 13210:1 
-0.08203125 2421:1 8171:1 10498:1 11790:1 
-0.08203125 288:1 931:1 1818:1 2325:1 2966:1 4432:1 4474:1 5317:1 5422:1 6407:1 6650:1 6746:1 8004:1 11581:1 11629:1 12763:1 13102:1 
-0.08203125 4432:1 
-0.08203125 288:1 931:1 1818:1 2325:1 2966:1 4474:1 5317:1 5422:1 6407:1 6650:1 6746:1 8004:1 11581:1 11629:1 12763:1 13102:1 
-0.08203125 931:1 1818:1 2966:1 11581:1 
-0.08203125 288:1 2325:1 4474:1 5317:1 5422:1 6407:1 6650:1 6746:1 8004:1 11629:1 12763:1 13102:1 
-0.08203125 5317:1 5422:1 6407:1 6650:1 6746:1 8004:1 11629:1 12763:1 13102:1 
-0.08203125 5317:1 
-0.08203125 5422:1 6407:1 6650:1 6746:1 8004:1 11629:1 12763:1 13102:1 
-0.08203125 5422:1 6407:1 6650:1 11629:1 
-0.08203125 288:1 2325:1 4474:1 
-0.08203125 288:1 4474:1 
-0.08203125 4474:1 
-0.08203125 2325:1 
-0.08203125 104:1 242:1 3171:1 5828:1 7756:1 8779:1 10023:1 11856:1 12304:1 
-50 7756:1 
-0.08203125 104:1 242:1 3171:1 5828:1 8779:1 10023:1 11856:1 12304:1 
-0.08203125 12304:1 
-0.08203125 104:1 242:1 3171:1 5828:1 8779:1 10023:1 11856:1 
-0.08203125 242:1 3171:1 5828:1 8779:1 10023:1 
-0.08203125 242:1 10023:1 
-0.08203125 3171:1 5828:1 8779:1 
-0.08203125 3171:1 8779:1 
-0.08203125 5828:1 
-50 282:1 1431:1 1434:1 2276:1 4089:1 5427:1 6560:1 6636:1 7788:1 7810:1 10350:1 
-0.08203125 6560:1 
-0.08203125 1431:1 1434:1 4089:1 7788:1 7810:1 
-0.08203125 282:1 2276:1 5427:1 6636:1 10350:1 
-0.08203125 282:1 6636:1 10350:1 
-0.08203125 288:1 3445:1 3575:1 5116:1 5141:1 7128:1 7207:1 8985:1 9552:1 11471:1 12427:1 13131:1 13239:1 13244:1 
-0.08203125 3445:1 3575:1 5141:1 7207:1 8985:1 9552:1 12427:1 13131:1 13239:1 13244:1 
-0.08203125 3445:1 
-0.08203125 3575:1 5141:1 7207:1 8985:1 9552:1 12427:1 13131:1 13239:1 13244:1 
-0.08203125 8985:1 9552:1 
-0.08203125 288:1 5116:1 7128:1 11471:1 
-0.08203125 5116:1 7128:1 11471:1 
-0.08203125 5116:1 11471:1 
-0.08203125 7128:1 
-50 727:1 1397:1 1875:1 3006:1 3079:1 3837:1 5560:1 6177:1 6333:1 6896:1 6969:1 8283:1 8349:1 8524:1 9148:1 9896:1 10869:1 12589:1 12682:1 13021:1 13208:1 
-0.08203125 1397:1 1875:1 3079:1 3837:1 5560:1 6177:1 6333:1 6896:1 6969:1 8283:1 8524:1 9148:1 9896:1 10869:1 12589:1 12682:1 13208:1 
-0.08203125 3079:1 3837:1 6177:1 6333:1 6896:1 9148:1 9896:1 12589:1 12682:1 
-0.08203125 3079:1 3837:1 6333:1 6896:1 12589:1 
-0.08203125 3079:1 6896:1 12589:1 
-0.08203125 6177:1 9148:1 9896:1 12682:1 
-0.08203125 9148:1 9896:1 
-0.08203125 6177:1 12682:1 
-0.08203125 1397:1 5560:1 8524:1 10869:1 
-0.08203125 3005:1 5589:1 7253:1 7421:1 9616:1 
-0.08203125 3005:1 
-0.08203125 5589:1 7253:1 7421:1 9616:1 
-0.08203125 5589:1 7421:1 9616:1 
-0.08203125 288:1 360:1 1159:1 2857:1 3720:1 4310:1 5731:1 6573:1 8020:1 8757:1 9034:1 9640:1 13196:1 
-50 288:1 360:1 1159:1 2857:1 3720:1 4310:1 5731:1 6573:1 8020:1 8757:1 9034:1 9640:1 13196:1 
-0.08203125 360:1 4310:1 5731:1 6573:1 8757:1 9034:1 9640:1 13196:1 
-0.08203125 288:1 546:1 1003:1 1993:1 2414:1 2618:1 8213:1 9445:1 11717:1 12038:1 12043:1 12152:1 
-0.08203125 2414:1 
-0.08203125 288:1 546:1 1003:1 1993:1 2618:1 8213:1 9445:1 11717:1 12038:1 12043:1 12152:1 
-0.08203125 288:1 546:1 1003:1 1993:1 2618:1 8213:1 9445:1 12038:1 12043:1 12152:1 
-0.08203125 546:1 1003:1 1993:1 2618:1 8213:1 9445:1 12038:1 12043:1 12152:1 
-0.08203125 546:1 1003:1 1993:1 2618:1 9445:1 12152:1 
-0.08203125 546:1 1003:1 1993:1 9445:1 12152:1 
-0.08203125 546:1 1003:1 9445:1 
-0.08203125 8213:1 12038:1 12043:1 
-0.08203125 8213:1 
-0.08203125 12038:1 12043:1 
-0.08203125 416:1 1314:1 1692:1 2222:1 2752:1 3647:1 3986:1 4443:1 4477:1 5953:1 6667:1 7623:1 8761:1 9298:1 9504:1 9535:1 9933:1 10083:1 10301:1 10827:1 10835:1 11012:1 11156:1 11495:1 12765:1 12976:1 
-0.08203125 416:1 1314:1 4443:1 5953:1 9298:1 9535:1 9933:1 
-0.08203125 1314:1 5953:1 9535:1 
-0.08203125 9535:1 
-0.08203125 1314:1 5953:1 
-0.08203125 1692:1 2222:1 2752:1 3647:1 3986:1 4477:1 6667:1 7623:1 8761:1 9504:1 10083:1 10301:1 10827:1 10835:1 11012:1 11156:1 11495:1 12765:1 12976:1 
-0.08203125 1692:1 2222:1 2752:1 3986:1 6667:1 8761:1 9504:1 10301:1 10827:1 10835:1 11012:1 11156:1 11495:1 12765:1 12976:1 
-0.08203125 1692:1 2222:1 3986:1 9504:1 11012:1 
-0.08203125 1692:1 
-0.08203125 2222:1 3986:1 9504:1 11012:1 
-0.08203125 2752:1 6667:1 8761:1 10301:1 10827:1 10835:1 11156:1 11495:1 12765:1 12976:1 
-0.08203125 10301:1 12976:1 
-0.08203125 2752:1 6667:1 8761:1 10827:1 10835:1 11156:1 11495:1 12765:1 
-0.08203125 2752:1 6667:1 8761:1 12765:1 
-0.08203125 2752:1 12765:1 
-0.08203125 288:1 2677:1 3449:1 3599:1 5720:1 6234:1 7442:1 7932:1 8010:1 8053:1 9330:1 10827:1 10835:1 11144:1 11156:1 11404:1 11495:1 11999:1 12009:1 12199:1 12801:1 
-0.08203125 288:1 5720:1 9330:1 11404:1 12199:1 
-0.08203125 5720:1 9330:1 11404:1 12199:1 
-0.08203125 9330:1 11404:1 
-0.08203125 2677:1 3449:1 3599:1 6234:1 7442:1 7932:1 8010:1 8053:1 10827:1 10835:1 11144:1 11156:1 11495:1 11999:1 12009:1 12801:1 
-0.08203125 2677:1 3449:1 3599:1 7442:1 7932:1 8053:1 10827:1 10835:1 11156:1 11495:1 11999:1 12009:1 12801:1 
-0.08203125 2677:1 3449:1 
-0.08203125 3449:1 
-0.08203125 3599:1 7442:1 7932:1 8053:1 10827:1 10835:1 11156:1 11495:1 11999:1 12009:1 12801:1 
-0.08203125 3599:1 7442:1 7932:1 8053:1 11999:1 12009:1 12801:1 
-0.08203125 7442:1 7932:1 11999:1 12009:1 12801:1 
-0.08203125 3599:1 8053:1 
-0.08203125 288:1 916:1 996:1 998:1 3926:1 4055:1 6115:1 6668:1 6786:1 8122:1 8296:1 9554:1 9739:1 9919:1 11401:1 12127:1 12837:1 12839:1 
-0.08203125 288:1 916:1 996:1 998:1 3926:1 4055:1 6115:1 6668:1 6786:1 8122:1 8296:1 9739:1 9919:1 11401:1 12127:1 12837:1 12839:1 
-0.08203125 288:1 996:1 6115:1 6668:1 6786:1 9919:1 
-0.08203125 996:1 6115:1 6668:1 6786:1 9919:1 
-0.08203125 6115:1 6668:1 6786:1 
-0.08203125 6668:1 
-0.08203125 6115:1 6786:1 
-0.08203125 916:1 998:1 3926:1 4055:1 8122:1 8296:1 9739:1 11401:1 12127:1 12837:1 12839:1 
-0.08203125 916:1 3926:1 4055:1 8122:1 8296:1 9739:1 12127:1 12837:1 12839:1 
-0.08203125 12127:1 
-0.08203125 916:1 3926:1 4055:1 8122:1 8296:1 9739:1 12837:1 12839:1 
-0.08203125 244:1 546:1 1798:1 2194:1 2578:1 2731:1 3441:1 3784:1 3850:1 4056:1 4232:1 4236:1 4440:1 4868:1 5679:1 6965:1 7024:1 8418:1 8630:1 9310:1 9445:1 10534:1 10858:1 11079:1 11378:1 11502:1 12366:1 
-0.08203125 2194:1 
-0.08203125 244:1 546:1 1798:1 2578:1 2731:1 3441:1 3784:1 3850:1 4056:1 4232:1 4236:1 4440:1 4868:1 5679:1 6965:1 7024:1 8418:1 8630:1 9310:1 9445:1 10534:1 10858:1 11079:1 11378:1 11502:1 12366:1 
-0.08203125 244:1 2731:1 3441:1 3784:1 4056:1 6965:1 11079:1 11502:1 
-0.08203125 2731:1 6965:1 11502:1 
-0.08203125 244:1 3441:1 3784:1 4056:1 11079:1 
-0.08203125 244:1 4056:1 11079:1 
-0.08203125 3441:1 3784:1 
-0.08203125 546:1 1798:1 2578:1 3850:1 4232:1 4236:1 4440:1 4868:1 5679:1 7024:1 8418:1 8630:1 9310:1 9445:1 10534:1 10858:1 11378:1 12366:1 
-0.08203125 1798:1 7024:1 8418:1 8630:1 10858:1 12366:1 
-0.08203125 546:1 2578:1 3850:1 4232:1 4236:1 4440:1 4868:1 5679:1 9310:1 9445:1 10534:1 11378:1 
-0.08203125 546:1 2578:1 3850:1 4868:1 9310:1 9445:1 10534:1 11378:1 
-0.08203125 4868:1 9310:1 
-0.08203125 9310:1 
-0.08203125 4868:1 
-0.08203125 546:1 2578:1 3850:1 9445:1 10534:1 11378:1 
-0.08203125 2578:1 
-0.08203125 546:1 3850:1 9445:1 10534:1 11378:1 
-0.08203125 3850:1 10534:1 11378:1 
-0.08203125 3850:1 10534:1 
-0.08203125 11378:1 
-0.08203125 295:1 432:1 1259:1 1261:1 1911:1 4537:1 7253:1 7524:1 7714:1 9407:1 9914:1 10814:1 11127:1 
-0.08203125 432:1 9407:1 
-0.08203125 432:1 
-0.08203125 9407:1 
-0.08203125 295:1 1259:1 1261:1 1911:1 4537:1 7253:1 7524:1 7714:1 9914:1 10814:1 11127:1 
-0.08203125 1259:1 1261:1 1911:1 4537:1 7253:1 
-0.08203125 1259:1 1261:1 4537:1 
-0.08203125 1911:1 7253:1 
-0.08203125 1911:1 
-0.08203125 295:1 7524:1 7714:1 9914:1 10814:1 11127:1 
-0.08203125 7524:1 7714:1 9914:1 10814:1 
-0.08203125 484:1 637:1 2044:1 2394:1 3645:1 4119:1 4217:1 5444:1 5709:1 5837:1 6327:1 7079:1 7598:1 7753:1 9181:1 9346:1 9537:1 10021:1 10428:1 11748:1 11858:1 13156:1 
-0.08203125 484:1 637:1 2044:1 3645:1 4119:1 5444:1 5709:1 5837:1 6327:1 7598:1 7753:1 9181:1 9346:1 10021:1 10428:1 11858:1 13156:1 
-0.08203125 2044:1 9181:1 11858:1 
-0.08203125 11858:1 
-0.08203125 2044:1 9181:1 
-0.08203125 484:1 637:1 3645:1 4119:1 5444:1 5709:1 5837:1 6327:1 7598:1 7753:1 9346:1 10021:1 10428:1 13156:1 
-0.08203125 484:1 637:1 3645:1 4119:1 5444:1 5709:1 6327:1 7598:1 7753:1 10021:1 10428:1 13156:1 
-0.08203125 637:1 4119:1 6327:1 7753:1 
-0.08203125 484:1 3645:1 5444:1 5709:1 7598:1 10021:1 10428:1 13156:1 
-0.08203125 484:1 
-0.08203125 3645:1 5444:1 5709:1 7598:1 10021:1 10428:1 13156:1 
-0.08203125 5444:1 7598:1 10428:1 
-0.08203125 3645:1 5709:1 10021:1 13156:1 
-0.08203125 3645:1 5709:1 
-0.08203125 10021:1 13156:1 
-0.08203125 2394:1 4217:1 7079:1 9537:1 11748:1 
-0.08203125 2394:1 4217:1 7079:1 11748:1 
-0.08203125 9537:1 
-0.08203125 667:1 1158:1 1992:1 5023:1 9960:1 9978:1 
-0.08203125 667:1 1158:1 
-0.08203125 1992:1 5023:1 9960:1 9978:1 
-0.08203125 5737:1 
-0.08203125 201:1 246:1 490:1 546:1 678:1 729:1 1309:1 2438:1 2593:1 2677:1 3591:1 4181:1 4711:1 5238:1 5755:1 5990:1 6389:1 7311:1 7870:1 8264:1 9445:1 9670:1 10229:1 10302:1 10576:1 10588:1 10783:1 10958:1 11336:1 12140:1 12209:1 13067:1 
-0.08203125 201:1 246:1 490:1 546:1 678:1 1309:1 2438:1 2593:1 2677:1 3591:1 4181:1 4711:1 5238:1 5755:1 5990:1 6389:1 7311:1 7870:1 8264:1 9445:1 9670:1 10229:1 10302:1 10576:1 10588:1 10783:1 10958:1 11336:1 12140:1 12209:1 13067:1 
-0.08203125 6389:1 
-0.08203125 201:1 246:1 490:1 546:1 678:1 1309:1 2438:1 2593:1 2677:1 3591:1 4181:1 4711:1 5238:1 5755:1 5990:1 7311:1 7870:1 8264:1 9445:1 9670:1 10229:1 10302:1 10576:1 10588:1 10783:1 10958:1 11336:1 12140:1 12209:1 13067:1 
