svm_type c_svc
kernel_type rbf
gamma 50
nr_class 2
total_sv 7181
rho 0.45838
label 1 -1
nr_sv 2275 4906
SV
1.4580078125 5082:1 5404:1 
1.458984375 264:1 375:1 4063:1 4273:1 4422:1 5216:1 5396:1 
1.458984375 331:1 370:1 3240:1 3773:1 3854:1 4021:1 5030:1 5859:1 
50 3238:1 4063:1 4273:1 
1.458984375 1313:1 1331:1 2265:1 2795:1 
50 4063:1 4273:1 
1.458984375 264:1 2504:1 4366:1 4983:1 
1.458984375 264:1 2811:1 3164:1 4433:1 
50 5573:1 
1.458984375 259:1 1055:1 1968:1 3784:1 4917:1 
50 4063:1 4273:1 
1.4580078125 264:1 1264:1 
1.458984375 264:1 675:1 2062:1 2370:1 4034:1 4253:1 5141:1 5162:1 5941:1 
1.458984375 264:1 2433:1 5208:1 
1.458984375 264:1 703:1 1295:1 
1.5 4433:1 
1.5 2906:1 5148:1 
1.458984375 1128:1 3149:1 3421:1 
1.458984375 264:1 675:1 1054:1 4034:1 4196:1 4253:1 4975:1 5141:1 5162:1 5452:1 
1.458984375 873:1 3921:1 
1.458984375 1014:1 4790:1 4959:1 5301:1 
50 
1.458984375 264:1 487:1 1871:1 2584:1 3961:1 4085:1 4674:1 
1.458984375 264:1 1468:1 1669:1 2272:1 4017:1 4293:1 4662:1 
1.458984375 222:1 1128:1 3092:1 
50 264:1 487:1 2584:1 
1.458984375 264:1 806:1 1427:1 1582:1 3656:1 3773:1 5602:1 5604:1 
50 
50 
1.458984375 61:1 95:1 1240:1 1343:1 1564:1 2334:1 3302:1 4980:1 5658:1 
1.458984375 62:1 155:1 2563:1 3897:1 4063:1 4273:1 5168:1 5660:1 
50 737:1 5590:1 
1.458984375 369:1 1140:1 2088:1 3118:1 
1.458984375 755:1 2330:1 5217:1 
1.458984375 1199:1 1258:1 1871:1 2007:1 2188:1 4048:1 
1.5 264:1 1313:1 
1.458984375 1196:1 1504:1 1908:1 2856:1 3229:1 5177:1 
1.458984375 2693:1 4433:1 4984:1 
50 
1.458984375 264:1 1125:1 2946:1 3203:1 3567:1 
1.4580078125 1871:1 4152:1 
1.458984375 264:1 487:1 1286:1 2584:1 
1.458984375 23:1 264:1 675:1 1137:1 1254:1 3149:1 3421:1 4034:1 4253:1 5141:1 5162:1 5471:1 
1.458984375 347:1 1039:1 1416:1 1425:1 1456:1 3192:1 5312:1 
50 
1.458984375 264:1 3089:1 4371:1 
1.458984375 264:1 1504:1 2723:1 3921:1 
1.4580078125 264:1 1136:1 2975:1 5939:1 
50 264:1 3149:1 3421:1 
1.458984375 358:1 1545:1 3149:1 3421:1 5680:1 
1.458984375 264:1 590:1 1128:1 2627:1 2645:1 3885:1 4780:1 5562:1 
50 3149:1 3421:1 
50 1128:1 
1.458984375 2811:1 4742:1 
1.4580078125 4533:1 
1.458984375 3689:1 4708:1 5903:1 
1.458984375 432:1 5184:1 5597:1 
1.458984375 264:1 680:1 1884:1 2563:1 3127:1 3677:1 4032:1 4366:1 5291:1 5587:1 
50 675:1 4034:1 4253:1 5141:1 5162:1 
1.458984375 675:1 3149:1 3421:1 4034:1 4253:1 4825:1 5141:1 5162:1 5660:1 
50 1088:1 
1.4580078125 3208:1 3358:1 
1.4580078125 264:1 1714:1 
1.458984375 264:1 1140:1 1468:1 2272:1 4063:1 4273:1 
1.458984375 264:1 1113:1 2241:1 3149:1 3421:1 3938:1 4742:1 5396:1 5499:1 
1.458984375 31:1 264:1 3961:1 4085:1 5329:1 
1.458984375 210:1 2851:1 3149:1 3421:1 
1.458984375 2431:1 5306:1 5643:1 
1.458984375 755:1 1451:1 2330:1 2894:1 
1.458984375 1008:1 2451:1 2580:1 2811:1 3890:1 4018:1 5660:1 
50 
50 3238:1 
50 4714:1 
50 703:1 
50 
1.458984375 1313:1 2519:1 3149:1 3421:1 
50 4079:1 5219:1 
1.458984375 487:1 2584:1 3576:1 3625:1 
50 
1.4580078125 264:1 2974:1 3149:1 3421:1 
1.5 3933:1 
1.458984375 599:1 5007:1 
50 5680:1 
50 3150:1 5733:1 5842:1 
1.4580078125 264:1 3149:1 3421:1 5076:1 
50 1014:1 
1.4580078125 5092:1 
1.458984375 182:1 4790:1 5708:1 
50 5573:1 
50 
50 264:1 
1.4580078125 3813:1 
1.458984375 142:1 264:1 1865:1 3149:1 3421:1 
50 
1.458984375 257:1 264:1 642:1 1313:1 2271:1 2815:1 3358:1 3727:1 4914:1 5742:1 
50 
1.458984375 820:1 3149:1 3421:1 
1.458984375 4434:1 5271:1 5520:1 
1.458984375 389:1 549:1 1288:1 3150:1 4606:1 5680:1 5733:1 5842:1 
50 
1.458984375 1709:1 4358:1 4790:1 
1.458984375 264:1 1409:1 3149:1 3421:1 3978:1 
1.4580078125 264:1 5007:1 
1.458984375 3178:1 3979:1 4232:1 
50 
1.458984375 1821:1 1918:1 4927:1 
1.458984375 843:1 1928:1 2811:1 4029:1 4790:1 4836:1 
50 3165:1 3339:1 4266:1 
50 264:1 3149:1 3421:1 
50 3238:1 
1.458984375 603:1 3149:1 3421:1 3817:1 
50 264:1 
1.458984375 1533:1 1869:1 2332:1 2355:1 2448:1 2566:1 3149:1 3421:1 4248:1 4507:1 4790:1 
1.458984375 503:1 613:1 1830:1 3149:1 3273:1 3336:1 3396:1 3421:1 4143:1 4573:1 4591:1 4861:1 5435:1 5680:1 
1.5 375:1 4422:1 
1.5 1331:1 
1.458984375 2095:1 2733:1 5551:1 
1.458984375 264:1 2265:1 5099:1 
50 
1.458984375 264:1 5738:1 
49.958984375 2906:1 5148:1 
1.4580078125 264:1 1313:1 3841:1 
50 
1.458984375 1677:1 3413:1 4272:1 4358:1 4386:1 4821:1 5300:1 
50 
50 
1.4580078125 264:1 4183:1 
50 1999:1 2594:1 
1.458984375 1630:1 2215:1 2504:1 3921:1 4063:1 4273:1 
1.5 1709:1 
1.458984375 742:1 997:1 2554:1 2705:1 2811:1 2893:1 4403:1 4744:1 
1.458984375 62:1 155:1 3897:1 4452:1 5168:1 5291:1 5587:1 5913:1 
50 3773:1 
1.458984375 3110:1 3883:1 4718:1 5099:1 5123:1 
1.458984375 71:1 144:1 1616:1 2103:1 2276:1 2388:1 2557:1 3403:1 5058:1 5672:1 
1.458984375 3773:1 3885:1 
1.458984375 149:1 264:1 487:1 1140:1 2355:1 2584:1 4358:1 
50 
1.458984375 216:1 264:1 1032:1 1052:1 1663:1 1779:1 1871:1 2687:1 2811:1 3181:1 3375:1 3717:1 4975:1 4985:1 5452:1 
1.458984375 264:1 939:1 1718:1 2019:1 3697:1 4296:1 4761:1 4790:1 5217:1 5453:1 
1.4580078125 3278:1 
50 
1.458984375 264:1 1014:1 1140:1 1471:1 
1.458984375 264:1 1860:1 3384:1 
50 
50 264:1 2645:1 
1.458984375 1502:1 3149:1 3421:1 5829:1 
1.458984375 133:1 232:1 775:1 
1.458984375 61:1 755:1 1343:1 2330:1 4063:1 4273:1 4980:1 
50 
1.458984375 389:1 549:1 1128:1 1828:1 
1.458984375 389:1 549:1 1018:1 1502:1 1828:1 3149:1 3150:1 3421:1 3582:1 4039:1 4044:1 4934:1 5291:1 5587:1 5733:1 5842:1 
50 
1.458984375 264:1 675:1 1871:1 3165:1 3339:1 3773:1 4034:1 4253:1 4266:1 5141:1 5162:1 
50 264:1 4917:1 
1.458984375 264:1 2446:1 2504:1 3150:1 3961:1 4085:1 4259:1 5260:1 5303:1 5733:1 5842:1 
1.458984375 1128:1 1232:1 3854:1 3906:1 4063:1 4273:1 4518:1 5018:1 5279:1 
1.458984375 2694:1 3479:1 4043:1 4202:1 5651:1 5680:1 5731:1 
1.4580078125 818:1 
1.458984375 3773:1 4790:1 
1.4580078125 5485:1 
1.458984375 93:1 745:1 1359:1 2003:1 2201:1 2738:1 3102:1 4022:1 4366:1 4790:1 5110:1 5314:1 
1.458984375 2705:1 3885:1 
1.458984375 3149:1 3396:1 3421:1 3781:1 
1.458984375 3906:1 5018:1 5279:1 
50 3149:1 3421:1 
1.458984375 1350:1 4614:1 4790:1 5810:1 
1.458984375 264:1 5708:1 
1.458984375 3778:1 4049:1 5944:1 
1.458984375 2470:1 2811:1 2919:1 
1.458984375 1276:1 1769:1 3848:1 
50 
1.458984375 556:1 2234:1 2327:1 2505:1 3149:1 3421:1 3610:1 4407:1 4484:1 4992:1 5038:1 5680:1 
1.458984375 264:1 1128:1 2163:1 2165:1 2563:1 3194:1 3856:1 
1.458984375 2701:1 2770:1 2811:1 4693:1 5099:1 
1.458984375 1359:1 2334:1 4548:1 
50 3877:1 4406:1 
1.458984375 1199:1 3251:1 3616:1 3650:1 4048:1 
50 
1.458984375 1124:1 2071:1 4516:1 4644:1 4998:1 
50 
50 
1.458984375 603:1 2675:1 5898:1 
1.458984375 2158:1 2759:1 3772:1 3773:1 5142:1 
1.458984375 2319:1 3583:1 4822:1 
1.458984375 264:1 603:1 1199:1 1351:1 1871:1 3149:1 3150:1 3421:1 4048:1 5151:1 5733:1 5842:1 
1.458984375 3978:1 
50 3336:1 
1.458984375 71:1 144:1 1014:1 1616:1 2194:1 2276:1 2388:1 3110:1 3150:1 3336:1 3883:1 4366:1 4681:1 5733:1 5842:1 
1.4580078125 264:1 5203:1 
50 264:1 2811:1 
50 4969:1 
1.4580078125 3501:1 
50 
50 4433:1 
50 
1.4580078125 3096:1 
50 
1.458984375 264:1 1128:1 1960:1 3598:1 4063:1 4273:1 4362:1 
50 
1.4580078125 4681:1 
50 675:1 4034:1 4253:1 5141:1 5162:1 
50 264:1 4714:1 
1.458984375 264:1 675:1 3860:1 4023:1 4034:1 4253:1 5141:1 5162:1 5211:1 
1.458984375 264:1 1124:1 4516:1 4571:1 4625:1 5072:1 
1.458984375 666:1 1968:1 2199:1 
50 2811:1 
50 264:1 
1.458984375 503:1 2019:1 4998:1 
1.458984375 264:1 1560:1 1669:1 1849:1 2073:1 3238:1 4017:1 4293:1 
1.458984375 264:1 613:1 1830:1 3273:1 4063:1 4273:1 4591:1 
50 
50 264:1 
1.458984375 806:1 1124:1 1125:1 1427:1 1582:1 2433:1 3149:1 3203:1 3421:1 3656:1 4516:1 5602:1 5604:1 
50 4001:1 4011:1 
1.458984375 264:1 1125:1 1798:1 3149:1 3203:1 3421:1 4281:1 4734:1 5173:1 
1.458984375 2062:1 2370:1 2811:1 5941:1 
1.4580078125 264:1 3841:1 
50 
1.458984375 1924:1 2557:1 2811:1 3978:1 5745:1 
50 
50 
50 
50 
1.4580078125 1409:1 
1.458984375 61:1 446:1 1124:1 1343:1 2072:1 4516:1 4980:1 
50 2073:1 
1.458984375 264:1 2446:1 3773:1 
50 
1.458984375 1169:1 4143:1 4573:1 5280:1 
50 5291:1 5587:1 
50 2073:1 
50 264:1 
1.4580078125 1821:1 1918:1 2715:1 4927:1 
1.458984375 1798:1 3033:1 4281:1 4734:1 
1.458984375 379:1 1045:1 2509:1 
50 3149:1 3421:1 
1.4580078125 264:1 5099:1 
1.458984375 675:1 2433:1 4034:1 4253:1 5141:1 5162:1 
1.458984375 4325:1 5665:1 
1.4580078125 2148:1 
1.458984375 1960:1 2008:1 2160:1 3598:1 4362:1 
50 3149:1 3421:1 
1.458984375 264:1 963:1 2645:1 3149:1 3238:1 3421:1 4743:1 
50 
1.458984375 2483:1 2519:1 3460:1 5845:1 
1.4580078125 264:1 2537:1 
50 264:1 
1.458984375 4154:1 4433:1 5302:1 
1.458984375 1128:1 2271:1 4366:1 5029:1 
1.458984375 264:1 409:1 1679:1 2811:1 4131:1 4468:1 
50 5520:1 
1.458984375 264:1 1359:1 3149:1 3421:1 4102:1 4742:1 
50 1468:1 2272:1 3149:1 3421:1 
1.458984375 62:1 155:1 223:1 264:1 432:1 487:1 755:1 2330:1 2584:1 3885:1 3897:1 4143:1 4573:1 5168:1 
50 
1.458984375 4434:1 4747:1 
1.458984375 264:1 613:1 1088:1 1830:1 3273:1 4591:1 
1.458984375 902:1 1085:1 3149:1 3421:1 3798:1 
50 
1.4580078125 264:1 1035:1 5099:1 
1.458984375 3149:1 3421:1 3870:1 
1.458984375 675:1 4034:1 4253:1 5007:1 5141:1 5162:1 
1.4580078125 264:1 806:1 1427:1 1582:1 3656:1 5602:1 5604:1 
1.458984375 264:1 703:1 1286:1 3901:1 
50 
1.458984375 1359:1 2891:1 4102:1 4321:1 4330:1 
1.458984375 260:1 748:1 2891:1 4143:1 4321:1 4330:1 4573:1 5921:1 
1.458984375 264:1 3149:1 3238:1 3421:1 4131:1 
1.458984375 1585:1 4466:1 
1.458984375 389:1 549:1 2811:1 3149:1 3421:1 
1.458984375 487:1 1186:1 1398:1 1620:1 1744:1 2584:1 5709:1 5721:1 
1.4580078125 5076:1 
1.458984375 1980:1 3251:1 3616:1 
50 264:1 
1.458984375 127:1 264:1 731:1 1188:1 1240:1 1532:1 1564:1 1639:1 2040:1 5419:1 5658:1 5754:1 
50 
1.458984375 264:1 2519:1 3979:1 4232:1 
1.458984375 347:1 2327:1 3610:1 4484:1 5312:1 
1.458984375 3396:1 5076:1 5203:1 
1.458984375 264:1 2811:1 3605:1 3885:1 
50 264:1 
1.4580078125 1886:1 
1.458984375 1214:1 2191:1 3149:1 3421:1 
50 5233:1 
1.458984375 2355:1 3149:1 3421:1 3637:1 4079:1 5219:1 
1.458984375 675:1 2814:1 3921:1 4034:1 4253:1 5096:1 5141:1 5162:1 
1.458984375 1150:1 3773:1 4917:1 
50 
1.458984375 1734:1 2811:1 3150:1 4131:1 4366:1 5733:1 5842:1 
50 
50 
1.458984375 2:1 347:1 1191:1 1938:1 5312:1 
50 264:1 
1.458984375 497:1 712:1 810:1 866:1 1063:1 1159:1 2283:1 3579:1 4143:1 4573:1 5237:1 
50 264:1 1718:1 3697:1 4761:1 5453:1 
50 5390:1 5796:1 
1.458984375 2073:1 3040:1 3209:1 3730:1 
50 264:1 1128:1 4063:1 4273:1 
1.458984375 264:1 3948:1 4753:1 
1.458984375 2470:1 2527:1 2919:1 3240:1 
1.458984375 53:1 1140:1 2108:1 3149:1 3421:1 5163:1 
1.458984375 225:1 264:1 3774:1 5029:1 
50 475:1 
1.4580078125 5774:1 
50 
50 
1.458984375 264:1 2811:1 3149:1 3421:1 5708:1 
50 675:1 4034:1 4253:1 5141:1 5162:1 
1.458984375 264:1 1882:1 4259:1 4976:1 5260:1 
1.458984375 3150:1 4426:1 5733:1 5842:1 
1.458984375 474:1 613:1 1014:1 1830:1 3273:1 4591:1 
1.458984375 264:1 409:1 796:1 1679:1 2019:1 2811:1 3773:1 4160:1 4358:1 4468:1 4571:1 4790:1 4839:1 
1.458984375 62:1 155:1 441:1 1398:1 1533:1 1571:1 1744:1 1765:1 2694:1 3897:1 4202:1 4507:1 5168:1 5651:1 
1.458984375 4452:1 5913:1 
50 
50 
1.458984375 264:1 603:1 1014:1 
50 1028:1 1381:1 3142:1 5561:1 5648:1 
1.458984375 703:1 2557:1 
1.458984375 216:1 1032:1 2700:1 
50 525:1 634:1 1793:1 
1.458984375 3926:1 
1.458984375 264:1 2446:1 2779:1 3029:1 5498:1 5932:1 
50 810:1 3579:1 
1.4580078125 1128:1 3933:1 
50 1128:1 
50 
1.458984375 2287:1 3149:1 3421:1 
50 1014:1 
50 
50 2814:1 
1.4580078125 1871:1 4131:1 
1.458984375 603:1 1118:1 3150:1 3644:1 5733:1 5842:1 
50 
1.458984375 675:1 3149:1 3421:1 4034:1 4253:1 4790:1 5141:1 5162:1 
50 4790:1 
1.458984375 1128:1 1134:1 
50 
1.458984375 411:1 805:1 1140:1 1915:1 2733:1 
1.4580078125 1860:1 5660:1 
1.5 5384:1 
1.4580078125 4861:1 
1.458984375 264:1 1128:1 4742:1 
50 264:1 
1.458984375 264:1 683:1 1533:1 2537:1 3386:1 3478:1 4507:1 4865:1 5245:1 5291:1 5587:1 
1.458984375 264:1 1118:1 5739:1 
1.458984375 1118:1 4063:1 4273:1 5099:1 5244:1 
1.458984375 218:1 1140:1 3948:1 4742:1 5443:1 
1.458984375 264:1 1140:1 2334:1 4143:1 4573:1 
50 1128:1 
1.458984375 2982:1 5711:1 
1.4580078125 264:1 3240:1 4063:1 4273:1 
50 264:1 
1.458984375 3149:1 3421:1 4954:1 
50 
50 2891:1 4321:1 4330:1 
50 
1.458984375 264:1 1221:1 1974:1 2574:1 3557:1 4719:1 4915:1 4919:1 5906:1 
1.458984375 3149:1 3421:1 3948:1 4063:1 4273:1 
50 2811:1 3149:1 3421:1 
1.458984375 264:1 553:1 906:1 2333:1 3558:1 4401:1 5804:1 
1.458984375 439:1 
1.458984375 264:1 1473:1 3149:1 3421:1 3906:1 5018:1 5279:1 
50 264:1 4063:1 4273:1 
1.458984375 225:1 675:1 1137:1 2073:1 3774:1 4034:1 4253:1 4742:1 5141:1 5162:1 
50 
1.458984375 264:1 1354:1 2073:1 2811:1 3165:1 3339:1 4266:1 4358:1 
1.458984375 264:1 441:1 1571:1 1765:1 4500:1 
1.458984375 389:1 549:1 1828:1 5680:1 
1.458984375 2:1 1028:1 1191:1 1381:1 1938:1 3142:1 5561:1 5648:1 5916:1 
1.458984375 1786:1 2334:1 5557:1 
1.458984375 264:1 271:1 1838:1 2233:1 2811:1 5437:1 5660:1 
50 264:1 
1.458984375 264:1 3837:1 4674:1 4954:1 
50 675:1 4034:1 4253:1 5141:1 5162:1 
1.458984375 303:1 3149:1 3421:1 4366:1 
1.458984375 264:1 2234:1 2505:1 4407:1 4992:1 
1.4580078125 4010:1 
50 3948:1 
1.458984375 5274:1 
50 
50 3149:1 3421:1 
1.458984375 1371:1 1864:1 1871:1 2811:1 
1.458984375 260:1 264:1 1118:1 2355:1 2723:1 4500:1 5939:1 
1.458984375 2699:1 3149:1 3421:1 
1.458984375 4907:1 5317:1 
50 2327:1 3610:1 4484:1 
1.458984375 450:1 2787:1 5140:1 5660:1 
50 1939:1 
1.458984375 1502:1 3781:1 3940:1 3944:1 4116:1 4369:1 5203:1 5267:1 
1.458984375 264:1 1258:1 3978:1 4625:1 5072:1 5660:1 
1.458984375 2334:1 2515:1 2811:1 3120:1 3205:1 5610:1 5684:1 5852:1 
1.458984375 264:1 2811:1 3961:1 4085:1 4358:1 4790:1 5660:1 
1.458984375 343:1 3216:1 
49.958984375 375:1 4422:1 
1.458984375 264:1 3108:1 4955:1 
1.458984375 1140:1 1359:1 3478:1 4366:1 4765:1 5520:1 
50 
1.458984375 264:1 4032:1 4154:1 4790:1 5302:1 5660:1 5676:1 
1.458984375 264:1 1548:1 1932:1 2271:1 2354:1 2411:1 2811:1 3149:1 3165:1 3339:1 3421:1 3478:1 3933:1 3959:1 4063:1 4266:1 4273:1 5723:1 
50 264:1 
1.458984375 52:1 57:1 746:1 1790:1 2811:1 
1.458984375 264:1 525:1 634:1 673:1 1128:1 1793:1 2006:1 2811:1 3240:1 
1.458984375 225:1 2762:1 3149:1 3421:1 3649:1 3774:1 4063:1 4273:1 5799:1 5836:1 
1.458984375 1009:1 1968:1 
1.458984375 3149:1 3421:1 4079:1 4366:1 5219:1 
1.458984375 978:1 1680:1 1871:1 3432:1 5059:1 
1.458984375 3091:1 3387:1 
1.458984375 675:1 927:1 4034:1 4253:1 5141:1 5162:1 
1.458984375 1140:1 2103:1 5672:1 
1.458984375 224:1 264:1 1199:1 3948:1 4048:1 
1.458984375 182:1 264:1 487:1 1061:1 2529:1 2564:1 2584:1 3126:1 4917:1 5816:1 
50 3948:1 
1.458984375 3794:1 4415:1 4976:1 5881:1 
1.458984375 264:1 2723:1 2733:1 3149:1 3421:1 
1.458984375 1118:1 1687:1 5244:1 
50 
50 
1.458984375 487:1 1871:1 2523:1 2584:1 2821:1 3639:1 4063:1 4273:1 
50 1214:1 
1.4580078125 4205:1 
1.458984375 1680:1 1828:1 1871:1 2115:1 3149:1 3165:1 3339:1 3421:1 3940:1 3944:1 4116:1 4266:1 5267:1 
1.458984375 373:1 469:1 481:1 908:1 2342:1 4088:1 4788:1 5638:1 
1.458984375 1871:1 4366:1 5835:1 
1.458984375 737:1 3948:1 5590:1 
1.458984375 1288:1 1839:1 4606:1 
1.458984375 4063:1 4143:1 4273:1 4573:1 
1.458984375 553:1 906:1 1118:1 1468:1 1636:1 1945:1 2078:1 2272:1 2333:1 2570:1 3149:1 3421:1 3540:1 3851:1 4270:1 4285:1 4368:1 4649:1 4808:1 5804:1 
1.458984375 2315:1 2980:1 4159:1 
1.5 264:1 5233:1 
1.458984375 1140:1 3149:1 3421:1 4714:1 5520:1 
50 
1.458984375 264:1 2515:1 3120:1 4366:1 5610:1 5684:1 5852:1 
50 264:1 4714:1 
50 
50 
1.458984375 1468:1 2272:1 2315:1 5136:1 
1.458984375 264:1 487:1 613:1 1830:1 2584:1 2811:1 3273:1 4591:1 
50 
1.458984375 264:1 1468:1 2272:1 2414:1 3311:1 
1.5 1298:1 1773:1 3863:1 5167:1 
50 
50 3854:1 
50 
50 2446:1 
1.458984375 19:1 222:1 264:1 3092:1 4466:1 
50 4063:1 4273:1 
50 487:1 2584:1 3149:1 3421:1 
1.458984375 264:1 603:1 1140:1 5244:1 
50 1687:1 
50 3094:1 
1.458984375 53:1 2108:1 2515:1 3120:1 4917:1 5163:1 5610:1 5684:1 5852:1 
1.458984375 1140:1 3436:1 5384:1 
1.458984375 2071:1 3773:1 3940:1 3944:1 4063:1 4116:1 4273:1 5267:1 5660:1 
50 327:1 
1.458984375 1276:1 2062:1 2370:1 2398:1 5096:1 5941:1 
1.4580078125 264:1 375:1 4422:1 
50 3782:1 
1.5 2715:1 4154:1 5302:1 
50 
1.458984375 264:1 1121:1 2070:1 4632:1 
1.458984375 2355:1 3004:1 3043:1 3179:1 4013:1 4790:1 5181:1 5195:1 
50 
1.458984375 52:1 57:1 264:1 746:1 1790:1 2811:1 3149:1 3421:1 
1.4580078125 264:1 1232:1 
1.458984375 62:1 155:1 2811:1 3897:1 4358:1 4483:1 5168:1 
50 
1.458984375 503:1 700:1 1871:1 
1.458984375 264:1 354:1 3149:1 3421:1 3885:1 4366:1 
1.458984375 742:1 1351:1 1398:1 1744:1 1871:1 2158:1 2554:1 2893:1 5151:1 
1.458984375 2019:1 2606:1 3449:1 
50 3150:1 5733:1 5842:1 
1.4580078125 264:1 1014:1 5099:1 
1.458984375 264:1 731:1 1188:1 1532:1 2040:1 
1.458984375 2234:1 2505:1 3149:1 3421:1 4334:1 4407:1 4992:1 5339:1 
50 4976:1 
1.458984375 1755:1 3006:1 3375:1 3689:1 3717:1 3770:1 4708:1 5903:1 
50 613:1 1830:1 1968:1 3273:1 4591:1 
50 
1.458984375 264:1 1925:1 3149:1 3421:1 
1.458984375 395:1 424:1 2073:1 
1.458984375 675:1 2258:1 2811:1 3773:1 4034:1 4253:1 5141:1 5162:1 5528:1 5927:1 
1.458984375 732:1 1468:1 2272:1 4161:1 4284:1 
1.458984375 328:1 1124:1 1359:1 4516:1 
1.458984375 754:1 1486:1 1871:1 2811:1 3087:1 4291:1 4297:1 4458:1 
1.458984375 1018:1 3773:1 4039:1 4044:1 4369:1 4934:1 
1.458984375 1258:1 2073:1 3149:1 3421:1 
1.458984375 71:1 144:1 264:1 675:1 1616:1 2276:1 2388:1 3773:1 4034:1 4253:1 5141:1 5162:1 
50 1871:1 
1.458984375 902:1 1085:1 3439:1 3664:1 3798:1 
50 
1.458984375 675:1 3573:1 4034:1 4253:1 5082:1 5141:1 5162:1 
50 4483:1 
1.458984375 237:1 240:1 264:1 525:1 634:1 1793:1 2400:1 3149:1 3150:1 3421:1 3854:1 5253:1 5539:1 5733:1 5842:1 
50 
1.458984375 1544:1 2271:1 2811:1 3739:1 3841:1 4143:1 4278:1 4573:1 5736:1 
1.458984375 264:1 1533:1 3149:1 3421:1 4143:1 4507:1 4573:1 
50 4742:1 
1.458984375 264:1 379:1 1128:1 1286:1 2509:1 
1.458984375 264:1 1124:1 2019:1 4154:1 4516:1 5302:1 
1.458984375 2897:1 3149:1 3329:1 3421:1 3572:1 
50 
50 
1.4580078125 375:1 2158:1 4422:1 
1.458984375 1865:1 2451:1 2580:1 3890:1 
50 264:1 
1.458984375 264:1 3483:1 3744:1 5099:1 5109:1 
1.458984375 1140:1 2173:1 2175:1 2355:1 3149:1 3304:1 3421:1 4391:1 4433:1 4857:1 
1.4580078125 3933:1 4014:1 
50 1140:1 
1.458984375 237:1 240:1 525:1 634:1 1793:1 5253:1 5539:1 
50 
50 264:1 
50 3149:1 3421:1 
50 
1.458984375 264:1 2044:1 3388:1 4063:1 4273:1 
50 
1.4580078125 309:1 
1.458984375 1968:1 3149:1 3421:1 3534:1 
1.458984375 2:1 324:1 934:1 1191:1 1938:1 3877:1 4406:1 
1.458984375 1871:1 2062:1 2370:1 2515:1 3120:1 5610:1 5684:1 5852:1 5941:1 
50 
1.458984375 264:1 675:1 1359:1 1871:1 2611:1 3773:1 4034:1 4253:1 5141:1 5162:1 5745:1 
1.458984375 3413:1 4272:1 4386:1 5768:1 
50 4334:1 5339:1 
1.458984375 29:1 1678:1 1876:1 1891:1 2260:1 
50 2811:1 3149:1 3421:1 
1.458984375 602:1 2705:1 4284:1 4366:1 
1.458984375 2023:1 2355:1 2865:1 4515:1 
1.458984375 39:1 613:1 1798:1 1830:1 1975:1 2715:1 3149:1 3273:1 3421:1 4154:1 4281:1 4591:1 4734:1 5302:1 
50 
1.458984375 142:1 264:1 2071:1 4079:1 4791:1 5219:1 5244:1 5708:1 
1.458984375 407:1 439:1 1306:1 3149:1 3421:1 
1.458984375 613:1 949:1 1374:1 1830:1 1949:1 1968:1 3149:1 3273:1 3421:1 3961:1 4085:1 4100:1 4387:1 4553:1 4591:1 4807:1 
1.458984375 675:1 2215:1 4034:1 4253:1 5141:1 5162:1 
50 
1.458984375 264:1 755:1 1354:1 1994:1 2304:1 2330:1 2369:1 3713:1 3920:1 4255:1 4261:1 
50 
1.458984375 2071:1 5250:1 
1.458984375 259:1 264:1 1468:1 2272:1 3149:1 3421:1 3784:1 4898:1 
1.458984375 264:1 2073:1 3094:1 
1.458984375 610:1 613:1 703:1 1830:1 3149:1 3273:1 3421:1 4591:1 
50 264:1 2645:1 
1.458984375 4143:1 4358:1 4573:1 
50 3165:1 3339:1 4266:1 
50 3149:1 3421:1 
50 182:1 
50 
50 2271:1 
1.4580078125 2234:1 2505:1 4407:1 4992:1 
50 
50 
1.458984375 1781:1 
1.458984375 357:1 360:1 2265:1 2314:1 2538:1 
1.458984375 1130:1 1968:1 2234:1 2505:1 4407:1 4992:1 
1.458984375 3149:1 3421:1 4742:1 
1.458984375 1140:1 3094:1 4790:1 
1.458984375 182:1 264:1 347:1 3149:1 3421:1 5312:1 
1.458984375 407:1 2711:1 3773:1 
1.458984375 264:1 1968:1 4366:1 5904:1 
50 1128:1 
50 4483:1 
1.458984375 89:1 613:1 1830:1 3149:1 3273:1 3421:1 4063:1 4273:1 4591:1 4682:1 5113:1 5116:1 5262:1 5281:1 5846:1 
50 264:1 1313:1 
1.458984375 2856:1 3229:1 4063:1 4131:1 4273:1 4714:1 5532:1 
1.458984375 259:1 1932:1 2354:1 3784:1 
1.458984375 833:1 1140:1 3877:1 4079:1 4406:1 5219:1 
1.458984375 264:1 3190:1 4063:1 4273:1 4622:1 5050:1 
1.458984375 497:1 755:1 2330:1 4742:1 5217:1 5237:1 
50 3396:1 
1.458984375 3240:1 3877:1 4406:1 
50 
1.458984375 2627:1 4131:1 4780:1 5562:1 
1.458984375 225:1 3774:1 4742:1 
50 1871:1 
50 2759:1 
1.458984375 4369:1 4776:1 
50 
50 
50 2519:1 
1.458984375 487:1 1035:1 1125:1 2023:1 2584:1 2865:1 3149:1 3203:1 3421:1 4515:1 4790:1 
50 
50 
50 3358:1 
50 4907:1 
1.458984375 1769:1 3149:1 3421:1 
50 3940:1 3944:1 4116:1 5267:1 
50 2811:1 
1.458984375 806:1 1427:1 1582:1 3656:1 4978:1 5602:1 5604:1 
50 
50 641:1 2295:1 3826:1 
1.458984375 264:1 2811:1 3358:1 4063:1 4273:1 4790:1 
50 264:1 5244:1 
1.458984375 2547:1 
1.4580078125 1821:1 1918:1 3824:1 4927:1 
1.458984375 1128:1 4063:1 4154:1 4273:1 4790:1 5302:1 
50 264:1 3149:1 3421:1 
1.458984375 2234:1 2355:1 2505:1 2811:1 4358:1 4407:1 4992:1 
1.458984375 3011:1 3384:1 
1.458984375 1398:1 1585:1 1744:1 1871:1 4979:1 
1.458984375 3556:1 3913:1 5551:1 5935:1 
1.458984375 264:1 407:1 4962:1 4975:1 5452:1 
50 
50 3149:1 3421:1 
50 1140:1 
1.458984375 264:1 630:1 1014:1 2053:1 2811:1 3594:1 4259:1 5154:1 5260:1 5661:1 
1.458984375 280:1 613:1 720:1 1830:1 2297:1 2506:1 3273:1 4257:1 4591:1 4790:1 
1.458984375 4043:1 4143:1 4161:1 4573:1 5731:1 5939:1 
1.458984375 264:1 3149:1 3421:1 4366:1 
50 755:1 2330:1 
1.458984375 1481:1 2816:1 4074:1 5634:1 
50 
1.458984375 603:1 2028:1 
50 
1.458984375 613:1 1125:1 1830:1 3203:1 3273:1 4591:1 
1.458984375 375:1 4259:1 4422:1 5260:1 5803:1 
1.4580078125 264:1 1258:1 1313:1 
50 264:1 1140:1 
1.458984375 95:1 264:1 3948:1 
1.458984375 617:1 2267:1 3114:1 3702:1 
1.458984375 264:1 3373:1 4747:1 
1.458984375 1468:1 2272:1 2613:1 3439:1 5290:1 
1.458984375 1320:1 3778:1 5944:1 
1.458984375 1124:1 3948:1 4516:1 
1.458984375 217:1 487:1 1416:1 1425:1 2584:1 3413:1 4272:1 4386:1 
1.458984375 528:1 1973:1 3439:1 
1.458984375 264:1 934:1 1232:1 1398:1 1744:1 3331:1 
50 264:1 
1.458984375 3251:1 3616:1 4742:1 5781:1 
1.458984375 264:1 1398:1 1744:1 
1.458984375 62:1 155:1 164:1 264:1 2585:1 3149:1 3391:1 3421:1 3885:1 3897:1 4790:1 5168:1 
1.458984375 688:1 2530:1 3149:1 3421:1 
50 
1.458984375 487:1 2584:1 3149:1 3202:1 3421:1 3766:1 3773:1 4588:1 5099:1 5390:1 5482:1 5796:1 
1.458984375 3921:1 4091:1 
1.458984375 264:1 1118:1 5371:1 
1.458984375 259:1 2215:1 3784:1 3885:1 
1.458984375 723:1 1446:1 3150:1 5733:1 5842:1 
1.458984375 2705:1 4791:1 
1.4580078125 4769:1 
50 
50 264:1 
1.458984375 675:1 2031:1 2656:1 3149:1 3421:1 4034:1 4253:1 4790:1 5099:1 5141:1 5162:1 
50 
50 
50 
50 3149:1 3421:1 
1.458984375 3938:1 
50 264:1 641:1 2295:1 3826:1 
1.458984375 5234:1 5290:1 
1.4580078125 4659:1 
1.458984375 264:1 649:1 755:1 2330:1 2355:1 2645:1 2811:1 4453:1 5233:1 
50 1709:1 
1.458984375 264:1 1258:1 1402:1 2851:1 3149:1 3421:1 5630:1 5738:1 
50 
50 
49.958984375 2715:1 4154:1 5302:1 
1.458984375 1140:1 1320:1 4040:1 
1.458984375 1088:1 2543:1 
1.458984375 630:1 2053:1 3594:1 4843:1 5154:1 5661:1 
1.458984375 264:1 613:1 703:1 1830:1 2811:1 3273:1 3385:1 4131:1 4591:1 
50 264:1 
1.458984375 159:1 1536:1 3100:1 4455:1 
1.458984375 1140:1 1552:1 2197:1 4358:1 
50 
50 1128:1 
1.458984375 3149:1 3421:1 3739:1 3854:1 4043:1 4278:1 5731:1 
1.458984375 1838:1 4161:1 5082:1 
50 264:1 
1.458984375 264:1 1072:1 3860:1 4023:1 4142:1 5211:1 
1.458984375 1968:1 2158:1 
1.458984375 264:1 3385:1 4079:1 4180:1 4742:1 5219:1 5636:1 
50 264:1 
50 
1.458984375 264:1 1206:1 2429:1 3149:1 3421:1 3620:1 3794:1 4415:1 4724:1 5584:1 5756:1 5881:1 
1.5 4366:1 
1.458984375 216:1 1032:1 4790:1 
1.458984375 3333:1 4459:1 4917:1 4929:1 
1.458984375 23:1 1254:1 2078:1 5471:1 
1.4580078125 264:1 5051:1 
1.458984375 264:1 986:1 2557:1 2703:1 2891:1 3150:1 4131:1 4321:1 4330:1 5733:1 5842:1 
1.458984375 3149:1 3336:1 3421:1 3875:1 
1.458984375 264:1 3403:1 4440:1 5058:1 
50 1473:1 
50 
1.458984375 927:1 2163:1 3149:1 3194:1 3421:1 4954:1 
1.458984375 3149:1 3421:1 3510:1 
1.458984375 630:1 2053:1 2327:1 3594:1 3610:1 4484:1 5154:1 5661:1 
1.4580078125 264:1 4976:1 
1.458984375 264:1 904:1 3126:1 5816:1 
1.458984375 264:1 309:1 4953:1 
1.458984375 796:1 3794:1 4160:1 4415:1 5881:1 
50 264:1 
1.458984375 2537:1 5216:1 
50 
1.458984375 603:1 1871:1 2071:1 2073:1 3149:1 3421:1 5285:1 5708:1 
50 354:1 
1.458984375 264:1 4398:1 
50 
1.458984375 3851:1 4100:1 4903:1 5277:1 
50 264:1 3149:1 3421:1 
1.458984375 946:1 3004:1 3043:1 3179:1 3782:1 4328:1 5195:1 5298:1 5382:1 5794:1 
1.4580078125 1666:1 
1.4580078125 675:1 2215:1 4034:1 4253:1 5100:1 5141:1 5162:1 
1.458984375 225:1 264:1 409:1 1679:1 1798:1 2811:1 3774:1 4281:1 4468:1 4734:1 5244:1 5939:1 
1.458984375 264:1 617:1 2028:1 2267:1 2811:1 3114:1 3238:1 3702:1 3961:1 4085:1 4143:1 4573:1 4742:1 
1.458984375 4141:1 4954:1 5765:1 
1.458984375 1561:1 4000:1 4006:1 4968:1 5384:1 
1.458984375 560:1 4569:1 4814:1 
1.458984375 487:1 928:1 2584:1 2814:1 4500:1 
50 4969:1 
50 
1.458984375 806:1 1052:1 1427:1 1582:1 1779:1 1871:1 3656:1 4985:1 5602:1 5604:1 
1.4580078125 32:1 
1.4580078125 3933:1 4131:1 
1.458984375 324:1 2515:1 3120:1 3773:1 5610:1 5684:1 5852:1 
50 
1.4580078125 264:1 3149:1 3421:1 3933:1 
1.458984375 280:1 720:1 4079:1 4131:1 5219:1 
1.458984375 1140:1 1928:1 4029:1 4790:1 4836:1 
1.458984375 264:1 3773:1 3961:1 4085:1 
1.458984375 487:1 1313:1 2519:1 2584:1 
50 4143:1 4573:1 
1.458984375 3045:1 3822:1 4143:1 4573:1 
1.458984375 389:1 549:1 5660:1 
1.458984375 781:1 788:1 794:1 796:1 2943:1 3773:1 4160:1 4334:1 5339:1 
1.458984375 890:1 5099:1 
1.458984375 2723:1 5846:1 
1.458984375 264:1 5216:1 5829:1 
50 1828:1 
50 
1.458984375 264:1 3837:1 3885:1 
1.458984375 264:1 519:1 949:1 3475:1 3972:1 4387:1 
50 3933:1 
1.458984375 1871:1 2355:1 5075:1 
50 264:1 
1.458984375 3149:1 3421:1 3961:1 4085:1 
1.458984375 575:1 603:1 5415:1 
1.458984375 264:1 395:1 424:1 
1.458984375 854:1 3336:1 4883:1 
1.458984375 2130:1 4921:1 
1.458984375 603:1 2018:1 4079:1 4351:1 5219:1 
1.458984375 3757:1 3961:1 4085:1 4189:1 5499:1 
1.458984375 1124:1 4516:1 5846:1 
50 264:1 
1.458984375 264:1 1871:1 2477:1 
50 3165:1 3339:1 4266:1 
1.4580078125 5194:1 
1.458984375 182:1 264:1 1928:1 2334:1 2675:1 3149:1 3421:1 4029:1 4836:1 5898:1 
50 264:1 4192:1 
1.458984375 525:1 634:1 1028:1 1118:1 1381:1 1793:1 1828:1 2557:1 3142:1 5470:1 5561:1 5648:1 
50 3940:1 3944:1 4116:1 5267:1 
1.458984375 347:1 3165:1 3339:1 4063:1 4141:1 4266:1 4273:1 5312:1 
1.458984375 806:1 1140:1 1427:1 1582:1 2443:1 2811:1 3656:1 4790:1 5602:1 5604:1 
50 
1.458984375 1398:1 1744:1 5170:1 
50 
1.458984375 149:1 225:1 264:1 649:1 1136:1 2811:1 2975:1 3774:1 
1.458984375 264:1 1598:1 1753:1 5091:1 5869:1 
1.458984375 703:1 3126:1 5816:1 
50 675:1 4034:1 4253:1 5141:1 5162:1 
1.458984375 2557:1 3727:1 3773:1 4914:1 5099:1 5541:1 
1.458984375 264:1 2327:1 2751:1 3610:1 4484:1 5520:1 
50 264:1 
1.458984375 613:1 1830:1 2084:1 2265:1 3273:1 4591:1 
1.458984375 4843:1 
1.458984375 1478:1 2715:1 5352:1 5384:1 
50 3149:1 3421:1 
50 
1.4580078125 264:1 3149:1 3421:1 4714:1 
50 4360:1 
50 264:1 2811:1 3149:1 3421:1 
50 2271:1 
50 
1.458984375 3110:1 3883:1 
1.458984375 703:1 902:1 1085:1 3798:1 
50 
1.458984375 3948:1 5096:1 5643:1 
1.458984375 1871:1 5190:1 
1.4580078125 264:1 4366:1 
1.458984375 264:1 1473:1 2158:1 3150:1 3664:1 3948:1 5733:1 5842:1 
1.458984375 613:1 1830:1 2165:1 2515:1 3120:1 3273:1 3856:1 4591:1 5610:1 5684:1 5852:1 
1.458984375 264:1 1871:1 3611:1 5104:1 
1.458984375 379:1 2234:1 2355:1 2505:1 2509:1 4407:1 4992:1 
1.458984375 525:1 634:1 1793:1 2811:1 3149:1 3421:1 4063:1 4273:1 4358:1 4366:1 5695:1 
50 
1.458984375 264:1 347:1 1121:1 1939:1 4551:1 4632:1 4976:1 5312:1 
1.4580078125 5098:1 
1.458984375 613:1 1830:1 3273:1 3455:1 4591:1 5244:1 
1.458984375 3149:1 3421:1 4131:1 5082:1 
50 1623:1 3199:1 
50 
1.458984375 264:1 703:1 3727:1 4914:1 
1.5 225:1 3149:1 3421:1 3774:1 
1.4580078125 1276:1 
50 3149:1 3421:1 
1.458984375 542:1 5499:1 
1.458984375 62:1 155:1 264:1 3149:1 3421:1 3897:1 5168:1 5233:1 
50 264:1 
1.5 264:1 642:1 2815:1 5742:1 
50 2519:1 
1.458984375 264:1 787:1 806:1 1427:1 1582:1 3656:1 5099:1 5602:1 5604:1 5835:1 
1.458984375 29:1 379:1 1871:1 1876:1 2509:1 2811:1 4790:1 5680:1 
50 
1.458984375 1821:1 1918:1 2557:1 3149:1 3421:1 3781:1 3978:1 4927:1 
1.458984375 2028:1 4903:1 
1.458984375 264:1 1871:1 4079:1 4366:1 5191:1 5219:1 
1.5 5466:1 
1.458984375 272:1 1664:1 2062:1 2370:1 3149:1 3402:1 3421:1 5738:1 5941:1 
50 
1.458984375 1201:1 3921:1 5834:1 
50 3149:1 3421:1 
1.458984375 2996:1 4625:1 4742:1 5072:1 
1.458984375 2811:1 3004:1 3043:1 3179:1 5195:1 
1.458984375 1118:1 4631:1 5179:1 
50 4366:1 
50 264:1 
50 
1.458984375 264:1 3165:1 3241:1 3339:1 4266:1 
50 
50 
1.458984375 264:1 1140:1 1871:1 1941:1 3150:1 4366:1 5635:1 5733:1 5835:1 5842:1 
50 3149:1 3421:1 
1.458984375 941:1 1298:1 1773:1 2256:1 3863:1 5043:1 5167:1 
1.458984375 1769:1 3483:1 4358:1 4366:1 5099:1 5109:1 
50 
50 264:1 
1.458984375 1128:1 5551:1 
1.458984375 2102:1 4682:1 5116:1 5262:1 5281:1 5287:1 5395:1 
1.458984375 23:1 1254:1 4839:1 5471:1 
50 264:1 
1.4580078125 4631:1 5179:1 
1.458984375 13:1 151:1 2286:1 3773:1 
1.458984375 378:1 1652:1 1968:1 2159:1 2811:1 3149:1 3421:1 3687:1 3940:1 3944:1 4116:1 5267:1 5274:1 
1.458984375 1769:1 3573:1 4366:1 4714:1 4975:1 5452:1 
50 264:1 
1.4580078125 474:1 
50 
1.458984375 38:1 264:1 1871:1 2265:1 2306:1 3961:1 4085:1 
1.458984375 1028:1 1381:1 2443:1 2557:1 3142:1 5561:1 5648:1 
1.458984375 703:1 1121:1 1623:1 3199:1 4632:1 
1.4580078125 164:1 
1.4580078125 264:1 1975:1 
1.458984375 264:1 2757:1 3773:1 4354:1 
1.458984375 182:1 540:1 675:1 2334:1 4034:1 4253:1 5141:1 5162:1 
1.458984375 1968:1 3149:1 3421:1 4063:1 4273:1 
50 
1.458984375 1014:1 2071:1 2836:1 3978:1 4063:1 4273:1 4557:1 5708:1 
1.458984375 613:1 722:1 1830:1 1838:1 3149:1 3273:1 3421:1 4591:1 
1.458984375 314:1 1468:1 2272:1 3948:1 
50 264:1 4742:1 
1.458984375 2022:1 
1.458984375 709:1 2811:1 4102:1 4889:1 
1.458984375 2085:1 2626:1 
50 1140:1 2355:1 
1.458984375 613:1 1830:1 3149:1 3273:1 3421:1 3773:1 4131:1 4591:1 
50 2570:1 4649:1 4808:1 
50 613:1 1830:1 3273:1 4366:1 4591:1 
1.458984375 264:1 1118:1 4063:1 4273:1 4742:1 
50 
1.458984375 264:1 2891:1 3149:1 3421:1 4321:1 4330:1 
1.458984375 264:1 4451:1 4959:1 5301:1 
1.458984375 2693:1 3149:1 3421:1 
50 264:1 
1.458984375 237:1 240:1 1128:1 1232:1 5253:1 5539:1 
1.458984375 306:1 363:1 487:1 2584:1 2841:1 2974:1 3838:1 4790:1 
1.458984375 1634:1 4791:1 
1.458984375 1201:1 2158:1 2563:1 3921:1 5834:1 
1.458984375 1988:1 3109:1 
1.458984375 301:1 2652:1 2811:1 
1.458984375 337:1 1887:1 2215:1 2859:1 2870:1 4471:1 
1.4580078125 4063:1 4273:1 4791:1 
1.458984375 376:1 1533:1 3454:1 4507:1 5082:1 5171:1 5491:1 
50 
1.458984375 264:1 544:1 2788:1 4441:1 
50 1468:1 2272:1 
1.458984375 195:1 264:1 1359:1 1468:1 2272:1 5424:1 
1.458984375 2:1 1191:1 1786:1 1908:1 1938:1 2811:1 5177:1 5557:1 5708:1 
1.458984375 613:1 1302:1 1830:1 3273:1 4591:1 
50 
1.458984375 264:1 525:1 634:1 1793:1 2527:1 5501:1 
50 474:1 
50 
1.4580078125 3921:1 3938:1 
1.458984375 492:1 1125:1 1674:1 3203:1 
50 630:1 2053:1 3594:1 5154:1 5661:1 
50 1128:1 
1.4580078125 1743:1 2891:1 4321:1 4330:1 
1.458984375 514:1 1441:1 2460:1 3149:1 3421:1 5598:1 
50 
50 
1.4580078125 5217:1 
50 
1.458984375 729:1 1016:1 1647:1 2019:1 3165:1 3339:1 4266:1 4307:1 
1.458984375 1121:1 1771:1 2512:1 4235:1 4632:1 4893:1 5506:1 
1.4580078125 264:1 5705:1 
50 1075:1 
50 3149:1 3421:1 
50 264:1 
50 641:1 2071:1 2295:1 3826:1 3961:1 4085:1 
1.458984375 1056:1 
1.458984375 2102:1 3149:1 3331:1 3421:1 
1.458984375 264:1 4790:1 
1.458984375 481:1 644:1 1331:1 2342:1 3348:1 4016:1 4771:1 4788:1 
50 
1.458984375 71:1 144:1 1616:1 2276:1 2388:1 4366:1 
1.458984375 1140:1 2071:1 4063:1 4273:1 5158:1 
1.458984375 487:1 2584:1 2686:1 2763:1 3032:1 3817:1 5194:1 
1.458984375 53:1 2108:1 5163:1 
50 264:1 3149:1 3421:1 
1.458984375 264:1 1313:1 2183:1 5271:1 
1.458984375 264:1 446:1 3149:1 3421:1 3824:1 4143:1 4334:1 4573:1 5339:1 
1.458984375 237:1 240:1 1393:1 1598:1 2181:1 3985:1 4366:1 4602:1 4790:1 5253:1 5539:1 5869:1 
1.458984375 4143:1 4573:1 5803:1 
50 
1.458984375 503:1 1781:1 4674:1 
1.458984375 259:1 2023:1 2723:1 2811:1 2865:1 3459:1 3784:1 4358:1 4515:1 5660:1 5669:1 
1.458984375 264:1 1124:1 4262:1 4516:1 
1.458984375 264:1 3540:1 4394:1 
1.458984375 182:1 2334:1 
1.4580078125 264:1 3573:1 
1.458984375 1479:1 3251:1 3616:1 
50 4063:1 4273:1 
1.458984375 264:1 610:1 3403:1 3680:1 4889:1 4917:1 5058:1 5463:1 
1.458984375 1549:1 2091:1 2158:1 2383:1 5244:1 
1.458984375 264:1 337:1 407:1 1887:1 2859:1 2870:1 3149:1 3421:1 
1.458984375 264:1 1544:1 2733:1 3149:1 3421:1 3813:1 4180:1 4548:1 5636:1 5736:1 
1.4580078125 2967:1 
1.458984375 264:1 970:1 1121:1 1828:1 2799:1 3149:1 3421:1 4632:1 4714:1 5099:1 5846:1 
50 3238:1 
1.458984375 264:1 2304:1 2369:1 4255:1 4261:1 5076:1 
1.458984375 2234:1 2505:1 3940:1 3944:1 4116:1 4143:1 4407:1 4573:1 4992:1 5267:1 
1.458984375 2300:1 3961:1 4085:1 4366:1 
1.4580078125 806:1 1427:1 1582:1 3656:1 5602:1 5604:1 
1.458984375 1221:1 2574:1 2694:1 3557:1 3942:1 4202:1 4915:1 4919:1 5651:1 5906:1 
1.458984375 2983:1 3241:1 5181:1 
50 
50 
50 487:1 2584:1 
50 
50 4079:1 5219:1 
1.458984375 544:1 613:1 1830:1 2788:1 3273:1 4441:1 4591:1 5501:1 
1.458984375 264:1 446:1 1451:1 2894:1 5001:1 
1.458984375 1140:1 5244:1 
1.458984375 264:1 1125:1 3203:1 4424:1 
1.458984375 264:1 1548:1 2411:1 2811:1 3959:1 4187:1 4358:1 5723:1 
1.458984375 432:1 613:1 1830:1 2163:1 3194:1 3273:1 4591:1 5829:1 
1.4580078125 3149:1 3421:1 3933:1 
1.458984375 264:1 2234:1 2443:1 2505:1 2891:1 3149:1 3421:1 4321:1 4330:1 4407:1 4992:1 5075:1 
1.458984375 264:1 2023:1 2265:1 2865:1 4515:1 
1.458984375 1481:1 2980:1 4074:1 5634:1 
50 
1.458984375 264:1 1871:1 2382:1 3149:1 3421:1 
1.458984375 1183:1 1734:1 2645:1 3149:1 3421:1 
1.458984375 675:1 1186:1 2029:1 2167:1 4034:1 4253:1 4296:1 5141:1 5162:1 5709:1 5721:1 
1.4580078125 264:1 3901:1 
50 675:1 4034:1 4253:1 5141:1 5162:1 
1.4580078125 4466:1 
1.458984375 613:1 1214:1 1830:1 3273:1 4591:1 
1.458984375 259:1 1798:1 2102:1 2762:1 3649:1 3784:1 4281:1 4734:1 4917:1 5799:1 5836:1 
1.458984375 339:1 928:1 2319:1 3149:1 3421:1 
1.458984375 3149:1 3421:1 3586:1 
1.458984375 712:1 1159:1 3149:1 3421:1 5061:1 
1.458984375 225:1 1678:1 1891:1 2260:1 3573:1 3774:1 
1.4580078125 264:1 1565:1 4366:1 
1.458984375 182:1 264:1 1611:1 1798:1 3980:1 4281:1 4734:1 4976:1 
1.458984375 142:1 1118:1 
50 5708:1 
50 3149:1 3421:1 
50 
1.458984375 675:1 2319:1 2891:1 4034:1 4253:1 4321:1 4330:1 5141:1 5162:1 
1.458984375 198:1 660:1 755:1 1083:1 1907:1 2312:1 2330:1 2421:1 2500:1 2503:1 3149:1 3421:1 3773:1 4336:1 5345:1 
1.4580078125 5904:1 
50 3149:1 3421:1 4839:1 
1.458984375 199:1 264:1 728:1 2189:1 2392:1 
1.4580078125 264:1 5550:1 
50 
1.458984375 1:1 641:1 1468:1 2272:1 2295:1 3826:1 
1.458984375 264:1 675:1 1128:1 1939:1 3149:1 3421:1 3439:1 4034:1 4253:1 5141:1 5162:1 
50 5765:1 
1.4580078125 3074:1 
1.458984375 264:1 2520:1 3149:1 3421:1 4063:1 4273:1 4791:1 
1.4580078125 264:1 2504:1 3149:1 3421:1 
50 264:1 4063:1 4273:1 
50 
1.458984375 768:1 1045:1 3149:1 3421:1 
50 
50 3149:1 3421:1 
1.458984375 259:1 264:1 737:1 1359:1 3784:1 4682:1 5116:1 5262:1 5281:1 5590:1 
50 264:1 
50 
1.458984375 264:1 1451:1 2894:1 4790:1 5667:1 
1.458984375 264:1 675:1 4034:1 4253:1 5141:1 5162:1 
1.458984375 675:1 3460:1 4034:1 4253:1 4767:1 5141:1 5162:1 5845:1 
1.458984375 2787:1 5140:1 
1.458984375 2158:1 3680:1 5463:1 
50 
1.458984375 1334:1 3149:1 3421:1 4115:1 5751:1 
50 
50 3149:1 3421:1 
1.458984375 2078:1 4790:1 4953:1 5158:1 
50 
1.458984375 796:1 1402:1 1709:1 4160:1 
1.4580078125 3762:1 
1.458984375 1065:1 3556:1 3913:1 5029:1 5935:1 
1.458984375 2515:1 3120:1 4741:1 5610:1 5684:1 5852:1 
1.458984375 3439:1 
1.458984375 231:1 264:1 4369:1 4953:1 
1.458984375 406:1 3149:1 3421:1 
1.458984375 1140:1 2355:1 3478:1 
1.458984375 1134:1 2008:1 3556:1 3913:1 5551:1 5935:1 
50 
1.458984375 675:1 1828:1 2798:1 4034:1 4253:1 5141:1 5162:1 
1.458984375 806:1 1035:1 1427:1 1582:1 3656:1 4358:1 4790:1 5501:1 5602:1 5604:1 5829:1 
1.458984375 2897:1 3329:1 
1.4580078125 610:1 
50 264:1 
1.458984375 1871:1 2071:1 3385:1 
1.4580078125 264:1 347:1 3149:1 3421:1 5312:1 
50 264:1 
50 4196:1 
1.458984375 3149:1 3421:1 4976:1 
1.458984375 3921:1 4742:1 
1.458984375 373:1 446:1 469:1 503:1 908:1 1403:1 4088:1 
50 264:1 
1.458984375 1247:1 3058:1 3149:1 3421:1 3773:1 
1.458984375 216:1 1032:1 5739:1 
50 
1.458984375 703:1 2848:1 3006:1 
1.458984375 1232:1 1371:1 1864:1 4369:1 
50 264:1 3238:1 
1.458984375 264:1 1437:1 3149:1 3421:1 4063:1 4273:1 
50 
1.458984375 405:1 1996:1 2429:1 4724:1 5584:1 5756:1 
1.458984375 2065:1 2522:1 4366:1 
1.458984375 264:1 503:1 
1.458984375 264:1 1124:1 1140:1 1313:1 2811:1 3165:1 3339:1 4063:1 4266:1 4273:1 4516:1 5660:1 
1.458984375 1968:1 2504:1 
1.458984375 2077:1 2811:1 5835:1 
50 
50 
50 264:1 
50 
1.458984375 264:1 796:1 3240:1 4160:1 
1.458984375 946:1 4328:1 4976:1 5382:1 5794:1 
1.458984375 1258:1 4100:1 4561:1 4790:1 
1.458984375 1140:1 1468:1 2272:1 3331:1 
50 2811:1 
50 
50 3483:1 5109:1 
1.458984375 1786:1 2234:1 2505:1 4407:1 4992:1 5557:1 
1.458984375 1063:1 1140:1 2071:1 2283:1 3149:1 3421:1 5007:1 
50 688:1 
1.4580078125 3149:1 3421:1 3854:1 3961:1 4085:1 
50 3921:1 
50 4433:1 
1.458984375 116:1 446:1 855:1 1124:1 4245:1 4516:1 5384:1 
1.458984375 3149:1 3421:1 3535:1 3922:1 4366:1 4714:1 5290:1 
1.458984375 264:1 1268:1 3071:1 3085:1 3238:1 
1.458984375 264:1 3150:1 4366:1 5680:1 5733:1 5842:1 
1.458984375 264:1 806:1 1427:1 1582:1 3656:1 3940:1 3944:1 4116:1 5194:1 5267:1 5602:1 5604:1 
50 
1.458984375 264:1 946:1 4328:1 5382:1 5748:1 5794:1 
1.458984375 1221:1 2073:1 2574:1 3149:1 3421:1 3557:1 4366:1 4915:1 4919:1 5906:1 
1.458984375 264:1 3149:1 3421:1 4143:1 4433:1 4573:1 
1.458984375 3149:1 3421:1 4586:1 
1.458984375 946:1 1128:1 3004:1 3043:1 3179:1 4328:1 5007:1 5195:1 5382:1 5794:1 
1.458984375 264:1 363:1 396:1 1128:1 3885:1 4366:1 
1.458984375 2759:1 3126:1 5816:1 
50 5765:1 
1.458984375 2443:1 
50 3601:1 
1.458984375 264:1 2645:1 3208:1 3811:1 
1.458984375 4394:1 
1.458984375 264:1 307:1 863:1 4098:1 4366:1 
1.458984375 264:1 1015:1 1614:1 
1.458984375 525:1 634:1 1787:1 1793:1 2685:1 
50 264:1 4063:1 4273:1 
1.458984375 2953:1 2974:1 3937:1 4174:1 
50 
1.458984375 38:1 2071:1 2306:1 2334:1 4790:1 
50 
50 
1.458984375 928:1 3240:1 3854:1 4775:1 5806:1 
1.458984375 182:1 264:1 675:1 3149:1 3421:1 3813:1 4034:1 4063:1 4253:1 4273:1 5141:1 5162:1 5846:1 
50 
1.4580078125 1468:1 2272:1 2315:1 
1.4580078125 631:1 3938:1 
50 642:1 2811:1 2815:1 5742:1 
50 264:1 1286:1 
1.4580078125 1709:1 1799:1 
50 264:1 
1.458984375 2073:1 5573:1 
1.458984375 1561:1 4000:1 4006:1 4714:1 4968:1 
1.458984375 264:1 874:1 1640:1 5910:1 
1.4580078125 1709:1 4262:1 
1.458984375 2007:1 2071:1 2355:1 
50 5846:1 
1.458984375 363:1 2732:1 
1.4580078125 1126:1 5217:1 
1.458984375 2715:1 5374:1 
1.458984375 718:1 2811:1 5189:1 
50 1124:1 4516:1 
1.458984375 237:1 240:1 2822:1 2953:1 3482:1 3484:1 4174:1 5253:1 5539:1 
50 
1.4580078125 264:1 1770:1 2504:1 3149:1 3421:1 
1.458984375 2102:1 3149:1 3421:1 5290:1 5303:1 
1.458984375 264:1 737:1 1124:1 3149:1 3421:1 4516:1 5590:1 
50 
1.458984375 110:1 4161:1 4500:1 
1.458984375 1118:1 2811:1 4063:1 4273:1 4790:1 5022:1 
1.458984375 4976:1 5846:1 
1.458984375 675:1 1640:1 1878:1 4034:1 4253:1 5141:1 5162:1 
1.458984375 1781:1 2073:1 5708:1 
50 
1.458984375 2019:1 4790:1 
1.458984375 352:1 4063:1 4273:1 5053:1 5782:1 
1.458984375 264:1 2483:1 3149:1 3331:1 3421:1 
1.458984375 1128:1 4154:1 5302:1 
1.458984375 3149:1 3279:1 3421:1 4358:1 4366:1 4714:1 
1.4580078125 5811:1 
50 3961:1 4085:1 
1.458984375 3149:1 3421:1 4131:1 5029:1 
1.458984375 1960:1 3108:1 3598:1 4333:1 4362:1 5688:1 
50 4366:1 
1.458984375 216:1 264:1 487:1 1032:1 1389:1 2584:1 3149:1 3150:1 3421:1 5733:1 5842:1 
1.458984375 2611:1 
1.458984375 264:1 481:1 934:1 2342:1 2523:1 2821:1 3639:1 4788:1 
50 2234:1 2505:1 4407:1 4992:1 
50 
1.458984375 264:1 3149:1 3240:1 3421:1 5501:1 
1.458984375 3948:1 4982:1 
50 264:1 3238:1 
1.458984375 98:1 347:1 1276:1 2407:1 2430:1 3126:1 4161:1 4790:1 5312:1 5816:1 
50 
50 
1.458984375 1028:1 1381:1 3118:1 3142:1 3770:1 4358:1 5561:1 5648:1 
1.4580078125 1306:1 
1.4580078125 703:1 3126:1 4433:1 5816:1 
1.458984375 264:1 2563:1 4010:1 
1.458984375 71:1 144:1 264:1 1616:1 2276:1 2388:1 5680:1 
1.458984375 1480:1 3149:1 3165:1 3240:1 3339:1 3421:1 4266:1 5340:1 5480:1 5939:1 
1.458984375 21:1 225:1 1652:1 3149:1 3421:1 3470:1 3774:1 5939:1 
1.458984375 2015:1 3454:1 5171:1 5680:1 
1.4580078125 159:1 2073:1 
1.458984375 89:1 264:1 347:1 737:1 3149:1 3421:1 5312:1 5590:1 
50 
1.458984375 237:1 240:1 373:1 469:1 487:1 908:1 2584:1 4088:1 5253:1 5539:1 
50 71:1 144:1 1616:1 2276:1 2388:1 2811:1 3165:1 3339:1 4266:1 
50 3149:1 3421:1 
1.4580078125 2319:1 
1.458984375 806:1 1427:1 1582:1 3656:1 4063:1 4273:1 4790:1 5446:1 5602:1 5604:1 
1.458984375 264:1 1128:1 3149:1 3421:1 4548:1 
50 3149:1 3421:1 
1.458984375 264:1 932:1 3149:1 3150:1 3421:1 4885:1 5733:1 5842:1 
1.458984375 264:1 613:1 1830:1 2265:1 3273:1 4591:1 
1.458984375 251:1 4917:1 4953:1 
1.4580078125 4496:1 
50 3149:1 3421:1 
50 
1.458984375 2044:1 2811:1 3198:1 3388:1 4347:1 
50 3336:1 
1.458984375 542:1 1884:1 2316:1 3127:1 
1.458984375 264:1 613:1 641:1 1830:1 2295:1 3150:1 3238:1 3273:1 3826:1 3875:1 3885:1 4591:1 5733:1 5842:1 
1.458984375 264:1 407:1 1128:1 
1.458984375 1798:1 3265:1 3558:1 4281:1 4401:1 4734:1 4984:1 5665:1 
1.458984375 613:1 1830:1 3149:1 3273:1 3421:1 4013:1 4591:1 4625:1 5072:1 
1.458984375 487:1 2195:1 2584:1 3635:1 4790:1 
1.458984375 2464:1 3149:1 3421:1 
1.4580078125 1871:1 4509:1 
50 
50 264:1 
1.458984375 1128:1 3075:1 
1.458984375 729:1 3773:1 
1.4580078125 264:1 1409:1 
50 3149:1 3421:1 
1.458984375 264:1 2158:1 3149:1 3421:1 4839:1 5327:1 
1.458984375 264:1 2265:1 4063:1 4273:1 4975:1 5452:1 
1.458984375 252:1 613:1 1028:1 1381:1 1606:1 1830:1 2811:1 2951:1 3142:1 3273:1 4358:1 4591:1 5554:1 5561:1 5648:1 
1.458984375 264:1 1298:1 1773:1 3413:1 3863:1 4262:1 4272:1 4386:1 5167:1 
1.458984375 3126:1 3602:1 5276:1 5816:1 
1.4580078125 1286:1 
1.458984375 264:1 1313:1 2597:1 2787:1 3331:1 5140:1 
50 
50 
1.458984375 4742:1 4790:1 4953:1 5846:1 
1.458984375 1124:1 1140:1 4516:1 
1.458984375 264:1 613:1 1155:1 1830:1 2811:1 2819:1 3149:1 3273:1 3421:1 4187:1 4259:1 4591:1 5260:1 
1.458984375 1873:1 3149:1 3421:1 
50 3961:1 4085:1 
50 264:1 3126:1 5816:1 
1.458984375 1451:1 2894:1 4131:1 
1.458984375 264:1 1914:1 2811:1 
49.958984375 225:1 3149:1 3421:1 3774:1 
1.458984375 264:1 1063:1 2283:1 3149:1 3421:1 
50 264:1 
50 
50 1828:1 
1.458984375 613:1 1134:1 1830:1 3273:1 4591:1 5404:1 
1.458984375 264:1 642:1 2815:1 3149:1 3421:1 5742:1 
1.458984375 487:1 2355:1 2584:1 3240:1 5660:1 
1.458984375 1306:1 1601:1 3149:1 3421:1 5748:1 
1.458984375 2543:1 3149:1 3421:1 
50 
1.458984375 3727:1 4914:1 5680:1 
1.458984375 3424:1 4369:1 
1.458984375 1125:1 3203:1 4358:1 
1.458984375 2209:1 3149:1 3421:1 3875:1 4063:1 4273:1 
1.458984375 3773:1 5099:1 
50 
1.4580078125 885:1 
1.458984375 1206:1 3620:1 4063:1 4273:1 5846:1 
1.458984375 62:1 155:1 264:1 328:1 3306:1 3897:1 4742:1 5168:1 5647:1 5680:1 
50 264:1 3149:1 3421:1 
1.4580078125 264:1 3238:1 5099:1 
1.458984375 737:1 2150:1 4014:1 5590:1 
1.458984375 264:1 542:1 1479:1 2557:1 2705:1 3108:1 
1.458984375 264:1 2355:1 2891:1 4321:1 4330:1 
1.458984375 264:1 407:1 641:1 675:1 712:1 904:1 1159:1 1468:1 2272:1 2295:1 3149:1 3421:1 3563:1 3826:1 3961:1 4034:1 4085:1 4253:1 5141:1 5162:1 
1.458984375 264:1 716:1 2158:1 2557:1 3979:1 4232:1 4451:1 
1.458984375 71:1 144:1 264:1 1616:1 2276:1 2287:1 2388:1 2811:1 3149:1 3421:1 
1.458984375 259:1 3784:1 4561:1 
50 
1.458984375 3336:1 5007:1 
1.458984375 264:1 902:1 1085:1 1565:1 2515:1 3120:1 3798:1 5610:1 5684:1 5852:1 
1.458984375 264:1 675:1 688:1 2811:1 3149:1 3421:1 3813:1 3948:1 4034:1 4253:1 5141:1 5162:1 
50 3149:1 3421:1 
1.458984375 2160:1 4975:1 5452:1 
1.458984375 264:1 2071:1 3205:1 4714:1 5708:1 
1.458984375 1028:1 1125:1 1381:1 2234:1 2505:1 2811:1 3142:1 3203:1 4407:1 4992:1 5561:1 5648:1 
1.458984375 641:1 2295:1 3826:1 4161:1 4658:1 
1.458984375 2537:1 3413:1 3948:1 4272:1 4386:1 
1.458984375 603:1 1460:1 4201:1 4230:1 4234:1 4790:1 
1.4580078125 4950:1 
1.458984375 1128:1 1798:1 2733:1 4281:1 4734:1 5551:1 
1.458984375 1243:1 2504:1 2679:1 4060:1 4472:1 4535:1 
1.458984375 712:1 1159:1 2557:1 3149:1 3421:1 3860:1 4023:1 5211:1 
1.458984375 195:1 639:1 675:1 1601:1 4010:1 4034:1 4253:1 5141:1 5162:1 5424:1 
50 539:1 3927:1 4633:1 
1.458984375 264:1 2848:1 3238:1 
1.4580078125 1020:1 
1.458984375 358:1 481:1 1678:1 1891:1 2260:1 2342:1 3933:1 4788:1 
1.458984375 182:1 409:1 555:1 1018:1 1679:1 2071:1 2909:1 3386:1 4039:1 4044:1 4468:1 4934:1 
1.4580078125 4350:1 
1.458984375 264:1 1776:1 3244:1 
1.458984375 264:1 3149:1 3421:1 4483:1 4790:1 
1.458984375 610:1 1709:1 4861:1 4998:1 5445:1 
50 2265:1 
50 264:1 2355:1 
1.458984375 225:1 264:1 1240:1 1564:1 2811:1 3774:1 5658:1 
1.458984375 375:1 675:1 1828:1 1960:1 3598:1 4034:1 4253:1 4362:1 4422:1 5141:1 5162:1 
1.458984375 264:1 2142:1 3149:1 3421:1 4284:1 4394:1 
1.458984375 3921:1 5765:1 
1.458984375 697:1 796:1 1968:1 2851:1 3150:1 3782:1 3926:1 4160:1 5733:1 5842:1 
1.458984375 395:1 424:1 651:1 713:1 3483:1 3926:1 4373:1 5109:1 
50 810:1 3579:1 
50 
1.458984375 264:1 1150:1 2084:1 
1.458984375 1150:1 3149:1 3421:1 
1.458984375 937:1 4471:1 
50 
1.4580078125 2362:1 
1.458984375 1088:1 3483:1 3921:1 4079:1 5109:1 5219:1 
1.458984375 1199:1 4048:1 
1.4580078125 1125:1 3203:1 
1.458984375 1798:1 3413:1 3497:1 4272:1 4281:1 4386:1 4625:1 4734:1 5072:1 
1.458984375 1118:1 3407:1 3961:1 4085:1 4213:1 4222:1 4790:1 
1.458984375 347:1 2171:1 3926:1 3961:1 4085:1 5312:1 
1.4580078125 487:1 2584:1 4141:1 
50 
1.4580078125 5939:1 
1.4580078125 4010:1 4320:1 
1.458984375 446:1 2679:1 4060:1 5390:1 5796:1 
1.458984375 3548:1 3948:1 
1.458984375 1088:1 2102:1 3110:1 3883:1 3921:1 
50 
1.458984375 61:1 862:1 1343:1 3149:1 3421:1 4980:1 
1.458984375 712:1 1142:1 1159:1 1519:1 
1.458984375 481:1 1544:1 2342:1 4788:1 5736:1 
50 3149:1 3421:1 
1.458984375 613:1 1830:1 1950:1 2891:1 3273:1 3310:1 4321:1 4330:1 4591:1 5680:1 
50 264:1 
1.458984375 3782:1 3885:1 
1.4580078125 3262:1 
1.4580078125 1769:1 
50 264:1 2073:1 3149:1 3421:1 
1.458984375 2044:1 2811:1 3388:1 4063:1 4273:1 4433:1 
50 
50 
50 610:1 
1.4580078125 3149:1 3421:1 3781:1 
1.458984375 264:1 309:1 1561:1 2817:1 4000:1 4006:1 4079:1 4968:1 5219:1 
50 2071:1 
50 487:1 2584:1 
1.458984375 89:1 3149:1 3238:1 3421:1 3885:1 
1.458984375 603:1 3110:1 3883:1 4466:1 
1.4580078125 264:1 3457:1 4063:1 4273:1 
1.458984375 264:1 675:1 3149:1 3178:1 3421:1 3948:1 4034:1 4253:1 5141:1 5162:1 
50 
1.458984375 2165:1 3856:1 3946:1 
1.458984375 1118:1 3126:1 5816:1 
50 38:1 264:1 2265:1 2306:1 
1.458984375 1306:1 3149:1 3421:1 
1.458984375 3732:1 4452:1 4870:1 5913:1 
1.458984375 264:1 4143:1 4573:1 4976:1 
50 
1.4580078125 1710:1 
50 5233:1 
50 
1.4580078125 3033:1 
1.458984375 264:1 613:1 1830:1 3273:1 4259:1 4591:1 5260:1 
50 2811:1 3149:1 3421:1 
1.458984375 88:1 264:1 712:1 716:1 1056:1 1137:1 1159:1 4063:1 4273:1 
50 3948:1 
50 610:1 
1.4580078125 2652:1 
1.458984375 264:1 3176:1 4394:1 
50 3773:1 
50 259:1 3784:1 
50 264:1 1709:1 3149:1 3421:1 
1.458984375 1201:1 3948:1 5834:1 
50 3149:1 3421:1 4790:1 
1.458984375 163:1 1301:1 2096:1 4650:1 4790:1 
1.458984375 252:1 264:1 542:1 1606:1 2265:1 2951:1 
1.458984375 3149:1 3421:1 4865:1 
1.458984375 62:1 155:1 363:1 2327:1 3610:1 3897:1 4484:1 5168:1 5680:1 
1.458984375 1258:1 1468:1 1884:1 2272:1 3127:1 3681:1 3694:1 5399:1 
1.458984375 4969:1 5313:1 
50 
1.458984375 62:1 155:1 264:1 3897:1 4714:1 5168:1 
1.458984375 2811:1 3478:1 4955:1 5939:1 
1.458984375 264:1 790:1 1871:1 2530:1 2811:1 3149:1 3421:1 4358:1 4837:1 5099:1 
1.458984375 3149:1 3421:1 5646:1 
1.4580078125 3149:1 3421:1 5076:1 
1.4580078125 3773:1 4366:1 
1.458984375 503:1 713:1 1468:1 2272:1 4063:1 4079:1 4083:1 4273:1 5219:1 
1.458984375 61:1 654:1 722:1 1343:1 1468:1 2272:1 3872:1 4980:1 
1.458984375 264:1 2656:1 3938:1 4745:1 
1.458984375 264:1 2019:1 2571:1 3110:1 3883:1 5287:1 5395:1 
50 3149:1 3421:1 
50 
1.458984375 810:1 3579:1 4742:1 
1.458984375 61:1 487:1 1290:1 1343:1 2584:1 3946:1 4154:1 4980:1 5302:1 
1.458984375 61:1 264:1 796:1 1343:1 1811:1 2895:1 3940:1 3944:1 4116:1 4160:1 4655:1 4980:1 5267:1 
1.458984375 264:1 526:1 1118:1 1124:1 1718:1 2763:1 3150:1 3238:1 3697:1 4516:1 4761:1 5341:1 5453:1 5733:1 5842:1 
50 4196:1 
1.458984375 182:1 1118:1 
1.458984375 1190:1 2763:1 3439:1 3773:1 3997:1 5708:1 
1.458984375 1667:1 3885:1 
1.458984375 264:1 1865:1 2726:1 3149:1 3421:1 5835:1 
50 4154:1 4334:1 5302:1 5339:1 
1.458984375 225:1 3150:1 3664:1 3774:1 5733:1 5842:1 
1.458984375 264:1 268:1 396:1 525:1 634:1 1793:1 5273:1 
1.458984375 225:1 2234:1 2505:1 3632:1 3774:1 4407:1 4992:1 5530:1 
1.4580078125 3891:1 
1.458984375 62:1 155:1 264:1 3885:1 3897:1 5168:1 
1.458984375 603:1 1221:1 2574:1 3557:1 4915:1 4919:1 5906:1 
50 
1.4580078125 3769:1 
1.458984375 2980:1 4296:1 
1.458984375 1128:1 5457:1 
50 
1.458984375 1871:1 3961:1 4085:1 
50 
50 
1.458984375 742:1 2554:1 2893:1 
1.458984375 237:1 240:1 525:1 634:1 1793:1 2234:1 2505:1 3149:1 3421:1 4407:1 4992:1 5253:1 5539:1 
1.4580078125 264:1 885:1 
50 
1.458984375 264:1 4161:1 
50 2304:1 2369:1 4255:1 4261:1 
1.458984375 1865:1 3773:1 4358:1 4975:1 5452:1 
50 1362:1 1366:1 3981:1 5414:1 
1.458984375 603:1 2759:1 
50 2811:1 
1.458984375 675:1 1789:1 2304:1 2369:1 3149:1 3421:1 4034:1 4063:1 4253:1 4255:1 4261:1 4273:1 5141:1 5162:1 
50 3933:1 
50 3149:1 3421:1 
1.458984375 264:1 1678:1 1724:1 1891:1 2260:1 2519:1 2630:1 3149:1 3209:1 3421:1 3703:1 3935:1 4366:1 5034:1 
50 
1.458984375 264:1 675:1 927:1 1125:1 3203:1 4034:1 4253:1 5141:1 5162:1 5191:1 
1.458984375 3151:1 5242:1 
1.458984375 630:1 2053:1 3594:1 4530:1 4790:1 5154:1 5661:1 
1.458984375 1124:1 2811:1 4516:1 4790:1 
1.458984375 264:1 3397:1 
1.4580078125 3479:1 
50 
1.458984375 96:1 2022:1 3126:1 5816:1 
1.458984375 264:1 309:1 2239:1 5291:1 5587:1 
50 3149:1 3421:1 
1.458984375 1994:1 3396:1 3920:1 5384:1 
1.458984375 264:1 1635:1 1968:1 2811:1 3940:1 3944:1 4116:1 5267:1 
1.458984375 264:1 745:1 755:1 1871:1 2330:1 3102:1 3149:1 3421:1 5110:1 
50 2334:1 
50 
1.458984375 264:1 822:1 1201:1 1708:1 2784:1 4655:1 5593:1 5834:1 
1.458984375 2355:1 2489:1 3885:1 4819:1 5113:1 
1.458984375 675:1 4034:1 4253:1 4259:1 5141:1 5162:1 5260:1 
1.458984375 525:1 634:1 1727:1 1793:1 3854:1 3901:1 
1.5 613:1 1830:1 3273:1 4591:1 
1.458984375 715:1 4063:1 4273:1 4976:1 5708:1 
1.458984375 264:1 2570:1 3149:1 3421:1 4366:1 4649:1 4808:1 
1.458984375 264:1 389:1 549:1 1828:1 4714:1 
1.458984375 3681:1 3694:1 
50 3149:1 3421:1 
1.458984375 487:1 2355:1 2584:1 3149:1 3421:1 5593:1 
1.458984375 3773:1 4561:1 
1.458984375 642:1 2811:1 2815:1 3149:1 3421:1 5742:1 
1.458984375 984:1 986:1 1063:1 2060:1 2283:1 2703:1 
1.458984375 1013:1 1068:1 1423:1 1683:1 4754:1 
50 
1.458984375 409:1 1074:1 1178:1 1679:1 1811:1 1871:1 2548:1 2895:1 3238:1 3293:1 3296:1 3480:1 3841:1 4468:1 
1.458984375 264:1 347:1 5312:1 
1.458984375 195:1 264:1 2913:1 3238:1 3251:1 3616:1 4342:1 4990:1 5291:1 5424:1 5587:1 
1.4580078125 1924:1 
1.458984375 61:1 610:1 1343:1 4980:1 
1.458984375 613:1 1830:1 1924:1 3273:1 4576:1 4591:1 
1.4580078125 264:1 1118:1 
1.458984375 53:1 176:1 264:1 518:1 1742:1 2108:1 2138:1 4010:1 5163:1 5191:1 5460:1 
50 309:1 
1.4580078125 2974:1 
50 
1.458984375 688:1 2671:1 
1.458984375 519:1 698:1 947:1 1688:1 1692:1 3911:1 4002:1 5478:1 
1.458984375 264:1 592:1 3238:1 
1.4580078125 3978:1 4887:1 
1.458984375 1313:1 1702:1 3921:1 
1.458984375 23:1 264:1 891:1 1254:1 1293:1 1601:1 3149:1 3403:1 3421:1 5058:1 5471:1 
1.458984375 1124:1 2234:1 2505:1 3978:1 4407:1 4516:1 4992:1 
1.458984375 1052:1 1334:1 1779:1 4013:1 4115:1 4985:1 5751:1 
1.458984375 1968:1 2158:1 2557:1 3734:1 
50 
1.458984375 3961:1 4085:1 5099:1 
49.958984375 3933:1 
1.458984375 1103:1 2268:1 3275:1 5457:1 
50 
50 3149:1 3421:1 4917:1 
50 
50 
1.458984375 675:1 755:1 2330:1 4034:1 4253:1 5141:1 5162:1 
1.458984375 2701:1 2770:1 4693:1 
1.458984375 1960:1 2906:1 3598:1 4362:1 5148:1 
1.458984375 389:1 549:1 1118:1 1828:1 
50 2811:1 3149:1 3421:1 
50 4790:1 
50 2537:1 
50 264:1 3238:1 
49.958984375 1709:1 
1.5 2073:1 3149:1 3421:1 
50 
50 264:1 3150:1 5733:1 5842:1 
50 264:1 
1.458984375 3396:1 3773:1 5099:1 5233:1 
1.4580078125 3746:1 
50 4953:1 
1.458984375 2115:1 2160:1 2170:1 3167:1 3478:1 4076:1 4366:1 4790:1 5835:1 
50 264:1 3773:1 
1.458984375 651:1 1502:1 2811:1 
1.458984375 264:1 3481:1 3556:1 3913:1 4561:1 4607:1 4790:1 5882:1 5935:1 
1.4580078125 2158:1 2234:1 2505:1 4407:1 4992:1 
1.458984375 1806:1 2019:1 2073:1 3413:1 4272:1 4386:1 
1.458984375 264:1 1204:1 1468:1 2019:1 2158:1 2272:1 2811:1 3548:1 3559:1 5108:1 5795:1 5902:1 
1.458984375 264:1 796:1 2265:1 4160:1 
1.458984375 225:1 3249:1 3774:1 4791:1 
1.458984375 264:1 755:1 1402:1 2330:1 3665:1 
50 
50 
1.458984375 810:1 1221:1 2574:1 3075:1 3557:1 3579:1 3773:1 4180:1 4522:1 4915:1 4919:1 5636:1 5906:1 
1.458984375 264:1 363:1 441:1 755:1 1342:1 1571:1 1765:1 2330:1 4865:1 
50 3773:1 
50 
1.4580078125 264:1 4943:1 
50 264:1 
50 264:1 3149:1 3421:1 
50 4976:1 
50 2334:1 
50 264:1 
1.458984375 3331:1 
1.458984375 264:1 342:1 621:1 776:1 1325:1 3076:1 3693:1 3948:1 5466:1 5793:1 
1.458984375 1359:1 2019:1 5099:1 
50 407:1 
1.458984375 264:1 1598:1 3763:1 5869:1 
50 
50 
1.458984375 579:1 712:1 718:1 1150:1 1159:1 5189:1 
1.458984375 993:1 3332:1 
50 641:1 2295:1 3826:1 
50 4063:1 4273:1 
1.458984375 264:1 370:1 4021:1 4542:1 5859:1 
1.458984375 357:1 360:1 2314:1 2538:1 4833:1 5806:1 
1.4580078125 4433:1 5136:1 
1.458984375 354:1 1548:1 2411:1 3926:1 3959:1 5723:1 
1.458984375 38:1 2306:1 
1.458984375 654:1 2332:1 4248:1 
50 
1.458984375 301:1 487:1 2584:1 2811:1 4358:1 
1.458984375 603:1 3507:1 5187:1 
50 1258:1 
1.4580078125 2355:1 5011:1 
1.458984375 4969:1 5123:1 
1.458984375 755:1 2330:1 4426:1 
1.458984375 264:1 441:1 1571:1 1765:1 2891:1 4321:1 4330:1 5029:1 5290:1 
50 264:1 4063:1 4273:1 
50 264:1 
50 264:1 
1.458984375 182:1 1468:1 2272:1 3478:1 3961:1 4085:1 
1.4580078125 264:1 3933:1 
50 3948:1 
1.458984375 526:1 3149:1 3421:1 5341:1 
1.458984375 264:1 1585:1 3149:1 3421:1 3521:1 
1.458984375 264:1 1781:1 3149:1 3421:1 5680:1 
1.458984375 264:1 4154:1 5302:1 
1.458984375 231:1 2209:1 3149:1 3421:1 4366:1 4714:1 
50 264:1 
50 3149:1 3421:1 
1.458984375 1258:1 1478:1 1677:1 1924:1 3921:1 4821:1 5100:1 5352:1 
1.458984375 1468:1 2272:1 3590:1 4662:1 5229:1 
1.458984375 327:1 678:1 723:1 729:1 4161:1 
50 
1.458984375 4548:1 
50 
1.4580078125 264:1 3328:1 
1.4580078125 4924:1 5384:1 
1.458984375 3149:1 3421:1 5574:1 5835:1 
1.458984375 252:1 1026:1 1088:1 1606:1 2811:1 2951:1 3240:1 
1.458984375 1871:1 3773:1 4446:1 
50 264:1 4063:1 4273:1 
1.458984375 1849:1 2811:1 3176:1 4366:1 5466:1 
1.458984375 89:1 1045:1 4790:1 5356:1 
1.458984375 62:1 155:1 3897:1 4161:1 5168:1 5504:1 
1.458984375 1280:1 2525:1 2550:1 3118:1 3721:1 3844:1 
50 
1.458984375 264:1 4334:1 5339:1 5635:1 
1.458984375 675:1 2134:1 4034:1 4253:1 5141:1 5162:1 
1.4580078125 264:1 2073:1 4063:1 4273:1 
50 264:1 
1.458984375 264:1 441:1 1056:1 1571:1 1765:1 2429:1 4724:1 5584:1 5756:1 
1.4580078125 806:1 1427:1 1582:1 3656:1 4063:1 4273:1 4790:1 5602:1 5604:1 
1.458984375 264:1 2723:1 3384:1 3877:1 4406:1 4790:1 5846:1 
1.458984375 264:1 487:1 2584:1 3149:1 3421:1 3922:1 
1.458984375 3358:1 3773:1 3978:1 
1.458984375 379:1 2271:1 2509:1 
1.458984375 2799:1 4714:1 
1.458984375 264:1 2073:1 2095:1 3240:1 
1.458984375 986:1 1265:1 2703:1 
1.458984375 272:1 1664:1 2250:1 2811:1 3402:1 
1.458984375 264:1 324:1 3126:1 4143:1 4573:1 5816:1 
50 
1.458984375 264:1 1232:1 1812:1 5876:1 
1.458984375 1006:1 2953:1 3669:1 4143:1 4163:1 4174:1 4461:1 4573:1 5096:1 
1.458984375 23:1 264:1 1254:1 1522:1 4451:1 5271:1 5471:1 
50 3149:1 3421:1 
50 264:1 
1.458984375 603:1 1124:1 2405:1 4079:1 4516:1 5219:1 
1.458984375 61:1 264:1 1343:1 4980:1 
1.458984375 264:1 2822:1 3108:1 3482:1 3484:1 
50 2158:1 2234:1 2505:1 4407:1 4992:1 
1.458984375 492:1 1674:1 2532:1 2891:1 4321:1 4330:1 
50 5303:1 
50 3770:1 
1.4580078125 264:1 2319:1 
1.458984375 3149:1 3421:1 3483:1 5109:1 
1.458984375 1968:1 4452:1 5287:1 5390:1 5395:1 5796:1 5913:1 
1.458984375 225:1 264:1 1871:1 2163:1 3149:1 3194:1 3421:1 3439:1 3774:1 4865:1 
50 2811:1 
50 
1.458984375 264:1 1140:1 2334:1 3149:1 3421:1 
50 
1.458984375 259:1 1907:1 1960:1 2102:1 2500:1 2503:1 3598:1 3784:1 4362:1 5029:1 
1.458984375 2027:1 5635:1 
1.458984375 264:1 2811:1 3732:1 
50 4790:1 
50 264:1 
50 
1.458984375 1717:1 4663:1 5717:1 
1.458984375 264:1 613:1 1830:1 3273:1 4591:1 4714:1 
1.458984375 2195:1 5366:1 
1.458984375 755:1 1006:1 2330:1 3669:1 4163:1 4461:1 
1.458984375 375:1 715:1 3602:1 4422:1 5276:1 
1.458984375 1884:1 2234:1 2505:1 3127:1 4063:1 4273:1 4407:1 4992:1 
1.458984375 5916:1 
1.458984375 3150:1 3961:1 4085:1 4256:1 5733:1 5842:1 
1.4580078125 1199:1 3773:1 4048:1 
1.458984375 195:1 314:1 5390:1 5424:1 5501:1 5796:1 
1.4580078125 264:1 1961:1 4079:1 5219:1 
50 
50 
1.458984375 264:1 2073:1 2158:1 4861:1 
1.458984375 264:1 1416:1 1425:1 
1.458984375 666:1 2199:1 3439:1 
1.458984375 237:1 240:1 688:1 1389:1 2811:1 3149:1 3421:1 5253:1 5539:1 
1.458984375 354:1 737:1 5590:1 
50 264:1 1140:1 
50 3773:1 
50 3773:1 
50 
50 1286:1 
1.458984375 833:1 902:1 1085:1 1468:1 2272:1 3798:1 4662:1 5221:1 
1.458984375 264:1 375:1 1798:1 4281:1 4422:1 4734:1 
1.458984375 264:1 1142:1 1519:1 1871:1 3940:1 3944:1 4116:1 5267:1 
50 1140:1 
1.4580078125 1140:1 3110:1 3883:1 
1.458984375 264:1 481:1 2019:1 2342:1 4788:1 
50 264:1 5099:1 
1.458984375 389:1 549:1 1828:1 3209:1 
50 
50 
1.458984375 2763:1 3921:1 
50 1871:1 
1.458984375 3807:1 4483:1 
50 264:1 
1.458984375 264:1 1769:1 3149:1 3421:1 3938:1 4143:1 4334:1 4573:1 4625:1 5072:1 5215:1 5339:1 
1.458984375 264:1 2019:1 3149:1 3421:1 3922:1 
1.458984375 369:1 2088:1 
50 264:1 3368:1 
1.458984375 61:1 822:1 1343:1 1708:1 2784:1 3150:1 3933:1 4980:1 5733:1 5842:1 
50 5501:1 
50 
1.458984375 375:1 1296:1 2765:1 4422:1 
1.458984375 264:1 1548:1 2078:1 2411:1 3959:1 5723:1 
1.458984375 168:1 3901:1 
50 
50 1473:1 
1.458984375 613:1 1830:1 3149:1 3273:1 3421:1 4591:1 4714:1 
1.458984375 375:1 1828:1 2019:1 4422:1 5835:1 
1.458984375 5075:1 
1.458984375 1871:1 3739:1 3921:1 4278:1 
1.458984375 369:1 2088:1 2811:1 3773:1 4161:1 5099:1 
1.458984375 182:1 3149:1 3421:1 
1.458984375 1871:1 3164:1 
1.458984375 1719:1 3880:1 
50 
1.458984375 1140:1 2515:1 3120:1 3149:1 3421:1 4161:1 5610:1 5684:1 5852:1 
1.4580078125 309:1 2008:1 
1.458984375 1349:1 1678:1 1891:1 2260:1 4959:1 5301:1 
1.458984375 806:1 1052:1 1206:1 1427:1 1582:1 1779:1 3620:1 3656:1 3773:1 4985:1 5602:1 5604:1 
50 4714:1 
1.4580078125 264:1 613:1 1830:1 2811:1 3273:1 4591:1 4714:1 
50 4143:1 4573:1 
1.4580078125 334:1 4953:1 
50 
1.458984375 613:1 1830:1 3150:1 3273:1 3877:1 4406:1 4433:1 4591:1 5733:1 5842:1 
50 2891:1 4321:1 4330:1 
1.4580078125 1313:1 1709:1 
50 
1.458984375 264:1 1871:1 3198:1 4347:1 4358:1 4360:1 
49.958984375 5384:1 
50 3602:1 5276:1 
1.458984375 2537:1 3885:1 4742:1 5233:1 
1.458984375 264:1 378:1 2159:1 3251:1 3616:1 4790:1 5227:1 
1.458984375 182:1 4790:1 4843:1 
1.458984375 61:1 1012:1 1343:1 4976:1 4980:1 5708:1 
50 2433:1 
1.458984375 731:1 1188:1 1532:1 1871:1 2040:1 3149:1 3421:1 5680:1 
1.4580078125 2891:1 3149:1 3421:1 4321:1 4330:1 
1.458984375 487:1 806:1 1427:1 1582:1 2584:1 2811:1 3656:1 4079:1 5219:1 5602:1 5604:1 
50 
1.458984375 264:1 675:1 1669:1 3921:1 4017:1 4034:1 4253:1 4293:1 5141:1 5162:1 
50 4079:1 5219:1 
50 5007:1 
50 675:1 4034:1 4253:1 5141:1 5162:1 
1.458984375 1771:1 2334:1 2512:1 3149:1 3421:1 4235:1 5506:1 
1.458984375 1871:1 3150:1 5733:1 5842:1 
50 142:1 
1.458984375 264:1 3110:1 3149:1 3421:1 3703:1 3883:1 4358:1 4433:1 
1.458984375 264:1 675:1 902:1 1085:1 3798:1 4034:1 4253:1 4887:1 5141:1 5162:1 
1.458984375 594:1 1044:1 4433:1 
50 
50 481:1 2342:1 4788:1 
49.958984375 264:1 1313:1 
1.458984375 264:1 446:1 3149:1 3165:1 3240:1 3339:1 3421:1 4063:1 4266:1 4273:1 5007:1 
1.458984375 688:1 1860:1 2334:1 2831:1 3149:1 3421:1 
1.458984375 216:1 1032:1 1286:1 2300:1 3149:1 3421:1 3576:1 3625:1 
1.458984375 703:1 2779:1 5498:1 5932:1 
1.4580078125 347:1 3149:1 3421:1 5312:1 
50 
1.4580078125 396:1 
1.5 264:1 755:1 2330:1 
1.458984375 264:1 378:1 2159:1 2265:1 3149:1 3421:1 3824:1 
1.4580078125 3251:1 3616:1 
1.458984375 4742:1 5758:1 
1.458984375 432:1 715:1 1907:1 2500:1 2503:1 3901:1 
1.458984375 1124:1 1871:1 4366:1 4516:1 4631:1 5179:1 
1.458984375 264:1 1128:1 3279:1 
1.458984375 32:1 1018:1 2173:1 2175:1 3149:1 3304:1 3421:1 3854:1 4039:1 4044:1 4391:1 4857:1 4934:1 
1.4580078125 722:1 3149:1 3421:1 3933:1 
50 5356:1 
1.4580078125 715:1 
50 264:1 
50 4791:1 
1.458984375 301:1 934:1 2451:1 2580:1 2811:1 3149:1 3421:1 3890:1 4662:1 5384:1 5846:1 
49.958984375 264:1 5233:1 
1.458984375 1124:1 3573:1 4516:1 
1.458984375 613:1 1186:1 1830:1 3149:1 3273:1 3421:1 4591:1 5709:1 5721:1 
1.458984375 71:1 144:1 1072:1 1616:1 2276:1 2388:1 3773:1 4142:1 5435:1 
50 
50 264:1 
1.4580078125 375:1 2519:1 4422:1 
1.458984375 264:1 1124:1 4164:1 4516:1 4790:1 
1.458984375 264:1 603:1 3240:1 3403:1 4196:1 5058:1 
1.458984375 71:1 144:1 264:1 675:1 1616:1 2179:1 2276:1 2378:1 2388:1 2891:1 3149:1 3421:1 4034:1 4253:1 4321:1 4330:1 4548:1 5141:1 5162:1 
1.458984375 264:1 294:1 4975:1 5452:1 5580:1 
50 264:1 4079:1 5219:1 
50 
1.458984375 204:1 2811:1 4364:1 5761:1 
50 
1.458984375 225:1 264:1 1056:1 3774:1 
1.458984375 264:1 1928:1 4029:1 4836:1 
49.958984375 4433:1 
50 264:1 2811:1 3149:1 3421:1 
50 2811:1 
50 
1.458984375 523:1 2811:1 3165:1 3339:1 4063:1 4266:1 4273:1 4358:1 4366:1 4790:1 
50 
50 1871:1 3149:1 3421:1 
50 
50 
1.458984375 264:1 4369:1 
1.4580078125 528:1 
1.458984375 4719:1 
1.458984375 1190:1 2355:1 3149:1 3421:1 
1.458984375 613:1 1601:1 1830:1 3251:1 3273:1 3616:1 3948:1 4591:1 
1.458984375 1479:1 
1.458984375 264:1 3149:1 3421:1 3926:1 
1.458984375 666:1 2199:1 3921:1 
1.458984375 1006:1 3669:1 4163:1 4461:1 5568:1 
1.458984375 603:1 902:1 1085:1 1871:1 3798:1 
1.4580078125 406:1 2645:1 3149:1 3421:1 
1.458984375 441:1 1479:1 1571:1 1765:1 
1.458984375 2519:1 3238:1 5835:1 
1.458984375 264:1 5242:1 
50 
1.4580078125 126:1 4366:1 
1.458984375 1294:1 3149:1 3165:1 3339:1 3421:1 3994:1 4266:1 
50 3150:1 5733:1 5842:1 
50 
50 4143:1 4573:1 
1.458984375 2073:1 2763:1 2897:1 3329:1 4358:1 
1.458984375 264:1 603:1 2941:1 3133:1 3948:1 4377:1 4404:1 5466:1 
1.4580078125 264:1 1769:1 
50 264:1 
50 4366:1 
1.458984375 1811:1 2895:1 4154:1 5302:1 
1.458984375 1232:1 4975:1 5452:1 
1.458984375 264:1 1907:1 2500:1 2503:1 3601:1 4360:1 
1.458984375 1125:1 2234:1 2505:1 3203:1 3358:1 4407:1 4992:1 5216:1 
1.458984375 264:1 755:1 1121:1 1140:1 2330:1 3178:1 3556:1 3913:1 4632:1 5935:1 
1.458984375 710:1 1680:1 1871:1 3126:1 5816:1 
1.458984375 195:1 314:1 5424:1 
1.4580078125 1221:1 2574:1 3557:1 4915:1 4919:1 5906:1 
50 
1.4580078125 2891:1 3149:1 3421:1 4321:1 4330:1 4969:1 
1.458984375 379:1 406:1 1313:1 2015:1 2509:1 3149:1 3421:1 3921:1 
50 264:1 2811:1 3149:1 3421:1 
1.458984375 264:1 1124:1 3773:1 3813:1 4516:1 5390:1 5796:1 
1.458984375 89:1 613:1 1830:1 1871:1 3273:1 4063:1 4273:1 4591:1 
1.5 264:1 4791:1 
50 
1.458984375 432:1 
1.458984375 4956:1 5093:1 5865:1 
49.958984375 264:1 642:1 2815:1 5742:1 
1.458984375 675:1 2891:1 3451:1 4034:1 4253:1 4321:1 4330:1 5141:1 5162:1 
50 
1.4580078125 1968:1 4063:1 4273:1 
1.458984375 2431:1 3149:1 3421:1 
1.458984375 222:1 1871:1 3092:1 
50 3150:1 4366:1 5733:1 5842:1 
50 3149:1 3421:1 
50 
1.458984375 264:1 1240:1 1564:1 1871:1 2355:1 2811:1 5658:1 
1.4580078125 264:1 4791:1 4887:1 
50 
50 264:1 
1.458984375 264:1 481:1 1849:1 2342:1 2811:1 3149:1 3421:1 3940:1 3944:1 4116:1 4788:1 5267:1 
1.4580078125 2073:1 3149:1 3421:1 4790:1 
50 
1.458984375 264:1 2811:1 3854:1 4143:1 4433:1 4573:1 4791:1 5703:1 
1.458984375 224:1 264:1 2414:1 3386:1 4471:1 5096:1 
1.458984375 3176:1 
1.458984375 639:1 2071:1 5835:1 
1.458984375 2811:1 3540:1 3689:1 4154:1 4394:1 4708:1 5187:1 5302:1 5903:1 
1.4580078125 2195:1 
1.5 264:1 5846:1 
1.458984375 1860:1 3573:1 5326:1 
1.458984375 2209:1 2334:1 
1.458984375 3665:1 
1.458984375 3107:1 3478:1 
1.458984375 2019:1 3149:1 3421:1 3958:1 4063:1 4273:1 5660:1 5874:1 
50 264:1 1709:1 
1.458984375 1968:1 2073:1 2433:1 
1.458984375 603:1 
50 4790:1 
50 2877:1 3622:1 
1.458984375 1140:1 1928:1 2811:1 4029:1 4079:1 4836:1 5219:1 
1.458984375 4959:1 5301:1 
1.458984375 100:1 168:1 
1.4580078125 264:1 5603:1 
1.458984375 1140:1 4154:1 4714:1 5302:1 
1.458984375 62:1 155:1 2394:1 3897:1 5168:1 
1.458984375 613:1 1077:1 1468:1 1830:1 1839:1 1871:1 2272:1 3273:1 4591:1 5886:1 
1.458984375 1014:1 5770:1 
1.4580078125 1258:1 3149:1 3421:1 
50 264:1 
50 
49.958984375 264:1 5846:1 
1.458984375 71:1 144:1 264:1 1616:1 2276:1 2388:1 3773:1 
1.458984375 3556:1 3913:1 4790:1 4953:1 5935:1 
50 
1.458984375 2219:1 2225:1 3773:1 4066:1 
50 
1.458984375 264:1 3149:1 3238:1 3421:1 3765:1 4063:1 4273:1 4742:1 
1.458984375 1348:1 1349:1 
1.458984375 1669:1 2811:1 4017:1 4293:1 4358:1 4790:1 
1.458984375 487:1 1374:1 1949:1 2584:1 4553:1 4807:1 
50 3778:1 5944:1 
50 4714:1 
1.458984375 62:1 155:1 2412:1 3897:1 3907:1 5168:1 
1.458984375 264:1 2906:1 4131:1 5148:1 5419:1 5754:1 
50 4366:1 
50 
50 264:1 4917:1 
1.4580078125 1871:1 5837:1 
1.458984375 675:1 2071:1 4034:1 4253:1 5141:1 5162:1 
50 3773:1 
50 1258:1 
50 264:1 3149:1 3421:1 
1.4580078125 1140:1 4790:1 
50 4131:1 
1.458984375 264:1 1124:1 1140:1 2563:1 3241:1 4063:1 4273:1 4516:1 
1.458984375 5082:1 
1.458984375 1663:1 2687:1 3181:1 
1.458984375 487:1 1473:1 1871:1 2584:1 3491:1 
1.458984375 641:1 2295:1 3118:1 3149:1 3421:1 3824:1 3826:1 4790:1 
1.458984375 260:1 264:1 1295:1 2811:1 3149:1 3279:1 3421:1 3454:1 5171:1 
50 
50 
50 
1.458984375 182:1 264:1 993:1 2433:1 3332:1 3773:1 3948:1 
1.458984375 264:1 2811:1 3149:1 3421:1 3872:1 
1.458984375 264:1 389:1 549:1 1039:1 1456:1 1828:1 1871:1 3149:1 3192:1 3421:1 
50 
1.458984375 455:1 2019:1 2811:1 4100:1 
1.458984375 264:1 1787:1 2685:1 4742:1 4790:1 
50 1128:1 
1.458984375 395:1 424:1 3149:1 3421:1 
50 
1.458984375 2980:1 3149:1 3421:1 3864:1 
50 
1.458984375 2515:1 3120:1 3149:1 3421:1 4791:1 5610:1 5684:1 5852:1 
1.458984375 264:1 1056:1 3445:1 
1.458984375 503:1 1331:1 3978:1 4369:1 
1.458984375 264:1 810:1 1140:1 3579:1 4681:1 
50 
50 1871:1 
1.458984375 389:1 549:1 890:1 1313:1 2433:1 5445:1 
50 1871:1 
1.458984375 264:1 2008:1 3150:1 4063:1 4273:1 5733:1 5842:1 
1.458984375 3149:1 3421:1 5680:1 
50 
1.458984375 755:1 1393:1 2181:1 2330:1 3985:1 4602:1 
50 1769:1 
1.4580078125 2315:1 
1.4580078125 4325:1 
1.458984375 264:1 902:1 1085:1 1286:1 1821:1 1918:1 3798:1 4927:1 
50 
1.458984375 264:1 630:1 2053:1 2165:1 3594:1 3856:1 4098:1 5154:1 5661:1 
50 264:1 
1.458984375 481:1 2319:1 2342:1 4788:1 
1.458984375 182:1 264:1 1558:1 1937:1 1942:1 3149:1 3421:1 5505:1 
50 
1.458984375 264:1 525:1 634:1 1793:1 3306:1 5647:1 
50 
1.458984375 264:1 441:1 1571:1 1765:1 2265:1 3459:1 5669:1 
50 2073:1 
1.458984375 2215:1 
1.4580078125 5554:1 
1.458984375 1124:1 2534:1 2811:1 4516:1 4567:1 4944:1 5099:1 5203:1 5654:1 
50 3149:1 3421:1 
1.458984375 3149:1 3421:1 4791:1 
1.458984375 264:1 1140:1 2848:1 
1.458984375 227:1 264:1 2759:1 3961:1 4085:1 
1.4580078125 3439:1 4522:1 
1.458984375 237:1 240:1 963:1 4743:1 5253:1 5539:1 
50 675:1 4034:1 4253:1 5141:1 5162:1 
50 264:1 3149:1 3421:1 
1.4580078125 4091:1 
1.458984375 487:1 1140:1 2584:1 2814:1 
50 4714:1 
50 264:1 
1.458984375 264:1 2814:1 3773:1 
1.458984375 142:1 264:1 288:1 599:1 4079:1 4500:1 5219:1 
1.458984375 3321:1 3644:1 
1.458984375 62:1 155:1 3885:1 3897:1 4366:1 4791:1 5168:1 
1.4580078125 264:1 737:1 4714:1 5590:1 
1.458984375 23:1 1254:1 1544:1 4839:1 5471:1 5736:1 
1.458984375 2875:1 3573:1 
1.458984375 3165:1 3238:1 3339:1 4266:1 
50 
1.458984375 192:1 2184:1 2811:1 3149:1 3421:1 3438:1 4358:1 5099:1 5699:1 
50 
1.458984375 2891:1 4321:1 4330:1 5290:1 
50 3149:1 3421:1 
50 613:1 1830:1 3149:1 3273:1 3421:1 4591:1 
1.458984375 264:1 294:1 3149:1 3421:1 4358:1 5580:1 
50 182:1 264:1 
50 3149:1 3421:1 
50 5680:1 
1.4580078125 722:1 
50 
1.4580078125 806:1 1427:1 1582:1 3656:1 4790:1 5602:1 5604:1 
1.458984375 61:1 1343:1 2557:1 3980:1 4980:1 
1.458984375 61:1 225:1 1331:1 1343:1 1544:1 3774:1 4143:1 4573:1 4980:1 5736:1 
1.458984375 992:1 
1.458984375 1014:1 1118:1 1402:1 1821:1 1918:1 3126:1 4927:1 5816:1 
1.458984375 264:1 1243:1 2297:1 2506:1 3978:1 4257:1 4472:1 
50 3149:1 3421:1 4063:1 4273:1 
50 1124:1 4516:1 
1.458984375 703:1 1537:1 1968:1 3921:1 
50 264:1 3149:1 3421:1 
1.458984375 1243:1 4472:1 5665:1 
1.458984375 472:1 1576:1 3742:1 3961:1 4085:1 4790:1 
1.458984375 1769:1 4975:1 5452:1 5638:1 
1.458984375 1296:1 2875:1 4742:1 
50 264:1 3238:1 
1.458984375 264:1 2723:1 4917:1 
50 
1.458984375 264:1 2711:1 3373:1 4625:1 5072:1 5103:1 
1.458984375 264:1 796:1 1828:1 1849:1 2811:1 3149:1 3238:1 3421:1 3773:1 4160:1 4366:1 
50 3149:1 3421:1 
1.458984375 71:1 144:1 264:1 1028:1 1381:1 1616:1 2071:1 2276:1 2388:1 3142:1 3860:1 4023:1 5211:1 5561:1 5648:1 5708:1 
50 264:1 4143:1 4573:1 
50 264:1 
50 
1.458984375 264:1 2071:1 
1.458984375 264:1 1121:1 3255:1 4632:1 
50 
50 
1.458984375 71:1 144:1 1616:1 2276:1 2388:1 3126:1 5816:1 
1.458984375 264:1 2953:1 4174:1 
50 487:1 2584:1 
1.458984375 3149:1 3241:1 3421:1 3773:1 4742:1 5291:1 5587:1 
1.458984375 127:1 1639:1 
1.4580078125 264:1 1128:1 
50 613:1 1830:1 3273:1 4591:1 
50 264:1 
1.458984375 264:1 1169:1 5384:1 
1.4580078125 264:1 3978:1 
49.958984375 4366:1 
49.958984375 1331:1 
1.458984375 2679:1 4060:1 
1.458984375 2811:1 2904:1 4358:1 
50 
50 3773:1 
1.458984375 2265:1 3149:1 3421:1 4063:1 4273:1 
50 
1.458984375 264:1 2073:1 2822:1 3482:1 3484:1 
1.458984375 264:1 5117:1 5556:1 
1.458984375 1544:1 3773:1 5736:1 
1.458984375 354:1 2627:1 4063:1 4273:1 4780:1 5562:1 
1.458984375 1054:1 5191:1 
50 
1.458984375 264:1 3149:1 3421:1 3471:1 4143:1 4573:1 
50 2265:1 
50 
50 
1.458984375 264:1 2170:1 2945:1 3167:1 4076:1 
50 
1.458984375 264:1 487:1 2559:1 2584:1 
1.458984375 264:1 2811:1 3149:1 3421:1 3978:1 4063:1 4079:1 4273:1 5219:1 
1.458984375 264:1 1125:1 1840:1 2234:1 2505:1 2906:1 3149:1 3203:1 3421:1 4131:1 4407:1 4790:1 4992:1 5148:1 
50 3240:1 
1.458984375 264:1 1669:1 4017:1 4293:1 
1.458984375 62:1 155:1 3126:1 3897:1 5168:1 5680:1 5816:1 5939:1 
50 4714:1 
1.458984375 927:1 1298:1 1773:1 2319:1 3149:1 3421:1 3863:1 5167:1 
1.458984375 264:1 3734:1 3940:1 3944:1 4116:1 5267:1 
1.458984375 806:1 1427:1 1582:1 3534:1 3656:1 3773:1 5602:1 5604:1 5705:1 
1.458984375 630:1 2053:1 3594:1 5154:1 5635:1 5661:1 
1.458984375 62:1 155:1 264:1 613:1 1232:1 1769:1 1830:1 2304:1 2355:1 2369:1 2811:1 3273:1 3573:1 3897:1 4255:1 4261:1 4358:1 4591:1 5168:1 
1.458984375 1158:1 1787:1 2400:1 2685:1 4224:1 4767:1 4790:1 
50 
50 
1.458984375 2:1 1191:1 1938:1 
50 3149:1 3421:1 
1.458984375 487:1 2584:1 2811:1 4483:1 5660:1 
1.458984375 5245:1 5390:1 5796:1 
1.458984375 2923:1 4131:1 
50 2234:1 2505:1 4407:1 4992:1 
50 
1.4580078125 264:1 1298:1 1773:1 3863:1 5167:1 
50 
1.458984375 264:1 3331:1 3813:1 4131:1 
50 264:1 
1.458984375 466:1 3948:1 
50 264:1 1811:1 2895:1 
50 264:1 3238:1 
1.458984375 1884:1 3127:1 3149:1 3421:1 
50 
50 
1.458984375 3150:1 3275:1 5733:1 5842:1 
50 2811:1 
1.4580078125 902:1 1085:1 3798:1 
1.458984375 264:1 3149:1 3421:1 4043:1 5731:1 
1.458984375 594:1 1044:1 1136:1 2975:1 4143:1 4573:1 5098:1 
50 
50 4063:1 4273:1 
1.458984375 93:1 195:1 1306:1 2003:1 2201:1 2738:1 2813:1 4022:1 5314:1 5424:1 
1.458984375 264:1 362:1 526:1 2471:1 2705:1 2998:1 3149:1 3421:1 5076:1 5341:1 
1.4580078125 264:1 2811:1 4161:1 
1.458984375 1304:1 2065:1 2522:1 3149:1 3421:1 4806:1 
1.458984375 71:1 144:1 264:1 688:1 1111:1 1598:1 1616:1 1871:1 2276:1 2388:1 2811:1 4767:1 5660:1 5869:1 
50 
1.458984375 806:1 1427:1 1582:1 3656:1 4154:1 5302:1 5602:1 5604:1 
50 
50 
1.458984375 347:1 375:1 1199:1 4048:1 4422:1 5312:1 
50 3165:1 3339:1 4063:1 4266:1 4273:1 
50 675:1 4034:1 4253:1 5141:1 5162:1 
1.458984375 264:1 2334:1 3149:1 3302:1 3421:1 5698:1 
1.458984375 487:1 2584:1 4284:1 
1.458984375 1884:1 3127:1 3765:1 3946:1 
1.458984375 259:1 2527:1 3784:1 
49.958984375 264:1 755:1 2330:1 
1.458984375 264:1 1125:1 1999:1 2594:1 3203:1 4742:1 5835:1 
1.4580078125 2662:1 4366:1 
1.458984375 594:1 1044:1 2234:1 2505:1 3782:1 4407:1 4992:1 
1.458984375 252:1 264:1 339:1 1606:1 2315:1 2951:1 
1.458984375 176:1 216:1 1032:1 1742:1 2811:1 3149:1 3421:1 5460:1 
1.458984375 822:1 1533:1 1708:1 2784:1 3149:1 3238:1 3421:1 4079:1 4507:1 5219:1 
1.458984375 264:1 1871:1 4790:1 
1.458984375 613:1 1063:1 1830:1 2283:1 2836:1 3273:1 4561:1 4591:1 4953:1 
1.458984375 1240:1 1564:1 1871:1 3149:1 3421:1 5658:1 
1.458984375 93:1 2003:1 2201:1 2738:1 3773:1 4022:1 5314:1 
1.4580078125 264:1 2557:1 4790:1 
1.458984375 3149:1 3421:1 5244:1 
1.458984375 142:1 1088:1 4975:1 5093:1 5452:1 5865:1 
50 
1.458984375 4063:1 4273:1 4790:1 5835:1 
1.458984375 264:1 373:1 469:1 908:1 1468:1 2272:1 4088:1 5660:1 
50 264:1 2015:1 
50 
50 1155:1 2819:1 
1.458984375 149:1 264:1 5462:1 
1.4580078125 5489:1 
1.458984375 182:1 2234:1 2505:1 4141:1 4407:1 4992:1 5242:1 
50 1124:1 4516:1 
50 2334:1 3149:1 3421:1 
49.958984375 1298:1 1773:1 3863:1 5167:1 
49.958984375 264:1 4791:1 
1.458984375 264:1 1121:1 2319:1 2814:1 3781:1 4632:1 
1.458984375 3397:1 5390:1 5796:1 
50 264:1 3149:1 3421:1 
50 
50 4790:1 
1.458984375 272:1 613:1 1664:1 1830:1 3273:1 3402:1 3773:1 4010:1 4591:1 
50 2811:1 
1.458984375 61:1 695:1 1334:1 1343:1 3149:1 3421:1 4115:1 4980:1 5708:1 5751:1 
1.458984375 1871:1 2327:1 3610:1 4484:1 
50 4143:1 4573:1 
50 5680:1 
1.458984375 1134:1 1313:1 2071:1 3067:1 
1.4580078125 264:1 3940:1 3944:1 4116:1 5267:1 
1.458984375 216:1 264:1 525:1 634:1 1032:1 1128:1 1354:1 1793:1 2811:1 
1.458984375 729:1 2234:1 2505:1 3149:1 3421:1 3860:1 4023:1 4161:1 4407:1 4992:1 5211:1 
1.458984375 264:1 4063:1 4079:1 4273:1 5219:1 5259:1 
1.458984375 225:1 1286:1 2652:1 3774:1 3948:1 4131:1 
49.958984375 2073:1 3149:1 3421:1 
1.458984375 3573:1 4742:1 5396:1 
50 4500:1 
1.4580078125 264:1 3149:1 3331:1 3421:1 
1.458984375 542:1 937:1 
50 
1.458984375 755:1 1520:1 2330:1 
1.458984375 1359:1 3126:1 5816:1 
1.458984375 264:1 389:1 549:1 2814:1 3262:1 
50 
50 376:1 5491:1 
1.458984375 3149:1 3421:1 4907:1 
1.458984375 1128:1 2811:1 3165:1 3339:1 4266:1 
1.458984375 986:1 2703:1 3149:1 3421:1 
1.4580078125 613:1 1830:1 3273:1 4591:1 5290:1 
1.458984375 883:1 2400:1 3149:1 3421:1 5290:1 
1.458984375 934:1 3149:1 3251:1 3386:1 3421:1 3483:1 3616:1 5109:1 
1.4580078125 4164:1 
1.458984375 264:1 553:1 806:1 906:1 1427:1 1582:1 1960:1 2019:1 2333:1 2557:1 2811:1 3598:1 3656:1 4098:1 4358:1 4362:1 4533:1 4790:1 5602:1 5604:1 5804:1 
1.458984375 1335:1 2234:1 2505:1 3149:1 3421:1 4407:1 4440:1 4992:1 
50 5939:1 
50 3901:1 
50 264:1 3773:1 
1.458984375 1240:1 1564:1 2822:1 3482:1 3484:1 5658:1 
1.458984375 3149:1 3368:1 3421:1 3483:1 5109:1 5573:1 
1.458984375 347:1 1118:1 3126:1 3770:1 5312:1 5816:1 
1.458984375 264:1 1140:1 1533:1 4507:1 
1.458984375 1128:1 2811:1 5117:1 5556:1 
50 264:1 
50 4063:1 4273:1 
1.4580078125 264:1 3149:1 3267:1 3421:1 
1.458984375 264:1 1140:1 1548:1 2073:1 2411:1 3959:1 5723:1 
1.458984375 182:1 264:1 1334:1 3149:1 3421:1 4115:1 4143:1 4573:1 5751:1 
1.458984375 264:1 3773:1 3885:1 3948:1 5770:1 
50 
1.458984375 61:1 259:1 1186:1 1343:1 3784:1 3811:1 4980:1 5271:1 5709:1 5721:1 
1.458984375 2705:1 4143:1 4573:1 
1.458984375 389:1 549:1 934:1 1399:1 1697:1 1828:1 3773:1 5660:1 
50 
1.458984375 182:1 264:1 1351:1 5151:1 
1.458984375 2297:1 2506:1 4257:1 
50 264:1 1124:1 2811:1 4516:1 
50 
50 3149:1 3421:1 
1.458984375 264:1 2332:1 4063:1 4248:1 4273:1 
50 
1.458984375 2675:1 3150:1 3933:1 5733:1 5842:1 5898:1 
1.458984375 525:1 634:1 1793:1 5874:1 
1.458984375 264:1 1451:1 2527:1 2894:1 3149:1 3421:1 
1.458984375 264:1 2194:1 2327:1 2483:1 3610:1 3674:1 4484:1 5774:1 
1.458984375 603:1 1018:1 4039:1 4044:1 4934:1 5770:1 
50 5593:1 
50 
1.458984375 389:1 549:1 1028:1 1381:1 1828:1 2811:1 3142:1 5561:1 5648:1 
1.458984375 389:1 549:1 1140:1 5390:1 5796:1 
1.4580078125 3540:1 
1.458984375 210:1 806:1 963:1 1427:1 1582:1 2209:1 2530:1 3656:1 3773:1 4063:1 4273:1 4743:1 5602:1 5604:1 
1.458984375 675:1 3198:1 4034:1 4253:1 4347:1 5141:1 5162:1 
1.4580078125 1313:1 
50 
1.458984375 2073:1 2173:1 2175:1 2523:1 2811:1 2821:1 3304:1 3560:1 3639:1 3877:1 4391:1 4406:1 4857:1 5866:1 
50 3149:1 3421:1 
1.458984375 1359:1 2811:1 
1.458984375 264:1 309:1 3773:1 
1.458984375 3149:1 3421:1 3632:1 
50 
1.458984375 1677:1 3773:1 3844:1 4821:1 
1.458984375 168:1 432:1 1084:1 1860:1 
1.458984375 1871:1 2062:1 2370:1 3150:1 5733:1 5842:1 5941:1 
1.458984375 475:1 1544:1 5736:1 
50 
50 264:1 3978:1 
1.458984375 2327:1 2811:1 3610:1 4484:1 
1.458984375 264:1 3789:1 
1.458984375 2723:1 2732:1 5007:1 
50 
1.4580078125 5574:1 
1.458984375 2811:1 3773:1 
1.458984375 543:1 1871:1 3094:1 5099:1 
1.458984375 1504:1 5643:1 
50 4063:1 4273:1 
1.458984375 61:1 264:1 613:1 1014:1 1343:1 1830:1 2974:1 3273:1 4591:1 4955:1 4980:1 
1.458984375 2073:1 3150:1 5733:1 5842:1 
1.458984375 432:1 1907:1 2500:1 2503:1 3013:1 3149:1 3421:1 
1.458984375 264:1 1125:1 3203:1 3782:1 4063:1 4273:1 
1.458984375 264:1 487:1 688:1 2584:1 3460:1 5845:1 
1.458984375 3921:1 4143:1 4573:1 
1.458984375 2073:1 3794:1 4063:1 4273:1 4415:1 5881:1 
1.458984375 755:1 2330:1 2515:1 3120:1 5610:1 5684:1 5852:1 
50 
1.458984375 2340:1 5290:1 
1.458984375 264:1 3149:1 3421:1 4063:1 4143:1 4273:1 4500:1 4573:1 4984:1 
1.458984375 264:1 1743:1 
50 5501:1 
1.458984375 1313:1 2811:1 5660:1 5916:1 
1.4580078125 264:1 3091:1 3387:1 
50 2652:1 
1.458984375 2693:1 3586:1 
50 1128:1 
1.458984375 1821:1 1918:1 2527:1 2811:1 3149:1 3421:1 4927:1 
1.458984375 2514:1 3358:1 5384:1 
1.458984375 1522:1 2355:1 5007:1 
50 3979:1 4232:1 
1.458984375 264:1 1354:1 1871:1 2757:1 3149:1 3421:1 3885:1 4354:1 4917:1 
1.458984375 3149:1 3421:1 4500:1 
50 1045:1 
50 
1.458984375 544:1 2788:1 4063:1 4273:1 4441:1 4742:1 
50 264:1 4714:1 
50 
1.458984375 675:1 1871:1 4034:1 4253:1 4509:1 5141:1 5162:1 
1.458984375 621:1 2158:1 
50 
50 264:1 1056:1 
1.458984375 264:1 458:1 567:1 569:1 5051:1 
1.458984375 182:1 264:1 2757:1 4354:1 
1.4580078125 4366:1 4714:1 
1.458984375 1473:1 4063:1 4273:1 5306:1 
1.458984375 264:1 2047:1 2073:1 3403:1 5058:1 
1.458984375 225:1 737:1 1313:1 3774:1 5590:1 
1.458984375 3076:1 5793:1 
1.458984375 337:1 1887:1 2859:1 2870:1 3773:1 4790:1 
1.458984375 61:1 1343:1 2073:1 4980:1 
1.458984375 32:1 1825:1 1871:1 1912:1 1922:1 4953:1 
50 5007:1 
1.458984375 1871:1 4366:1 5238:1 
50 
1.4580078125 2287:1 4433:1 
50 264:1 1473:1 
1.458984375 264:1 2071:1 2072:1 2273:1 3149:1 3343:1 3421:1 3573:1 4063:1 4079:1 4273:1 5099:1 5219:1 5708:1 
1.458984375 819:1 1430:1 2265:1 3125:1 3149:1 3421:1 3948:1 
1.458984375 2693:1 5306:1 
1.4580078125 4533:1 4969:1 
1.458984375 487:1 874:1 1124:1 1125:1 2584:1 3203:1 4334:1 4516:1 5339:1 5910:1 
1.458984375 4079:1 4976:1 5219:1 
50 
1.458984375 432:1 1468:1 2272:1 3149:1 3421:1 5708:1 
1.4580078125 264:1 3149:1 3421:1 4131:1 
1.4580078125 439:1 1313:1 
1.458984375 715:1 2173:1 2175:1 2980:1 3304:1 3762:1 4391:1 4857:1 
1.458984375 264:1 3843:1 
1.458984375 62:1 155:1 1451:1 2327:1 2894:1 3610:1 3897:1 3978:1 4484:1 5168:1 
50 
1.458984375 712:1 1111:1 1159:1 1825:1 1871:1 1912:1 1922:1 
1.458984375 389:1 549:1 1828:1 5007:1 5041:1 
50 
1.458984375 31:1 5329:1 
50 
50 
1.458984375 1128:1 1939:1 
1.458984375 2020:1 3350:1 4514:1 4740:1 5291:1 5587:1 
1.458984375 71:1 144:1 1616:1 2276:1 2388:1 2811:1 
1.4580078125 264:1 3681:1 3694:1 
50 
49.958984375 613:1 1830:1 3273:1 4591:1 
1.458984375 264:1 2158:1 2234:1 2505:1 3149:1 3421:1 4407:1 4992:1 
50 264:1 
50 
1.458984375 264:1 350:1 675:1 2811:1 3126:1 4034:1 4253:1 5141:1 5162:1 5660:1 5816:1 
50 703:1 
50 
50 
50 487:1 2584:1 
1.458984375 1354:1 1828:1 2906:1 3773:1 4366:1 5148:1 
1.458984375 32:1 1533:1 3279:1 3773:1 4507:1 4790:1 5396:1 
50 3149:1 3421:1 3602:1 5276:1 
1.4580078125 613:1 1830:1 3273:1 4451:1 4591:1 
50 
1.458984375 675:1 2234:1 2505:1 3773:1 4034:1 4253:1 4407:1 4992:1 5141:1 5162:1 
1.458984375 1124:1 2234:1 2505:1 3013:1 4407:1 4516:1 4992:1 
1.458984375 264:1 3126:1 3165:1 3339:1 4266:1 5816:1 
1.458984375 2103:1 3149:1 3421:1 4419:1 5672:1 
1.458984375 1128:1 3773:1 4434:1 
50 264:1 
50 
1.458984375 264:1 395:1 424:1 946:1 3149:1 3421:1 4328:1 5382:1 5794:1 
1.4580078125 32:1 264:1 
1.458984375 2811:1 5007:1 
1.458984375 1871:1 4143:1 4334:1 4573:1 5339:1 
49.958984375 5466:1 
50 
1.4580078125 613:1 1830:1 2188:1 3273:1 4591:1 
1.458984375 264:1 3067:1 
1.458984375 675:1 4034:1 4063:1 4253:1 4273:1 5141:1 5162:1 
50 4561:1 
1.458984375 2811:1 4975:1 5452:1 
1.458984375 5099:1 5660:1 
50 
1.458984375 584:1 2811:1 4358:1 
50 
1.458984375 160:1 856:1 1828:1 2158:1 2190:1 2811:1 4262:1 
50 
1.458984375 264:1 1798:1 1871:1 2371:1 3773:1 4281:1 4410:1 4734:1 
1.458984375 264:1 703:1 5099:1 
1.458984375 230:1 1549:1 2091:1 2383:1 3149:1 3421:1 5273:1 
1.458984375 4295:1 
1.458984375 160:1 856:1 946:1 2190:1 3149:1 3421:1 4328:1 5382:1 5794:1 
1.458984375 1054:1 2811:1 3901:1 4358:1 
1.458984375 3460:1 5845:1 
1.4580078125 2733:1 5551:1 
1.458984375 264:1 2446:1 2811:1 3150:1 5113:1 5733:1 5842:1 
50 
1.458984375 3765:1 
1.458984375 3149:1 3150:1 3421:1 5733:1 5842:1 
1.458984375 264:1 3149:1 3251:1 3421:1 3616:1 
1.458984375 2355:1 2438:1 2811:1 4322:1 
50 
1.4580078125 264:1 3110:1 3883:1 
-0.541015625 4714:1 4969:1 
-0.541015625 264:1 1140:1 2265:1 5165:1 
-0.541015625 2980:1 4143:1 4573:1 
-0.541015625 357:1 360:1 2314:1 2538:1 3681:1 3694:1 
-50 264:1 642:1 2815:1 5742:1 
-0.541015625 264:1 1068:1 1423:1 1677:1 1683:1 4754:1 4821:1 4903:1 4975:1 5452:1 
-0.541015625 264:1 542:1 2446:1 5904:1 
-0.541015625 2494:1 3980:1 5274:1 
-0.541015625 264:1 641:1 2295:1 3826:1 
-0.541015625 264:1 1303:1 4063:1 4273:1 
-0.541015625 946:1 3004:1 3043:1 3179:1 3921:1 4079:1 4328:1 5195:1 5219:1 5382:1 5794:1 
-0.541015625 3149:1 3421:1 4136:1 5549:1 
-0.541015625 264:1 375:1 2102:1 2811:1 3681:1 3694:1 4131:1 4422:1 5216:1 
-0.541015625 264:1 4636:1 
-50 264:1 1313:1 
-0.541015625 1871:1 3126:1 4063:1 4273:1 5816:1 
-0.541015625 1104:1 3165:1 3339:1 4063:1 4266:1 4273:1 
-0.541015625 612:1 3149:1 3421:1 5390:1 5796:1 
-0.541015625 1334:1 4115:1 5751:1 
-0.541015625 264:1 3126:1 3465:1 3518:1 4954:1 5816:1 
-0.541015625 61:1 62:1 155:1 264:1 1343:1 2191:1 3897:1 4791:1 4980:1 4991:1 5168:1 
-0.541015625 264:1 759:1 4154:1 4532:1 4939:1 5088:1 5186:1 5302:1 
-50 1769:1 
-0.541015625 2811:1 4358:1 4953:1 5099:1 
-0.541015625 1828:1 2287:1 
-0.541015625 539:1 1335:1 2073:1 2334:1 3115:1 3189:1 3927:1 4065:1 4633:1 
-0.541015625 599:1 3938:1 
-0.541015625 264:1 1288:1 3573:1 4606:1 5680:1 
-0.541015625 3149:1 3421:1 4839:1 
-0.541015625 264:1 3115:1 3149:1 3189:1 3421:1 4065:1 
-0.041015625 4024:1 
-0.541015625 2007:1 3560:1 5866:1 
-0.541015625 264:1 812:1 1046:1 2792:1 3126:1 3149:1 3174:1 3421:1 4557:1 4844:1 5816:1 
-0.541015625 703:1 1150:1 2019:1 
-0.541015625 3240:1 
-0.541015625 946:1 3004:1 3043:1 3179:1 4101:1 4328:1 5195:1 5382:1 5794:1 
-0.541015625 3149:1 3421:1 4063:1 4273:1 4767:1 
-0.541015625 1865:1 3875:1 4143:1 4573:1 
-0.541015625 4063:1 4273:1 5583:1 
-0.541015625 2537:1 2811:1 
-0.541015625 4962:1 
-0.541015625 264:1 4955:1 
-0.541015625 182:1 362:1 2471:1 2998:1 3149:1 3421:1 
-0.541015625 264:1 1334:1 4115:1 4863:1 5564:1 5751:1 
-0.541015625 225:1 487:1 2443:1 2557:1 2584:1 3774:1 4504:1 
-0.541015625 1932:1 2354:1 2504:1 4714:1 
-0.541015625 594:1 1044:1 
-0.541015625 32:1 487:1 606:1 2584:1 4990:1 
-0.541015625 264:1 1871:1 2515:1 2811:1 3120:1 5610:1 5684:1 5852:1 
-0.541015625 1787:1 2685:1 
-0.541015625 264:1 1243:1 2980:1 4472:1 
-0.541015625 378:1 2159:1 
-0.541015625 264:1 755:1 1533:1 2330:1 4507:1 5291:1 5587:1 
-0.541015625 2891:1 4321:1 4330:1 4969:1 
-0.541015625 441:1 1571:1 1765:1 1811:1 2013:1 2015:1 2895:1 3681:1 3694:1 4063:1 4273:1 
-0.541015625 1028:1 1381:1 2811:1 3142:1 4063:1 4143:1 4273:1 4358:1 4573:1 5561:1 5648:1 
-0.541015625 264:1 806:1 1427:1 1582:1 2150:1 2337:1 2351:1 3656:1 5602:1 5604:1 
-0.541015625 446:1 613:1 1062:1 1830:1 3149:1 3165:1 3273:1 3339:1 3421:1 4266:1 4591:1 
-0.541015625 1186:1 3149:1 3421:1 5709:1 5721:1 
-0.541015625 194:1 4394:1 
-0.541015625 2645:1 3238:1 
-0.541015625 1117:1 
-0.541015625 264:1 1561:1 3665:1 4000:1 4006:1 4968:1 
-0.541015625 2405:1 3082:1 3554:1 4061:1 5708:1 
-0.541015625 1473:1 2010:1 3443:1 3729:1 4698:1 5099:1 
-0.541015625 525:1 634:1 1793:1 3149:1 3421:1 
-0.541015625 2008:1 3149:1 3421:1 5165:1 
-0.541015625 264:1 806:1 1427:1 1582:1 2265:1 3240:1 3656:1 5602:1 5604:1 
-0.541015625 264:1 4143:1 4573:1 
-0.541015625 1871:1 2811:1 3149:1 3240:1 3421:1 5244:1 
-0.541015625 2102:1 2811:1 
-0.541015625 205:1 3471:1 4917:1 
-0.541015625 1140:1 3396:1 
-0.541015625 2019:1 2811:1 3149:1 3421:1 5446:1 
-0.541015625 332:1 2073:1 
-0.541015625 224:1 307:1 863:1 4366:1 
-0.541015625 2759:1 5925:1 
-0.541015625 525:1 634:1 1793:1 4063:1 4213:1 4273:1 4366:1 
-0.541015625 160:1 264:1 856:1 946:1 1566:1 1871:1 2190:1 2627:1 3164:1 4328:1 4780:1 5382:1 5562:1 5794:1 
-0.541015625 1121:1 3860:1 4023:1 4063:1 4273:1 4632:1 5211:1 
-0.541015625 1026:1 
-0.541015625 2520:1 3149:1 3421:1 4143:1 4573:1 
-0.541015625 1398:1 1744:1 3688:1 4485:1 4840:1 
-0.541015625 653:1 661:1 3354:1 5660:1 
-0.541015625 264:1 2620:1 4714:1 4951:1 
-0.541015625 603:1 3877:1 4406:1 5384:1 5726:1 
-0.541015625 1077:1 1204:1 2617:1 3559:1 3681:1 3694:1 5108:1 5224:1 5795:1 5886:1 5902:1 
-0.541015625 182:1 675:1 4034:1 4253:1 4790:1 5141:1 5162:1 
-0.541015625 4063:1 4273:1 4309:1 
-0.541015625 62:1 155:1 2953:1 3897:1 4174:1 5168:1 
-0.541015625 1871:1 2811:1 3149:1 3421:1 3436:1 4358:1 
-0.541015625 2443:1 4295:1 
-0.541015625 1136:1 2751:1 2811:1 2975:1 
-0.541015625 154:1 603:1 798:1 2185:1 3989:1 4790:1 
-50 810:1 3579:1 
-50 1362:1 1366:1 3981:1 5414:1 
-0.541015625 1915:1 
-0.541015625 1190:1 3439:1 
-0.541015625 264:1 1960:1 3598:1 4362:1 
-0.541015625 222:1 258:1 264:1 1296:1 3092:1 3149:1 3421:1 
-0.541015625 1718:1 3697:1 4761:1 5453:1 
-50 225:1 3149:1 3421:1 3774:1 
-0.541015625 636:1 3149:1 3421:1 3773:1 4948:1 5824:1 
-0.541015625 698:1 3238:1 3911:1 3948:1 4002:1 4178:1 5660:1 
-0.541015625 3582:1 4975:1 5452:1 
-0.541015625 264:1 1309:1 5517:1 5635:1 
-0.541015625 556:1 2811:1 
-0.541015625 1186:1 2015:1 2811:1 4358:1 4500:1 5709:1 5721:1 
-0.541015625 963:1 1054:1 4743:1 
-1 2519:1 
-0.541015625 958:1 1323:1 1324:1 5336:1 
-0.541015625 264:1 2315:1 2585:1 3149:1 3391:1 3421:1 
-0.541015625 947:1 1688:1 1692:1 2099:1 3773:1 5212:1 5478:1 
-0.541015625 2941:1 3133:1 4377:1 
-0.541015625 2798:1 
-0.541015625 1052:1 1128:1 1779:1 2836:1 3149:1 3421:1 4366:1 4985:1 
-0.541015625 264:1 1669:1 2071:1 3149:1 3421:1 3483:1 4017:1 4293:1 4976:1 5075:1 5109:1 
-0.541015625 182:1 264:1 1118:1 1140:1 1871:1 2265:1 2334:1 2674:1 2763:1 5660:1 
-0.541015625 1118:1 3440:1 
-0.541015625 614:1 630:1 1871:1 2053:1 3149:1 3421:1 3436:1 3483:1 3594:1 4063:1 4273:1 5109:1 5154:1 5661:1 
-0.541015625 3492:1 
-0.541015625 264:1 1451:1 2446:1 2571:1 2894:1 4063:1 4273:1 4917:1 
-0.541015625 272:1 530:1 1199:1 1349:1 1544:1 1664:1 1718:1 2811:1 3126:1 3402:1 3697:1 4048:1 4761:1 4917:1 5453:1 5736:1 5816:1 
-0.541015625 1348:1 2811:1 3149:1 3421:1 4917:1 
-0.541015625 2071:1 4150:1 
-0.541015625 264:1 3149:1 3421:1 3961:1 4085:1 4262:1 
-0.541015625 259:1 3784:1 
-0.541015625 651:1 2443:1 
-0.541015625 511:1 
-0.541015625 2474:1 4917:1 
-50 5384:1 
-0.541015625 1393:1 2181:1 3948:1 3985:1 4602:1 5770:1 
-0.541015625 264:1 4262:1 5477:1 5496:1 
-0.541015625 264:1 441:1 1121:1 1571:1 1765:1 2071:1 2234:1 2505:1 3573:1 4407:1 4632:1 4992:1 5708:1 
-0.541015625 1140:1 1978:1 2073:1 
-0.541015625 45:1 557:1 1214:1 1334:1 1398:1 1744:1 4115:1 5751:1 5792:1 
-0.541015625 989:1 1351:1 2300:1 3149:1 3421:1 5151:1 
-0.541015625 590:1 3933:1 4451:1 
-0.541015625 1968:1 3149:1 3421:1 3773:1 4063:1 4273:1 5291:1 5587:1 
-0.541015625 1812:1 3149:1 3421:1 3773:1 4262:1 5876:1 
-0.541015625 3948:1 4416:1 
-0.541015625 3921:1 4433:1 
-0.541015625 3149:1 3255:1 3421:1 
-0.541015625 1898:1 2811:1 4063:1 4273:1 4358:1 
-0.541015625 133:1 232:1 775:1 3978:1 
-0.541015625 1798:1 2078:1 4281:1 4734:1 5708:1 
-0.541015625 2645:1 3396:1 
-0.541015625 264:1 2073:1 2355:1 3478:1 
-0.541015625 264:1 1734:1 3921:1 
-0.541015625 4398:1 5117:1 5556:1 
-0.541015625 2681:1 3238:1 
-0.541015625 1294:1 
-0.541015625 264:1 1473:1 1859:1 3082:1 3554:1 
-0.541015625 264:1 703:1 1134:1 2047:1 
-0.541015625 3149:1 3421:1 4340:1 5760:1 
-0.541015625 23:1 62:1 155:1 1254:1 2811:1 3897:1 5168:1 5471:1 5939:1 
-0.541015625 362:1 2471:1 2998:1 5216:1 
-0.541015625 2103:1 5672:1 
-0.541015625 822:1 1708:1 2250:1 2557:1 2784:1 
-0.541015625 613:1 1830:1 1871:1 3273:1 4591:1 
-0.541015625 264:1 1709:1 3149:1 3421:1 
-0.541015625 1140:1 3149:1 3421:1 4548:1 
-0.541015625 370:1 745:1 946:1 1354:1 2811:1 3102:1 3306:1 4021:1 4328:1 5110:1 5382:1 5647:1 5774:1 5794:1 5859:1 
-0.541015625 264:1 2032:1 2273:1 2665:1 3343:1 4750:1 
-0.541015625 992:1 1232:1 
-0.541015625 49:1 5290:1 
-0.541015625 264:1 2563:1 5770:1 
-0.541015625 264:1 613:1 833:1 1830:1 3118:1 3273:1 4063:1 4273:1 4591:1 
-0.541015625 1351:1 1871:1 3126:1 5151:1 5816:1 
-0.541015625 795:1 3255:1 3279:1 
-0.541015625 2414:1 3386:1 3773:1 4366:1 
-50 264:1 3238:1 
-0.541015625 225:1 2906:1 3149:1 3421:1 3774:1 5148:1 5435:1 
-0.541015625 71:1 144:1 358:1 1111:1 1616:1 1871:1 2276:1 2388:1 3773:1 5660:1 
-0.541015625 2127:1 2613:1 5737:1 
-0.541015625 264:1 649:1 2811:1 3373:1 
-0.541015625 1393:1 2073:1 2181:1 3985:1 4602:1 4714:1 
-0.541015625 2811:1 3149:1 3238:1 3421:1 
-50 475:1 
-0.541015625 264:1 441:1 713:1 1354:1 1571:1 1585:1 1765:1 3091:1 3149:1 3387:1 3421:1 3476:1 
-0.541015625 347:1 5029:1 5312:1 
-0.541015625 2034:1 2494:1 2798:1 
-0.541015625 1140:1 2071:1 3940:1 3944:1 4116:1 5267:1 
-0.541015625 264:1 810:1 3311:1 3579:1 
-0.541015625 1734:1 4063:1 4273:1 5765:1 
-0.541015625 124:1 375:1 2723:1 4422:1 5879:1 
-0.541015625 264:1 2705:1 3149:1 3421:1 
-0.541015625 3601:1 3961:1 4085:1 5536:1 
-0.541015625 314:1 525:1 634:1 1640:1 1793:1 2613:1 4063:1 4273:1 4790:1 5846:1 
-0.541015625 264:1 2265:1 4063:1 4273:1 
-0.541015625 169:1 675:1 2811:1 4014:1 4034:1 4253:1 4531:1 5141:1 5162:1 
-0.541015625 1781:1 1849:1 1871:1 3149:1 3421:1 
-0.541015625 554:1 613:1 1830:1 2365:1 3273:1 4131:1 4187:1 4591:1 
-0.541015625 2751:1 5588:1 
-0.541015625 225:1 1134:1 3774:1 
-0.541015625 675:1 3778:1 4034:1 4253:1 4500:1 5141:1 5162:1 5944:1 
-0.5419921875 439:1 1063:1 2283:1 2811:1 
-0.5419921875 4358:1 4366:1 
-0.5419921875 2265:1 2811:1 4358:1 
-0.5419921875 4063:1 4131:1 4273:1 5660:1 
-0.5419921875 5930:1 
-0.5419921875 264:1 294:1 1871:1 2811:1 3961:1 4063:1 4085:1 4273:1 4358:1 4366:1 5580:1 
-0.5419921875 271:1 2233:1 5437:1 
-0.5419921875 2173:1 2175:1 2550:1 3304:1 3721:1 3901:1 4391:1 4857:1 
-0.5419921875 264:1 828:1 1562:1 
-0.5419921875 1652:1 3118:1 3770:1 3961:1 4085:1 4366:1 
-0.5419921875 487:1 1124:1 2584:1 4516:1 4790:1 5099:1 
-0.5625 264:1 2015:1 
-0.5419921875 1871:1 3403:1 4063:1 4273:1 5058:1 
-0.5419921875 264:1 2273:1 3343:1 4742:1 
-0.5419921875 1389:1 3150:1 4839:1 5733:1 5842:1 
-0.5419921875 264:1 1925:1 4063:1 4273:1 
-0.5419921875 216:1 1032:1 3165:1 3339:1 4266:1 
-0.5419921875 1063:1 2283:1 2811:1 3149:1 3421:1 4483:1 
-0.5419921875 3149:1 3421:1 4560:1 
-0.5419921875 3241:1 3964:1 
-0.5419921875 1393:1 2181:1 3773:1 3985:1 4602:1 
-50 3948:1 
-0.5419921875 1871:1 5558:1 
-0.5419921875 264:1 1871:1 2705:1 
-0.5419921875 264:1 1125:1 1155:1 2268:1 2819:1 3203:1 3727:1 3771:1 4063:1 4273:1 4914:1 
-0.5419921875 1453:1 4063:1 4273:1 
-0.5419921875 1298:1 1773:1 1865:1 2508:1 3149:1 3421:1 3854:1 3863:1 4358:1 5167:1 
-0.5419921875 5396:1 
-0.5419921875 3149:1 3421:1 3773:1 4063:1 4273:1 
-0.5419921875 3143:1 
-0.5419921875 2265:1 3854:1 4366:1 
-0.5419921875 264:1 2073:1 3358:1 
-0.5419921875 487:1 1948:1 2584:1 
-0.5419921875 264:1 1313:1 4358:1 
-50 2814:1 
-0.5419921875 1136:1 2975:1 2980:1 
-0.5419921875 264:1 2568:1 3745:1 5660:1 
-0.5419921875 264:1 4131:1 
-0.5419921875 338:1 1769:1 3948:1 
-0.5419921875 264:1 885:1 2050:1 3149:1 3421:1 4790:1 
-0.5419921875 2187:1 3165:1 3339:1 4266:1 
-0.5419921875 1140:1 3149:1 3421:1 4262:1 5501:1 
-0.5419921875 1054:1 1468:1 2272:1 3728:1 4063:1 4273:1 5085:1 
-0.5419921875 71:1 144:1 1616:1 2276:1 2388:1 3560:1 5866:1 
-0.5419921875 2364:1 3386:1 4063:1 4273:1 
-0.5419921875 2071:1 2173:1 2175:1 3149:1 3304:1 3421:1 4391:1 4857:1 
-0.5419921875 690:1 1061:1 2529:1 2564:1 
-0.5419921875 2752:1 3240:1 3773:1 4242:1 
-0.5419921875 264:1 2811:1 4013:1 5221:1 5660:1 
-0.5625 3165:1 3339:1 4266:1 
-0.5419921875 3149:1 3421:1 3560:1 4791:1 5866:1 
-0.5419921875 2446:1 2811:1 5739:1 
-0.5419921875 223:1 2355:1 4398:1 
-0.5419921875 4199:1 5466:1 
-0.5419921875 2400:1 3149:1 3421:1 5113:1 
-50 2652:1 
-0.5419921875 565:1 902:1 1085:1 3149:1 3421:1 3745:1 3798:1 4975:1 5452:1 5744:1 
-0.5419921875 3665:1 5680:1 
-0.5419921875 1667:1 3149:1 3206:1 3421:1 4790:1 
-0.5419921875 1221:1 2574:1 3557:1 4915:1 4919:1 5708:1 5906:1 
-0.5419921875 487:1 1124:1 2584:1 3149:1 3421:1 4516:1 
-0.5419921875 264:1 613:1 1830:1 3273:1 4143:1 4573:1 4591:1 
-0.5419921875 264:1 1623:1 3199:1 
-0.5419921875 1727:1 2019:1 2070:1 2811:1 3413:1 4272:1 4358:1 4386:1 
-0.5419921875 29:1 1140:1 1876:1 2645:1 
-0.5419921875 264:1 441:1 1571:1 1765:1 2429:1 2849:1 3681:1 3694:1 4366:1 4724:1 5075:1 5584:1 5756:1 
-0.5419921875 225:1 1601:1 3774:1 
-0.5419921875 1709:1 3178:1 
-0.5419921875 2419:1 
-0.5419921875 1221:1 2515:1 2574:1 2836:1 3120:1 3557:1 4010:1 4040:1 4915:1 4919:1 5610:1 5684:1 5852:1 5906:1 
-0.5419921875 2400:1 
-0.5419921875 1117:1 1999:1 2594:1 3149:1 3165:1 3339:1 3421:1 3901:1 3948:1 4049:1 4266:1 4483:1 
-0.5419921875 2811:1 3150:1 5733:1 5842:1 
-50 613:1 1830:1 3273:1 4366:1 4591:1 
-50 810:1 3579:1 
-0.5419921875 662:1 3978:1 
-0.5419921875 62:1 155:1 3897:1 4141:1 5168:1 
-0.5419921875 727:1 3236:1 4379:1 
-0.5419921875 264:1 1718:1 3697:1 4761:1 5453:1 5660:1 
-0.5419921875 68:1 2176:1 5060:1 5173:1 
-0.5419921875 1932:1 2354:1 2544:1 
-0.5419921875 2773:1 2831:1 3150:1 4398:1 4953:1 5733:1 5842:1 
-0.5419921875 264:1 450:1 1614:1 1798:1 4281:1 4734:1 5846:1 
-0.5419921875 62:1 155:1 375:1 3149:1 3331:1 3421:1 3897:1 4422:1 5168:1 
-0.5419921875 225:1 264:1 314:1 3521:1 3713:1 3774:1 5099:1 
-0.5419921875 264:1 4742:1 5095:1 
-0.5419921875 1128:1 1206:1 3149:1 3421:1 3620:1 4366:1 4695:1 
-0.5419921875 231:1 3149:1 3421:1 
-0.5419921875 264:1 4975:1 5452:1 
-0.5419921875 88:1 928:1 3961:1 4085:1 
-0.5419921875 3961:1 4079:1 4085:1 5219:1 
-0.5419921875 264:1 2698:1 3005:1 4189:1 
-0.5419921875 654:1 2645:1 
-0.5419921875 487:1 2584:1 4366:1 
-0.5419921875 264:1 3149:1 3421:1 5643:1 
-0.5419921875 80:1 487:1 1640:1 2584:1 2811:1 
-0.5419921875 264:1 613:1 715:1 822:1 1708:1 1830:1 2784:1 3273:1 4591:1 
-0.5419921875 630:1 2053:1 2355:1 3594:1 4063:1 4273:1 5154:1 5661:1 5874:1 
-0.5419921875 142:1 603:1 
-0.5419921875 258:1 264:1 1056:1 
-0.5419921875 1201:1 2681:1 5834:1 
-0.5419921875 3149:1 3421:1 5085:1 
-0.5419921875 525:1 634:1 1793:1 2287:1 2906:1 4889:1 5148:1 5470:1 
-0.5419921875 259:1 1871:1 3784:1 
-0.5419921875 744:1 2073:1 3165:1 3339:1 4063:1 4266:1 4273:1 
-0.5419921875 875:1 928:1 
-0.5419921875 116:1 264:1 796:1 855:1 951:1 2350:1 2723:1 4079:1 4143:1 4160:1 4161:1 4245:1 4573:1 4742:1 5219:1 
-0.5419921875 1052:1 1779:1 4358:1 4985:1 
-0.5419921875 182:1 1128:1 3082:1 3554:1 
-0.5419921875 93:1 2003:1 2201:1 2251:1 2738:1 2949:1 2973:1 3126:1 4022:1 5314:1 5816:1 5843:1 
-0.5419921875 264:1 2557:1 2563:1 3385:1 3979:1 4232:1 
-0.5419921875 264:1 1828:1 2764:1 5170:1 
-0.5419921875 83:1 296:1 936:1 1561:1 2765:1 3773:1 4000:1 4006:1 4917:1 4968:1 
-0.5419921875 225:1 713:1 1125:1 1359:1 2652:1 3203:1 3774:1 4742:1 4791:1 
-0.5419921875 264:1 2983:1 
-0.5419921875 264:1 1608:1 4096:1 
-0.5419921875 264:1 2133:1 2158:1 2165:1 2234:1 2505:1 3149:1 3421:1 3434:1 3481:1 3856:1 4407:1 4607:1 4992:1 5882:1 
-0.5419921875 1140:1 2645:1 2811:1 3361:1 5054:1 5334:1 5547:1 
-0.5419921875 225:1 264:1 1727:1 1871:1 3774:1 
-0.5625 142:1 
-0.5419921875 1006:1 2102:1 2520:1 2723:1 3149:1 3421:1 3669:1 4163:1 4461:1 
-0.5419921875 264:1 1238:1 4105:1 4369:1 4411:1 4428:1 
-0.5419921875 1552:1 2197:1 
-0.5419921875 1871:1 4747:1 
-0.5625 264:1 1056:1 
-0.5419921875 195:1 314:1 1468:1 2272:1 2980:1 4100:1 4164:1 5424:1 
-0.5419921875 264:1 1116:1 1601:1 
-0.5419921875 225:1 373:1 469:1 525:1 634:1 908:1 1793:1 3774:1 4088:1 
-0.5419921875 3126:1 4101:1 5816:1 
-0.5419921875 149:1 737:1 3358:1 3979:1 4232:1 5590:1 
-0.5419921875 1026:1 2811:1 2866:1 3566:1 5049:1 
-0.5419921875 487:1 2584:1 3018:1 3841:1 5356:1 
-0.5625 2271:1 
-0.5419921875 264:1 862:1 1403:1 1680:1 2271:1 2289:1 2723:1 2811:1 3075:1 5194:1 
-0.5419921875 264:1 977:1 1136:1 2975:1 
-0.5419921875 1028:1 1381:1 3142:1 3681:1 3694:1 5561:1 5648:1 
-0.5419921875 264:1 2433:1 2611:1 2645:1 3149:1 3421:1 
-0.5419921875 264:1 3601:1 
-0.5419921875 1121:1 1304:1 4632:1 4806:1 
-0.5419921875 264:1 1871:1 3413:1 3602:1 3773:1 4272:1 4386:1 5276:1 
-0.5419921875 2474:1 3165:1 3339:1 3745:1 4266:1 4790:1 5887:1 
-0.5419921875 1354:1 1374:1 1949:1 3773:1 4553:1 4807:1 4810:1 
-0.5419921875 264:1 3403:1 5058:1 
-0.5419921875 1601:1 3782:1 4451:1 4959:1 5301:1 
-0.5419921875 264:1 411:1 729:1 805:1 4714:1 
-0.5419921875 555:1 2909:1 
-0.5419921875 264:1 1241:1 3940:1 3944:1 4116:1 5267:1 
-0.5419921875 53:1 2108:1 3773:1 5163:1 5660:1 5897:1 
-0.5419921875 13:1 151:1 264:1 1174:1 2286:1 2557:1 2845:1 3149:1 3421:1 
-0.5419921875 258:1 264:1 375:1 688:1 4143:1 4422:1 4573:1 4625:1 5072:1 
-0.5419921875 675:1 1871:1 3782:1 4034:1 4253:1 5141:1 5162:1 
-0.5419921875 487:1 630:1 2053:1 2584:1 3115:1 3189:1 3594:1 4065:1 5154:1 5661:1 
-0.5419921875 264:1 2102:1 3149:1 3421:1 
-0.5419921875 1621:1 5099:1 5484:1 5538:1 5591:1 
-0.5419921875 2645:1 4719:1 4976:1 
-0.5419921875 875:1 2446:1 3773:1 5099:1 
-0.5419921875 203:1 1468:1 2272:1 2483:1 4625:1 5072:1 5786:1 5835:1 
-0.5419921875 1028:1 1381:1 2811:1 2814:1 3142:1 4358:1 4500:1 5561:1 5648:1 
-0.0419921875 1849:1 
-0.5419921875 5075:1 5099:1 
-0.5625 264:1 3150:1 5733:1 5842:1 
-0.5419921875 264:1 441:1 1571:1 1669:1 1765:1 1871:1 3497:1 4017:1 4293:1 
-0.5419921875 264:1 525:1 634:1 1793:1 1821:1 1918:1 2327:1 2811:1 3483:1 3610:1 4358:1 4484:1 4927:1 5109:1 5416:1 
-0.5419921875 1063:1 2283:1 4953:1 
-50 2071:1 
-0.5419921875 264:1 272:1 1664:1 2073:1 3209:1 3402:1 3773:1 
-0.5419921875 264:1 3149:1 3421:1 4063:1 4273:1 5399:1 5879:1 
-0.5419921875 264:1 2078:1 
-0.5419921875 264:1 3231:1 4198:1 4631:1 5029:1 5179:1 
-50 1286:1 
-50 3149:1 3421:1 4790:1 
-0.5419921875 431:1 2289:1 
-0.5419921875 3948:1 4625:1 5072:1 
-0.5419921875 2356:1 4817:1 
-0.5419921875 1349:1 2549:1 
-0.5419921875 271:1 2233:1 4460:1 4597:1 4651:1 5437:1 5797:1 
-0.5419921875 3149:1 3421:1 5435:1 
-0.5419921875 264:1 1446:1 3149:1 3358:1 3421:1 3454:1 5171:1 
-0.5419921875 703:1 4742:1 
-0.5419921875 3961:1 4085:1 4154:1 4775:1 5302:1 
-0.5419921875 264:1 1533:1 4507:1 5588:1 
-0.5419921875 1610:1 5660:1 
-0.5419921875 176:1 1742:1 3773:1 5460:1 
