svm_type c_svc
kernel_type rbf
gamma 50
nr_class 2
total_sv 6417
rho 0.756264
label 1 -1
nr_sv 1063 5354
SV
1.755859375 1871:1 3126:1 4063:1 4273:1 5816:1 
1.755859375 264:1 3126:1 3465:1 3518:1 4954:1 5816:1 
1.755859375 61:1 62:1 155:1 264:1 1343:1 2191:1 3897:1 4791:1 4980:1 4991:1 5168:1 
1.755859375 3149:1 3421:1 4839:1 
50 3165:1 3339:1 4266:1 
50 4024:1 
1.755859375 264:1 812:1 1046:1 2792:1 3126:1 3149:1 3174:1 3421:1 4557:1 4844:1 5816:1 
1.755859375 1932:1 2354:1 2504:1 4714:1 
1.755859375 32:1 487:1 606:1 2584:1 4990:1 
1.755859375 446:1 613:1 1062:1 1830:1 3149:1 3165:1 3273:1 3339:1 3421:1 4266:1 4591:1 
1.755859375 2102:1 2811:1 
1.755859375 205:1 3471:1 4917:1 
1.755859375 160:1 264:1 856:1 946:1 1566:1 1871:1 2190:1 2627:1 3164:1 4328:1 4780:1 5382:1 5562:1 5794:1 
1.755859375 1077:1 1204:1 2617:1 3559:1 3681:1 3694:1 5108:1 5224:1 5795:1 5886:1 5902:1 
1.755859375 4063:1 4273:1 4309:1 
1.755859375 2443:1 4295:1 
1.755859375 1136:1 2751:1 2811:1 2975:1 
1.755859375 222:1 258:1 264:1 1296:1 3092:1 3149:1 3421:1 
1.755859375 2941:1 3133:1 4377:1 
1.755859375 264:1 1669:1 2071:1 3149:1 3421:1 3483:1 4017:1 4293:1 4976:1 5075:1 5109:1 
1.755859375 264:1 1451:1 2446:1 2571:1 2894:1 4063:1 4273:1 4917:1 
1.755859375 1348:1 2811:1 3149:1 3421:1 4917:1 
1.755859375 264:1 3149:1 3421:1 3961:1 4085:1 4262:1 
1.755859375 511:1 
1.755859375 2474:1 4917:1 
50 4227:1 
50 
1.755859375 45:1 557:1 1214:1 1334:1 1398:1 1744:1 4115:1 5751:1 5792:1 
1.755859375 4398:1 5117:1 5556:1 
1.755859375 1294:1 
50 4063:1 4273:1 
1.755859375 264:1 1473:1 1859:1 3082:1 3554:1 
50 
50 
50 
1.755859375 795:1 3255:1 3279:1 
1.755859375 2127:1 2613:1 5737:1 
50 
1.755859375 1140:1 2071:1 3940:1 3944:1 4116:1 5267:1 
1.755859375 2751:1 5588:1 
1.755859375 225:1 1134:1 3774:1 
1.755859375 439:1 1063:1 2283:1 2811:1 
1.755859375 264:1 2015:1 
1.755859375 1871:1 3403:1 4063:1 4273:1 5058:1 
50 3948:1 
50 3149:1 3421:1 
1.755859375 2265:1 3854:1 4366:1 
50 264:1 
1.755859375 264:1 4131:1 
50 
50 3149:1 3421:1 
1.755859375 1727:1 2019:1 2070:1 2811:1 3413:1 4272:1 4358:1 4386:1 
1.755859375 29:1 1140:1 1876:1 2645:1 
50 4917:1 
50 810:1 3579:1 
1.755859375 2773:1 2831:1 3150:1 4398:1 4953:1 5733:1 5842:1 
1.755859375 62:1 155:1 375:1 3149:1 3331:1 3421:1 3897:1 4422:1 5168:1 
50 
1.755859375 630:1 2053:1 2355:1 3594:1 4063:1 4273:1 5154:1 5661:1 5874:1 
1.755859375 258:1 264:1 1056:1 
1.755859375 525:1 634:1 1793:1 2287:1 2906:1 4889:1 5148:1 5470:1 
1.755859375 93:1 2003:1 2201:1 2251:1 2738:1 2949:1 2973:1 3126:1 4022:1 5314:1 5816:1 5843:1 
1.755859375 1552:1 2197:1 
1.755859375 1871:1 4747:1 
1.755859375 1026:1 2811:1 2866:1 3566:1 5049:1 
1.755859375 264:1 977:1 1136:1 2975:1 
1.755859375 2474:1 3165:1 3339:1 3745:1 4266:1 4790:1 5887:1 
1.755859375 555:1 2909:1 
1.755859375 264:1 1241:1 3940:1 3944:1 4116:1 5267:1 
1.755859375 53:1 2108:1 3773:1 5163:1 5660:1 5897:1 
1.755859375 264:1 4917:1 
50 
50 1849:1 
50 
50 264:1 4063:1 4273:1 
1.755859375 3948:1 4625:1 5072:1 
1.755859375 1610:1 5660:1 
1.755859375 176:1 1742:1 3773:1 5460:1 
1.755859375 261:1 809:1 1078:1 1592:1 2129:1 2468:1 2811:1 3126:1 3150:1 3773:1 4889:1 5001:1 5733:1 5816:1 5842:1 
1.755859375 487:1 2584:1 2811:1 4366:1 4652:1 
1.755859375 264:1 5698:1 
1.755859375 1140:1 1178:1 3293:1 3296:1 3439:1 3480:1 
50 5366:1 
50 
1.755859375 989:1 3240:1 
1.755859375 264:1 3126:1 3794:1 3946:1 4415:1 5816:1 5881:1 
50 5680:1 
1.755859375 693:1 3885:1 
50 
50 
50 264:1 2015:1 
1.755859375 1871:1 2010:1 3443:1 3681:1 3694:1 3773:1 3961:1 4085:1 4698:1 5419:1 5660:1 5754:1 
1.755859375 1493:1 3680:1 4790:1 5463:1 
50 2355:1 
50 4063:1 4273:1 
50 2733:1 
1.755859375 1585:1 
1.755859375 3958:1 4790:1 
1.755859375 3807:1 4467:1 5296:1 5698:1 
1.755859375 738:1 3917:1 5221:1 
1.755859375 3773:1 5768:1 
1.755859375 2799:1 2811:1 
1.755859375 264:1 3149:1 3421:1 3988:1 4366:1 
50 1140:1 2355:1 
50 264:1 3921:1 
1.755859375 1128:1 4747:1 
50 2811:1 
1.755859375 556:1 1621:1 2811:1 2980:1 3126:1 5538:1 5816:1 
1.755859375 2047:1 3397:1 
1.755859375 487:1 2584:1 5837:1 
50 264:1 3149:1 3421:1 
50 4063:1 4273:1 
50 
1.755859375 977:1 1136:1 1798:1 2975:1 4281:1 4734:1 
1.755859375 62:1 155:1 264:1 350:1 1125:1 3149:1 3203:1 3421:1 3897:1 4791:1 5168:1 
1.755859375 5888:1 
1.755859375 1009:1 3568:1 
50 3149:1 3421:1 
50 
1.755859375 2845:1 3358:1 
50 
1.755859375 389:1 549:1 1828:1 4358:1 
1.755859375 224:1 
1.755859375 2811:1 3568:1 3940:1 3944:1 4079:1 4116:1 5219:1 5267:1 
1.755859375 4398:1 5268:1 
1.755859375 264:1 1669:1 2265:1 4017:1 4293:1 4366:1 5384:1 5835:1 
1.755859375 1124:1 1961:1 4265:1 4516:1 
50 264:1 
1.755859375 1667:1 4742:1 
1.755859375 787:1 4063:1 4273:1 4990:1 
1.755859375 715:1 1018:1 2665:1 4039:1 4044:1 4934:1 
1.755859375 688:1 3901:1 
1.755859375 264:1 688:1 1849:1 2071:1 3126:1 4695:1 4941:1 5708:1 5816:1 
1.755859375 5566:1 
50 
1.755859375 3921:1 4143:1 4453:1 4573:1 4695:1 5660:1 
50 406:1 
1.755859375 1601:1 3149:1 3421:1 3465:1 3518:1 4742:1 
50 
1.755859375 1871:1 2723:1 4561:1 
1.755859375 264:1 1045:1 3149:1 3150:1 3421:1 3773:1 3901:1 4358:1 5733:1 5842:1 
50 
1.755859375 4380:1 
50 2811:1 4063:1 4273:1 
50 4063:1 4273:1 
50 
1.755859375 3240:1 3940:1 3944:1 4116:1 4917:1 5267:1 
1.755859375 1931:1 3940:1 3944:1 4116:1 5267:1 
1.755859375 5242:1 
1.755859375 264:1 840:1 1871:1 3584:1 4131:1 
50 
1.755859375 3126:1 3877:1 4406:1 5816:1 
50 
50 2811:1 3149:1 3421:1 
1.755859375 1140:1 1593:1 3841:1 5446:1 
1.755859375 264:1 2355:1 2723:1 
50 755:1 2330:1 
1.755859375 264:1 3112:1 3149:1 3210:1 3421:1 
50 2811:1 
50 264:1 2723:1 
1.755859375 2287:1 3773:1 
1.755859375 335:1 2705:1 2798:1 3240:1 4636:1 
1.755859375 264:1 3864:1 
50 
1.755859375 3875:1 4483:1 4917:1 
50 
1.755859375 1268:1 3071:1 3082:1 3085:1 3554:1 4974:1 
1.755859375 3773:1 4796:1 5099:1 
1.755859375 1297:1 
1.755859375 154:1 798:1 1056:1 2185:1 2811:1 3149:1 3421:1 3989:1 4791:1 
1.755859375 264:1 1652:1 1871:1 3921:1 
1.755859375 641:1 2295:1 2759:1 3826:1 
50 264:1 2265:1 
50 264:1 4695:1 
50 1349:1 
1.755859375 2945:1 3051:1 4537:1 
1.755859375 1481:1 4074:1 5634:1 
50 264:1 
1.755859375 264:1 1128:1 2271:1 4079:1 4442:1 5219:1 
1.755859375 716:1 1349:1 3238:1 3602:1 5276:1 
50 
1.755859375 2811:1 3240:1 3773:1 4180:1 5213:1 5636:1 
1.755859375 39:1 683:1 
1.755859375 1798:1 3800:1 4143:1 4281:1 4573:1 4734:1 
1.755859375 264:1 2978:1 3439:1 3773:1 4079:1 5219:1 
1.755859375 2811:1 3149:1 3421:1 4358:1 
50 5099:1 
50 2271:1 
1.755859375 160:1 856:1 912:1 1575:1 1988:1 2190:1 3109:1 3358:1 3940:1 3944:1 4116:1 5242:1 5267:1 
1.755859375 264:1 504:1 1393:1 2102:1 2103:1 2181:1 3985:1 4079:1 4602:1 5219:1 5328:1 5672:1 
1.755859375 875:1 2044:1 2811:1 3388:1 4358:1 
1.755859375 3149:1 3421:1 4747:1 
1.755859375 882:1 1178:1 3293:1 3296:1 3480:1 4625:1 5072:1 5895:1 
1.755859375 264:1 4325:1 
1.755859375 264:1 1028:1 1381:1 2811:1 3142:1 3681:1 3694:1 5081:1 5561:1 5648:1 
1.755859375 806:1 1427:1 1582:1 2811:1 3635:1 3656:1 3773:1 5374:1 5602:1 5604:1 
1.755859375 2645:1 3435:1 
1.755859375 1948:1 2271:1 
50 264:1 4917:1 
50 2811:1 3149:1 3421:1 
50 264:1 
1.755859375 3202:1 3766:1 3773:1 3948:1 4588:1 4747:1 5482:1 
1.755859375 264:1 2751:1 
1.755859375 246:1 264:1 4079:1 4833:1 5219:1 5768:1 
50 
1.755859375 1724:1 5034:1 
1.755859375 1028:1 1381:1 2102:1 3142:1 4143:1 4573:1 5561:1 5648:1 
50 
1.755859375 2265:1 2751:1 3961:1 4085:1 4467:1 
1.755859375 1068:1 1423:1 1683:1 3165:1 3339:1 3707:1 4266:1 4754:1 
1.755859375 952:1 1136:1 1798:1 2355:1 2557:1 2975:1 3029:1 4010:1 4281:1 4734:1 
1.755859375 2723:1 4063:1 4273:1 
1.755859375 3875:1 5760:1 
1.755859375 264:1 590:1 755:1 1186:1 2330:1 2811:1 2831:1 5709:1 5721:1 
1.755859375 350:1 1680:1 2836:1 4953:1 5660:1 
1.755859375 264:1 2980:1 3094:1 4196:1 
50 
1.755859375 380:1 1117:1 1398:1 1744:1 1979:1 2759:1 3110:1 3883:1 5201:1 
50 2071:1 5708:1 
50 
1.755859375 504:1 662:1 3948:1 5768:1 
1.755859375 264:1 3403:1 4791:1 5058:1 
50 
1.755859375 264:1 1497:1 2115:1 3255:1 3745:1 
1.755859375 1128:1 3681:1 3694:1 3940:1 3944:1 4116:1 4791:1 5267:1 
50 3082:1 3554:1 
50 
1.755859375 2015:1 2811:1 3713:1 
1.755859375 395:1 424:1 3727:1 3940:1 3944:1 4116:1 4914:1 5267:1 
1.755859375 933:1 4437:1 
50 264:1 3885:1 
1.755859375 264:1 2355:1 3471:1 4775:1 
50 
1.755859375 504:1 683:1 3082:1 3554:1 4791:1 
1.755859375 3285:1 
1.755859375 264:1 422:1 1355:1 2720:1 4063:1 4273:1 4917:1 4975:1 5452:1 
1.755859375 3112:1 5075:1 
1.755859375 1558:1 1937:1 1942:1 2071:1 3478:1 3773:1 3940:1 3944:1 3997:1 4116:1 5158:1 5267:1 5505:1 
1.755859375 83:1 116:1 855:1 1932:1 2354:1 3240:1 3241:1 4245:1 
1.755859375 375:1 651:1 3775:1 4422:1 4791:1 4917:1 
1.755859375 1453:1 4695:1 
1.755859375 2019:1 2209:1 4366:1 
1.755859375 3745:1 
1.755859375 62:1 155:1 264:1 435:1 1985:1 3897:1 5168:1 
1.755859375 264:1 3775:1 4063:1 4273:1 4747:1 
50 2811:1 
1.755859375 264:1 1183:1 2811:1 3773:1 4358:1 
1.755859375 3590:1 5229:1 5583:1 
1.755859375 1294:1 2071:1 3961:1 4079:1 4085:1 5219:1 5708:1 
1.755859375 1220:1 1684:1 3126:1 3892:1 5816:1 
1.755859375 556:1 2010:1 3443:1 4698:1 
1.755859375 1240:1 1564:1 2044:1 2811:1 3388:1 5658:1 5660:1 
1.755859375 32:1 327:1 3948:1 
1.755859375 402:1 683:1 
1.755859375 361:1 1140:1 1190:1 1206:1 2071:1 2355:1 3149:1 3421:1 3620:1 
1.755859375 1155:1 1871:1 2258:1 2547:1 2819:1 4955:1 5528:1 5927:1 
50 2494:1 
50 264:1 
50 264:1 
1.755859375 264:1 688:1 2355:1 4790:1 5835:1 
1.755859375 264:1 2446:1 5242:1 
1.755859375 264:1 2265:1 4790:1 
50 3149:1 3421:1 
50 
50 264:1 4839:1 
1.755859375 142:1 688:1 2289:1 5085:1 
1.755859375 264:1 1865:1 3961:1 4085:1 
1.755859375 264:1 3403:1 3675:1 4833:1 5058:1 
1.755859375 1186:1 1678:1 1891:1 2260:1 4187:1 4398:1 5709:1 5721:1 
1.755859375 5746:1 
1.755859375 755:1 2330:1 3901:1 4917:1 
1.755859375 487:1 2071:1 2584:1 
1.755859375 1724:1 2811:1 5034:1 
50 3940:1 3944:1 4116:1 5267:1 
50 2811:1 
1.755859375 264:1 378:1 2159:1 2258:1 5528:1 5927:1 
50 
1.755859375 1398:1 1549:1 1744:1 1871:1 2091:1 2383:1 5244:1 
1.755859375 2705:1 2867:1 3403:1 3794:1 4415:1 5058:1 5881:1 
1.755859375 264:1 1544:1 2301:1 2563:1 2733:1 3149:1 3421:1 3633:1 3773:1 4143:1 4366:1 4573:1 5736:1 
50 
50 
1.755859375 306:1 1075:1 2841:1 3838:1 
1.755859375 4676:1 
1.755859375 1669:1 3238:1 4017:1 4293:1 
1.755859375 947:1 1614:1 1688:1 1692:1 2811:1 5478:1 
50 264:1 4742:1 
50 
1.755859375 5223:1 
1.755859375 1601:1 3739:1 4278:1 
50 264:1 4917:1 
50 
1.755859375 106:1 2811:1 5075:1 5708:1 
1.755859375 3149:1 3421:1 4366:1 4917:1 5099:1 
50 376:1 5491:1 
1.755859375 1054:1 3165:1 3339:1 3773:1 3837:1 4063:1 4266:1 4273:1 5138:1 
1.755859375 514:1 1441:1 1828:1 2460:1 5598:1 
1.755859375 2221:1 3149:1 3421:1 5567:1 
1.755859375 282:1 1140:1 5158:1 
1.755859375 2019:1 2071:1 3370:1 5273:1 5708:1 
50 264:1 
1.755859375 1453:1 
1.755859375 264:1 989:1 1258:1 3149:1 3421:1 
1.755859375 2811:1 4548:1 5655:1 
50 3150:1 4839:1 5733:1 5842:1 
1.755859375 264:1 1052:1 1652:1 1779:1 2209:1 4985:1 
50 264:1 4063:1 4273:1 
1.755859375 2148:1 3961:1 4085:1 5137:1 5835:1 
1.755859375 407:1 1825:1 1871:1 1912:1 1922:1 4790:1 
50 
1.755859375 375:1 1028:1 1381:1 2811:1 3142:1 3948:1 4422:1 5561:1 5648:1 
1.755859375 264:1 3854:1 4902:1 
1.755859375 3082:1 3554:1 5846:1 
50 
50 3921:1 
50 3854:1 
50 264:1 1136:1 2975:1 
1.755859375 3126:1 3538:1 3568:1 5816:1 
1.755859375 173:1 
50 4917:1 
1.755859375 2355:1 3149:1 3421:1 4561:1 
50 182:1 
1.755859375 264:1 487:1 1035:1 1124:1 1743:1 2584:1 4516:1 4790:1 4953:1 
1.755859375 1052:1 1779:1 2811:1 3729:1 4063:1 4273:1 4358:1 4985:1 5660:1 
50 264:1 
1.755859375 1136:1 2273:1 2975:1 3343:1 
50 264:1 1140:1 
1.755859375 182:1 2441:1 2811:1 
50 3940:1 3944:1 4116:1 5267:1 
1.755859375 1052:1 1779:1 1897:1 2763:1 2836:1 3219:1 4604:1 4825:1 4985:1 5710:1 
1.755859375 1136:1 2034:1 2975:1 
1.755859375 264:1 487:1 1014:1 2103:1 2584:1 2811:1 5672:1 
50 4196:1 
1.755859375 1227:1 4557:1 5076:1 
50 1136:1 2975:1 
50 264:1 
50 
1.755859375 62:1 155:1 264:1 1014:1 2271:1 3149:1 3421:1 3897:1 5168:1 
1.755859375 2792:1 3149:1 3421:1 4747:1 
50 
1.755859375 182:1 2019:1 
1.755859375 3906:1 4358:1 5018:1 5279:1 
50 264:1 
1.755859375 1136:1 2975:1 4196:1 
1.755859375 1828:1 2751:1 3165:1 3339:1 3978:1 4266:1 
1.755859375 487:1 2446:1 2584:1 3331:1 5501:1 
1.755859375 2364:1 
50 5874:1 
50 1140:1 
1.755859375 264:1 3149:1 3421:1 3772:1 5142:1 5158:1 
1.755859375 2831:1 3149:1 3421:1 
1.755859375 1777:1 4917:1 5635:1 
1.755859375 712:1 1159:1 2165:1 3856:1 5588:1 
1.755859375 357:1 360:1 2314:1 2538:1 4180:1 5636:1 
1.755859375 3126:1 3286:1 3689:1 4708:1 5816:1 5903:1 
1.755859375 264:1 1349:1 
1.755859375 3164:1 5789:1 
1.755859375 264:1 306:1 2008:1 2841:1 3838:1 3978:1 4366:1 
50 3082:1 3554:1 
50 264:1 
1.755859375 1828:1 3635:1 
1.755859375 4079:1 4398:1 4419:1 5219:1 
50 630:1 2053:1 3594:1 5154:1 5661:1 
1.755859375 264:1 1871:1 2265:1 4098:1 
50 4917:1 
1.755859375 264:1 1871:1 2630:1 2665:1 3149:1 3421:1 3935:1 4790:1 4889:1 4917:1 5660:1 
1.755859375 1296:1 2221:1 2751:1 
50 610:1 
50 
1.755859375 264:1 1018:1 4039:1 4044:1 4934:1 4953:1 
1.755859375 264:1 2627:1 2723:1 2897:1 3329:1 4780:1 5562:1 
1.755859375 264:1 3082:1 3554:1 3773:1 4513:1 4790:1 
1.755859375 160:1 264:1 856:1 2190:1 3978:1 
1.755859375 2811:1 4079:1 4358:1 5219:1 
1.755859375 89:1 
1.755859375 1124:1 2811:1 4063:1 4273:1 4516:1 
1.755859375 1335:1 2019:1 2811:1 3126:1 4358:1 5816:1 
1.755859375 264:1 3149:1 3421:1 4063:1 4273:1 4917:1 5303:1 5445:1 
1.755859375 264:1 1124:1 3149:1 3238:1 3421:1 4516:1 
50 5085:1 
50 
1.755859375 22:1 264:1 703:1 
50 1140:1 
1.755859375 675:1 2698:1 3005:1 4034:1 4077:1 4253:1 5141:1 5162:1 
50 1134:1 
1.755859375 264:1 4426:1 
1.755859375 1413:1 2235:1 3149:1 3421:1 3948:1 5765:1 
50 
50 3397:1 
1.755859375 1136:1 2975:1 3149:1 3421:1 
1.755859375 1070:1 1075:1 1136:1 1323:1 2975:1 3876:1 4747:1 5291:1 5336:1 5587:1 
50 
50 
50 3149:1 3421:1 4917:1 
1.755859375 2967:1 3149:1 3421:1 4695:1 
1.755859375 2557:1 2811:1 
50 
50 2836:1 
50 
50 
50 2811:1 3149:1 3421:1 
50 4917:1 
1.755859375 822:1 1708:1 2784:1 4063:1 4273:1 4366:1 
1.755859375 264:1 3757:1 
50 
50 173:1 
50 1544:1 5736:1 
1.755859375 1075:1 3921:1 
50 755:1 2330:1 
1.755859375 989:1 1709:1 4954:1 
50 264:1 
1.755859375 182:1 2811:1 4631:1 5179:1 5660:1 
1.755859375 2158:1 3091:1 3331:1 3387:1 4063:1 4273:1 
50 
50 2811:1 
1.755859375 264:1 2303:1 5099:1 5384:1 
1.755859375 264:1 803:1 5286:1 
50 4079:1 5219:1 
1.755859375 264:1 1968:1 2494:1 4358:1 4424:1 5567:1 
50 
50 
1.755859375 264:1 487:1 2584:1 3112:1 5075:1 
1.755859375 4886:1 
1.755859375 68:1 2176:1 3149:1 3421:1 4917:1 5060:1 
50 4790:1 
50 2811:1 3149:1 3421:1 
1.755859375 1136:1 2325:1 2975:1 
1.755859375 2032:1 3149:1 3421:1 3961:1 4085:1 4750:1 5503:1 5768:1 
1.755859375 1544:1 2071:1 2831:1 3082:1 3554:1 5736:1 
1.755859375 264:1 651:1 
50 
1.755859375 1799:1 3773:1 
1.755859375 3279:1 
50 
1.755859375 222:1 264:1 996:1 1656:1 3092:1 
1.755859375 389:1 487:1 549:1 2584:1 4790:1 
1.755859375 524:1 796:1 2811:1 2866:1 3413:1 3566:1 4160:1 4272:1 4386:1 5049:1 5874:1 
50 
50 264:1 2645:1 
50 3149:1 3421:1 
50 1155:1 2819:1 
1.755859375 1140:1 2072:1 3165:1 3339:1 4063:1 4266:1 4273:1 
1.755859375 264:1 570:1 648:1 3854:1 4150:1 4530:1 4646:1 
1.755859375 4652:1 
1.755859375 3556:1 3794:1 3913:1 4415:1 5881:1 5935:1 
50 
1.755859375 1045:1 4334:1 4433:1 5339:1 
1.755859375 2150:1 4063:1 4273:1 4747:1 
1.755859375 487:1 1871:1 2074:1 2584:1 5132:1 5525:1 
50 3279:1 
1.755859375 1221:1 1493:1 2534:1 2574:1 2705:1 3240:1 3557:1 3591:1 4567:1 4915:1 4919:1 4944:1 5654:1 5906:1 
1.755859375 1479:1 4953:1 
50 
50 264:1 5846:1 
50 3165:1 3339:1 4266:1 
50 264:1 2355:1 
1.755859375 3118:1 3358:1 4366:1 
1.755859375 481:1 644:1 2342:1 3348:1 4771:1 4788:1 
1.755859375 264:1 402:1 613:1 706:1 1830:1 3273:1 4591:1 5217:1 
50 1140:1 
1.755859375 2335:1 3165:1 3339:1 4063:1 4266:1 4273:1 4625:1 5072:1 
1.755859375 264:1 4747:1 
1.755859375 140:1 595:1 1552:1 1678:1 1891:1 2166:1 2197:1 2260:1 2759:1 3681:1 3694:1 4917:1 
1.755859375 1871:1 2630:1 3935:1 4063:1 4273:1 
50 
1.755859375 264:1 4765:1 
1.755859375 1088:1 1136:1 2975:1 
1.755859375 1045:1 2073:1 4747:1 
1.755859375 264:1 1849:1 2811:1 3773:1 5762:1 
1.755859375 264:1 848:1 3938:1 
50 
1.755859375 83:1 192:1 1140:1 1718:1 2184:1 3697:1 4761:1 5453:1 5699:1 
1.755859375 487:1 2584:1 3358:1 3558:1 4401:1 4747:1 
1.755859375 264:1 4018:1 
1.755859375 375:1 2759:1 4422:1 
1.755859375 264:1 3126:1 3149:1 3421:1 5816:1 
1.755859375 264:1 4079:1 4742:1 5219:1 
50 
1.755859375 1859:1 
1.755859375 2355:1 2866:1 3566:1 5049:1 
1.755859375 264:1 1124:1 2265:1 2681:1 4516:1 
1.755859375 1140:1 2026:1 
1.755859375 2549:1 
1.755859375 1298:1 1773:1 3727:1 3863:1 4914:1 5167:1 
1.755859375 448:1 1124:1 1798:1 2334:1 4281:1 4320:1 4516:1 4734:1 5698:1 
1.755859375 2269:1 4886:1 
1.755859375 1128:1 3149:1 3421:1 3942:1 5082:1 
1.755859375 2071:1 2811:1 3363:1 
1.755859375 3126:1 3451:1 5816:1 
1.755859375 651:1 806:1 1427:1 1582:1 2221:1 3656:1 3773:1 5602:1 5604:1 
50 
1.755859375 44:1 264:1 1359:1 3757:1 4451:1 
50 2494:1 
1.755859375 3961:1 4085:1 4449:1 
50 264:1 2645:1 
1.755859375 264:1 2115:1 2355:1 4366:1 4557:1 5646:1 
1.755859375 3958:1 4917:1 
50 2334:1 3149:1 3421:1 
1.755859375 264:1 2265:1 3165:1 3339:1 3773:1 4051:1 4131:1 4266:1 4335:1 
50 875:1 
1.755859375 2013:1 2055:1 2494:1 5874:1 
1.755859375 264:1 1798:1 3126:1 4281:1 4734:1 5816:1 
1.755859375 264:1 1073:1 3149:1 3413:1 3421:1 3623:1 3681:1 3694:1 3773:1 4272:1 4310:1 4386:1 
1.755859375 446:1 1610:1 4358:1 4682:1 5116:1 5262:1 5281:1 
50 642:1 2811:1 2815:1 5742:1 
1.755859375 533:1 4143:1 4573:1 4636:1 5768:1 
50 
1.755859375 4111:1 
50 
1.755859375 264:1 5456:1 
50 264:1 3149:1 3421:1 
50 
1.755859375 264:1 2273:1 3343:1 5916:1 
1.755859375 3118:1 3854:1 4625:1 5072:1 
50 1028:1 1381:1 3142:1 5561:1 5648:1 
1.755859375 450:1 1821:1 1918:1 3745:1 4018:1 4927:1 
1.755859375 1073:1 2811:1 3623:1 4310:1 4825:1 
50 264:1 4063:1 4273:1 
1.755859375 647:1 3358:1 4358:1 
1.755859375 2300:1 2543:1 3115:1 3189:1 4065:1 
1.755859375 301:1 2906:1 3481:1 4607:1 4917:1 5148:1 5882:1 
1.755859375 264:1 3728:1 
50 4917:1 
1.755859375 2010:1 3443:1 4698:1 5099:1 
1.755859375 1871:1 3358:1 
50 5874:1 
1.755859375 2486:1 3936:1 
1.755859375 218:1 264:1 1309:1 2811:1 3149:1 3421:1 5443:1 5517:1 5874:1 
1.755859375 264:1 2811:1 4714:1 
1.755859375 4063:1 4154:1 4273:1 4959:1 5301:1 5302:1 5667:1 
50 3011:1 
1.755859375 1056:1 1195:1 4063:1 4273:1 
50 3149:1 3421:1 
1.755859375 1070:1 4063:1 4273:1 5384:1 
1.755859375 264:1 2763:1 4262:1 
1.755859375 2871:1 3149:1 3421:1 4366:1 5916:1 
1.755859375 703:1 5274:1 
50 
1.755859375 264:1 544:1 613:1 822:1 1708:1 1830:1 2784:1 2788:1 3149:1 3273:1 3421:1 3773:1 4063:1 4273:1 4358:1 4441:1 4591:1 4747:1 4917:1 
1.755859375 128:1 1526:1 2062:1 2370:1 2547:1 2557:1 3978:1 4107:1 4791:1 5075:1 5941:1 
1.755859375 87:1 264:1 2010:1 3443:1 4698:1 
1.755859375 651:1 683:1 5296:1 
50 
50 
1.755859375 4178:1 
50 
1.755859375 2751:1 5233:1 
1.755859375 662:1 1155:1 2819:1 4196:1 
1.755859375 264:1 1140:1 2265:1 3729:1 4366:1 
50 3940:1 3944:1 4116:1 5267:1 
1.755859375 264:1 1968:1 4141:1 
1.755859375 4334:1 5339:1 5501:1 
1.755859375 182:1 264:1 3238:1 
50 2355:1 
1.755859375 3110:1 3883:1 5646:1 
1.755859375 4101:1 
1.755859375 264:1 1178:1 3293:1 3296:1 3480:1 
1.755859375 822:1 1708:1 1828:1 2784:1 
50 264:1 
50 
1.755859375 556:1 2438:1 2733:1 3126:1 3773:1 4322:1 5816:1 
50 264:1 1128:1 3940:1 3944:1 4116:1 5267:1 
1.755859375 3115:1 3149:1 3189:1 3421:1 3971:1 4065:1 
1.755859375 264:1 1132:1 1136:1 2975:1 3872:1 
50 4079:1 5219:1 
1.755859375 264:1 934:1 1140:1 3478:1 4079:1 5219:1 
50 
50 1351:1 1871:1 2811:1 5151:1 
1.755859375 378:1 2159:1 3149:1 3421:1 
50 264:1 
50 3773:1 
50 3149:1 3421:1 
1.755859375 395:1 424:1 2842:1 
1.755859375 264:1 781:1 788:1 794:1 1026:1 1124:1 1140:1 2943:1 4131:1 4516:1 5014:1 
1.755859375 1798:1 4281:1 4734:1 5354:1 
50 
50 1140:1 
1.755859375 264:1 475:1 1149:1 3940:1 3944:1 4067:1 4116:1 5267:1 
1.755859375 5750:1 
50 3149:1 3421:1 
50 264:1 
1.755859375 264:1 1028:1 1381:1 1825:1 1871:1 1912:1 1922:1 2015:1 2103:1 3142:1 3824:1 3961:1 4085:1 5561:1 5648:1 5672:1 
1.755859375 226:1 928:1 2132:1 2394:1 4102:1 5472:1 
1.755859375 613:1 1687:1 1830:1 3273:1 4591:1 5233:1 
1.755859375 1124:1 1680:1 3713:1 4516:1 
1.755859375 1092:1 1187:1 4790:1 
1.755859375 963:1 3149:1 3421:1 4743:1 
1.755859375 1140:1 3540:1 4790:1 5099:1 
50 
1.755859375 1453:1 2273:1 3343:1 3921:1 5390:1 5796:1 
1.755859375 796:1 822:1 1708:1 2127:1 2784:1 4160:1 5737:1 
1.755859375 264:1 787:1 1006:1 3669:1 4163:1 4461:1 
50 2811:1 4917:1 
50 
50 264:1 
1.755859375 182:1 1306:1 4790:1 
1.755859375 1629:1 2759:1 3948:1 
50 
1.755859375 1615:1 3150:1 3940:1 3944:1 4116:1 5267:1 5733:1 5842:1 
1.755859375 264:1 2265:1 3971:1 
50 264:1 3238:1 
50 264:1 
1.755859375 93:1 487:1 2003:1 2201:1 2584:1 2738:1 3978:1 4022:1 5314:1 
1.755859375 264:1 1178:1 2429:1 2563:1 2811:1 3293:1 3296:1 3480:1 4178:1 4724:1 5584:1 5756:1 
1.755859375 3713:1 4449:1 
1.755859375 2811:1 4141:1 
1.755859375 4742:1 4955:1 
50 3149:1 3421:1 3948:1 
1.755859375 258:1 264:1 694:1 1136:1 2975:1 3919:1 5635:1 5665:1 
1.755859375 264:1 4063:1 4273:1 5075:1 
1.755859375 1871:1 4199:1 
1.755859375 511:1 2338:1 4790:1 
50 264:1 
50 2811:1 
50 3773:1 
1.755859375 947:1 1688:1 1692:1 3126:1 3775:1 5478:1 5816:1 
1.755859375 2127:1 4742:1 4745:1 5737:1 
1.755859375 1155:1 1811:1 2819:1 2895:1 4063:1 4273:1 
1.755859375 687:1 1453:1 2851:1 4953:1 
1.755859375 613:1 1669:1 1830:1 2831:1 3149:1 3273:1 3421:1 4017:1 4293:1 4591:1 
1.755859375 2265:1 2523:1 2821:1 3639:1 
1.755859375 2745:1 4742:1 4747:1 
1.755859375 264:1 2733:1 3149:1 3421:1 3773:1 4453:1 4975:1 5452:1 
50 
1.755859375 264:1 1073:1 3623:1 4310:1 
1.755859375 715:1 2561:1 4274:1 4618:1 
1.755859375 23:1 264:1 1254:1 3011:1 3149:1 3421:1 5471:1 
1.755859375 264:1 2914:1 3082:1 3554:1 
1.755859375 3739:1 4278:1 
50 3875:1 
50 
1.755859375 264:1 2811:1 4063:1 4273:1 
1.755859375 4063:1 4273:1 4917:1 5660:1 
1.755859375 4079:1 4742:1 5219:1 
1.755859375 264:1 1623:1 3199:1 4079:1 4722:1 5219:1 
50 264:1 
50 2811:1 
50 4358:1 4917:1 
50 654:1 
1.755859375 1780:1 3286:1 
1.755859375 93:1 264:1 1264:1 2003:1 2201:1 2738:1 3556:1 3813:1 3913:1 4022:1 5314:1 5935:1 
1.755859375 258:1 4695:1 
1.755859375 1128:1 2811:1 3149:1 3421:1 4063:1 4273:1 5384:1 
50 264:1 4747:1 
1.755859375 1006:1 1140:1 1718:1 3669:1 3697:1 4163:1 4461:1 4742:1 4761:1 5453:1 
1.755859375 264:1 1025:1 
1.755859375 5117:1 5556:1 
1.755859375 142:1 2483:1 
1.755859375 1128:1 1134:1 1669:1 2811:1 3713:1 4017:1 4293:1 4917:1 
1.755859375 1776:1 3149:1 3244:1 3421:1 4079:1 5219:1 5238:1 
1.755859375 264:1 439:1 1028:1 1381:1 3142:1 5561:1 5648:1 
50 
1.755859375 3773:1 4917:1 5835:1 
1.755859375 264:1 613:1 1830:1 3273:1 4591:1 5203:1 5343:1 5768:1 
1.755859375 74:1 377:1 2102:1 2348:1 2355:1 2723:1 
1.755859375 264:1 3149:1 3421:1 3690:1 4950:1 4998:1 5501:1 
50 
1.755859375 264:1 1309:1 5517:1 
1.755859375 1931:1 
1.755859375 603:1 1106:1 1201:1 4079:1 5219:1 5834:1 
50 3901:1 
1.755859375 2557:1 
1.755859375 1220:1 1684:1 
1.755859375 264:1 2150:1 3149:1 3421:1 5660:1 
50 2527:1 
50 1349:1 
1.755859375 1028:1 1381:1 3142:1 3149:1 3421:1 5561:1 5648:1 
50 3149:1 3421:1 
50 5291:1 5587:1 
50 4975:1 5452:1 
1.755859375 630:1 2053:1 3594:1 3843:1 5154:1 5661:1 
50 3149:1 3421:1 
50 
1.755859375 3772:1 3948:1 4366:1 4433:1 5142:1 
1.755859375 1393:1 2028:1 2181:1 3985:1 4602:1 4917:1 
1.755859375 721:1 3901:1 4063:1 4180:1 4273:1 5636:1 5835:1 
1.755859375 3149:1 3421:1 5488:1 
1.755859375 1884:1 2811:1 3127:1 3841:1 
1.755859375 192:1 389:1 549:1 1362:1 1366:1 1828:1 2184:1 2811:1 3149:1 3421:1 3981:1 5414:1 5699:1 
1.755859375 4695:1 
50 264:1 
50 
50 
50 
50 
1.755859375 264:1 3397:1 3478:1 5748:1 
1.755859375 264:1 2431:1 3978:1 4102:1 4143:1 4573:1 5129:1 
1.755859375 192:1 2184:1 2811:1 5099:1 5699:1 
1.755859375 200:1 1480:1 1798:1 4079:1 4281:1 4734:1 5219:1 5340:1 5480:1 
1.755859375 154:1 798:1 2185:1 3238:1 3681:1 3694:1 3921:1 3989:1 
1.755859375 2811:1 4063:1 4273:1 5660:1 
50 
50 641:1 2295:1 3826:1 
50 
1.755859375 264:1 2811:1 3149:1 3150:1 3421:1 3576:1 3625:1 5733:1 5842:1 
1.755859375 2811:1 4747:1 
1.755859375 675:1 3917:1 4034:1 4253:1 5141:1 5162:1 
50 264:1 
1.755859375 1398:1 1744:1 3149:1 3421:1 
50 3824:1 
1.755859375 5895:1 
50 
50 4063:1 4273:1 
50 264:1 
50 
1.755859375 967:1 3491:1 
50 4917:1 
50 
1.755859375 160:1 856:1 2190:1 3075:1 
1.755859375 1505:1 
50 3149:1 3421:1 
1.755859375 5:1 487:1 696:1 1125:1 2446:1 2584:1 3203:1 4631:1 5179:1 
50 
1.755859375 1471:1 2010:1 2557:1 3443:1 3590:1 4063:1 4273:1 4698:1 5099:1 5229:1 
50 
1.755859375 149:1 1727:1 
50 
1.755859375 2160:1 3149:1 3421:1 4467:1 
50 5660:1 
50 4500:1 
1.755859375 450:1 2148:1 2836:1 3149:1 3421:1 4433:1 
1.755859375 4213:1 4398:1 
1.755859375 2494:1 3126:1 4360:1 5816:1 
1.755859375 62:1 155:1 264:1 422:1 1355:1 1798:1 2720:1 3110:1 3361:1 3883:1 3897:1 4281:1 4734:1 5054:1 5168:1 5334:1 5547:1 
1.755859375 71:1 144:1 598:1 713:1 1616:1 2276:1 2388:1 2811:1 3168:1 3681:1 3694:1 4358:1 4790:1 5099:1 5835:1 
1.755859375 2008:1 4917:1 
1.755859375 1450:1 2811:1 2845:1 4828:1 
1.755859375 1136:1 2576:1 2975:1 4574:1 
1.755859375 264:1 2090:1 
1.755859375 264:1 2426:1 4747:1 
1.755859375 651:1 1871:1 
1.755859375 3056:1 
1.755859375 142:1 683:1 1687:1 3149:1 3251:1 3421:1 3616:1 
1.755859375 31:1 526:1 2831:1 3602:1 5276:1 5329:1 5341:1 
1.755859375 389:1 549:1 1199:1 1478:1 4048:1 4358:1 5352:1 
50 
1.755859375 4695:1 5295:1 
1.755859375 1931:1 2836:1 4040:1 5462:1 
50 
1.755859375 1994:1 3920:1 4631:1 5179:1 5435:1 
50 
1.755859375 264:1 947:1 1398:1 1688:1 1692:1 1744:1 2811:1 4143:1 4573:1 5478:1 
1.755859375 264:1 2645:1 2836:1 5244:1 
1.755859375 5503:1 
50 3149:1 3421:1 
50 3082:1 3554:1 
50 
1.755859375 264:1 487:1 1470:1 2584:1 3149:1 3421:1 3978:1 
1.755859375 347:1 4917:1 5312:1 
50 
1.755859375 409:1 446:1 1140:1 1679:1 2811:1 3397:1 4468:1 
1.755859375 1871:1 2015:1 
50 4742:1 
50 2504:1 
1.755859375 722:1 1398:1 1744:1 3357:1 
1.755859375 2431:1 
1.755859375 1052:1 1779:1 3362:1 4985:1 
1.755859375 169:1 1669:1 2811:1 3238:1 4017:1 4293:1 4531:1 
50 
1.755859375 1220:1 1684:1 3118:1 
1.755859375 1028:1 1136:1 1381:1 2265:1 2975:1 3142:1 3149:1 3421:1 4143:1 4573:1 5561:1 5648:1 
1.755859375 1727:1 3321:1 
50 225:1 3774:1 
1.755859375 264:1 613:1 1830:1 2265:1 3273:1 3875:1 4591:1 4917:1 
1.755859375 4360:1 4998:1 
1.755859375 264:1 3240:1 4548:1 4561:1 
50 
1.755859375 264:1 3703:1 
1.755859375 2831:1 4334:1 5085:1 5339:1 
1.755859375 441:1 1571:1 1765:1 2811:1 3921:1 5244:1 
1.755859375 264:1 2265:1 3082:1 3149:1 3421:1 3554:1 5291:1 5587:1 
1.755859375 264:1 2811:1 2906:1 3149:1 3421:1 4917:1 5148:1 
50 
50 264:1 3126:1 5816:1 
1.755859375 2127:1 4131:1 4143:1 4573:1 5737:1 
50 1134:1 
1.755859375 264:1 3082:1 3554:1 4251:1 4358:1 5620:1 
1.755859375 4747:1 
50 1028:1 1381:1 2811:1 3142:1 5561:1 5648:1 
1.755859375 610:1 1117:1 1798:1 4281:1 4734:1 
50 4063:1 4273:1 
50 
1.755859375 163:1 1301:1 2096:1 3773:1 4650:1 4917:1 
50 
1.755859375 2723:1 3279:1 3732:1 
50 
50 
1.755859375 264:1 1610:1 3465:1 3518:1 
1.755859375 272:1 1079:1 1140:1 1633:1 1664:1 3279:1 3402:1 4079:1 4790:1 5219:1 
50 4917:1 
1.755859375 2000:1 2802:1 3126:1 3439:1 5816:1 
50 2271:1 
50 875:1 
1.755859375 264:1 1871:1 5874:1 
1.755859375 2265:1 3342:1 
1.755859375 575:1 5415:1 
1.755859375 231:1 1480:1 4954:1 5340:1 5480:1 
1.755859375 487:1 1908:1 2584:1 3358:1 4079:1 4790:1 5177:1 5219:1 
1.755859375 264:1 874:1 2811:1 5910:1 
1.755859375 487:1 2584:1 5916:1 
1.755859375 2515:1 3120:1 3940:1 3944:1 4116:1 5267:1 5610:1 5684:1 5852:1 
50 
1.755859375 264:1 1948:1 2811:1 3979:1 4143:1 4232:1 4573:1 
1.755859375 3165:1 3339:1 3510:1 4266:1 4366:1 
1.755859375 1128:1 1354:1 1860:1 
50 
50 264:1 2015:1 3149:1 3421:1 
1.755859375 264:1 389:1 549:1 1828:1 3149:1 3188:1 3421:1 3938:1 4360:1 
50 357:1 360:1 2314:1 2538:1 
1.755859375 2191:1 2811:1 
1.755859375 264:1 2071:1 3602:1 4358:1 5276:1 5708:1 
1.755859375 149:1 2334:1 4063:1 4273:1 
50 3149:1 3421:1 
1.755859375 698:1 3911:1 4002:1 5739:1 
1.755859375 544:1 2788:1 4441:1 
1.755859375 1111:1 3286:1 4917:1 4965:1 5895:1 
1.755859375 160:1 856:1 1088:1 2190:1 2418:1 3489:1 3698:1 4079:1 5042:1 5219:1 
1.755859375 641:1 2295:1 2811:1 3826:1 5660:1 
50 
50 630:1 2053:1 3149:1 3421:1 3594:1 5154:1 5661:1 
50 
1.755859375 264:1 2271:1 4695:1 4953:1 
1.755859375 52:1 57:1 746:1 1790:1 5846:1 
50 2759:1 
50 3149:1 3421:1 4839:1 
1.755859375 264:1 1453:1 3807:1 
50 264:1 3149:1 3421:1 
50 3149:1 3421:1 
1.755859375 422:1 1355:1 2720:1 3082:1 3554:1 4073:1 
50 
50 
50 
1.755859375 182:1 3082:1 3554:1 
1.755859375 264:1 5268:1 
50 3118:1 
1.755859375 182:1 3149:1 3421:1 3773:1 5501:1 
1.755859375 264:1 1014:1 2234:1 2505:1 3812:1 4407:1 4992:1 
1.755859375 2044:1 2811:1 3165:1 3339:1 3388:1 4063:1 4266:1 4273:1 
1.755859375 264:1 2194:1 2946:1 3567:1 4917:1 
50 
1.755859375 264:1 1026:1 
1.755859375 264:1 3149:1 3421:1 4548:1 
1.755859375 683:1 1849:1 
1.755859375 1028:1 1381:1 2332:1 2811:1 3142:1 4248:1 4358:1 5561:1 5648:1 
1.755859375 822:1 1678:1 1708:1 1891:1 2260:1 2784:1 3149:1 3421:1 4063:1 4273:1 4366:1 
50 5768:1 
50 3149:1 3421:1 
1.755859375 3812:1 
1.755859375 264:1 1018:1 1349:1 2811:1 3165:1 3339:1 4039:1 4044:1 4079:1 4266:1 4358:1 4934:1 5219:1 
1.755859375 264:1 683:1 2742:1 2811:1 3149:1 3421:1 5923:1 
50 264:1 
1.755859375 2645:1 3198:1 4347:1 
1.755859375 2102:1 4917:1 
50 487:1 2584:1 
1.755859375 251:1 1028:1 1381:1 2811:1 3142:1 4358:1 4790:1 5233:1 5561:1 5648:1 
1.755859375 487:1 2584:1 3149:1 3421:1 3948:1 5384:1 
1.755859375 264:1 966:1 4180:1 4917:1 5636:1 
1.755859375 3126:1 3901:1 5816:1 
50 1136:1 2975:1 
1.755859375 264:1 1669:1 1871:1 2265:1 4017:1 4293:1 
1.755859375 1558:1 1937:1 1942:1 2811:1 3149:1 3421:1 4358:1 5505:1 
50 3149:1 3421:1 
50 
50 3149:1 3421:1 3978:1 
1.755859375 1134:1 1811:1 2813:1 2895:1 
50 
50 264:1 4917:1 
1.755859375 264:1 1865:1 2811:1 4790:1 
1.755859375 446:1 1648:1 4868:1 5516:1 5758:1 
50 4063:1 4273:1 
1.755859375 4561:1 4917:1 
50 1118:1 
50 3082:1 3554:1 
1.755859375 216:1 446:1 511:1 1032:1 3165:1 3339:1 4266:1 4366:1 
1.755859375 1724:1 3149:1 3421:1 5034:1 
1.755859375 630:1 1136:1 1300:1 1359:1 2053:1 2429:1 2922:1 2975:1 3594:1 3961:1 4085:1 4724:1 5154:1 5584:1 5661:1 5756:1 
1.755859375 195:1 270:1 2355:1 3061:1 3165:1 3339:1 3476:1 4063:1 4266:1 4273:1 4569:1 5424:1 5773:1 
1.755859375 3279:1 4079:1 5219:1 
1.755859375 264:1 2044:1 3388:1 3940:1 3944:1 4063:1 4116:1 4273:1 5267:1 
1.755859375 264:1 1626:1 1786:1 3149:1 3421:1 3439:1 4334:1 5339:1 5557:1 
50 
1.755859375 264:1 5916:1 
50 
1.755859375 1136:1 1158:1 1734:1 2975:1 4224:1 4969:1 
1.755859375 116:1 855:1 1871:1 4245:1 4625:1 5072:1 5238:1 
1.755859375 1134:1 1136:1 2975:1 3149:1 3421:1 
1.755859375 1968:1 2271:1 3358:1 
1.755859375 487:1 2584:1 3885:1 4917:1 
1.755859375 3713:1 4695:1 
1.755859375 264:1 822:1 1708:1 2784:1 2811:1 2822:1 2953:1 3482:1 3484:1 4174:1 
50 3396:1 
50 182:1 4790:1 
50 
1.755859375 1018:1 2811:1 3961:1 4039:1 4044:1 4085:1 4934:1 5085:1 
1.755859375 264:1 5271:1 
50 264:1 
50 3149:1 3421:1 
50 2019:1 2811:1 
1.755859375 264:1 1988:1 2355:1 3109:1 3201:1 
1.755859375 2073:1 2718:1 3126:1 3492:1 4917:1 5816:1 
50 2811:1 
50 
1.755859375 264:1 2029:1 2167:1 
1.755859375 264:1 2020:1 3165:1 3339:1 3350:1 4266:1 4514:1 4740:1 4790:1 
50 
1.755859375 264:1 5082:1 
1.755859375 947:1 1688:1 1692:1 2759:1 2811:1 3491:1 4079:1 4695:1 5219:1 5478:1 
1.755859375 511:1 722:1 1398:1 1744:1 3149:1 3421:1 3635:1 
1.755859375 264:1 414:1 1124:1 1871:1 3602:1 4516:1 5276:1 
50 5099:1 5835:1 
50 5588:1 
1.755859375 3082:1 3286:1 3554:1 4063:1 4273:1 4433:1 4917:1 
1.755859375 261:1 809:1 1718:1 2129:1 2733:1 3697:1 3773:1 4131:1 4761:1 5453:1 
50 1190:1 
1.755859375 3602:1 4366:1 4625:1 5072:1 5276:1 
1.755859375 1648:1 1871:1 3149:1 3421:1 4868:1 5516:1 
1.755859375 4453:1 
50 3165:1 3339:1 4063:1 4266:1 4273:1 
50 3149:1 3421:1 
50 1619:1 
1.755859375 4180:1 5244:1 5636:1 
50 
1.755859375 5296:1 
50 
50 4453:1 
50 264:1 
1.755859375 603:1 675:1 2811:1 4034:1 4253:1 5141:1 5162:1 
50 
1.755859375 630:1 1968:1 2053:1 3594:1 4187:1 5154:1 5661:1 
1.755859375 4483:1 4990:1 
1.755859375 3047:1 4747:1 5291:1 5587:1 
1.755859375 3713:1 4917:1 
1.755859375 1871:1 2170:1 2382:1 2811:1 3167:1 3436:1 4076:1 4079:1 5219:1 
50 4917:1 
50 
50 
50 3238:1 
50 613:1 1830:1 2811:1 3273:1 4063:1 4273:1 4591:1 
50 4063:1 4273:1 
1.755859375 2355:1 4634:1 
1.755859375 1709:1 4024:1 
1.755859375 264:1 375:1 3602:1 4422:1 5276:1 
1.755859375 1666:1 2811:1 3940:1 3944:1 4116:1 4833:1 5267:1 
50 
1.755859375 1140:1 1610:1 4001:1 4011:1 
1.755859375 621:1 1124:1 1680:1 2234:1 2505:1 3961:1 4063:1 4085:1 4273:1 4407:1 4516:1 4992:1 
1.755859375 264:1 2101:1 3149:1 3421:1 3602:1 3727:1 4914:1 5276:1 5462:1 
1.755859375 1028:1 1381:1 2102:1 3142:1 3681:1 3694:1 4063:1 4273:1 5561:1 5648:1 
1.755859375 2836:1 4569:1 
50 1155:1 2819:1 
50 
1.755859375 2274:1 2822:1 3129:1 3149:1 3421:1 3482:1 3484:1 4714:1 5001:1 
1.755859375 264:1 407:1 1871:1 5158:1 
1.755859375 2078:1 3149:1 3421:1 5873:1 
1.755859375 264:1 1798:1 3082:1 3554:1 4281:1 4734:1 
1.755859375 264:1 1300:1 1468:1 2155:1 2272:1 2672:1 2922:1 
50 264:1 3149:1 3421:1 
1.755859375 2891:1 3773:1 4321:1 4330:1 5660:1 
50 264:1 
1.755859375 264:1 446:1 1125:1 3203:1 3612:1 5290:1 5708:1 
1.755859375 4360:1 4917:1 
1.755859375 2034:1 4013:1 
50 
1.755859375 258:1 1968:1 3807:1 4903:1 
50 
50 
1.755859375 822:1 1708:1 2784:1 4742:1 
50 
50 
1.755859375 1199:1 3510:1 4048:1 
50 4747:1 
1.755859375 3149:1 3421:1 4917:1 5099:1 
1.755859375 613:1 1830:1 2606:1 3149:1 3273:1 3421:1 3449:1 4591:1 5835:1 
50 264:1 
50 4618:1 
50 
1.755859375 52:1 57:1 746:1 1140:1 1790:1 2071:1 
1.755859375 160:1 264:1 856:1 2190:1 
1.755859375 2701:1 2770:1 4693:1 4790:1 4917:1 
50 2811:1 
50 
1.755859375 264:1 1258:1 1999:1 2594:1 2811:1 3126:1 4548:1 5816:1 
1.755859375 176:1 1136:1 1742:1 2379:1 2975:1 3773:1 5460:1 
50 264:1 4917:1 
50 
1.755859375 2906:1 3149:1 3421:1 5148:1 5660:1 
50 264:1 3149:1 3421:1 4063:1 4273:1 
1.755859375 264:1 599:1 822:1 1708:1 2784:1 3149:1 3421:1 4950:1 
1.755859375 264:1 1014:1 1769:1 3150:1 5733:1 5842:1 
1.755859375 93:1 2003:1 2201:1 2429:1 2738:1 4022:1 4724:1 4790:1 5314:1 5584:1 5756:1 
1.755859375 1359:1 2015:1 
1.755859375 1871:1 3231:1 3403:1 4198:1 5058:1 
1.755859375 396:1 806:1 1427:1 1582:1 2811:1 3126:1 3656:1 5602:1 5604:1 5816:1 
1.755859375 264:1 1709:1 3240:1 3403:1 5058:1 
1.755859375 803:1 1359:1 5286:1 
1.755859375 1709:1 3590:1 3812:1 5229:1 
1.755859375 4334:1 4398:1 5339:1 
1.755859375 711:1 2733:1 3773:1 3978:1 4323:1 5554:1 
1.755859375 264:1 1056:1 3126:1 5816:1 
1.755859375 3601:1 4063:1 4273:1 
1.755859375 2813:1 
1.755859375 264:1 2271:1 
1.755859375 1136:1 2975:1 5839:1 
50 
1.755859375 62:1 155:1 264:1 540:1 3885:1 3897:1 5168:1 
50 4953:1 
50 4790:1 
1.755859375 264:1 3149:1 3421:1 3885:1 4262:1 
1.755859375 1028:1 1045:1 1381:1 3142:1 3149:1 3421:1 3533:1 4143:1 4262:1 4573:1 5561:1 5648:1 
1.755859375 654:1 1140:1 1393:1 2115:1 2181:1 3985:1 4602:1 4790:1 5660:1 
50 264:1 1865:1 
1.755859375 1206:1 3620:1 4790:1 
50 5846:1 
1.755859375 4143:1 4573:1 5384:1 5466:1 
50 3773:1 
1.755859375 1124:1 2811:1 4516:1 
50 2811:1 
1.755859375 264:1 1923:1 1999:1 2127:1 2594:1 3948:1 4790:1 5737:1 
1.755859375 264:1 1354:1 2071:1 5075:1 
50 487:1 2584:1 
1.755859375 2723:1 3082:1 3554:1 
50 
50 2451:1 2580:1 3890:1 
1.755859375 264:1 272:1 1199:1 1402:1 1664:1 1871:1 2515:1 2871:1 3120:1 3402:1 4048:1 5610:1 5684:1 5852:1 
1.755859375 755:1 2268:1 2330:1 
50 
1.755859375 264:1 1232:1 5419:1 5660:1 5739:1 5754:1 
50 4079:1 5219:1 
1.755859375 1798:1 2705:1 4281:1 4734:1 4790:1 
50 1678:1 1891:1 2260:1 
1.755859375 1666:1 1871:1 4790:1 
1.755859375 2866:1 3149:1 3421:1 3566:1 4063:1 4154:1 4273:1 5049:1 5302:1 5835:1 
1.755859375 1136:1 2494:1 2975:1 
1.755859375 264:1 4079:1 5076:1 5219:1 5660:1 
50 
1.755859375 1140:1 5895:1 
1.755859375 2811:1 4483:1 5099:1 
1.755859375 264:1 737:1 5590:1 
1.755859375 822:1 1136:1 1708:1 2784:1 2953:1 2967:1 2975:1 4174:1 
1.755859375 2645:1 
1.755859375 182:1 1140:1 1334:1 3757:1 4115:1 5751:1 
1.755859375 264:1 1468:1 2272:1 3165:1 3339:1 4266:1 
50 264:1 
1.755859375 2:1 1124:1 1140:1 1191:1 1938:1 3958:1 4516:1 
1.755859375 3948:1 4917:1 5173:1 
1.755859375 1140:1 2160:1 2897:1 3329:1 3940:1 3944:1 4079:1 4116:1 5219:1 5267:1 
1.755859375 4075:1 
50 3601:1 
1.755859375 2811:1 3238:1 
1.755859375 688:1 1140:1 
1.755859375 71:1 144:1 519:1 1616:1 1640:1 2276:1 2388:1 4360:1 5660:1 
50 3149:1 3421:1 
50 
1.755859375 1468:1 2272:1 4063:1 4273:1 4655:1 
50 
50 2355:1 
1.755859375 977:1 1548:1 1754:1 2411:1 3926:1 3959:1 4259:1 5260:1 5723:1 
50 
50 
1.755859375 3149:1 3421:1 4049:1 4063:1 4273:1 4886:1 
1.755859375 446:1 544:1 2788:1 4441:1 4790:1 4839:1 
50 4366:1 
1.755859375 1968:1 2271:1 5874:1 
-0.2431640625 4714:1 4969:1 
-0.2431640625 264:1 1140:1 2265:1 5165:1 
-0.2431640625 5082:1 5404:1 
-0.2431640625 2980:1 4143:1 4573:1 
-50 3082:1 3554:1 
-0.2431640625 264:1 375:1 4063:1 4273:1 4422:1 5216:1 5396:1 
-0.2431640625 357:1 360:1 2314:1 2538:1 3681:1 3694:1 
-0.2431640625 264:1 1068:1 1423:1 1677:1 1683:1 4754:1 4821:1 4903:1 4975:1 5452:1 
-0.2431640625 331:1 370:1 3240:1 3773:1 3854:1 4021:1 5030:1 5859:1 
-0.2431640625 1313:1 1331:1 2265:1 2795:1 
-0.2431640625 264:1 542:1 2446:1 5904:1 
-0.2431640625 2494:1 3980:1 5274:1 
-0.2431640625 264:1 2504:1 4366:1 4983:1 
-0.2431640625 264:1 1303:1 4063:1 4273:1 
-0.2431640625 946:1 3004:1 3043:1 3179:1 3921:1 4079:1 4328:1 5195:1 5219:1 5382:1 5794:1 
-0.2431640625 3149:1 3421:1 4136:1 5549:1 
-0.2431640625 264:1 375:1 2102:1 2811:1 3681:1 3694:1 4131:1 4422:1 5216:1 
-0.2431640625 264:1 4636:1 
-0.2431640625 1104:1 3165:1 3339:1 4063:1 4266:1 4273:1 
-0.2431640625 612:1 3149:1 3421:1 5390:1 5796:1 
-0.2431640625 1334:1 4115:1 5751:1 
-0.2431640625 264:1 2811:1 3164:1 4433:1 
-0.2431640625 259:1 1055:1 1968:1 3784:1 4917:1 
-0.2431640625 264:1 759:1 4154:1 4532:1 4939:1 5088:1 5186:1 5302:1 
-0.2431640625 264:1 1264:1 
-0.2431640625 2811:1 4358:1 4953:1 5099:1 
-0.2431640625 1828:1 2287:1 
-0.2431640625 539:1 1335:1 2073:1 2334:1 3115:1 3189:1 3927:1 4065:1 4633:1 
-0.2431640625 599:1 3938:1 
-0.2431640625 264:1 1288:1 3573:1 4606:1 5680:1 
-0.2431640625 264:1 3115:1 3149:1 3189:1 3421:1 4065:1 
-0.2431640625 264:1 675:1 2062:1 2370:1 4034:1 4253:1 5141:1 5162:1 5941:1 
-0.2431640625 264:1 2433:1 5208:1 
-0.2431640625 264:1 703:1 1295:1 
-0.2431640625 2007:1 3560:1 5866:1 
-0.2431640625 1128:1 3149:1 3421:1 
-0.2431640625 703:1 1150:1 2019:1 
-0.2431640625 264:1 675:1 1054:1 4034:1 4196:1 4253:1 4975:1 5141:1 5162:1 5452:1 
-0.2431640625 873:1 3921:1 
-0.2431640625 1014:1 4790:1 4959:1 5301:1 
-0.2431640625 946:1 3004:1 3043:1 3179:1 4101:1 4328:1 5195:1 5382:1 5794:1 
-0.2431640625 3149:1 3421:1 4063:1 4273:1 4767:1 
-0.2431640625 1865:1 3875:1 4143:1 4573:1 
-0.2431640625 4063:1 4273:1 5583:1 
-0.2431640625 2537:1 2811:1 
-0.2431640625 4962:1 
-0.2431640625 264:1 487:1 1871:1 2584:1 3961:1 4085:1 4674:1 
-0.2431640625 264:1 1468:1 1669:1 2272:1 4017:1 4293:1 4662:1 
-0.2431640625 264:1 4955:1 
-0.2431640625 222:1 1128:1 3092:1 
-50 264:1 2723:1 
-0.2431640625 182:1 362:1 2471:1 2998:1 3149:1 3421:1 
-0.2431640625 264:1 1334:1 4115:1 4863:1 5564:1 5751:1 
-0.2431640625 264:1 806:1 1427:1 1582:1 3656:1 3773:1 5602:1 5604:1 
-0.2431640625 225:1 487:1 2443:1 2557:1 2584:1 3774:1 4504:1 
-0.2431640625 594:1 1044:1 
-0.2431640625 264:1 1871:1 2515:1 2811:1 3120:1 5610:1 5684:1 5852:1 
-50 264:1 2015:1 3149:1 3421:1 
-0.2431640625 1787:1 2685:1 
-0.2431640625 264:1 1243:1 2980:1 4472:1 
-0.2431640625 378:1 2159:1 
-0.2431640625 61:1 95:1 1240:1 1343:1 1564:1 2334:1 3302:1 4980:1 5658:1 
-0.2431640625 264:1 755:1 1533:1 2330:1 4507:1 5291:1 5587:1 
-0.2431640625 2891:1 4321:1 4330:1 4969:1 
-0.2431640625 441:1 1571:1 1765:1 1811:1 2013:1 2015:1 2895:1 3681:1 3694:1 4063:1 4273:1 
-0.2431640625 1028:1 1381:1 2811:1 3142:1 4063:1 4143:1 4273:1 4358:1 4573:1 5561:1 5648:1 
-0.2431640625 264:1 806:1 1427:1 1582:1 2150:1 2337:1 2351:1 3656:1 5602:1 5604:1 
-0.2431640625 62:1 155:1 2563:1 3897:1 4063:1 4273:1 5168:1 5660:1 
-0.2431640625 1186:1 3149:1 3421:1 5709:1 5721:1 
-0.2431640625 194:1 4394:1 
-0.2431640625 369:1 1140:1 2088:1 3118:1 
-0.2431640625 755:1 2330:1 5217:1 
-0.2431640625 2645:1 3238:1 
-0.2431640625 1117:1 
-0.2431640625 264:1 1561:1 3665:1 4000:1 4006:1 4968:1 
-0.2431640625 1199:1 1258:1 1871:1 2007:1 2188:1 4048:1 
-0.2431640625 2405:1 3082:1 3554:1 4061:1 5708:1 
-0.2431640625 1196:1 1504:1 1908:1 2856:1 3229:1 5177:1 
-0.2431640625 1473:1 2010:1 3443:1 3729:1 4698:1 5099:1 
-0.2431640625 525:1 634:1 1793:1 3149:1 3421:1 
-0.2431640625 2693:1 4433:1 4984:1 
-0.2431640625 2008:1 3149:1 3421:1 5165:1 
-0.2431640625 264:1 806:1 1427:1 1582:1 2265:1 3240:1 3656:1 5602:1 5604:1 
-0.2431640625 1871:1 2811:1 3149:1 3240:1 3421:1 5244:1 
-0.2431640625 264:1 1125:1 2946:1 3203:1 3567:1 
-0.2431640625 1140:1 3396:1 
-0.2431640625 1871:1 4152:1 
-0.2431640625 2019:1 2811:1 3149:1 3421:1 5446:1 
-0.2431640625 332:1 2073:1 
-0.2431640625 224:1 307:1 863:1 4366:1 
-0.2431640625 2759:1 5925:1 
-0.2431640625 525:1 634:1 1793:1 4063:1 4213:1 4273:1 4366:1 
-0.2431640625 264:1 487:1 1286:1 2584:1 
-0.2431640625 1121:1 3860:1 4023:1 4063:1 4273:1 4632:1 5211:1 
-0.2431640625 1026:1 
-0.2431640625 23:1 264:1 675:1 1137:1 1254:1 3149:1 3421:1 4034:1 4253:1 5141:1 5162:1 5471:1 
-0.2431640625 347:1 1039:1 1416:1 1425:1 1456:1 3192:1 5312:1 
-0.2431640625 2520:1 3149:1 3421:1 4143:1 4573:1 
-0.2431640625 1398:1 1744:1 3688:1 4485:1 4840:1 
-0.2431640625 264:1 3089:1 4371:1 
-0.2431640625 653:1 661:1 3354:1 5660:1 
-0.2431640625 264:1 2620:1 4714:1 4951:1 
-0.2431640625 264:1 1504:1 2723:1 3921:1 
-0.2431640625 603:1 3877:1 4406:1 5384:1 5726:1 
-0.2431640625 182:1 675:1 4034:1 4253:1 4790:1 5141:1 5162:1 
-0.2431640625 264:1 1136:1 2975:1 5939:1 
-0.2431640625 62:1 155:1 2953:1 3897:1 4174:1 5168:1 
-0.2431640625 1871:1 2811:1 3149:1 3421:1 3436:1 4358:1 
-0.2431640625 154:1 603:1 798:1 2185:1 3989:1 4790:1 
-0.2431640625 358:1 1545:1 3149:1 3421:1 5680:1 
-0.2431640625 264:1 590:1 1128:1 2627:1 2645:1 3885:1 4780:1 5562:1 
-0.2431640625 1915:1 
-0.2431640625 1190:1 3439:1 
-0.2431640625 264:1 1960:1 3598:1 4362:1 
-0.2431640625 2811:1 4742:1 
-0.2431640625 1718:1 3697:1 4761:1 5453:1 
-0.2431640625 4533:1 
-0.2431640625 636:1 3149:1 3421:1 3773:1 4948:1 5824:1 
-0.2431640625 698:1 3238:1 3911:1 3948:1 4002:1 4178:1 5660:1 
-0.2431640625 3582:1 4975:1 5452:1 
-0.2431640625 264:1 1309:1 5517:1 5635:1 
-0.2431640625 556:1 2811:1 
-0.2431640625 1186:1 2015:1 2811:1 4358:1 4500:1 5709:1 5721:1 
-0.2431640625 963:1 1054:1 4743:1 
-0.2431640625 3689:1 4708:1 5903:1 
-0.2431640625 958:1 1323:1 1324:1 5336:1 
-0.2431640625 264:1 2315:1 2585:1 3149:1 3391:1 3421:1 
-0.2431640625 432:1 5184:1 5597:1 
-0.2431640625 947:1 1688:1 1692:1 2099:1 3773:1 5212:1 5478:1 
-0.2431640625 2798:1 
-0.2431640625 1052:1 1128:1 1779:1 2836:1 3149:1 3421:1 4366:1 4985:1 
-0.2431640625 182:1 264:1 1118:1 1140:1 1871:1 2265:1 2334:1 2674:1 2763:1 5660:1 
-0.2431640625 264:1 680:1 1884:1 2563:1 3127:1 3677:1 4032:1 4366:1 5291:1 5587:1 
-0.2431640625 1118:1 3440:1 
-0.2431640625 614:1 630:1 1871:1 2053:1 3149:1 3421:1 3436:1 3483:1 3594:1 4063:1 4273:1 5109:1 5154:1 5661:1 
-0.2431640625 3492:1 
-0.2431640625 272:1 530:1 1199:1 1349:1 1544:1 1664:1 1718:1 2811:1 3126:1 3402:1 3697:1 4048:1 4761:1 4917:1 5453:1 5736:1 5816:1 
-0.2431640625 2071:1 4150:1 
-0.2431640625 675:1 3149:1 3421:1 4034:1 4253:1 4825:1 5141:1 5162:1 5660:1 
-0.2431640625 651:1 2443:1 
-0.2431640625 3208:1 3358:1 
-0.2431640625 264:1 1714:1 
-0.2431640625 1393:1 2181:1 3948:1 3985:1 4602:1 5770:1 
-0.2431640625 264:1 1140:1 1468:1 2272:1 4063:1 4273:1 
-0.2431640625 264:1 4262:1 5477:1 5496:1 
-0.244140625 264:1 1113:1 2241:1 3149:1 3421:1 3938:1 4742:1 5396:1 5499:1 
-0.244140625 264:1 441:1 1121:1 1571:1 1765:1 2071:1 2234:1 2505:1 3573:1 4407:1 4632:1 4992:1 5708:1 
-0.244140625 1140:1 1978:1 2073:1 
-0.244140625 31:1 264:1 3961:1 4085:1 5329:1 
-0.244140625 210:1 2851:1 3149:1 3421:1 
-0.244140625 2431:1 5306:1 5643:1 
-0.244140625 989:1 1351:1 2300:1 3149:1 3421:1 5151:1 
-0.244140625 590:1 3933:1 4451:1 
-0.244140625 755:1 1451:1 2330:1 2894:1 
-0.244140625 1008:1 2451:1 2580:1 2811:1 3890:1 4018:1 5660:1 
-0.244140625 1968:1 3149:1 3421:1 3773:1 4063:1 4273:1 5291:1 5587:1 
-0.244140625 1812:1 3149:1 3421:1 3773:1 4262:1 5876:1 
-0.244140625 3948:1 4416:1 
-0.244140625 3921:1 4433:1 
-0.244140625 3149:1 3255:1 3421:1 
-0.244140625 1898:1 2811:1 4063:1 4273:1 4358:1 
-0.244140625 133:1 232:1 775:1 3978:1 
-0.244140625 1798:1 2078:1 4281:1 4734:1 5708:1 
-0.244140625 2645:1 3396:1 
-0.244140625 264:1 2073:1 2355:1 3478:1 
-0.244140625 264:1 1734:1 3921:1 
-0.244140625 2681:1 3238:1 
-0.244140625 264:1 703:1 1134:1 2047:1 
-0.244140625 3149:1 3421:1 4340:1 5760:1 
-0.244140625 23:1 62:1 155:1 1254:1 2811:1 3897:1 5168:1 5471:1 5939:1 
-0.244140625 1313:1 2519:1 3149:1 3421:1 
-0.244140625 362:1 2471:1 2998:1 5216:1 
-0.244140625 2103:1 5672:1 
-0.244140625 822:1 1708:1 2250:1 2557:1 2784:1 
-0.244140625 613:1 1830:1 1871:1 3273:1 4591:1 
-0.244140625 1140:1 3149:1 3421:1 4548:1 
-0.244140625 370:1 745:1 946:1 1354:1 2811:1 3102:1 3306:1 4021:1 4328:1 5110:1 5382:1 5647:1 5774:1 5794:1 5859:1 
-0.244140625 264:1 2032:1 2273:1 2665:1 3343:1 4750:1 
-0.244140625 487:1 2584:1 3576:1 3625:1 
-0.244140625 992:1 1232:1 
-0.244140625 49:1 5290:1 
-0.244140625 264:1 2563:1 5770:1 
-0.244140625 264:1 2974:1 3149:1 3421:1 
-0.244140625 264:1 613:1 833:1 1830:1 3118:1 3273:1 4063:1 4273:1 4591:1 
-0.244140625 1351:1 1871:1 3126:1 5151:1 5816:1 
-0.244140625 2414:1 3386:1 3773:1 4366:1 
-0.244140625 225:1 2906:1 3149:1 3421:1 3774:1 5148:1 5435:1 
-0.244140625 71:1 144:1 358:1 1111:1 1616:1 1871:1 2276:1 2388:1 3773:1 5660:1 
-0.244140625 264:1 649:1 2811:1 3373:1 
-0.244140625 599:1 5007:1 
-0.244140625 1393:1 2073:1 2181:1 3985:1 4602:1 4714:1 
-0.244140625 2811:1 3149:1 3238:1 3421:1 
-0.244140625 264:1 441:1 713:1 1354:1 1571:1 1585:1 1765:1 3091:1 3149:1 3387:1 3421:1 3476:1 
-0.244140625 347:1 5029:1 5312:1 
-0.244140625 2034:1 2494:1 2798:1 
-0.244140625 264:1 810:1 3311:1 3579:1 
-0.244140625 1734:1 4063:1 4273:1 5765:1 
-0.244140625 124:1 375:1 2723:1 4422:1 5879:1 
-0.244140625 264:1 3149:1 3421:1 5076:1 
-0.244140625 264:1 2705:1 3149:1 3421:1 
-0.244140625 3601:1 3961:1 4085:1 5536:1 
-0.244140625 314:1 525:1 634:1 1640:1 1793:1 2613:1 4063:1 4273:1 4790:1 5846:1 
-0.244140625 264:1 2265:1 4063:1 4273:1 
-0.244140625 169:1 675:1 2811:1 4014:1 4034:1 4253:1 4531:1 5141:1 5162:1 
-0.244140625 1781:1 1849:1 1871:1 3149:1 3421:1 
-0.244140625 554:1 613:1 1830:1 2365:1 3273:1 4131:1 4187:1 4591:1 
-0.244140625 5092:1 
-0.244140625 675:1 3778:1 4034:1 4253:1 4500:1 5141:1 5162:1 5944:1 
-0.244140625 182:1 4790:1 5708:1 
-0.244140625 4358:1 4366:1 
-0.244140625 2265:1 2811:1 4358:1 
-0.244140625 4063:1 4131:1 4273:1 5660:1 
-0.244140625 5930:1 
-0.244140625 264:1 294:1 1871:1 2811:1 3961:1 4063:1 4085:1 4273:1 4358:1 4366:1 5580:1 
-0.244140625 271:1 2233:1 5437:1 
-0.244140625 2173:1 2175:1 2550:1 3304:1 3721:1 3901:1 4391:1 4857:1 
-0.244140625 264:1 828:1 1562:1 
-0.244140625 1652:1 3118:1 3770:1 3961:1 4085:1 4366:1 
-0.244140625 487:1 1124:1 2584:1 4516:1 4790:1 5099:1 
-0.244140625 264:1 2273:1 3343:1 4742:1 
-0.244140625 1389:1 3150:1 4839:1 5733:1 5842:1 
-0.244140625 264:1 1925:1 4063:1 4273:1 
-0.244140625 216:1 1032:1 3165:1 3339:1 4266:1 
-0.244140625 1063:1 2283:1 2811:1 3149:1 3421:1 4483:1 
-0.244140625 3813:1 
-0.244140625 3149:1 3421:1 4560:1 
-0.244140625 3241:1 3964:1 
-0.244140625 142:1 264:1 1865:1 3149:1 3421:1 
-0.244140625 1393:1 2181:1 3773:1 3985:1 4602:1 
-0.244140625 1871:1 5558:1 
-0.244140625 264:1 1871:1 2705:1 
-0.244140625 257:1 264:1 642:1 1313:1 2271:1 2815:1 3358:1 3727:1 4914:1 5742:1 
-0.244140625 264:1 1125:1 1155:1 2268:1 2819:1 3203:1 3727:1 3771:1 4063:1 4273:1 4914:1 
-0.244140625 1453:1 4063:1 4273:1 
-0.244140625 1298:1 1773:1 1865:1 2508:1 3149:1 3421:1 3854:1 3863:1 4358:1 5167:1 
-0.244140625 820:1 3149:1 3421:1 
-0.244140625 5396:1 
-0.244140625 3149:1 3421:1 3773:1 4063:1 4273:1 
-0.244140625 4434:1 5271:1 5520:1 
-0.244140625 389:1 549:1 1288:1 3150:1 4606:1 5680:1 5733:1 5842:1 
-0.244140625 3143:1 
-0.244140625 264:1 2073:1 3358:1 
-0.244140625 487:1 1948:1 2584:1 
-0.244140625 264:1 1313:1 4358:1 
-0.244140625 1709:1 4358:1 4790:1 
-0.244140625 264:1 1409:1 3149:1 3421:1 3978:1 
-0.244140625 1136:1 2975:1 2980:1 
-0.244140625 264:1 5007:1 
-0.244140625 264:1 2568:1 3745:1 5660:1 
-0.244140625 338:1 1769:1 3948:1 
-0.244140625 264:1 885:1 2050:1 3149:1 3421:1 4790:1 
-0.244140625 2187:1 3165:1 3339:1 4266:1 
-0.244140625 1140:1 3149:1 3421:1 4262:1 5501:1 
-0.244140625 1054:1 1468:1 2272:1 3728:1 4063:1 4273:1 5085:1 
-0.25 4917:1 
-0.244140625 71:1 144:1 1616:1 2276:1 2388:1 3560:1 5866:1 
-0.244140625 2364:1 3386:1 4063:1 4273:1 
-0.244140625 3178:1 3979:1 4232:1 
-0.244140625 2071:1 2173:1 2175:1 3149:1 3304:1 3421:1 4391:1 4857:1 
-0.244140625 690:1 1061:1 2529:1 2564:1 
-0.244140625 2752:1 3240:1 3773:1 4242:1 
-0.244140625 264:1 2811:1 4013:1 5221:1 5660:1 
-0.244140625 3149:1 3421:1 3560:1 4791:1 5866:1 
-0.244140625 1821:1 1918:1 4927:1 
-0.244140625 843:1 1928:1 2811:1 4029:1 4790:1 4836:1 
-0.244140625 2446:1 2811:1 5739:1 
-0.244140625 223:1 2355:1 4398:1 
-0.244140625 4199:1 5466:1 
-0.244140625 603:1 3149:1 3421:1 3817:1 
-0.244140625 2400:1 3149:1 3421:1 5113:1 
-0.244140625 565:1 902:1 1085:1 3149:1 3421:1 3745:1 3798:1 4975:1 5452:1 5744:1 
-0.244140625 3665:1 5680:1 
-0.244140625 1667:1 3149:1 3206:1 3421:1 4790:1 
-0.244140625 1221:1 2574:1 3557:1 4915:1 4919:1 5708:1 5906:1 
-0.244140625 487:1 1124:1 2584:1 3149:1 3421:1 4516:1 
-0.244140625 264:1 613:1 1830:1 3273:1 4143:1 4573:1 4591:1 
-0.244140625 1533:1 1869:1 2332:1 2355:1 2448:1 2566:1 3149:1 3421:1 4248:1 4507:1 4790:1 
-0.244140625 264:1 1623:1 3199:1 
-0.244140625 264:1 441:1 1571:1 1765:1 2429:1 2849:1 3681:1 3694:1 4366:1 4724:1 5075:1 5584:1 5756:1 
-0.244140625 503:1 613:1 1830:1 3149:1 3273:1 3336:1 3396:1 3421:1 4143:1 4573:1 4591:1 4861:1 5435:1 5680:1 
-0.244140625 225:1 1601:1 3774:1 
-0.244140625 1709:1 3178:1 
-0.244140625 2419:1 
-0.244140625 1221:1 2515:1 2574:1 2836:1 3120:1 3557:1 4010:1 4040:1 4915:1 4919:1 5610:1 5684:1 5852:1 5906:1 
-0.244140625 2400:1 
-0.244140625 1117:1 1999:1 2594:1 3149:1 3165:1 3339:1 3421:1 3901:1 3948:1 4049:1 4266:1 4483:1 
-0.244140625 2811:1 3150:1 5733:1 5842:1 
-0.244140625 2095:1 2733:1 5551:1 
-0.244140625 264:1 2265:1 5099:1 
-0.244140625 662:1 3978:1 
-0.244140625 62:1 155:1 3897:1 4141:1 5168:1 
-0.244140625 727:1 3236:1 4379:1 
-0.244140625 264:1 1718:1 3697:1 4761:1 5453:1 5660:1 
-0.244140625 68:1 2176:1 5060:1 5173:1 
-0.244140625 264:1 5738:1 
-0.244140625 1932:1 2354:1 2544:1 
-0.244140625 264:1 450:1 1614:1 1798:1 4281:1 4734:1 5846:1 
-0.244140625 264:1 1313:1 3841:1 
-0.244140625 225:1 264:1 314:1 3521:1 3713:1 3774:1 5099:1 
-0.244140625 264:1 4742:1 5095:1 
-0.244140625 1128:1 1206:1 3149:1 3421:1 3620:1 4366:1 4695:1 
-0.244140625 1677:1 3413:1 4272:1 4358:1 4386:1 4821:1 5300:1 
-0.244140625 264:1 4183:1 
-0.244140625 231:1 3149:1 3421:1 
-0.244140625 264:1 4975:1 5452:1 
-0.244140625 88:1 928:1 3961:1 4085:1 
-0.244140625 3961:1 4079:1 4085:1 5219:1 
-0.244140625 264:1 2698:1 3005:1 4189:1 
-0.244140625 654:1 2645:1 
-0.244140625 487:1 2584:1 4366:1 
-0.244140625 1630:1 2215:1 2504:1 3921:1 4063:1 4273:1 
-0.244140625 264:1 3149:1 3421:1 5643:1 
-0.244140625 80:1 487:1 1640:1 2584:1 2811:1 
-0.244140625 264:1 613:1 715:1 822:1 1708:1 1830:1 2784:1 3273:1 4591:1 
-0.244140625 142:1 603:1 
-0.244140625 742:1 997:1 2554:1 2705:1 2811:1 2893:1 4403:1 4744:1 
-0.244140625 62:1 155:1 3897:1 4452:1 5168:1 5291:1 5587:1 5913:1 
-0.244140625 1201:1 2681:1 5834:1 
-0.244140625 3149:1 3421:1 5085:1 
-0.244140625 3110:1 3883:1 4718:1 5099:1 5123:1 
-0.244140625 259:1 1871:1 3784:1 
-0.244140625 744:1 2073:1 3165:1 3339:1 4063:1 4266:1 4273:1 
-0.244140625 71:1 144:1 1616:1 2103:1 2276:1 2388:1 2557:1 3403:1 5058:1 5672:1 
-0.244140625 3773:1 3885:1 
-0.244140625 875:1 928:1 
-0.244140625 116:1 264:1 796:1 855:1 951:1 2350:1 2723:1 4079:1 4143:1 4160:1 4161:1 4245:1 4573:1 4742:1 5219:1 
-0.244140625 149:1 264:1 487:1 1140:1 2355:1 2584:1 4358:1 
-0.2431640625 1052:1 1779:1 4358:1 4985:1 
-0.2431640625 182:1 1128:1 3082:1 3554:1 
-0.2431640625 264:1 2557:1 2563:1 3385:1 3979:1 4232:1 
-0.2431640625 216:1 264:1 1032:1 1052:1 1663:1 1779:1 1871:1 2687:1 2811:1 3181:1 3375:1 3717:1 4975:1 4985:1 5452:1 
-0.2431640625 264:1 1828:1 2764:1 5170:1 
-0.2431640625 83:1 296:1 936:1 1561:1 2765:1 3773:1 4000:1 4006:1 4917:1 4968:1 
-0.2431640625 225:1 713:1 1125:1 1359:1 2652:1 3203:1 3774:1 4742:1 4791:1 
-0.2431640625 264:1 939:1 1718:1 2019:1 3697:1 4296:1 4761:1 4790:1 5217:1 5453:1 
-0.2431640625 3278:1 
-0.2431640625 264:1 2983:1 
-0.2431640625 264:1 1608:1 4096:1 
-0.2431640625 264:1 1014:1 1140:1 1471:1 
-0.2431640625 264:1 1860:1 3384:1 
-0.2431640625 264:1 2133:1 2158:1 2165:1 2234:1 2505:1 3149:1 3421:1 3434:1 3481:1 3856:1 4407:1 4607:1 4992:1 5882:1 
-0.2431640625 1140:1 2645:1 2811:1 3361:1 5054:1 5334:1 5547:1 
-0.2431640625 225:1 264:1 1727:1 1871:1 3774:1 
-0.2431640625 1006:1 2102:1 2520:1 2723:1 3149:1 3421:1 3669:1 4163:1 4461:1 
-0.2431640625 264:1 1238:1 4105:1 4369:1 4411:1 4428:1 
-0.2431640625 195:1 314:1 1468:1 2272:1 2980:1 4100:1 4164:1 5424:1 
-0.2431640625 264:1 1116:1 1601:1 
-0.2431640625 1502:1 3149:1 3421:1 5829:1 
-0.2431640625 133:1 232:1 775:1 
-0.2431640625 225:1 373:1 469:1 525:1 634:1 908:1 1793:1 3774:1 4088:1 
-0.2431640625 3126:1 4101:1 5816:1 
-50 2494:1 
-0.2431640625 149:1 737:1 3358:1 3979:1 4232:1 5590:1 
-0.2431640625 487:1 2584:1 3018:1 3841:1 5356:1 
-0.2431640625 61:1 755:1 1343:1 2330:1 4063:1 4273:1 4980:1 
-0.25 2271:1 
-0.2431640625 264:1 862:1 1403:1 1680:1 2271:1 2289:1 2723:1 2811:1 3075:1 5194:1 
-0.2431640625 389:1 549:1 1128:1 1828:1 
-0.2431640625 1028:1 1381:1 3142:1 3681:1 3694:1 5561:1 5648:1 
-0.2431640625 389:1 549:1 1018:1 1502:1 1828:1 3149:1 3150:1 3421:1 3582:1 4039:1 4044:1 4934:1 5291:1 5587:1 5733:1 5842:1 
-0.2431640625 264:1 2433:1 2611:1 2645:1 3149:1 3421:1 
-0.2431640625 264:1 675:1 1871:1 3165:1 3339:1 3773:1 4034:1 4253:1 4266:1 5141:1 5162:1 
-0.2431640625 264:1 3601:1 
-50 264:1 4917:1 
-0.2431640625 264:1 2446:1 2504:1 3150:1 3961:1 4085:1 4259:1 5260:1 5303:1 5733:1 5842:1 
-0.2431640625 1128:1 1232:1 3854:1 3906:1 4063:1 4273:1 4518:1 5018:1 5279:1 
-0.2431640625 1121:1 1304:1 4632:1 4806:1 
-0.2431640625 2694:1 3479:1 4043:1 4202:1 5651:1 5680:1 5731:1 
-0.2431640625 264:1 1871:1 3413:1 3602:1 3773:1 4272:1 4386:1 5276:1 
-0.2431640625 818:1 
-0.2431640625 1354:1 1374:1 1949:1 3773:1 4553:1 4807:1 4810:1 
-0.2431640625 264:1 3403:1 5058:1 
-0.2431640625 1601:1 3782:1 4451:1 4959:1 5301:1 
-0.2431640625 264:1 411:1 729:1 805:1 4714:1 
-0.2431640625 3773:1 4790:1 
-0.2431640625 5485:1 
-0.2431640625 13:1 151:1 264:1 1174:1 2286:1 2557:1 2845:1 3149:1 3421:1 
-0.2431640625 93:1 745:1 1359:1 2003:1 2201:1 2738:1 3102:1 4022:1 4366:1 4790:1 5110:1 5314:1 
-0.2431640625 258:1 264:1 375:1 688:1 4143:1 4422:1 4573:1 4625:1 5072:1 
-0.2431640625 675:1 1871:1 3782:1 4034:1 4253:1 5141:1 5162:1 
-0.2431640625 487:1 630:1 2053:1 2584:1 3115:1 3189:1 3594:1 4065:1 5154:1 5661:1 
-0.2431640625 264:1 2102:1 3149:1 3421:1 
-0.2431640625 1621:1 5099:1 5484:1 5538:1 5591:1 
-0.2431640625 2645:1 4719:1 4976:1 
-0.2431640625 2705:1 3885:1 
-0.2431640625 875:1 2446:1 3773:1 5099:1 
-0.2431640625 203:1 1468:1 2272:1 2483:1 4625:1 5072:1 5786:1 5835:1 
-0.2431640625 1028:1 1381:1 2811:1 2814:1 3142:1 4358:1 4500:1 5561:1 5648:1 
-0.2431640625 5075:1 5099:1 
-0.2431640625 3149:1 3396:1 3421:1 3781:1 
-0.2431640625 3906:1 5018:1 5279:1 
-0.2431640625 264:1 441:1 1571:1 1669:1 1765:1 1871:1 3497:1 4017:1 4293:1 
-0.2431640625 264:1 525:1 634:1 1793:1 1821:1 1918:1 2327:1 2811:1 3483:1 3610:1 4358:1 4484:1 4927:1 5109:1 5416:1 
-0.2431640625 1063:1 2283:1 4953:1 
-0.2431640625 264:1 272:1 1664:1 2073:1 3209:1 3402:1 3773:1 
-0.2431640625 264:1 3149:1 3421:1 4063:1 4273:1 5399:1 5879:1 
-0.2431640625 264:1 2078:1 
-0.2431640625 264:1 3231:1 4198:1 4631:1 5029:1 5179:1 
-0.2431640625 1350:1 4614:1 4790:1 5810:1 
-0.2431640625 264:1 5708:1 
-0.2431640625 3778:1 4049:1 5944:1 
-0.2431640625 2470:1 2811:1 2919:1 
-0.2431640625 1276:1 1769:1 3848:1 
-0.2431640625 431:1 2289:1 
-0.2431640625 2356:1 4817:1 
-0.2431640625 1349:1 2549:1 
-0.2431640625 271:1 2233:1 4460:1 4597:1 4651:1 5437:1 5797:1 
-0.2431640625 3149:1 3421:1 5435:1 
-0.2431640625 556:1 2234:1 2327:1 2505:1 3149:1 3421:1 3610:1 4407:1 4484:1 4992:1 5038:1 5680:1 
-0.2431640625 264:1 1128:1 2163:1 2165:1 2563:1 3194:1 3856:1 
-0.2431640625 264:1 1446:1 3149:1 3358:1 3421:1 3454:1 5171:1 
-0.2431640625 2701:1 2770:1 2811:1 4693:1 5099:1 
-0.2431640625 703:1 4742:1 
-0.2431640625 3961:1 4085:1 4154:1 4775:1 5302:1 
-0.2431640625 264:1 1533:1 4507:1 5588:1 
-50 1544:1 5736:1 
-0.2431640625 169:1 3149:1 3421:1 4531:1 5470:1 
-0.2431640625 1359:1 2334:1 4548:1 
-0.2431640625 2431:1 4063:1 4273:1 
-0.2431640625 264:1 1124:1 4516:1 
-0.2431640625 264:1 3029:1 3885:1 
-0.2431640625 264:1 2838:1 3368:1 4063:1 4273:1 
-0.2431640625 264:1 1028:1 1381:1 3142:1 4366:1 5561:1 5648:1 
-0.2431640625 1199:1 3251:1 3616:1 3650:1 4048:1 
-0.2431640625 160:1 856:1 2190:1 2811:1 3582:1 3601:1 
-0.2431640625 182:1 225:1 264:1 389:1 549:1 3774:1 5835:1 
-0.2431640625 1124:1 2071:1 4516:1 4644:1 4998:1 
-0.2431640625 2811:1 4631:1 5179:1 
-0.2431640625 5758:1 
-0.2431640625 133:1 232:1 252:1 775:1 946:1 1606:1 2951:1 3773:1 4328:1 5382:1 5745:1 5794:1 
-0.2431640625 264:1 4063:1 4133:1 4273:1 4742:1 
-0.2431640625 1014:1 1871:1 3238:1 
-0.2431640625 182:1 4983:1 5087:1 
-0.2431640625 675:1 1871:1 3384:1 4034:1 4253:1 5141:1 5162:1 
-0.2431640625 1039:1 1456:1 1478:1 1556:1 3192:1 4895:1 5352:1 
-0.2431640625 542:1 3149:1 3421:1 5603:1 5762:1 
-0.2431640625 2811:1 3051:1 3961:1 4085:1 4537:1 
-0.2431640625 603:1 2675:1 5898:1 
-0.2431640625 4956:1 
-0.2431640625 2158:1 2759:1 3772:1 3773:1 5142:1 
-0.2431640625 2319:1 3583:1 4822:1 
-0.2431640625 264:1 2073:1 3149:1 3421:1 3860:1 4023:1 4161:1 4790:1 5211:1 
-0.2431640625 264:1 603:1 1199:1 1351:1 1871:1 3149:1 3150:1 3421:1 4048:1 5151:1 5733:1 5842:1 
-0.2431640625 3978:1 
-0.2431640625 264:1 1821:1 1918:1 3149:1 3421:1 4131:1 4625:1 4927:1 5072:1 
-0.2431640625 61:1 1343:1 1968:1 4980:1 
-0.2431640625 675:1 4034:1 4253:1 4543:1 5141:1 5162:1 5419:1 5754:1 
-0.2431640625 71:1 144:1 1014:1 1616:1 2194:1 2276:1 2388:1 3110:1 3150:1 3336:1 3883:1 4366:1 4681:1 5733:1 5842:1 
-0.2431640625 264:1 5203:1 
-0.2431640625 1286:1 3483:1 3773:1 3940:1 3944:1 4116:1 4975:1 5109:1 5267:1 5452:1 
-0.2431640625 3501:1 
-0.2431640625 2355:1 4998:1 5573:1 
-0.2431640625 525:1 634:1 1793:1 4543:1 
-0.2431640625 3096:1 
-0.2431640625 2271:1 2631:1 4596:1 
-0.2431640625 264:1 1128:1 1960:1 3598:1 4063:1 4273:1 4362:1 
-0.2431640625 1142:1 1519:1 1956:1 2483:1 2891:1 4321:1 4330:1 4790:1 
-0.2431640625 2337:1 
-0.2431640625 4681:1 
-0.2431640625 264:1 2811:1 3961:1 4085:1 
-0.2431640625 248:1 264:1 
-0.2431640625 264:1 1468:1 2272:1 4143:1 4573:1 
-0.2431640625 2537:1 2705:1 3906:1 4745:1 5018:1 5279:1 
-0.2431640625 264:1 675:1 3860:1 4023:1 4034:1 4253:1 5141:1 5162:1 5211:1 
-0.2431640625 264:1 1124:1 4516:1 4571:1 4625:1 5072:1 
-0.2431640625 666:1 1968:1 2199:1 
-0.2431640625 503:1 2019:1 4998:1 
-0.2431640625 264:1 1560:1 1669:1 1849:1 2073:1 3238:1 4017:1 4293:1 
-0.2431640625 1140:1 1393:1 2181:1 2831:1 3985:1 4358:1 4602:1 
-0.2431640625 989:1 3149:1 3421:1 
-0.2431640625 264:1 613:1 1830:1 3273:1 4063:1 4273:1 4591:1 
-0.2431640625 1197:1 2014:1 2608:1 3149:1 3421:1 
-0.2431640625 264:1 2611:1 3198:1 4347:1 5099:1 5445:1 
-0.2431640625 261:1 809:1 1734:1 2129:1 3961:1 4085:1 
-0.2431640625 806:1 1124:1 1125:1 1427:1 1582:1 2433:1 3149:1 3203:1 3421:1 3656:1 4516:1 5602:1 5604:1 
-0.2431640625 264:1 1125:1 1798:1 3149:1 3203:1 3421:1 4281:1 4734:1 5173:1 
-0.2431640625 3558:1 4063:1 4273:1 4401:1 
-0.2431640625 2062:1 2370:1 2811:1 5941:1 
-0.2431640625 4063:1 4273:1 5879:1 
-0.2431640625 1634:1 1897:1 2158:1 3219:1 3921:1 5710:1 
-0.2431640625 264:1 3841:1 
-0.2431640625 395:1 424:1 1128:1 3238:1 5291:1 5320:1 5587:1 
-0.2431640625 590:1 1054:1 4079:1 5219:1 
-0.2431640625 631:1 2757:1 3149:1 3421:1 4354:1 
-0.2431640625 1924:1 2557:1 2811:1 3978:1 5745:1 
-0.2431640625 675:1 3948:1 4034:1 4253:1 4790:1 5141:1 5162:1 
-0.2431640625 2355:1 4079:1 5219:1 
-0.2431640625 264:1 3149:1 3421:1 5127:1 
-0.2431640625 432:1 1669:1 1871:1 2071:1 3483:1 4017:1 4293:1 4500:1 5109:1 
-0.2431640625 3394:1 
-0.2431640625 264:1 542:1 593:1 710:1 1648:1 3773:1 4868:1 5516:1 
-0.2431640625 264:1 2504:1 2627:1 4780:1 5562:1 
-50 4227:1 
-50 3397:1 
-0.2431640625 187:1 264:1 594:1 1044:1 1719:1 3429:1 3880:1 4917:1 
-0.2431640625 1039:1 1456:1 3192:1 4790:1 
-0.2431640625 2071:1 2702:1 4503:1 4652:1 5708:1 5825:1 
-0.2431640625 264:1 3178:1 
-0.2431640625 61:1 1343:1 1923:1 1999:1 2071:1 2594:1 3149:1 3421:1 4980:1 5708:1 
-50 3082:1 3554:1 
-0.2431640625 237:1 240:1 391:1 5253:1 5539:1 
-0.2431640625 1124:1 1544:1 2234:1 2505:1 3375:1 3717:1 4407:1 4516:1 4992:1 5736:1 5765:1 
-0.2431640625 1409:1 
-0.2431640625 61:1 446:1 1124:1 1343:1 2072:1 4516:1 4980:1 
-0.2431640625 264:1 2446:1 3773:1 
-0.2431640625 31:1 195:1 1196:1 3149:1 3421:1 5329:1 5424:1 
-0.2431640625 1169:1 4143:1 4573:1 5280:1 
-0.2431640625 2613:1 3933:1 
-0.2431640625 3027:1 4207:1 
-0.25 5291:1 5587:1 
-0.2431640625 264:1 1140:1 1610:1 
-0.2431640625 159:1 755:1 1479:1 2330:1 2532:1 2557:1 
-50 4917:1 
-0.2431640625 1204:1 3559:1 4063:1 4273:1 5108:1 5795:1 5902:1 
-0.2431640625 1821:1 1918:1 2715:1 4927:1 
-49.9931640625 5291:1 5587:1 
-0.2431640625 149:1 157:1 435:1 503:1 1985:1 2026:1 3149:1 3421:1 5573:1 
-0.2431640625 1798:1 3033:1 4281:1 4734:1 
-0.2431640625 487:1 2271:1 2584:1 
-0.2431640625 603:1 5099:1 
-0.2431640625 379:1 1045:1 2509:1 
-0.2431640625 883:1 2831:1 3149:1 3421:1 4178:1 
-0.2431640625 675:1 2433:1 4034:1 4253:1 5141:1 5162:1 
-0.2431640625 4325:1 5665:1 
-0.2431640625 613:1 1830:1 2980:1 3273:1 4591:1 5092:1 5874:1 
-0.2431640625 225:1 264:1 1360:1 1811:1 2015:1 2895:1 3774:1 
-0.2431640625 264:1 1304:1 1548:1 2071:1 2411:1 3959:1 4806:1 5723:1 5835:1 
-0.2431640625 264:1 1125:1 3203:1 
-0.2431640625 264:1 1633:1 2274:1 
-0.2431640625 2148:1 
-0.2431640625 1960:1 2008:1 2160:1 3598:1 4362:1 
-0.2431640625 3877:1 4406:1 5374:1 
-0.2431640625 264:1 963:1 2645:1 3149:1 3238:1 3421:1 4743:1 
-0.2431640625 2483:1 2519:1 3460:1 5845:1 
-0.2431640625 264:1 2537:1 
-0.2431640625 227:1 264:1 675:1 3481:1 4034:1 4253:1 4424:1 4607:1 5141:1 5162:1 5882:1 
-0.2431640625 4154:1 4433:1 5302:1 
-0.2431640625 1351:1 1389:1 2102:1 3358:1 4063:1 4273:1 4433:1 5151:1 5291:1 5587:1 
-0.2431640625 389:1 549:1 2359:1 2811:1 4998:1 
-0.2431640625 4146:1 
-0.2431640625 264:1 3889:1 4143:1 4334:1 4573:1 5339:1 
-0.2431640625 1128:1 2271:1 4366:1 5029:1 
-0.2431640625 264:1 409:1 1679:1 2811:1 4131:1 4468:1 
-0.2431640625 264:1 1359:1 3149:1 3421:1 4102:1 4742:1 
-0.2431640625 3778:1 4101:1 5944:1 
-0.2431640625 62:1 155:1 223:1 264:1 432:1 487:1 755:1 2330:1 2584:1 3885:1 3897:1 4143:1 4573:1 5168:1 
-0.2431640625 264:1 1056:1 1781:1 3149:1 3421:1 
-0.2431640625 4434:1 4747:1 
-0.2431640625 264:1 2519:1 
-0.2431640625 357:1 360:1 2314:1 2538:1 4143:1 4573:1 5758:1 
-0.2431640625 272:1 755:1 1014:1 1221:1 1664:1 2330:1 2574:1 2765:1 3402:1 3557:1 4790:1 4915:1 4919:1 5906:1 
-0.2431640625 264:1 613:1 1088:1 1830:1 3273:1 4591:1 
-0.2431640625 264:1 1140:1 3149:1 3198:1 3421:1 4347:1 5582:1 
-0.2431640625 4889:1 
-0.2431640625 264:1 3978:1 3979:1 4232:1 
-0.2431640625 49:1 264:1 487:1 2584:1 3899:1 4608:1 
-0.2431640625 1748:1 2248:1 2355:1 3948:1 3978:1 5635:1 
-0.2431640625 902:1 1085:1 3149:1 3421:1 3798:1 
-0.2431640625 3933:1 5765:1 
-0.2431640625 3368:1 
-0.2431640625 264:1 575:1 3023:1 3149:1 3421:1 5415:1 5560:1 
-0.2431640625 389:1 549:1 3321:1 4024:1 
-0.2431640625 264:1 1035:1 5099:1 
-0.2431640625 3149:1 3421:1 3870:1 
-0.2431640625 675:1 4034:1 4253:1 5007:1 5141:1 5162:1 
-0.2431640625 642:1 1140:1 2815:1 3773:1 5742:1 
-0.2431640625 264:1 806:1 1427:1 1582:1 3656:1 5602:1 5604:1 
-0.2431640625 2271:1 5835:1 
-0.2431640625 902:1 1085:1 3798:1 3948:1 
-0.2431640625 375:1 3948:1 4422:1 4714:1 5768:1 
-0.2431640625 4358:1 5501:1 
-0.2431640625 1014:1 3279:1 
-0.2431640625 1354:1 3251:1 3616:1 
-0.2431640625 3052:1 4063:1 4273:1 4958:1 
-0.2431640625 264:1 2966:1 4839:1 
-0.2431640625 446:1 4143:1 4573:1 
-0.2431640625 264:1 703:1 1286:1 3901:1 
-0.2431640625 1548:1 2411:1 3959:1 5723:1 
-0.2431640625 3439:1 5082:1 
-0.2431640625 642:1 2815:1 3149:1 3421:1 5742:1 
-0.2431640625 264:1 2265:1 2723:1 
-0.2431640625 1124:1 3149:1 3421:1 3948:1 4516:1 
-50 4747:1 
-0.2431640625 264:1 2008:1 5739:1 5846:1 
-0.2431640625 1359:1 2891:1 4102:1 4321:1 4330:1 
-0.2431640625 264:1 487:1 1014:1 2584:1 3149:1 3421:1 4714:1 
-0.2431640625 260:1 748:1 2891:1 4143:1 4321:1 4330:1 4573:1 5921:1 
-0.2431640625 412:1 
-0.2431640625 237:1 240:1 2696:1 3149:1 3421:1 5253:1 5539:1 
-0.2431640625 264:1 3149:1 3238:1 3421:1 4131:1 
-0.2431640625 264:1 2443:1 4452:1 5913:1 
-0.2431640625 61:1 1323:1 1343:1 3778:1 4980:1 5336:1 5944:1 
-0.2431640625 1125:1 1663:1 2687:1 3181:1 3203:1 4424:1 
-0.2431640625 810:1 3579:1 4286:1 
-0.2431640625 264:1 2811:1 3612:1 
-0.2431640625 1585:1 4466:1 
-0.2431640625 264:1 1868:1 
-0.2431640625 1061:1 2529:1 2564:1 2693:1 4013:1 4950:1 
-0.2431640625 138:1 306:1 2841:1 3838:1 3942:1 4790:1 
-0.2431640625 264:1 3681:1 3694:1 4742:1 5099:1 
-0.2431640625 407:1 941:1 1304:1 4366:1 4806:1 5043:1 
-0.2431640625 389:1 549:1 2811:1 3149:1 3421:1 
-0.2431640625 487:1 1186:1 1398:1 1620:1 1744:1 2584:1 5709:1 5721:1 
-0.2431640625 5076:1 
-0.2431640625 1960:1 2148:1 2244:1 3598:1 4362:1 4742:1 
-0.2431640625 154:1 264:1 375:1 798:1 2103:1 2185:1 3841:1 3989:1 4422:1 5672:1 
-0.2431640625 328:1 525:1 634:1 1298:1 1773:1 1793:1 3863:1 5167:1 5462:1 
-0.2431640625 178:1 1052:1 1779:1 2811:1 4985:1 5707:1 5775:1 
-0.2431640625 272:1 1664:1 1828:1 2811:1 3402:1 
-0.2431640625 1980:1 3251:1 3616:1 
-0.2431640625 127:1 264:1 731:1 1188:1 1240:1 1532:1 1564:1 1639:1 2040:1 5419:1 5658:1 5754:1 
-0.2431640625 3149:1 3421:1 5136:1 
-0.2431640625 3921:1 4154:1 5302:1 
-0.2431640625 264:1 2519:1 3979:1 4232:1 
-0.2431640625 2265:1 3149:1 3413:1 3421:1 4272:1 4386:1 
-0.2431640625 294:1 2811:1 5580:1 
-0.2431640625 138:1 205:1 3336:1 3403:1 4749:1 5058:1 
-0.2431640625 347:1 2327:1 3610:1 4484:1 5312:1 
-0.2431640625 2234:1 2505:1 3178:1 4407:1 4992:1 
-0.2431640625 1201:1 5366:1 5834:1 
-0.2431640625 1125:1 2023:1 2865:1 3203:1 4515:1 
-0.2431640625 431:1 2456:1 
-0.2431640625 1247:1 3058:1 3773:1 
-0.2431640625 31:1 3126:1 4079:1 5219:1 5329:1 5816:1 
-0.2431640625 327:1 1939:1 3830:1 5758:1 
-0.2431640625 3396:1 5076:1 5203:1 
-0.2431640625 264:1 2811:1 3605:1 3885:1 
-0.2431640625 1039:1 1456:1 3192:1 4143:1 4573:1 5660:1 
-0.2431640625 810:1 3149:1 3421:1 3579:1 4398:1 
-0.2431640625 1886:1 
-0.2431640625 1214:1 2191:1 3149:1 3421:1 
-0.2431640625 258:1 2845:1 3358:1 3635:1 4790:1 5445:1 
-0.2431640625 2355:1 3149:1 3421:1 3637:1 4079:1 5219:1 
-0.2431640625 252:1 963:1 1038:1 1140:1 1606:1 2951:1 4743:1 
-0.2431640625 2851:1 
-0.2431640625 270:1 1871:1 3240:1 5093:1 5773:1 5865:1 
-0.2431640625 3149:1 3421:1 3921:1 5092:1 
-0.2431640625 675:1 2814:1 3921:1 4034:1 4253:1 5096:1 5141:1 5162:1 
-0.2431640625 3150:1 3664:1 3782:1 5733:1 5842:1 
-0.2431640625 1936:1 
-0.2431640625 4114:1 
-0.2431640625 3110:1 3149:1 3421:1 3883:1 4208:1 4790:1 5099:1 
-0.2431640625 303:1 630:1 2053:1 3594:1 5154:1 5661:1 
-0.2431640625 321:1 1140:1 
-0.2431640625 379:1 2509:1 3732:1 
-0.2431640625 755:1 1468:1 2272:1 2330:1 3733:1 4572:1 
-0.25 264:1 2265:1 
-0.2431640625 2209:1 
-0.2431640625 1150:1 3773:1 4917:1 
-0.2431640625 1734:1 2811:1 3150:1 4131:1 4366:1 5733:1 5842:1 
-0.2431640625 2071:1 3713:1 3921:1 5708:1 
-0.2431640625 2:1 347:1 1191:1 1938:1 5312:1 
-0.2431640625 1140:1 3885:1 4936:1 
-0.2431640625 224:1 4079:1 5219:1 
-0.2431640625 4641:1 
-0.2431640625 497:1 712:1 810:1 866:1 1063:1 1159:1 2283:1 3579:1 4143:1 4573:1 5237:1 
-0.2431640625 264:1 1871:1 5232:1 
-0.2431640625 1140:1 3279:1 4079:1 5219:1 
-0.2431640625 264:1 1240:1 1507:1 1564:1 1871:1 3455:1 3595:1 3773:1 4358:1 5510:1 5658:1 
-0.2431640625 264:1 2019:1 4889:1 4917:1 
-0.2431640625 1828:1 2355:1 
-0.2431640625 2073:1 3040:1 3209:1 3730:1 
-0.2431640625 722:1 2073:1 5221:1 
-0.2431640625 264:1 3948:1 4753:1 
-0.2431640625 597:1 1134:1 2811:1 5384:1 
-0.2431640625 2836:1 3149:1 3421:1 3921:1 4063:1 4273:1 
-0.2431640625 2470:1 2527:1 2919:1 3240:1 
-0.2431640625 264:1 1928:1 3841:1 4004:1 4029:1 4043:1 4262:1 4836:1 5061:1 5731:1 
-0.2431640625 53:1 1140:1 2108:1 3149:1 3421:1 5163:1 
-0.2431640625 225:1 264:1 3774:1 5029:1 
-0.2431640625 225:1 422:1 1355:1 2720:1 3774:1 4360:1 
-0.2431640625 475:1 
-0.2431640625 264:1 1941:1 
-0.2431640625 362:1 2471:1 2998:1 3149:1 3421:1 
-0.2431640625 264:1 1018:1 4039:1 4044:1 4934:1 
-0.2431640625 544:1 2165:1 2788:1 3149:1 3165:1 3339:1 3421:1 3856:1 4266:1 4441:1 
-0.2431640625 890:1 2836:1 4213:1 4644:1 
-0.2431640625 5774:1 
-0.2431640625 4682:1 4902:1 5116:1 5262:1 5281:1 
-0.2431640625 264:1 2811:1 3149:1 3421:1 5708:1 
-0.2431640625 264:1 3011:1 3540:1 3961:1 4018:1 4085:1 4691:1 5745:1 
-0.2431640625 1362:1 1366:1 3981:1 4013:1 5414:1 
-0.2431640625 2265:1 3149:1 3238:1 3421:1 3439:1 4047:1 
-0.2431640625 264:1 1882:1 4259:1 4976:1 5260:1 
-0.2431640625 3069:1 3773:1 4366:1 4449:1 
-0.2431640625 540:1 683:1 1354:1 1567:1 3817:1 
-0.2431640625 1073:1 2811:1 3623:1 4310:1 4358:1 
-0.2431640625 3150:1 4426:1 5733:1 5842:1 
-0.2431640625 3439:1 4063:1 4273:1 4975:1 5452:1 
-0.2431640625 52:1 57:1 746:1 937:1 1790:1 
-0.2431640625 2062:1 2370:1 3732:1 3860:1 4023:1 5211:1 5941:1 
-0.2431640625 264:1 662:1 806:1 1427:1 1582:1 1928:1 3149:1 3421:1 3656:1 4029:1 4790:1 4836:1 5602:1 5604:1 
-0.2431640625 264:1 1298:1 1773:1 2851:1 3149:1 3311:1 3421:1 3773:1 3863:1 5167:1 
-0.2431640625 474:1 613:1 1014:1 1830:1 3273:1 4591:1 
-0.2431640625 216:1 264:1 1032:1 1781:1 2102:1 3149:1 3421:1 5846:1 
-0.2431640625 2474:1 3149:1 3421:1 
-0.2431640625 264:1 409:1 796:1 1679:1 2019:1 2811:1 3773:1 4160:1 4358:1 4468:1 4571:1 4790:1 4839:1 
-0.2431640625 182:1 3149:1 3421:1 4790:1 
-0.2431640625 264:1 544:1 817:1 2788:1 4063:1 4079:1 4273:1 4441:1 5219:1 
-0.2431640625 755:1 1481:1 2330:1 2665:1 4074:1 4187:1 5634:1 
-0.2431640625 1871:1 2811:1 5290:1 
-0.2431640625 62:1 155:1 441:1 1398:1 1533:1 1571:1 1744:1 1765:1 2694:1 3897:1 4202:1 4507:1 5168:1 5651:1 
-0.2431640625 4452:1 5913:1 
-0.2431640625 1140:1 2008:1 
-0.2431640625 1923:1 3149:1 3421:1 5413:1 
-0.2431640625 264:1 1865:1 2047:1 2355:1 
-0.2431640625 264:1 603:1 1014:1 
-0.2431640625 1371:1 1864:1 4063:1 4273:1 
-0.2431640625 2523:1 2821:1 3639:1 4079:1 5219:1 
-0.2431640625 1533:1 3948:1 4507:1 
-50 1028:1 1381:1 3142:1 5561:1 5648:1 
-0.25 755:1 2330:1 
-0.2431640625 703:1 2557:1 
-0.2431640625 4192:1 5244:1 
-0.2431640625 216:1 1032:1 2700:1 
-0.2431640625 4013:1 4954:1 
-0.2431640625 271:1 745:1 1871:1 2233:1 3102:1 3403:1 4790:1 5058:1 5110:1 5437:1 
-0.2431640625 553:1 906:1 2333:1 2613:1 5660:1 5763:1 5804:1 
-0.2431640625 450:1 2102:1 3601:1 4009:1 
-0.2431640625 61:1 264:1 795:1 1056:1 1334:1 1343:1 1468:1 2272:1 2811:1 3149:1 3421:1 3465:1 3518:1 3946:1 4115:1 4980:1 5326:1 5751:1 
-0.2431640625 1995:1 2721:1 4154:1 5302:1 
-0.2431640625 3094:1 3149:1 3421:1 3924:1 
-0.2431640625 273:1 1124:1 2010:1 2836:1 3198:1 3443:1 4001:1 4011:1 4347:1 4516:1 4698:1 5099:1 
-0.2431640625 3926:1 
-0.2431640625 1677:1 4821:1 
-0.2431640625 3240:1 3306:1 3773:1 4471:1 5647:1 
-0.2431640625 264:1 2446:1 2779:1 3029:1 5498:1 5932:1 
-0.2431640625 504:1 1871:1 3126:1 4063:1 4273:1 5816:1 
-0.25 810:1 3579:1 
-0.2431640625 1128:1 3933:1 
-0.2431640625 68:1 225:1 770:1 1871:1 2176:1 3774:1 5060:1 
-0.2431640625 1514:1 1828:1 
-0.2431640625 1178:1 3293:1 3296:1 3480:1 4295:1 
-0.2431640625 1552:1 2197:1 3149:1 3421:1 
-0.2431640625 2:1 1191:1 1938:1 2319:1 5846:1 
-0.2431640625 88:1 2271:1 3773:1 
-0.2431640625 264:1 357:1 360:1 526:1 2314:1 2538:1 3066:1 3149:1 3421:1 5341:1 
-0.2431640625 2287:1 3149:1 3421:1 
-0.2431640625 883:1 2015:1 4433:1 
-0.2431640625 264:1 1468:1 2272:1 4662:1 
-0.2431640625 3106:1 3111:1 4063:1 4273:1 5044:1 
-0.2431640625 264:1 2606:1 3449:1 3877:1 4406:1 4998:1 
-0.2431640625 4990:1 
-0.2431640625 450:1 2071:1 3149:1 3421:1 4063:1 4273:1 5708:1 
-0.2431640625 1860:1 2215:1 3885:1 
-0.2431640625 3267:1 4742:1 
-0.2431640625 195:1 556:1 2028:1 5424:1 
-0.2431640625 2814:1 
-0.2431640625 2065:1 2130:1 2522:1 4063:1 4273:1 4921:1 
-0.2431640625 1871:1 4131:1 
-0.2431640625 603:1 1118:1 3150:1 3644:1 5733:1 5842:1 
-0.2431640625 142:1 1014:1 3165:1 3339:1 4266:1 4366:1 5244:1 
-0.2431640625 2811:1 3775:1 4358:1 
-0.2431640625 675:1 3149:1 3421:1 4034:1 4253:1 4790:1 5141:1 5162:1 
-0.2431640625 264:1 1063:1 1313:1 2158:1 2283:1 5184:1 5597:1 5680:1 
-0.2431640625 1128:1 1134:1 
-0.2431640625 542:1 
-0.2431640625 68:1 264:1 1931:1 2176:1 5060:1 
-0.2431640625 411:1 805:1 1140:1 1915:1 2733:1 
-0.2431640625 264:1 1359:1 3149:1 3306:1 3421:1 4131:1 4398:1 5647:1 
-0.2431640625 1860:1 5660:1 
-0.2431640625 3150:1 5680:1 5733:1 5842:1 
-0.2431640625 1121:1 2073:1 2795:1 4632:1 
-0.2431640625 4861:1 
-0.2431640625 264:1 1128:1 4742:1 
-0.2431640625 543:1 2696:1 3854:1 
-0.25 1136:1 2975:1 
-0.2431640625 264:1 683:1 1533:1 2537:1 3386:1 3478:1 4507:1 4865:1 5245:1 5291:1 5587:1 
-0.2431640625 264:1 1118:1 5739:1 
-0.2431640625 264:1 822:1 1666:1 1708:1 2784:1 3149:1 3421:1 
-0.2431640625 641:1 2295:1 2645:1 3149:1 3421:1 3826:1 
-0.2431640625 159:1 1798:1 4281:1 4734:1 
-0.2431640625 264:1 4084:1 5487:1 
-0.2431640625 169:1 2698:1 2836:1 3005:1 4262:1 4531:1 4833:1 
-0.2431640625 1118:1 4063:1 4273:1 5099:1 5244:1 
-0.2431640625 264:1 1652:1 4434:1 
-0.2431640625 218:1 1140:1 3948:1 4742:1 5443:1 
-0.2431640625 703:1 3094:1 
-0.2431640625 2045:1 4366:1 5835:1 
-0.2431640625 1351:1 1871:1 2234:1 2505:1 2811:1 3757:1 4358:1 4407:1 4992:1 5151:1 
-0.2431640625 487:1 767:1 2584:1 2906:1 3149:1 3421:1 5148:1 
-0.2431640625 264:1 1140:1 2334:1 4143:1 4573:1 
-0.2431640625 2:1 264:1 1191:1 1938:1 4366:1 5075:1 
-0.2431640625 565:1 1124:1 2811:1 4516:1 4631:1 5179:1 5744:1 
-0.2431640625 2982:1 5711:1 
-0.2431640625 264:1 3240:1 4063:1 4273:1 
-0.2431640625 1067:1 3110:1 3883:1 5356:1 
-0.2431640625 3149:1 3421:1 4954:1 
-0.2431640625 2430:1 
-0.2431640625 734:1 3276:1 
-0.2431640625 264:1 1221:1 1974:1 2574:1 3557:1 4719:1 4915:1 4919:1 5906:1 
-0.2431640625 822:1 1708:1 2784:1 4467:1 4887:1 
-0.2431640625 71:1 133:1 144:1 232:1 264:1 775:1 1243:1 1616:1 2276:1 2388:1 4472:1 5099:1 
-0.2431640625 222:1 651:1 683:1 3092:1 4063:1 4273:1 
-0.2431640625 3149:1 3421:1 3948:1 4063:1 4273:1 
-0.2431640625 978:1 2271:1 3432:1 3681:1 3694:1 5059:1 5099:1 
-0.25 2811:1 3149:1 3421:1 
-0.2431640625 264:1 553:1 906:1 2333:1 3558:1 4401:1 5804:1 
-0.2431640625 439:1 
-0.2431640625 264:1 1473:1 3149:1 3421:1 3906:1 5018:1 5279:1 
-0.2431640625 225:1 675:1 1137:1 2073:1 3774:1 4034:1 4253:1 4742:1 5141:1 5162:1 
-0.2431640625 1598:1 4154:1 5302:1 5869:1 
-0.2431640625 264:1 1354:1 2073:1 2811:1 3165:1 3339:1 4266:1 4358:1 
-0.2431640625 264:1 441:1 1571:1 1765:1 4500:1 
-0.2431640625 389:1 549:1 1828:1 5680:1 
-0.2431640625 553:1 906:1 2333:1 5804:1 
-0.2431640625 4954:1 
-0.2431640625 2:1 1028:1 1191:1 1381:1 1938:1 3142:1 5561:1 5648:1 5916:1 
-0.2431640625 1298:1 1773:1 2645:1 3863:1 4775:1 5167:1 
-0.2431640625 1786:1 2334:1 5557:1 
-0.2431640625 264:1 271:1 1838:1 2233:1 2811:1 5437:1 5660:1 
-0.2431640625 2765:1 4102:1 
-0.2431640625 264:1 3837:1 4674:1 4954:1 
-0.2431640625 947:1 1688:1 1692:1 2811:1 5478:1 
-0.2431640625 1150:1 1798:1 1871:1 2723:1 4281:1 4734:1 5823:1 5938:1 
-0.2431640625 3209:1 
-0.2431640625 3238:1 4483:1 
-0.2431640625 264:1 1125:1 3203:1 4274:1 4360:1 4810:1 
-0.2431640625 264:1 2195:1 2811:1 
-0.2431640625 264:1 2811:1 3763:1 4358:1 5371:1 5835:1 
-0.2431640625 1548:1 2411:1 2811:1 3959:1 4917:1 5723:1 
-0.2431640625 303:1 3149:1 3421:1 4366:1 
-0.2431640625 264:1 2234:1 2505:1 4407:1 4992:1 
-0.2431640625 264:1 833:1 3149:1 3421:1 5099:1 5708:1 
-0.2431640625 859:1 3739:1 4278:1 
-50 1619:1 
-0.2431640625 4010:1 
-0.2431640625 2811:1 3958:1 4340:1 4358:1 
-0.2431640625 3238:1 3590:1 5229:1 
-0.2431640625 264:1 2071:1 4548:1 4747:1 5708:1 
-0.2431640625 951:1 2350:1 3240:1 
-0.2431640625 1871:1 3240:1 5244:1 5835:1 
-0.2431640625 5274:1 
-0.2431640625 1371:1 1864:1 1871:1 2811:1 
-0.2431640625 264:1 1701:1 2281:1 2611:1 3149:1 3421:1 5835:1 
-0.2431640625 260:1 264:1 1118:1 2355:1 2723:1 4500:1 5939:1 
-0.2431640625 4709:1 
-0.2431640625 347:1 2811:1 5312:1 
-0.2431640625 1798:1 1821:1 1918:1 2504:1 3386:1 4281:1 4449:1 4734:1 4927:1 
-0.2431640625 264:1 1652:1 3149:1 3421:1 4434:1 
-0.2431640625 2699:1 3149:1 3421:1 
-0.2431640625 4907:1 5317:1 
-0.2431640625 450:1 2787:1 5140:1 5660:1 
-0.2431640625 264:1 2557:1 3978:1 5867:1 
-0.2431640625 237:1 240:1 675:1 1467:1 2044:1 3388:1 4034:1 4253:1 4790:1 5141:1 5162:1 5213:1 5253:1 5539:1 
-0.2431640625 1140:1 2620:1 3760:1 4878:1 4951:1 
-0.2431640625 264:1 997:1 1155:1 2819:1 3978:1 4161:1 4403:1 4744:1 
-0.2431640625 1134:1 1359:1 3611:1 5104:1 
-0.2431640625 803:1 3727:1 4467:1 4914:1 5286:1 
-0.2431640625 1502:1 3781:1 3940:1 3944:1 4116:1 4369:1 5203:1 5267:1 
-0.2431640625 264:1 1258:1 3978:1 4625:1 5072:1 5660:1 
-0.2431640625 2334:1 2515:1 2811:1 3120:1 3205:1 5610:1 5684:1 5852:1 
-0.2431640625 264:1 1050:1 4658:1 
-0.2431640625 542:1 3794:1 4415:1 4791:1 5881:1 
-0.2431640625 264:1 2811:1 3961:1 4085:1 4358:1 4790:1 5660:1 
-0.2431640625 343:1 3216:1 
-0.2431640625 4001:1 4011:1 
-0.2431640625 264:1 3108:1 4955:1 
-0.2431640625 264:1 3149:1 3421:1 3492:1 4334:1 5339:1 
-0.2431640625 2073:1 3336:1 
-0.2431640625 1140:1 1359:1 3478:1 4366:1 4765:1 5520:1 
-0.2431640625 3150:1 4976:1 5733:1 5842:1 
-0.2431640625 32:1 379:1 2509:1 3396:1 
-0.2431640625 264:1 4032:1 4154:1 4790:1 5302:1 5660:1 5676:1 
-0.2431640625 264:1 1350:1 2334:1 4614:1 5810:1 
-0.2431640625 264:1 1548:1 1932:1 2271:1 2354:1 2411:1 2811:1 3149:1 3165:1 3339:1 3421:1 3478:1 3933:1 3959:1 4063:1 4266:1 4273:1 5723:1 
-0.2431640625 216:1 1032:1 
-0.2431640625 5873:1 
-0.2431640625 5:1 481:1 696:1 2342:1 4788:1 
-0.2431640625 1124:1 3149:1 3421:1 3940:1 3944:1 4116:1 4516:1 5267:1 
-0.25 406:1 
-0.2431640625 264:1 2356:1 3773:1 4259:1 4817:1 5260:1 
-0.2431640625 52:1 57:1 746:1 1790:1 2811:1 
-0.2431640625 264:1 525:1 634:1 673:1 1128:1 1793:1 2006:1 2811:1 3240:1 
-0.2431640625 225:1 2762:1 3149:1 3421:1 3649:1 3774:1 4063:1 4273:1 5799:1 5836:1 
-0.2431640625 1009:1 1968:1 
-0.2431640625 3149:1 3421:1 4079:1 4366:1 5219:1 
-0.2431640625 1871:1 2355:1 3149:1 3421:1 4366:1 
-0.2431640625 978:1 1680:1 1871:1 3432:1 5059:1 
-0.2431640625 2071:1 3165:1 3339:1 4063:1 4266:1 4273:1 
-0.2431640625 3091:1 3387:1 
-0.2431640625 675:1 927:1 4034:1 4253:1 5141:1 5162:1 
-0.2431640625 1140:1 2103:1 5672:1 
-0.2431640625 224:1 264:1 1199:1 3948:1 4048:1 
-0.2431640625 264:1 3824:1 
-0.2431640625 2364:1 3110:1 3883:1 
-0.2431640625 182:1 264:1 487:1 1061:1 2529:1 2564:1 2584:1 3126:1 4917:1 5816:1 
-0.2431640625 264:1 544:1 1136:1 2265:1 2788:1 2975:1 3773:1 4063:1 4273:1 4441:1 
-0.2431640625 1334:1 4063:1 4115:1 4273:1 5751:1 
-0.2431640625 273:1 441:1 819:1 1063:1 1430:1 1571:1 1765:1 2010:1 2283:1 2811:1 3125:1 3443:1 4358:1 4698:1 
-0.2431640625 264:1 1351:1 3336:1 4714:1 5151:1 
-0.2431640625 886:1 
-0.2431640625 29:1 1876:1 2763:1 3004:1 3043:1 3179:1 4784:1 5195:1 
-0.2431640625 2:1 195:1 1191:1 1938:1 5424:1 
-0.2431640625 53:1 2108:1 2273:1 3343:1 4143:1 4573:1 5163:1 
-0.2431640625 264:1 927:1 1199:1 3149:1 3421:1 3948:1 4048:1 5390:1 5796:1 
-50 2811:1 3149:1 3421:1 
-0.2431640625 3794:1 4415:1 4976:1 5881:1 
-0.2431640625 264:1 2723:1 2733:1 3149:1 3421:1 
-0.2431640625 264:1 3358:1 4143:1 4311:1 4573:1 
-0.2431640625 3149:1 3421:1 3773:1 
-0.2431640625 1118:1 1687:1 5244:1 
-0.2431640625 3149:1 3421:1 5233:1 5273:1 
-0.2431640625 3149:1 3238:1 3421:1 
-0.2431640625 1068:1 1423:1 1683:1 3454:1 3805:1 4754:1 5171:1 5445:1 
-0.2431640625 548:1 
-50 875:1 
-0.2431640625 487:1 1871:1 2523:1 2584:1 2821:1 3639:1 4063:1 4273:1 
-0.2431640625 264:1 1140:1 3015:1 3149:1 3421:1 
-0.2431640625 13:1 151:1 264:1 2286:1 3948:1 
-0.2431640625 446:1 
-0.2431640625 1948:1 
-0.2431640625 4205:1 
-0.2431640625 1680:1 1828:1 1871:1 2115:1 3149:1 3165:1 3339:1 3421:1 3940:1 3944:1 4116:1 4266:1 5267:1 
-0.2431640625 358:1 642:1 2815:1 5742:1 
-0.2431640625 62:1 155:1 264:1 1393:1 1857:1 1871:1 2181:1 3897:1 3978:1 3985:1 4561:1 4602:1 5168:1 
-0.2431640625 225:1 375:1 817:1 3774:1 4270:1 4285:1 4368:1 4422:1 
-0.2431640625 373:1 469:1 481:1 908:1 2342:1 4088:1 4788:1 5638:1 
-0.2431640625 3397:1 3403:1 5058:1 
-0.2431640625 264:1 525:1 634:1 1793:1 1871:1 3149:1 3421:1 4518:1 5291:1 5587:1 
-0.2431640625 2679:1 4060:1 4262:1 4557:1 4969:1 
-0.2431640625 539:1 946:1 2627:1 2904:1 3004:1 3043:1 3179:1 3927:1 4328:1 4633:1 4780:1 4790:1 4812:1 5195:1 5382:1 5562:1 5794:1 
-0.2431640625 1111:1 1871:1 1908:1 2490:1 4366:1 5177:1 
-0.2431640625 3950:1 4366:1 
-0.2431640625 182:1 264:1 2850:1 
-0.2431640625 1871:1 4366:1 5835:1 
-0.2431640625 5446:1 
-0.2431640625 264:1 3091:1 3387:1 4063:1 4067:1 4273:1 
-0.2431640625 134:1 264:1 1504:1 
-0.2431640625 737:1 3948:1 5590:1 
-0.2431640625 1025:1 2811:1 4063:1 4273:1 4358:1 
-0.2431640625 1288:1 1839:1 4606:1 
-0.2431640625 1789:1 
-0.2431640625 264:1 1928:1 2811:1 4029:1 4747:1 4836:1 
-0.2431640625 675:1 3238:1 4034:1 4253:1 4631:1 5141:1 5162:1 5179:1 
-0.2431640625 138:1 1468:1 2272:1 3149:1 3421:1 3728:1 5835:1 
-0.2431640625 1313:1 4969:1 
-50 264:1 1128:1 3940:1 3944:1 4116:1 5267:1 
-0.2431640625 4063:1 4143:1 4273:1 4573:1 
-0.2431640625 553:1 906:1 1118:1 1468:1 1636:1 1945:1 2078:1 2272:1 2333:1 2570:1 3149:1 3421:1 3540:1 3851:1 4270:1 4285:1 4368:1 4649:1 4808:1 5804:1 
-0.2431640625 2811:1 4460:1 4597:1 4651:1 5797:1 
-0.2431640625 2315:1 2980:1 4159:1 
-0.2431640625 1128:1 4790:1 
-0.2431640625 3503:1 
-0.2431640625 3951:1 
-0.2431640625 264:1 272:1 1664:1 2446:1 3149:1 3402:1 3421:1 5210:1 
-0.2431640625 264:1 375:1 796:1 1786:1 4160:1 4422:1 5557:1 
-0.2431640625 1140:1 3149:1 3421:1 4714:1 5520:1 
-0.2431640625 409:1 1679:1 4468:1 
-0.2431640625 138:1 
-0.2431640625 264:1 3149:1 3421:1 3789:1 
-0.2431640625 3238:1 5245:1 
-0.2431640625 264:1 2515:1 3120:1 4366:1 5610:1 5684:1 5852:1 
-0.2431640625 1561:1 2044:1 2811:1 3150:1 3388:1 4000:1 4006:1 4968:1 5733:1 5842:1 
-0.2431640625 3004:1 3043:1 3179:1 4063:1 4273:1 5195:1 
-0.2431640625 264:1 3126:1 3483:1 3942:1 5109:1 5816:1 
-0.2431640625 3483:1 4366:1 5109:1 
-0.2431640625 237:1 240:1 5253:1 5539:1 
-0.2431640625 1468:1 2272:1 3149:1 3421:1 4483:1 
-0.2431640625 2355:1 3602:1 4047:1 5276:1 
-0.2431640625 264:1 4714:1 4917:1 
-0.2431640625 675:1 1125:1 3203:1 4034:1 4154:1 4253:1 5141:1 5162:1 5302:1 
-0.2431640625 1140:1 1473:1 3521:1 
-0.2431640625 2561:1 3150:1 3713:1 4917:1 5733:1 5842:1 
-0.2431640625 2645:1 5075:1 
-0.2431640625 1468:1 2272:1 2315:1 5136:1 
-0.2431640625 1871:1 5099:1 
-0.2431640625 264:1 487:1 613:1 1830:1 2584:1 2811:1 3273:1 4591:1 
-0.2431640625 3773:1 4548:1 
-0.2431640625 1258:1 3149:1 3421:1 4976:1 
-0.2431640625 264:1 1196:1 4063:1 4273:1 5191:1 
-0.2431640625 264:1 675:1 1915:1 4034:1 4253:1 5141:1 5162:1 
-0.2431640625 264:1 1468:1 2272:1 2414:1 3311:1 
-0.2431640625 3149:1 3421:1 4259:1 5260:1 
-0.2431640625 1473:1 2271:1 2550:1 3149:1 3421:1 3721:1 3885:1 
-0.2431640625 347:1 1640:1 5312:1 5631:1 5656:1 
-50 264:1 3149:1 3421:1 4063:1 4273:1 
-0.2431640625 603:1 1914:1 2483:1 3238:1 4356:1 4358:1 
-0.2431640625 264:1 2271:1 2811:1 3813:1 
-0.2431640625 19:1 222:1 264:1 3092:1 4466:1 
-0.2431640625 264:1 603:1 1140:1 5244:1 
-0.2431640625 264:1 3794:1 4358:1 4398:1 4415:1 5881:1 
-0.2431640625 52:1 57:1 264:1 303:1 746:1 1790:1 2811:1 4366:1 
-0.2431640625 487:1 2584:1 4742:1 4791:1 
-0.2431640625 1687:1 
-0.2431640625 53:1 2108:1 2515:1 3120:1 4917:1 5163:1 5610:1 5684:1 5852:1 
-0.2431640625 1140:1 3436:1 5384:1 
-0.2431640625 2071:1 3773:1 3940:1 3944:1 4063:1 4116:1 4273:1 5267:1 5660:1 
-0.2431640625 1451:1 2379:1 2894:1 
-0.2431640625 327:1 
-0.2431640625 264:1 642:1 2811:1 2815:1 5742:1 
-0.2431640625 1276:1 2062:1 2370:1 2398:1 5096:1 5941:1 
-0.2431640625 264:1 375:1 4422:1 
-0.2431640625 2732:1 3149:1 3421:1 
-0.2431640625 675:1 1867:1 2499:1 4034:1 4079:1 4253:1 5141:1 5162:1 5219:1 
-0.2431640625 542:1 1522:1 2723:1 
-0.2431640625 231:1 264:1 4682:1 4742:1 5116:1 5262:1 5281:1 
-0.2431640625 264:1 1871:1 3101:1 3337:1 3439:1 3961:1 4085:1 4790:1 
-0.2431640625 167:1 264:1 280:1 720:1 2341:1 3368:1 
-0.2431640625 1282:1 1972:1 3396:1 3727:1 3900:1 4408:1 4914:1 5835:1 
-0.2431640625 642:1 796:1 1359:1 2815:1 3590:1 4160:1 5229:1 5742:1 
-0.2431640625 192:1 2184:1 3238:1 5699:1 
-0.2431640625 369:1 446:1 2088:1 
-0.2431640625 3067:1 
-0.2431640625 2340:1 5738:1 
-0.2431640625 62:1 155:1 1286:1 3149:1 3150:1 3421:1 3897:1 3933:1 3948:1 4861:1 5168:1 5733:1 5842:1 
-0.2431640625 1140:1 2073:1 2355:1 3075:1 
-0.2431640625 1088:1 
-0.2431640625 4917:1 5835:1 
-0.2431640625 2073:1 2557:1 
-0.2431640625 1323:1 3149:1 3421:1 5336:1 5446:1 
-0.2431640625 264:1 1121:1 2070:1 4632:1 
-0.2431640625 5520:1 
-0.2431640625 2355:1 3004:1 3043:1 3179:1 4013:1 4790:1 5181:1 5195:1 
-0.2431640625 771:1 1871:1 2019:1 2811:1 
-0.2431640625 264:1 1039:1 1073:1 1456:1 3149:1 3192:1 3421:1 3478:1 3623:1 3978:1 4063:1 4273:1 4310:1 
-0.2431640625 52:1 57:1 264:1 746:1 1790:1 2811:1 3149:1 3421:1 
-0.2431640625 264:1 1232:1 
-0.2431640625 1349:1 3082:1 3554:1 
-0.2431640625 62:1 155:1 2811:1 3897:1 4358:1 4483:1 5168:1 
-0.2431640625 350:1 2250:1 3149:1 3421:1 3576:1 3625:1 5052:1 
-0.2431640625 3091:1 3387:1 3773:1 4079:1 5219:1 
-0.2431640625 575:1 3285:1 5415:1 
-0.2431640625 503:1 700:1 1871:1 
-0.2431640625 264:1 1140:1 1923:1 5290:1 
-0.2431640625 264:1 354:1 3149:1 3421:1 3885:1 4366:1 
-0.2431640625 742:1 1351:1 1398:1 1744:1 1871:1 2158:1 2554:1 2893:1 5151:1 
-0.2431640625 2265:1 3149:1 3421:1 5835:1 
-0.2431640625 2019:1 2606:1 3449:1 
-0.2431640625 62:1 155:1 264:1 337:1 737:1 1887:1 2534:1 2859:1 2870:1 3897:1 4567:1 4944:1 5168:1 5384:1 5590:1 5654:1 
-0.2431640625 373:1 469:1 908:1 1201:1 1781:1 2194:1 4088:1 4683:1 5834:1 
-0.2431640625 2822:1 2891:1 3482:1 3484:1 4321:1 4330:1 
-0.2431640625 1128:1 4366:1 
-0.2431640625 1718:1 2019:1 3697:1 4761:1 5453:1 
-0.2431640625 264:1 1014:1 5099:1 
-0.2431640625 264:1 731:1 1188:1 1532:1 2040:1 
-0.2431640625 389:1 549:1 619:1 947:1 1688:1 1692:1 1908:1 5177:1 5478:1 
-0.2431640625 142:1 264:1 3206:1 3533:1 3875:1 
-0.2431640625 2891:1 4321:1 4330:1 5765:1 
-0.2431640625 1932:1 2212:1 2354:1 4683:1 
-0.2431640625 722:1 2212:1 3126:1 4683:1 5816:1 
-0.2431640625 2234:1 2505:1 3149:1 3421:1 4334:1 4407:1 4992:1 5339:1 
-0.2431640625 264:1 651:1 666:1 2199:1 3018:1 3238:1 4975:1 5452:1 
-0.2431640625 1755:1 3006:1 3375:1 3689:1 3717:1 3770:1 4708:1 5903:1 
-0.2431640625 264:1 3602:1 3765:1 5276:1 
-0.2431640625 1045:1 1240:1 1564:1 2811:1 4143:1 4573:1 4976:1 5658:1 
-0.2431640625 3149:1 3421:1 5660:1 
-0.2431640625 182:1 439:1 
-0.2431640625 264:1 1186:1 3149:1 3421:1 5709:1 5721:1 
-0.2431640625 544:1 921:1 2207:1 2788:1 4441:1 4670:1 5514:1 
-0.2431640625 3556:1 3913:1 4742:1 5520:1 5935:1 
-0.2431640625 264:1 1925:1 3149:1 3421:1 
-0.25 182:1 
-0.2431640625 1063:1 2019:1 2283:1 2645:1 5075:1 
-0.2431640625 264:1 1335:1 
-0.2431640625 1393:1 2181:1 2811:1 3545:1 3985:1 4358:1 4372:1 4602:1 
-0.2431640625 395:1 424:1 2073:1 
-0.2431640625 675:1 2258:1 2811:1 3773:1 4034:1 4253:1 5141:1 5162:1 5528:1 5927:1 
-0.2431640625 732:1 1468:1 2272:1 4161:1 4284:1 
-0.2431640625 328:1 1124:1 1359:1 4516:1 
-0.2431640625 2271:1 3568:1 
-0.2431640625 754:1 1486:1 1871:1 2811:1 3087:1 4291:1 4297:1 4458:1 
-0.2431640625 62:1 155:1 603:1 2297:1 2506:1 3897:1 4257:1 5168:1 
-0.2431640625 389:1 549:1 4063:1 4242:1 4273:1 
-0.2431640625 1871:1 5846:1 
-0.2431640625 264:1 852:1 3149:1 3421:1 4190:1 
-0.2431640625 1199:1 1828:1 4048:1 
-0.2431640625 1118:1 3590:1 5229:1 
-0.2431640625 264:1 1497:1 4013:1 
-0.2431640625 264:1 3149:1 3421:1 4227:1 5371:1 
-0.2431640625 1084:1 
-0.2431640625 61:1 745:1 1343:1 2273:1 2332:1 3102:1 3343:1 4248:1 4980:1 5110:1 5379:1 
-0.2431640625 1018:1 3773:1 4039:1 4044:1 4369:1 4934:1 
-0.2431640625 264:1 441:1 1571:1 1765:1 3238:1 4433:1 
-0.2431640625 2382:1 4071:1 
-0.2431640625 389:1 407:1 549:1 991:1 1828:1 3149:1 3421:1 
-0.2431640625 2543:1 
-0.2431640625 3442:1 3909:1 4638:1 
-0.2431640625 1258:1 2073:1 3149:1 3421:1 
-0.2431640625 264:1 439:1 1468:1 2272:1 
-0.2431640625 71:1 144:1 264:1 675:1 1616:1 2276:1 2388:1 3773:1 4034:1 4253:1 5141:1 5162:1 
-0.2431640625 2327:1 3306:1 3610:1 4484:1 5647:1 
-0.2431640625 2752:1 
-0.2431640625 2530:1 2571:1 3439:1 4180:1 4917:1 5636:1 
-0.2431640625 902:1 1085:1 3439:1 3664:1 3798:1 
-0.2431640625 264:1 400:1 
-0.2431640625 675:1 3573:1 4034:1 4253:1 5082:1 5141:1 5162:1 
-0.2431640625 2379:1 
-0.2431640625 306:1 2798:1 2841:1 3149:1 3421:1 3501:1 3838:1 5874:1 
-0.2431640625 264:1 460:1 487:1 2584:1 3830:1 
-0.2431640625 264:1 2071:1 2265:1 3149:1 3421:1 4063:1 4273:1 5708:1 
-0.2431640625 264:1 373:1 469:1 908:1 2833:1 3558:1 4088:1 4401:1 5399:1 
-0.2431640625 44:1 3002:1 
-0.2431640625 237:1 240:1 264:1 525:1 634:1 1793:1 2400:1 3149:1 3150:1 3421:1 3854:1 5253:1 5539:1 5733:1 5842:1 
-0.2431640625 264:1 2355:1 2446:1 4283:1 
-0.2431640625 264:1 883:1 2474:1 3149:1 3421:1 
-0.2431640625 1544:1 2271:1 2811:1 3739:1 3841:1 4143:1 4278:1 4573:1 5736:1 
-0.2431640625 264:1 2693:1 2814:1 
-0.2431640625 264:1 1533:1 3149:1 3421:1 4143:1 4507:1 4573:1 
-0.2431640625 3782:1 4013:1 
-0.2431640625 264:1 379:1 1128:1 1286:1 2509:1 
-0.2431640625 264:1 1769:1 4714:1 
-0.2431640625 264:1 5390:1 5796:1 
-0.2431640625 264:1 1124:1 2019:1 4154:1 4516:1 5302:1 
-0.2431640625 3424:1 5419:1 5754:1 
-0.2431640625 2897:1 3149:1 3329:1 3421:1 3572:1 
-0.2431640625 1928:1 4029:1 4790:1 4836:1 
-0.2431640625 264:1 1221:1 2574:1 2811:1 3149:1 3386:1 3421:1 3557:1 4915:1 4919:1 5906:1 
-0.2431640625 3681:1 3694:1 5099:1 5551:1 
-0.2431640625 375:1 2158:1 4422:1 
-0.2431640625 1865:1 2451:1 2580:1 3890:1 
-0.2431640625 237:1 240:1 264:1 525:1 634:1 1793:1 1821:1 1918:1 2015:1 3251:1 3616:1 4927:1 5253:1 5539:1 
-0.2431640625 3885:1 4180:1 5636:1 
-0.2431640625 1140:1 4718:1 
-0.2431640625 1140:1 2548:1 2645:1 2811:1 3321:1 
-0.2431640625 264:1 1709:1 3885:1 
-0.2431640625 1199:1 1960:1 2726:1 3149:1 3421:1 3598:1 4048:1 4362:1 4843:1 
-0.2431640625 264:1 1268:1 3071:1 3085:1 5939:1 
-0.2431640625 2073:1 2811:1 4358:1 
-0.2431640625 675:1 1623:1 1926:1 2724:1 3199:1 4034:1 4253:1 4275:1 5141:1 5162:1 
-0.2431640625 487:1 613:1 1830:1 2584:1 3238:1 3273:1 4591:1 
-0.2431640625 3126:1 3703:1 5816:1 
-0.2431640625 264:1 3483:1 3744:1 5099:1 5109:1 
-0.2431640625 1140:1 2173:1 2175:1 2355:1 3149:1 3304:1 3421:1 4391:1 4433:1 4857:1 
-0.2431640625 3933:1 4014:1 
-50 4358:1 4917:1 
-0.2431640625 237:1 240:1 525:1 634:1 1793:1 5253:1 5539:1 
-0.2431640625 2705:1 3149:1 3421:1 3926:1 4334:1 5339:1 
-0.2431640625 280:1 720:1 2334:1 2751:1 4063:1 4273:1 
-0.2431640625 264:1 375:1 630:1 2053:1 3594:1 4422:1 5154:1 5661:1 
-0.2431640625 264:1 2044:1 3388:1 4063:1 4273:1 
-0.2431640625 357:1 360:1 820:1 1134:1 2314:1 2538:1 4366:1 
-0.2431640625 258:1 1136:1 2975:1 
-0.2431640625 1968:1 3149:1 3421:1 3534:1 
-0.2431640625 1719:1 3880:1 4063:1 4273:1 4872:1 
-0.2431640625 2:1 324:1 934:1 1191:1 1938:1 3877:1 4406:1 
-0.2431640625 755:1 1871:1 2330:1 2811:1 3149:1 3421:1 4366:1 4975:1 5384:1 5452:1 
-0.2431640625 966:1 4393:1 
-0.2431640625 4979:1 
-0.2431640625 1871:1 2062:1 2370:1 2515:1 3120:1 5610:1 5684:1 5852:1 5941:1 
-0.2431640625 1871:1 3149:1 3421:1 4367:1 5291:1 5587:1 
-0.2431640625 647:1 3126:1 5816:1 
-0.2431640625 264:1 675:1 1359:1 1871:1 2611:1 3773:1 4034:1 4253:1 5141:1 5162:1 5745:1 
-0.2431640625 1849:1 3155:1 
-0.2431640625 3413:1 4272:1 4386:1 5768:1 
-0.2431640625 654:1 1128:1 2842:1 3164:1 5635:1 
-0.2431640625 575:1 3240:1 5075:1 5415:1 
-0.2431640625 29:1 1678:1 1876:1 1891:1 2260:1 
-50 2811:1 3149:1 3421:1 
-0.2431640625 1118:1 2071:1 4063:1 4273:1 5708:1 
-0.2431640625 1634:1 1798:1 2527:1 2811:1 4281:1 4734:1 
-0.2431640625 602:1 2705:1 4284:1 4366:1 
-0.2431640625 1120:1 
-0.2431640625 2355:1 4063:1 4273:1 
-0.2431640625 859:1 1948:1 
-0.2431640625 2023:1 2355:1 2865:1 4515:1 
-0.2431640625 39:1 613:1 1798:1 1830:1 1975:1 2715:1 3149:1 3273:1 3421:1 4154:1 4281:1 4591:1 4734:1 5302:1 
-0.2431640625 264:1 2099:1 
-0.2431640625 675:1 3208:1 4034:1 4253:1 5141:1 5162:1 
-0.2431640625 142:1 264:1 2071:1 4079:1 4791:1 5219:1 5244:1 5708:1 
-0.2431640625 407:1 439:1 1306:1 3149:1 3421:1 
-0.2431640625 3439:1 4975:1 5452:1 
-0.2431640625 264:1 3839:1 
-0.2431640625 613:1 949:1 1374:1 1830:1 1949:1 1968:1 3149:1 3273:1 3421:1 3961:1 4085:1 4100:1 4387:1 4553:1 4591:1 4807:1 
-50 3149:1 3421:1 3978:1 
-0.2431640625 264:1 4742:1 5232:1 
-0.2431640625 252:1 1606:1 1865:1 2811:1 2951:1 
-0.2431640625 2234:1 2489:1 2505:1 2765:1 3126:1 4407:1 4992:1 5680:1 5816:1 
-0.2431640625 264:1 1134:1 
-0.2431640625 675:1 2215:1 4034:1 4253:1 5141:1 5162:1 
-0.2431640625 542:1 755:1 1014:1 2330:1 
-0.2431640625 300:1 2705:1 
-0.2431640625 370:1 2418:1 3489:1 4021:1 5859:1 
-0.2431640625 71:1 144:1 264:1 1616:1 2276:1 2388:1 2811:1 5390:1 5796:1 
-0.2431640625 1359:1 1964:1 4063:1 4273:1 5846:1 
-0.2431640625 264:1 755:1 1354:1 1994:1 2304:1 2330:1 2369:1 3713:1 3920:1 4255:1 4261:1 
-0.2431640625 2715:1 
-0.2431640625 603:1 5244:1 
-0.2431640625 1128:1 1214:1 
-0.2431640625 2071:1 5250:1 
-0.2431640625 1236:1 3361:1 3948:1 5054:1 5334:1 5547:1 
-0.2431640625 264:1 435:1 1313:1 1985:1 2232:1 5075:1 
-0.2431640625 259:1 264:1 1468:1 2272:1 3149:1 3421:1 3784:1 4898:1 
-0.2431640625 264:1 2073:1 3094:1 
-0.2431640625 211:1 264:1 2557:1 2711:1 3311:1 4302:1 5675:1 
-0.2431640625 610:1 613:1 703:1 1830:1 3149:1 3273:1 3421:1 4591:1 
-0.2431640625 575:1 822:1 1708:1 2028:1 2784:1 4063:1 4273:1 5415:1 
-0.25 264:1 2645:1 
-0.2431640625 4143:1 4358:1 4573:1 
-49.9931640625 182:1 
-0.2431640625 781:1 788:1 794:1 2019:1 2943:1 
-0.2431640625 718:1 5189:1 
-0.2431640625 264:1 3149:1 3421:1 5603:1 
-0.2431640625 2438:1 3521:1 4322:1 
-50 2271:1 
-0.2431640625 2127:1 5737:1 
-0.2431640625 919:1 3978:1 5568:1 5698:1 
-0.2431640625 2273:1 3343:1 3841:1 4334:1 5339:1 
-0.2431640625 228:1 264:1 2073:1 2811:1 2846:1 4839:1 
-0.2431640625 539:1 770:1 1799:1 3201:1 3927:1 4633:1 
-0.2431640625 2828:1 5029:1 
-0.2431640625 264:1 3149:1 3421:1 4360:1 4471:1 
-0.2431640625 3238:1 3703:1 
-0.2431640625 1781:1 
-0.2431640625 264:1 525:1 634:1 1793:1 3165:1 3339:1 4266:1 
-0.2431640625 357:1 360:1 2265:1 2314:1 2538:1 
-0.2431640625 1130:1 1968:1 2234:1 2505:1 4407:1 4992:1 
-0.2431640625 3149:1 3421:1 4742:1 
-0.2431640625 3938:1 4366:1 4714:1 
-0.2431640625 441:1 1258:1 1571:1 1765:1 
-0.2431640625 1140:1 3094:1 4790:1 
-0.2431640625 182:1 264:1 347:1 3149:1 3421:1 5312:1 
-0.2431640625 159:1 389:1 549:1 1640:1 3978:1 4063:1 4273:1 4452:1 5913:1 
-0.2431640625 87:1 2355:1 4063:1 4273:1 4998:1 
-0.2431640625 1026:1 3126:1 5203:1 5816:1 
-0.2431640625 407:1 2711:1 3773:1 
-0.2431640625 264:1 1968:1 4366:1 5904:1 
-0.2431640625 1028:1 1381:1 2250:1 2811:1 3142:1 5561:1 5648:1 
-0.2431640625 264:1 3970:1 4742:1 
-0.2431640625 89:1 613:1 1830:1 3149:1 3273:1 3421:1 4063:1 4273:1 4591:1 4682:1 5113:1 5116:1 5262:1 5281:1 5846:1 
-0.2431640625 264:1 3238:1 4143:1 4573:1 5446:1 
-0.2431640625 100:1 264:1 683:1 2265:1 2723:1 
-0.2431640625 731:1 1188:1 1532:1 2040:1 
-0.2431640625 712:1 810:1 1072:1 1159:1 3579:1 4142:1 
-0.2431640625 273:1 4790:1 
-0.2431640625 4561:1 5765:1 
-0.2431640625 1051:1 1128:1 4063:1 4273:1 5501:1 
-0.2431640625 264:1 2019:1 2811:1 4358:1 4533:1 5525:1 
-0.2431640625 2856:1 3229:1 4063:1 4131:1 4273:1 4714:1 5532:1 
-0.2431640625 2257:1 2645:1 2718:1 3590:1 3773:1 3978:1 4631:1 5179:1 5229:1 5568:1 
-0.2431640625 4682:1 5116:1 5262:1 5281:1 
-0.2431640625 379:1 1140:1 2007:1 2509:1 4959:1 5301:1 
-0.2431640625 259:1 1932:1 2354:1 3784:1 
-0.2431640625 833:1 1140:1 3877:1 4079:1 4406:1 5219:1 
-0.2431640625 264:1 2811:1 3794:1 4415:1 4513:1 5357:1 5881:1 
-0.2431640625 84:1 3165:1 3339:1 4266:1 4742:1 
-0.2431640625 264:1 3190:1 4063:1 4273:1 4622:1 5050:1 
-0.2431640625 1935:1 
-0.2431640625 497:1 755:1 2330:1 4742:1 5217:1 5237:1 
-0.2431640625 53:1 1140:1 2108:1 5163:1 5660:1 
-50 3396:1 
-0.2431640625 3240:1 3877:1 4406:1 
-0.2431640625 264:1 3178:1 3922:1 5573:1 
-0.2431640625 1140:1 4131:1 
-0.2431640625 2627:1 4131:1 4780:1 5562:1 
-0.2431640625 53:1 1118:1 1140:1 2108:1 4790:1 5163:1 
-0.2431640625 854:1 2071:1 2811:1 5099:1 
-50 755:1 2330:1 
-0.2431640625 225:1 3774:1 4742:1 
-0.2431640625 1871:1 4850:1 
-0.2431640625 1351:1 2811:1 5151:1 5244:1 
-0.2431640625 3980:1 
-0.2431640625 1337:1 3476:1 
-0.2431640625 2811:1 4079:1 5219:1 
-0.2431640625 264:1 3744:1 
-0.2431640625 264:1 1601:1 3149:1 3421:1 3541:1 3725:1 5558:1 
-0.2431640625 4366:1 4790:1 
-50 2759:1 
-0.2431640625 2071:1 2705:1 3149:1 3421:1 5708:1 
-0.2431640625 1118:1 1786:1 1928:1 2811:1 3149:1 3421:1 4029:1 4836:1 5557:1 
-0.2431640625 4369:1 4776:1 
-0.2431640625 603:1 1789:1 3149:1 3421:1 3926:1 
-0.2431640625 1060:1 1468:1 2272:1 3976:1 4790:1 5551:1 
-0.2431640625 487:1 1035:1 1125:1 2023:1 2584:1 2865:1 3149:1 3203:1 3421:1 4515:1 4790:1 
-0.2431640625 225:1 264:1 1479:1 3774:1 3885:1 5939:1 
-0.2431640625 1140:1 1504:1 3149:1 3421:1 4161:1 
-0.2431640625 264:1 1636:1 1930:1 1945:1 3126:1 5816:1 
-0.2431640625 192:1 2073:1 2184:1 2811:1 3149:1 3240:1 3421:1 3773:1 5099:1 5699:1 
-0.2431640625 1124:1 1158:1 3773:1 4224:1 4516:1 5643:1 
-0.2431640625 613:1 1830:1 3273:1 4063:1 4273:1 4433:1 4591:1 4917:1 4990:1 
-0.2431640625 97:1 2811:1 3115:1 3189:1 4065:1 4917:1 
-0.2431640625 703:1 2015:1 2723:1 2811:1 
-0.2431640625 2355:1 4998:1 
-0.2431640625 1769:1 3149:1 3421:1 
-0.2431640625 1171:1 3491:1 
-0.2431640625 2811:1 5233:1 5551:1 
-0.2431640625 806:1 1427:1 1582:1 3656:1 4978:1 5602:1 5604:1 
-0.25 641:1 2295:1 3826:1 
-0.2431640625 264:1 2073:1 3126:1 3773:1 4358:1 4366:1 5816:1 
-0.2431640625 2102:1 3773:1 4682:1 5116:1 5262:1 5281:1 5708:1 
-0.2431640625 89:1 264:1 3149:1 3421:1 3582:1 4047:1 
-0.2431640625 1046:1 2015:1 3386:1 3888:1 
-0.2431640625 2193:1 5118:1 5325:1 
-0.2431640625 347:1 533:1 4727:1 5312:1 
-0.2431640625 264:1 2811:1 3358:1 4063:1 4273:1 4790:1 
-0.2431640625 675:1 1054:1 2073:1 4034:1 4253:1 5141:1 5162:1 
-0.2431640625 264:1 666:1 1871:1 2199:1 4014:1 
-0.2431640625 2547:1 
-0.2431640625 1136:1 2975:1 2980:1 5233:1 5629:1 
-0.2431640625 1821:1 1918:1 3824:1 4927:1 
-0.2431640625 1128:1 4063:1 4154:1 4273:1 4790:1 5302:1 
-0.2431640625 2234:1 2355:1 2505:1 2811:1 4358:1 4407:1 4992:1 
-0.2431640625 1140:1 2811:1 4358:1 
-0.2431640625 3011:1 3384:1 
-0.2431640625 1398:1 1585:1 1744:1 1871:1 4979:1 
-0.2431640625 3556:1 3913:1 5551:1 5935:1 
-0.2431640625 1236:1 
