svm_type c_svc
kernel_type rbf
gamma 50
nr_class 2
total_sv 7992
rho 0.479286
label 1 -1
nr_sv 2182 5810
SV
1.4794921875 2183:1 4591:1 12495:1 
1.4794921875 18:1 288:1 2677:1 2987:1 4449:1 4487:1 5558:1 6201:1 6818:1 7779:1 9102:1 13141:1 
1.478515625 6616:1 
1.4794921875 1368:1 1727:1 3298:1 10558:1 
1.4794921875 1329:1 3954:1 3962:1 6866:1 6869:1 9095:1 9143:1 9396:1 12339:1 
1.4794921875 288:1 516:1 727:1 2677:1 3006:1 4826:1 8349:1 12639:1 13021:1 
1.4794921875 288:1 1179:1 2268:1 4204:1 4406:1 5129:1 7253:1 8118:1 8405:1 8419:1 8540:1 10247:1 10970:1 11723:1 11955:1 12050:1 12121:1 12667:1 
1.4794921875 2652:1 4109:1 5688:1 11000:1 11655:1 
1.4794921875 288:1 4357:1 4360:1 7848:1 7978:1 10290:1 11326:1 
1.4794921875 288:1 417:1 428:1 1329:1 3954:1 3962:1 4452:1 7253:1 8918:1 9714:1 9942:1 10690:1 11037:1 11501:1 12339:1 12385:1 
1.4794921875 288:1 2742:1 4999:1 5732:1 8564:1 11949:1 
1.4794921875 2139:1 5014:1 6234:1 7949:1 8010:1 8130:1 8710:1 8965:1 11144:1 
1.4794921875 4902:1 7253:1 
1.4794921875 331:1 1878:1 
1.4794921875 290:1 4423:1 4706:1 5482:1 9714:1 12094:1 
1.4794921875 2333:1 3658:1 3783:1 4228:1 5130:1 7157:1 7253:1 9430:1 11717:1 
1.4794921875 2143:1 3466:1 3586:1 5175:1 5805:1 6363:1 7171:1 8762:1 9554:1 10563:1 11961:1 
1.4794921875 931:1 1818:1 2057:1 2966:1 5922:1 7989:1 10294:1 10369:1 10862:1 11523:1 11581:1 
1.5 288:1 4357:1 4360:1 11326:1 
1.478515625 10201:1 
1.4794921875 317:1 3647:1 4357:1 4360:1 4477:1 7623:1 7758:1 10083:1 11326:1 11906:1 
50 
1.4794921875 4166:1 4941:1 5562:1 6328:1 8614:1 8952:1 11172:1 12133:1 
1.4794921875 2677:1 9392:1 9554:1 9714:1 
1.4794921875 288:1 7128:1 
1.4794921875 416:1 2752:1 3647:1 4443:1 4477:1 6667:1 7623:1 8761:1 9298:1 9933:1 10083:1 10301:1 12765:1 12976:1 
1.4794921875 244:1 546:1 2578:1 2731:1 3850:1 4056:1 4868:1 6965:1 9310:1 9445:1 10534:1 11079:1 11378:1 11502:1 
1.4794921875 288:1 2676:1 3340:1 6061:1 6143:1 8620:1 8658:1 9714:1 10077:1 11342:1 12805:1 13136:1 
1.4794921875 290:1 2057:1 2859:1 4892:1 6352:1 8532:1 10369:1 10897:1 
1.4794921875 431:1 2290:1 4631:1 8796:1 9845:1 
1.4794921875 1329:1 1524:1 1875:1 1926:1 2135:1 2695:1 2876:1 3022:1 3954:1 3962:1 4357:1 4360:1 6969:1 8283:1 8774:1 9305:1 9805:1 11326:1 12339:1 
1.4794921875 162:1 288:1 638:1 916:1 1017:1 1159:1 1788:1 1803:1 2284:1 2494:1 2857:1 3720:1 3926:1 8020:1 8122:1 8296:1 9166:1 9739:1 12837:1 12839:1 13212:1 
1.4794921875 3647:1 4309:1 4477:1 6179:1 6197:1 7623:1 7830:1 10083:1 
1.4794921875 27:1 1218:1 
50 
1.4794921875 1457:1 3586:1 3647:1 3758:1 4477:1 5558:1 6201:1 7623:1 8763:1 10083:1 11961:1 13141:1 
1.4794921875 288:1 916:1 1017:1 3926:1 4260:1 8122:1 8296:1 9102:1 9739:1 10201:1 12837:1 12839:1 
1.4794921875 833:1 1565:1 5794:1 8176:1 
1.4794921875 1678:1 3647:1 4477:1 5653:1 5957:1 7623:1 8620:1 9714:1 10083:1 10201:1 11342:1 
1.4794921875 18:1 1006:1 3626:1 3634:1 4487:1 6413:1 6818:1 7779:1 
1.4794921875 2140:1 3647:1 4477:1 4845:1 5853:1 5883:1 7623:1 8621:1 9714:1 10083:1 11725:1 
1.4794921875 4711:1 6712:1 6805:1 7253:1 7478:1 9554:1 10229:1 10503:1 
1.4794921875 719:1 1017:1 1906:1 3087:1 4357:1 4360:1 4711:1 7064:1 7687:1 7884:1 9593:1 10229:1 11263:1 11326:1 
1.4794921875 317:1 1223:1 3164:1 4154:1 4311:1 4357:1 4360:1 5615:1 5654:1 6728:1 9095:1 9104:1 11326:1 11720:1 11725:1 11747:1 
1.478515625 1133:1 9554:1 
50 
1.4794921875 1017:1 3647:1 4477:1 4941:1 5562:1 6328:1 7623:1 9365:1 10083:1 11172:1 
1.4794921875 1519:1 3957:1 5211:1 7253:1 7919:1 8489:1 11585:1 12116:1 12904:1 
1.4794921875 677:1 2057:1 3847:1 5814:1 5826:1 6005:1 7253:1 10369:1 10877:1 11469:1 12997:1 
1.4794921875 3833:1 6331:1 7253:1 7419:1 
1.4794921875 5851:1 7488:1 8054:1 8060:1 9264:1 9416:1 11001:1 
1.4794921875 288:1 3861:1 4708:1 8725:1 13208:1 
1.4794921875 998:1 3966:1 5134:1 8458:1 11401:1 12668:1 
50 350:1 4375:1 9099:1 12388:1 
1.4794921875 721:1 3647:1 4055:1 4477:1 6312:1 6320:1 7623:1 10083:1 11717:1 12089:1 
1.4794921875 276:1 574:1 12973:1 
1.4794921875 432:1 3586:1 4197:1 4239:1 6111:1 7268:1 9554:1 10198:1 11020:1 11213:1 11485:1 11675:1 11961:1 12135:1 
1.4794921875 317:1 3561:1 7098:1 9714:1 12876:1 
1.4794921875 4309:1 4423:1 4706:1 4863:1 6179:1 6197:1 7830:1 8774:1 9714:1 
50 2684:1 12349:1 
50 9698:1 
50 2936:1 10915:1 
1.4794921875 18:1 288:1 490:1 623:1 1219:1 2950:1 4487:1 5291:1 6111:1 6667:1 6818:1 7779:1 8620:1 8761:1 9102:1 9164:1 9554:1 9555:1 10783:1 11342:1 11987:1 
1.4794921875 1219:1 2057:1 5281:1 7253:1 7877:1 10369:1 10436:1 11987:1 
1.4794921875 291:1 1159:1 2857:1 3647:1 3720:1 4357:1 4360:1 4477:1 5498:1 5546:1 6112:1 6278:1 7066:1 7174:1 7193:1 7303:1 7623:1 8020:1 8620:1 8841:1 10083:1 10432:1 10480:1 10594:1 11326:1 11342:1 
1.4794921875 998:1 4902:1 9451:1 9672:1 10489:1 11401:1 11831:1 
1.4794921875 248:1 527:1 816:1 1784:1 3345:1 3966:1 4340:1 4576:1 4591:1 4630:1 5134:1 5283:1 6222:1 6302:1 6763:1 7074:1 7253:1 7852:1 8038:1 8238:1 8458:1 9714:1 10390:1 10667:1 12591:1 12668:1 
1.4794921875 998:1 3837:1 4902:1 5622:1 6333:1 8869:1 11180:1 11401:1 
1.4794921875 6754:1 10794:1 
1.4794921875 738:1 2578:1 4621:1 7989:1 10294:1 10862:1 11523:1 
50 
1.4794921875 1462:1 2154:1 2445:1 2874:1 3647:1 4477:1 5542:1 7607:1 7623:1 10083:1 10928:1 
50 4239:1 11485:1 
1.4794921875 1293:1 3485:1 3647:1 4477:1 6396:1 6607:1 7253:1 7369:1 7623:1 10083:1 11243:1 
1.4794921875 288:1 2496:1 3714:1 3824:1 3834:1 8873:1 
1.4794921875 288:1 3981:1 7253:1 9052:1 12289:1 12471:1 
1.4794921875 288:1 1838:1 2321:1 2677:1 2752:1 2936:1 4902:1 7253:1 7258:1 10915:1 12677:1 12765:1 12947:1 13234:1 
1.4794921875 288:1 791:1 2166:1 7273:1 7768:1 
50 9554:1 
1.4794921875 64:1 540:1 1561:1 3319:1 4178:1 5910:1 6469:1 6494:1 6638:1 7923:1 9554:1 9714:1 12325:1 
1.4794921875 18:1 2677:1 3234:1 4487:1 6818:1 7779:1 7879:1 8172:1 12292:1 12791:1 
1.4794921875 139:1 698:1 838:1 1062:1 1463:1 2891:1 3326:1 3538:1 4676:1 5021:1 5321:1 5500:1 5811:1 6357:1 6882:1 7253:1 8482:1 9714:1 11035:1 12897:1 13062:1 13076:1 13209:1 
1.4794921875 288:1 908:1 2152:1 2840:1 3569:1 5127:1 5137:1 5886:1 9109:1 11881:1 
1.4794921875 288:1 1430:1 2742:1 3975:1 6252:1 7758:1 8564:1 8653:1 9428:1 9498:1 
1.4794921875 248:1 1462:1 3345:1 5542:1 5805:1 6302:1 8620:1 11342:1 12591:1 
1.478515625 4164:1 
1.4794921875 3647:1 4477:1 7623:1 9714:1 10083:1 10198:1 
50 
1.4794921875 2652:1 7253:1 7749:1 8806:1 9698:1 
1.4794921875 288:1 3542:1 3833:1 7419:1 10933:1 
1.4794921875 1838:1 4105:1 4357:1 4360:1 4432:1 6248:1 6430:1 7833:1 8444:1 8826:1 11326:1 12677:1 12947:1 13043:1 
1.4794921875 4637:1 9714:1 
50 
50 
1.4794921875 2223:1 3758:1 8593:1 8733:1 
1.4794921875 288:1 4361:1 9554:1 10055:1 10150:1 
1.4794921875 205:1 1895:1 1968:1 3647:1 3758:1 4477:1 4902:1 6150:1 7623:1 8620:1 10083:1 11342:1 
1.4794921875 246:1 729:1 5727:1 
1.478515625 2439:1 4519:1 10953:1 
1.4794921875 4423:1 4706:1 4711:1 6292:1 10229:1 12927:1 
1.4794921875 4423:1 4706:1 9102:1 9714:1 
50 
1.4794921875 998:1 1774:1 4253:1 4711:1 6911:1 7090:1 7253:1 9554:1 10057:1 10229:1 10778:1 11107:1 11401:1 11486:1 
1.4794921875 288:1 2143:1 3569:1 5119:1 5175:1 9109:1 11881:1 
1.4794921875 288:1 317:1 1017:1 2132:1 3137:1 3279:1 4357:1 4360:1 6793:1 8684:1 10989:1 11326:1 12848:1 
1.4794921875 430:1 1017:1 1148:1 2677:1 3453:1 3565:1 3758:1 4594:1 5024:1 6703:1 7253:1 10106:1 11594:1 
1.4794921875 3647:1 4477:1 7253:1 7585:1 7623:1 7682:1 7688:1 9016:1 9119:1 9714:1 9826:1 10083:1 11319:1 11582:1 
1.4794921875 1033:1 4500:1 7253:1 8620:1 11342:1 11770:1 12426:1 12793:1 
1.4794921875 3647:1 4477:1 5541:1 7623:1 7992:1 10083:1 
1.4794921875 16:1 288:1 551:1 1050:1 2411:1 3014:1 3433:1 3586:1 4005:1 4053:1 4357:1 4360:1 7253:1 7738:1 7750:1 7800:1 9755:1 11326:1 11961:1 12054:1 
1.4794921875 3115:1 4357:1 4360:1 7612:1 8152:1 11326:1 13181:1 
1.4794921875 3647:1 4055:1 4357:1 4360:1 4477:1 7623:1 10083:1 11326:1 
1.478515625 4357:1 4360:1 7545:1 11326:1 
1.4794921875 546:1 2060:1 2677:1 3981:1 8276:1 9445:1 
1.4794921875 288:1 2143:1 4423:1 4706:1 5175:1 5541:1 7992:1 9175:1 
1.4794921875 4902:1 9716:1 11718:1 
1.4794921875 288:1 317:1 528:1 2510:1 2677:1 3276:1 4025:1 4543:1 6111:1 6732:1 9434:1 11805:1 11913:1 11972:1 12851:1 
1.4794921875 430:1 3565:1 4594:1 9022:1 10106:1 
1.4794921875 18:1 1455:1 3647:1 4477:1 4487:1 4586:1 4902:1 5934:1 6347:1 6818:1 7623:1 7779:1 9083:1 10083:1 11637:1 12371:1 
1.478515625 1691:1 3647:1 4477:1 7623:1 10083:1 
1.4794921875 343:1 2181:1 2421:1 4006:1 4357:1 4360:1 5469:1 7677:1 8171:1 10498:1 11326:1 
1.4794921875 4591:1 4630:1 5283:1 10059:1 
1.4794921875 3384:1 3613:1 4357:1 4360:1 6183:1 9189:1 11296:1 11326:1 
1.4794921875 430:1 3565:1 4594:1 7015:1 8281:1 9513:1 10106:1 11565:1 11623:1 
1.4794921875 3647:1 4477:1 4902:1 6363:1 7623:1 8455:1 10083:1 10563:1 11725:1 11931:1 12535:1 
1.4794921875 288:1 1323:1 4902:1 5941:1 
1.4794921875 2581:1 2617:1 5452:1 6224:1 6482:1 6502:1 7253:1 9714:1 
1.4794921875 243:1 1378:1 2439:1 2469:1 2496:1 4748:1 7980:1 10953:1 
1.4794921875 2768:1 4523:1 5906:1 
50 
1.4794921875 1730:1 3647:1 3758:1 4477:1 5504:1 7623:1 9226:1 10083:1 
1.4794921875 2359:1 2826:1 3074:1 
1.4794921875 3647:1 4025:1 4477:1 5014:1 7106:1 7480:1 7524:1 7623:1 7714:1 8710:1 9914:1 10083:1 10814:1 12121:1 12667:1 13024:1 
50 
1.4794921875 546:1 1230:1 3647:1 4477:1 4875:1 7623:1 9445:1 10083:1 11717:1 
50 
1.4794921875 288:1 1329:1 1875:1 2567:1 3954:1 3962:1 4711:1 6038:1 6969:1 8283:1 8965:1 9758:1 10229:1 11781:1 11866:1 12230:1 12339:1 12595:1 13037:1 
50 
1.4794921875 4902:1 7253:1 7989:1 8379:1 8852:1 9242:1 10294:1 10862:1 11523:1 
1.478515625 9226:1 
1.4794921875 27:1 277:1 430:1 558:1 1218:1 2124:1 3565:1 3647:1 4184:1 4239:1 4342:1 4477:1 4594:1 7623:1 7682:1 9465:1 9826:1 10083:1 10106:1 11485:1 11582:1 
1.4794921875 753:1 4271:1 4738:1 
1.4794921875 288:1 585:1 3586:1 3966:1 5134:1 5239:1 6111:1 6607:1 7253:1 7497:1 8458:1 9536:1 10967:1 11961:1 12668:1 
1.4794921875 289:1 1853:1 4675:1 
1.4794921875 546:1 4327:1 4575:1 5534:1 5555:1 7245:1 7253:1 9445:1 
1.478515625 7261:1 
1.4794921875 288:1 3973:1 5119:1 5922:1 11725:1 12253:1 
1.4794921875 1300:1 3647:1 3886:1 4477:1 4711:1 5061:1 6176:1 7623:1 7756:1 8739:1 10083:1 10229:1 
1.4794921875 6:1 246:1 729:1 1044:1 3894:1 4253:1 4856:1 6568:1 7814:1 11107:1 11300:1 
1.4794921875 350:1 4253:1 4375:1 7253:1 7873:1 9099:1 11107:1 12388:1 
1.4794921875 409:1 3647:1 4477:1 7251:1 7253:1 7623:1 9654:1 10083:1 12878:1 
1.4794921875 288:1 980:1 1221:1 3220:1 3763:1 6214:1 6716:1 8810:1 9588:1 11232:1 11560:1 
1.4794921875 349:1 7219:1 9526:1 
1.4794921875 546:1 4711:1 9445:1 10229:1 
1.4794921875 288:1 931:1 1818:1 1944:1 2677:1 2966:1 3505:1 4959:1 5480:1 7172:1 7291:1 11581:1 12595:1 
1.4794921875 151:1 677:1 1099:1 1863:1 2913:1 4883:1 7253:1 
1.4794921875 1159:1 1668:1 2857:1 3720:1 5515:1 6323:1 7855:1 8020:1 9567:1 11412:1 
1.4794921875 288:1 3482:1 7989:1 10294:1 10862:1 11523:1 
1.4794921875 4055:1 6857:1 9202:1 
1.4794921875 288:1 3276:1 3647:1 4477:1 6352:1 7253:1 7623:1 10083:1 12851:1 
1.4794921875 6754:1 8620:1 8776:1 10794:1 11342:1 
1.4794921875 990:1 1044:1 3894:1 7253:1 
1.4794921875 361:1 2677:1 4423:1 4571:1 4706:1 7675:1 8271:1 8527:1 10100:1 12134:1 
1.4794921875 89:1 322:1 1054:1 1957:1 2832:1 3460:1 4055:1 4290:1 4297:1 4630:1 5189:1 5283:1 7253:1 8265:1 9662:1 11111:1 11307:1 12115:1 
50 5119:1 
1.4794921875 12878:1 
1.4794921875 2496:1 11361:1 
1.4794921875 244:1 288:1 1318:1 2539:1 4056:1 8469:1 8620:1 11079:1 11342:1 
1.4794921875 151:1 1863:1 2913:1 
1.4794921875 288:1 920:1 5370:1 6375:1 7253:1 7392:1 7679:1 10574:1 
1.4794921875 248:1 3345:1 6302:1 11122:1 12591:1 
1.4794921875 2652:1 3754:1 
50 
1.4794921875 1136:1 1329:1 3954:1 3962:1 6101:1 8085:1 10076:1 12339:1 12798:1 13188:1 
1.4794921875 288:1 3862:1 5030:1 11287:1 
1.4794921875 1223:1 1323:1 1401:1 5174:1 6728:1 7979:1 9104:1 11720:1 11742:1 11747:1 
1.4794921875 1463:1 1491:1 1497:1 2061:1 2758:1 4055:1 4917:1 11941:1 11944:1 12308:1 12652:1 13011:1 
1.4794921875 2977:1 3586:1 7253:1 10507:1 11961:1 13068:1 
1.4794921875 283:1 288:1 417:1 428:1 4941:1 5562:1 6328:1 7257:1 7393:1 11037:1 11172:1 11501:1 11692:1 11740:1 12228:1 
1.4794921875 207:1 546:1 4263:1 4361:1 5546:1 6112:1 7193:1 8841:1 9445:1 10055:1 10150:1 10594:1 
1.4794921875 288:1 3647:1 4477:1 7623:1 8918:1 10083:1 11470:1 
1.4794921875 1744:1 5482:1 5922:1 6046:1 11212:1 12702:1 12767:1 
1.4794921875 2173:1 3047:1 8659:1 12526:1 
1.4794921875 222:1 2421:1 4185:1 6270:1 6325:1 6829:1 7393:1 8171:1 9094:1 9315:1 10498:1 11740:1 12228:1 
1.4794921875 288:1 8891:1 
1.478515625 1481:1 
1.4794921875 1343:1 2435:1 6954:1 7251:1 7253:1 9654:1 
1.4794921875 816:1 2721:1 8038:1 
1.478515625 3647:1 4477:1 7623:1 10083:1 12634:1 
1.4794921875 288:1 3144:1 3587:1 3647:1 3684:1 4477:1 5565:1 6422:1 7623:1 8145:1 8270:1 9554:1 9794:1 10083:1 10371:1 
1.4794921875 2403:1 4357:1 4360:1 9249:1 9375:1 11326:1 
1.4794921875 288:1 905:1 1230:1 4875:1 6618:1 9554:1 11784:1 
1.4794921875 182:1 288:1 3240:1 5281:1 7877:1 10884:1 10888:1 11036:1 12408:1 
1.4794921875 2057:1 2328:1 3164:1 3839:1 3862:1 5717:1 5922:1 6642:1 7471:1 9714:1 10369:1 
1.4794921875 164:1 244:1 288:1 440:1 998:1 4056:1 6325:1 6667:1 7091:1 8761:1 10724:1 11079:1 11401:1 
1.4794921875 4997:1 7150:1 9714:1 11292:1 12341:1 13002:1 
1.4794921875 310:1 13038:1 
1.4794921875 144:1 278:1 869:1 1062:1 1171:1 1725:1 2807:1 4055:1 4676:1 5811:1 5922:1 6717:1 7589:1 9095:1 9623:1 9876:1 12519:1 12945:1 13025:1 13076:1 
1.4794921875 288:1 317:1 1181:1 4357:1 4360:1 5119:1 7253:1 11164:1 11326:1 11717:1 13072:1 
1.4794921875 1124:1 7253:1 7628:1 8620:1 9554:1 10198:1 11342:1 
50 288:1 
1.4794921875 1159:1 2227:1 2857:1 3611:1 3720:1 4327:1 4575:1 5075:1 5534:1 5555:1 6741:1 7245:1 7594:1 8020:1 8620:1 9554:1 9695:1 11342:1 11531:1 
1.4794921875 1017:1 1673:1 4985:1 5770:1 7660:1 7758:1 8156:1 8185:1 10153:1 11329:1 12039:1 
1.4794921875 4253:1 4907:1 9714:1 9991:1 11107:1 
1.4794921875 931:1 1818:1 2966:1 4938:1 6292:1 11581:1 12927:1 
1.4794921875 62:1 673:1 1003:1 4591:1 5318:1 5612:1 7253:1 7989:1 8942:1 10294:1 10862:1 11523:1 
1.4794921875 288:1 1301:1 1935:1 3647:1 4452:1 4477:1 7123:1 7393:1 7623:1 8675:1 8994:1 10083:1 11717:1 11740:1 12068:1 12097:1 12228:1 12869:1 
1.4794921875 2421:1 3647:1 4477:1 5014:1 7623:1 8171:1 8710:1 10083:1 10498:1 10771:1 13210:1 
1.5 6111:1 
1.4794921875 414:1 1017:1 2809:1 4961:1 7861:1 8016:1 9106:1 10157:1 10523:1 12933:1 
1.4794921875 3354:1 12062:1 
1.4794921875 3313:1 8949:1 8965:1 9166:1 13208:1 
1.4794921875 288:1 4253:1 5370:1 9714:1 11107:1 
1.4794921875 246:1 288:1 334:1 729:1 1831:1 2286:1 4648:1 4902:1 5531:1 6739:1 8308:1 9349:1 9554:1 10042:1 
1.478515625 6111:1 9714:1 10772:1 
50 2677:1 9554:1 
1.4794921875 18:1 1513:1 2063:1 2322:1 4278:1 4423:1 4487:1 4706:1 4969:1 6818:1 7779:1 9737:1 11708:1 
1.4794921875 288:1 574:1 1017:1 1474:1 2057:1 2782:1 4691:1 5482:1 10156:1 10369:1 12649:1 
50 288:1 
1.4794921875 288:1 920:1 2057:1 2108:1 2143:1 5175:1 7679:1 10369:1 10745:1 11736:1 
1.4794921875 246:1 729:1 824:1 998:1 1003:1 4357:1 4360:1 5919:1 10561:1 11326:1 11401:1 11457:1 12627:1 
1.4794921875 288:1 806:1 3484:1 
1.4794921875 2858:1 3647:1 4477:1 5794:1 7194:1 7623:1 9652:1 10083:1 11409:1 
1.4794921875 333:1 350:1 2496:1 4316:1 4375:1 9099:1 12388:1 
1.4794921875 207:1 288:1 806:1 1017:1 1639:1 1772:1 2057:1 4055:1 4263:1 4902:1 4928:1 7085:1 7146:1 8554:1 9926:1 10369:1 11602:1 12017:1 12738:1 
1.4794921875 288:1 3586:1 4839:1 9433:1 11178:1 11961:1 12878:1 
1.4794921875 288:1 5152:1 5837:1 6016:1 7253:1 7989:1 9346:1 9494:1 10294:1 10862:1 11523:1 
1.4794921875 8341:1 11274:1 
50 3627:1 
1.4794921875 288:1 610:1 667:1 1158:1 1825:1 3657:1 4168:1 4630:1 4740:1 5283:1 6410:1 6676:1 6680:1 7253:1 8993:1 9554:1 10059:1 
1.4794921875 2710:1 4560:1 4867:1 7253:1 8869:1 9590:1 11776:1 12973:1 13107:1 
1.4794921875 288:1 3401:1 7253:1 
1.4794921875 63:1 2124:1 3647:1 4477:1 7623:1 8027:1 8680:1 8869:1 9465:1 10083:1 12125:1 12973:1 
1.4794921875 2057:1 3298:1 10369:1 10558:1 
50 
50 
1.4794921875 1585:1 2752:1 3199:1 12765:1 
1.4794921875 241:1 1289:1 3647:1 4477:1 5749:1 5862:1 6503:1 6691:1 7253:1 7623:1 10083:1 
1.4794921875 2057:1 3647:1 4477:1 7623:1 10083:1 10369:1 
50 
1.478515625 10723:1 
1.4794921875 170:1 272:1 458:1 486:1 560:1 2106:1 3586:1 3647:1 3987:1 4477:1 4774:1 6630:1 6776:1 7623:1 8793:1 10083:1 11961:1 12792:1 12808:1 
1.4794921875 2188:1 3647:1 4252:1 4477:1 4829:1 7508:1 7623:1 9737:1 10083:1 11213:1 
1.4794921875 288:1 903:1 1017:1 1351:1 4476:1 5952:1 7253:1 9168:1 9267:1 
1.4794921875 1944:1 3189:1 3505:1 4959:1 6380:1 7172:1 9554:1 12251:1 
1.4794921875 288:1 7253:1 9168:1 9267:1 10301:1 10600:1 12747:1 12976:1 
1.4794921875 184:1 244:1 288:1 317:1 1926:1 2876:1 3143:1 4056:1 8049:1 8774:1 9305:1 9805:1 11079:1 
1.4794921875 2268:1 3847:1 5802:1 8540:1 10877:1 11469:1 
1.4794921875 247:1 288:1 1003:1 2385:1 3705:1 4327:1 4575:1 5534:1 5555:1 7245:1 10475:1 11509:1 11713:1 13167:1 
1.4794921875 1462:1 1506:1 3587:1 4357:1 4360:1 4789:1 4940:1 5542:1 5708:1 6748:1 8918:1 9554:1 11326:1 12818:1 
1.4794921875 164:1 440:1 4591:1 7091:1 9186:1 9714:1 12150:1 
1.4794921875 288:1 1031:1 4941:1 5562:1 6328:1 7989:1 10294:1 10862:1 10891:1 11172:1 11390:1 11523:1 12531:1 
1.4794921875 1498:1 6472:1 6836:1 7253:1 9620:1 10787:1 11122:1 12268:1 
1.4794921875 288:1 317:1 920:1 1895:1 3647:1 4477:1 7253:1 7623:1 7679:1 9554:1 10083:1 
1.4794921875 288:1 1430:1 2154:1 2684:1 2874:1 8483:1 12222:1 12349:1 12690:1 
1.4794921875 11704:1 12032:1 12913:1 
1.4794921875 317:1 574:1 2496:1 4239:1 4271:1 6091:1 8495:1 9082:1 9554:1 11485:1 
1.478515625 7253:1 8457:1 
1.4794921875 7304:1 8578:1 9554:1 
1.478515625 3597:1 
1.4794921875 288:1 477:1 646:1 3647:1 4245:1 4477:1 5341:1 6014:1 7623:1 8892:1 9964:1 10083:1 12620:1 
1.4794921875 164:1 385:1 440:1 901:1 1345:1 2057:1 3586:1 4314:1 4986:1 6208:1 6875:1 7091:1 7253:1 10300:1 10369:1 11961:1 
1.4794921875 4212:1 4357:1 4360:1 6344:1 6795:1 8176:1 9332:1 9508:1 11099:1 11326:1 
1.4794921875 79:1 248:1 3345:1 6302:1 6932:1 12591:1 
1.4794921875 18:1 727:1 3006:1 4055:1 4487:1 6818:1 7779:1 8349:1 13021:1 
50 
1.4794921875 6325:1 9106:1 
1.4794921875 5482:1 5616:1 
1.4794921875 4239:1 7524:1 7714:1 9914:1 10814:1 11485:1 
1.4794921875 417:1 428:1 4239:1 10286:1 11037:1 11485:1 11501:1 11858:1 13053:1 
1.4794921875 1463:1 3881:1 4064:1 5743:1 7253:1 7823:1 9942:1 10219:1 10690:1 10946:1 
1.4794921875 737:1 3255:1 4357:1 4360:1 10950:1 11326:1 12102:1 
1.4794921875 246:1 288:1 729:1 4902:1 5210:1 7400:1 9890:1 12577:1 
1.4794921875 2885:1 11429:1 
1.4794921875 288:1 1017:1 3586:1 6215:1 8457:1 10084:1 11961:1 13122:1 
1.4794921875 6215:1 7253:1 10084:1 13122:1 
1.4794921875 288:1 5589:1 7421:1 9102:1 9616:1 
1.4794921875 7253:1 11888:1 
1.4794921875 246:1 288:1 317:1 729:1 4902:1 6224:1 6336:1 7251:1 8763:1 9654:1 12586:1 
1.4794921875 288:1 2578:1 4891:1 5647:1 6428:1 9554:1 11378:1 11540:1 11725:1 
1.4794921875 317:1 2677:1 2752:1 7253:1 9168:1 9267:1 10998:1 11192:1 11282:1 12586:1 12765:1 12993:1 
1.4794921875 3433:1 7253:1 7750:1 8391:1 9577:1 10140:1 11509:1 
1.4794921875 3833:1 5123:1 6331:1 7419:1 11340:1 
1.4794921875 288:1 2057:1 7253:1 7457:1 8270:1 9714:1 10369:1 10616:1 
1.4794921875 2698:1 2739:1 2867:1 5314:1 7685:1 9942:1 10690:1 11028:1 12198:1 12481:1 
1.4794921875 1017:1 1963:1 2439:1 4624:1 4902:1 5331:1 7041:1 10953:1 12599:1 
1.4794921875 148:1 3041:1 4902:1 5158:1 6803:1 9903:1 10845:1 10847:1 10947:1 
1.4794921875 288:1 417:1 428:1 684:1 1159:1 1676:1 2229:1 2407:1 2857:1 3720:1 4134:1 6637:1 7234:1 7253:1 7406:1 7408:1 8020:1 9017:1 9068:1 9283:1 9963:1 11006:1 11037:1 11501:1 12922:1 
1.4794921875 386:1 719:1 1397:1 1906:1 5560:1 7064:1 7687:1 7884:1 8524:1 10869:1 12678:1 
1.4794921875 808:1 1017:1 6258:1 6658:1 7253:1 7675:1 7758:1 8527:1 9714:1 10223:1 12134:1 12890:1 12971:1 13245:1 
1.4794921875 998:1 1784:1 1942:1 4576:1 5794:1 6763:1 9714:1 10133:1 10390:1 11401:1 
50 
1.4794921875 1099:1 4883:1 
50 
1.4794921875 3647:1 4477:1 4874:1 4902:1 7623:1 9554:1 10083:1 11978:1 12202:1 12300:1 
1.478515625 2057:1 3546:1 10369:1 
1.4794921875 246:1 729:1 2272:1 5319:1 7253:1 10800:1 
1.4794921875 3642:1 3647:1 4477:1 4606:1 4736:1 7623:1 8593:1 8733:1 9102:1 10083:1 
1.4794921875 148:1 3633:1 4902:1 5126:1 6698:1 7706:1 10317:1 12217:1 
1.4794921875 1530:1 3841:1 4357:1 4360:1 11326:1 
1.4794921875 2598:1 6954:1 9554:1 
1.4794921875 246:1 248:1 350:1 729:1 1084:1 2267:1 3345:1 4375:1 4780:1 5749:1 6302:1 6503:1 9099:1 12388:1 12591:1 
1.4794921875 276:1 310:1 4111:1 5441:1 6832:1 7841:1 8696:1 9554:1 13038:1 
1.4794921875 574:1 1159:1 2857:1 3720:1 6584:1 8020:1 
1.4794921875 288:1 8013:1 
1.4794921875 283:1 3049:1 3551:1 3587:1 5158:1 8148:1 9903:1 10632:1 12649:1 
1.4794921875 246:1 288:1 587:1 729:1 4591:1 4902:1 4941:1 5562:1 6328:1 9714:1 10088:1 11172:1 
50 
1.4794921875 299:1 317:1 1017:1 1159:1 2857:1 3720:1 6256:1 8020:1 8620:1 10201:1 10505:1 10744:1 11342:1 12252:1 12298:1 13149:1 
1.4794921875 8367:1 10059:1 
1.4794921875 729:1 2057:1 2430:1 4649:1 7253:1 7431:1 9714:1 10369:1 
1.4794921875 2208:1 2439:1 2677:1 2716:1 2936:1 3647:1 4477:1 7623:1 10083:1 10915:1 10953:1 12251:1 
1.4794921875 2421:1 4011:1 4380:1 5617:1 7344:1 8171:1 9158:1 10498:1 11674:1 
1.4794921875 288:1 998:1 6292:1 7253:1 9102:1 11401:1 12927:1 
1.4794921875 1870:1 4475:1 
1.4794921875 1519:1 7253:1 7919:1 8489:1 12116:1 12904:1 
1.4794921875 2936:1 6607:1 8869:1 10721:1 10915:1 12973:1 
1.4794921875 18:1 2641:1 3231:1 4050:1 4487:1 6818:1 7779:1 9554:1 10884:1 10888:1 11036:1 12075:1 12408:1 
1.4794921875 288:1 3474:1 5036:1 5633:1 8620:1 10024:1 11342:1 12130:1 
1.4794921875 18:1 350:1 1438:1 3100:1 3513:1 4375:1 4487:1 6818:1 7779:1 9099:1 12388:1 
1.4794921875 288:1 998:1 1499:1 3390:1 3685:1 3697:1 3856:1 4055:1 4423:1 4706:1 4902:1 4970:1 7910:1 8207:1 8272:1 8620:1 11199:1 11342:1 11401:1 12732:1 12912:1 
1.4794921875 288:1 1768:1 2140:1 4630:1 5283:1 7253:1 9306:1 11704:1 12032:1 13154:1 
50 9631:1 12401:1 
1.4794921875 1942:1 2496:1 7253:1 10133:1 11380:1 
1.4794921875 3647:1 4477:1 4874:1 7253:1 7623:1 10083:1 12202:1 
1.4794921875 288:1 8699:1 
1.478515625 6111:1 6538:1 9714:1 
1.4794921875 1008:1 4902:1 5004:1 9741:1 11263:1 
1.4794921875 1017:1 1678:1 2439:1 3309:1 5512:1 5672:1 5698:1 5794:1 10953:1 11815:1 12048:1 
1.4794921875 288:1 2425:1 2503:1 4253:1 4307:1 5058:1 5721:1 7253:1 9190:1 9948:1 10544:1 11042:1 11107:1 12400:1 12519:1 13025:1 
1.4794921875 36:1 5851:1 8054:1 8060:1 11001:1 11028:1 
1.4794921875 2439:1 3382:1 3647:1 3673:1 4339:1 4477:1 5765:1 7623:1 9102:1 10083:1 10198:1 10953:1 
1.4794921875 1184:1 4423:1 4650:1 4706:1 8965:1 9714:1 10623:1 
1.4794921875 1325:1 3673:1 4357:1 4360:1 5765:1 6780:1 8161:1 11326:1 12121:1 12667:1 
1.4794921875 288:1 753:1 916:1 3647:1 3926:1 4477:1 5158:1 7623:1 8122:1 8176:1 8296:1 8687:1 9739:1 9903:1 10083:1 11044:1 11975:1 12236:1 12837:1 12839:1 
1.4794921875 288:1 6042:1 7296:1 
1.4794921875 288:1 3647:1 4477:1 7623:1 8067:1 10083:1 
1.4794921875 288:1 350:1 608:1 2972:1 4357:1 4360:1 4375:1 4555:1 4794:1 7429:1 8580:1 9099:1 11326:1 12138:1 12388:1 
1.4794921875 1678:1 8620:1 9554:1 9714:1 11342:1 12471:1 
1.4794921875 18:1 998:1 2057:1 2752:1 4487:1 4902:1 6818:1 7779:1 8763:1 10369:1 11401:1 12765:1 
1.4794921875 288:1 2166:1 2496:1 4274:1 7253:1 8614:1 11568:1 
1.478515625 9714:1 9925:1 
1.4794921875 4357:1 4360:1 6040:1 7435:1 8076:1 8613:1 8965:1 10691:1 11326:1 
1.4794921875 350:1 799:1 3019:1 4375:1 9099:1 9371:1 10636:1 12388:1 
1.4794921875 1017:1 4380:1 4874:1 5617:1 7344:1 9158:1 12202:1 
1.4794921875 301:1 838:1 2891:1 3326:1 3633:1 5158:1 5500:1 7706:1 8620:1 9061:1 9554:1 9903:1 11342:1 12217:1 12637:1 
1.4794921875 246:1 729:1 998:1 1456:1 3862:1 4299:1 6975:1 8176:1 8918:1 9093:1 9643:1 11401:1 
1.4794921875 246:1 304:1 729:1 1230:1 1457:1 3676:1 3970:1 4030:1 4293:1 4302:1 4691:1 4713:1 4875:1 5063:1 5482:1 7734:1 8616:1 8765:1 9741:1 10156:1 
50 288:1 
1.4794921875 248:1 563:1 3345:1 4357:1 4360:1 4902:1 5975:1 6302:1 8620:1 11301:1 11326:1 11342:1 12591:1 
1.4794921875 1942:1 4902:1 7253:1 8216:1 10133:1 
1.4794921875 1017:1 3717:1 4623:1 5401:1 6824:1 7824:1 8045:1 9554:1 10268:1 10271:1 11506:1 11557:1 
1.4794921875 246:1 729:1 1666:1 2337:1 2771:1 3647:1 4477:1 7253:1 7623:1 10083:1 10842:1 
1.4794921875 6:1 317:1 4055:1 4856:1 6568:1 7814:1 7861:1 8016:1 9106:1 
1.4794921875 288:1 2057:1 3275:1 3647:1 4316:1 4477:1 5763:1 5984:1 6344:1 6866:1 6869:1 7068:1 7623:1 9143:1 9396:1 9508:1 10083:1 10225:1 10369:1 11099:1 
1.478515625 3561:1 7098:1 12876:1 
1.4794921875 94:1 3329:1 3334:1 4357:1 4360:1 5428:1 6237:1 7758:1 10513:1 11326:1 
1.4794921875 288:1 7989:1 8379:1 8852:1 10294:1 10862:1 11523:1 
50 
1.4794921875 241:1 2148:1 3561:1 5862:1 6691:1 7098:1 10250:1 12876:1 
1.4794921875 139:1 246:1 288:1 522:1 729:1 1064:1 1238:1 1469:1 3538:1 3647:1 4098:1 4452:1 4477:1 4748:1 5021:1 5065:1 7253:1 7623:1 7989:1 8176:1 8271:1 10083:1 10294:1 10762:1 10862:1 11523:1 12897:1 
1.4794921875 288:1 4055:1 4323:1 
1.4794921875 607:1 2154:1 2439:1 2871:1 2874:1 4149:1 10411:1 10953:1 
1.5 2674:1 7772:1 9900:1 
1.4794921875 3647:1 4477:1 6193:1 6844:1 7201:1 7623:1 9127:1 9526:1 10083:1 10838:1 12236:1 12981:1 
1.4794921875 288:1 2422:1 5920:1 6523:1 11102:1 
1.4794921875 288:1 1381:1 1774:1 4790:1 5685:1 7487:1 10097:1 13220:1 
1.4794921875 288:1 680:1 
1.4794921875 4711:1 6325:1 8824:1 10229:1 
1.4794921875 901:1 1462:1 4423:1 4706:1 4902:1 5355:1 5358:1 5542:1 8620:1 9063:1 9348:1 9401:1 9411:1 9714:1 10766:1 11342:1 11475:1 
1.4794921875 1230:1 4875:1 4997:1 7106:1 7150:1 9714:1 11292:1 12341:1 13002:1 13024:1 
1.4794921875 736:1 4591:1 
1.4794921875 2317:1 7318:1 10248:1 
1.4794921875 931:1 1818:1 2966:1 3482:1 5257:1 5980:1 9351:1 11553:1 11581:1 
1.4794921875 242:1 317:1 541:1 738:1 1159:1 2857:1 2957:1 3720:1 4357:1 4360:1 7251:1 7254:1 8020:1 8131:1 9654:1 10023:1 10472:1 11326:1 
1.4794921875 1329:1 3954:1 3962:1 5444:1 5482:1 7598:1 7861:1 8016:1 9106:1 10428:1 12339:1 
1.4794921875 3647:1 4477:1 7623:1 9798:1 10083:1 12083:1 
50 
1.4794921875 1021:1 3586:1 6293:1 7096:1 9162:1 10064:1 11961:1 
1.4794921875 1084:1 4834:1 12677:1 12947:1 
1.4794921875 1678:1 4098:1 12121:1 12667:1 
1.4794921875 2421:1 8171:1 10498:1 
1.4794921875 1065:1 1806:1 1808:1 2742:1 8564:1 9714:1 12694:1 
1.4794921875 77:1 153:1 430:1 3565:1 4594:1 4780:1 8339:1 9112:1 9214:1 9714:1 10106:1 11820:1 
1.4794921875 246:1 288:1 729:1 3433:1 7750:1 11328:1 11416:1 11944:1 12652:1 
1.4794921875 288:1 2463:1 4046:1 4325:1 4423:1 4706:1 5065:1 5797:1 6325:1 6793:1 7217:1 7878:1 8011:1 9714:1 10762:1 10989:1 
1.4794921875 1664:1 2555:1 4251:1 4630:1 5283:1 6206:1 9714:1 
1.4794921875 972:1 4023:1 11333:1 
1.4794921875 2677:1 3851:1 4880:1 6230:1 7253:1 9554:1 10198:1 12397:1 12405:1 
1.4794921875 288:1 300:1 3615:1 4912:1 5335:1 8271:1 8869:1 11888:1 12973:1 
1.4794921875 2057:1 5653:1 5957:1 6325:1 7253:1 8620:1 10201:1 10369:1 11342:1 
50 
1.478515625 5076:1 
1.478515625 1827:1 
1.4794921875 3647:1 4239:1 4477:1 4902:1 7623:1 9554:1 10083:1 11485:1 
1.4794921875 1935:1 2703:1 3613:1 4612:1 4800:1 5837:1 5922:1 7424:1 8545:1 8675:1 9346:1 11875:1 12068:1 13188:1 
1.4794921875 288:1 1774:1 3647:1 4477:1 4790:1 7623:1 10083:1 
1.4794921875 3647:1 4477:1 5003:1 7623:1 10077:1 10083:1 12805:1 
1.478515625 288:1 3647:1 4477:1 7623:1 9350:1 10083:1 
1.4794921875 522:1 791:1 1064:1 1469:1 3874:1 3889:1 7768:1 9554:1 11002:1 12261:1 
1.4794921875 16:1 912:1 4005:1 5794:1 5980:1 6741:1 9373:1 9695:1 10182:1 11553:1 12054:1 12469:1 
1.4794921875 288:1 1163:1 4425:1 5019:1 5853:1 
1.4794921875 288:1 1031:1 3647:1 4477:1 4902:1 5364:1 7623:1 10074:1 10083:1 10489:1 10590:1 11390:1 12531:1 
1.4794921875 288:1 2057:1 7253:1 8040:1 9164:1 9432:1 10369:1 11721:1 13092:1 
1.4794921875 1148:1 6703:1 10775:1 12282:1 
1.4794921875 4591:1 7253:1 13158:1 
1.4794921875 5:1 7017:1 7253:1 7266:1 7758:1 9171:1 11928:1 
1.4794921875 3276:1 6927:1 9168:1 9267:1 12851:1 
50 4357:1 4360:1 11326:1 
1.4794921875 3975:1 5038:1 7253:1 8653:1 
50 
1.4794921875 288:1 608:1 2674:1 2972:1 4055:1 4357:1 4360:1 4794:1 7772:1 9102:1 9900:1 11326:1 11717:1 
1.4794921875 4357:1 4360:1 6171:1 6234:1 8010:1 8965:1 10775:1 11144:1 11326:1 12799:1 
1.4794921875 1002:1 2677:1 7013:1 9305:1 12576:1 
1.4794921875 51:1 1188:1 3569:1 4941:1 5562:1 6328:1 8923:1 9109:1 9361:1 9685:1 11172:1 11881:1 12320:1 
1.4794921875 288:1 527:1 1354:1 2057:1 3647:1 4239:1 4340:1 4477:1 4931:1 5772:1 5822:1 7548:1 7623:1 7852:1 8593:1 8733:1 10083:1 10369:1 10667:1 11485:1 11701:1 12258:1 13078:1 13198:1 
1.478515625 1052:1 9554:1 
1.4794921875 188:1 288:1 3587:1 4358:1 4941:1 5562:1 5865:1 6328:1 7253:1 9554:1 10435:1 10681:1 11172:1 11366:1 
1.4794921875 612:1 4957:1 7791:1 
50 990:1 
1.4794921875 2060:1 8276:1 
1.4794921875 193:1 288:1 2041:1 4308:1 8449:1 11420:1 12455:1 12664:1 12748:1 13055:1 
1.4794921875 64:1 288:1 1513:1 1561:1 2322:1 4178:1 4271:1 4278:1 4929:1 4969:1 6638:1 8609:1 8620:1 8965:1 11342:1 12325:1 
1.4794921875 244:1 351:1 417:1 428:1 2143:1 3586:1 4056:1 4601:1 4902:1 5175:1 7429:1 8886:1 11037:1 11079:1 11337:1 11397:1 11427:1 11501:1 11961:1 
50 288:1 
1.4794921875 1214:1 2645:1 4711:1 4780:1 7253:1 8620:1 8664:1 10229:1 11342:1 12336:1 
1.4794921875 288:1 1791:1 2355:1 3311:1 3614:1 4357:1 4360:1 4902:1 8799:1 9835:1 11082:1 11326:1 
1.4794921875 3837:1 5441:1 6333:1 6832:1 8271:1 9731:1 12258:1 
50 
50 
1.4794921875 5897:1 10174:1 11490:1 
1.4794921875 148:1 2421:1 3647:1 4006:1 4477:1 4902:1 5279:1 6325:1 7623:1 8171:1 8329:1 8942:1 10083:1 10498:1 11199:1 
1.4794921875 3750:1 7035:1 9932:1 10731:1 
1.4794921875 1017:1 2057:1 4242:1 7253:1 10369:1 
1.4794921875 288:1 1784:1 2581:1 3647:1 4477:1 4556:1 4576:1 6482:1 6502:1 6595:1 6763:1 7253:1 7623:1 10083:1 10390:1 12292:1 12375:1 12791:1 
1.4794921875 1848:1 3427:1 5656:1 5922:1 7036:1 7253:1 10198:1 12919:1 
1.4794921875 1306:1 3617:1 4290:1 4297:1 6215:1 8265:1 8823:1 9714:1 10084:1 12115:1 13122:1 
1.4794921875 3216:1 3251:1 4357:1 4360:1 5231:1 7941:1 8427:1 10135:1 11326:1 12359:1 
1.4794921875 2057:1 4711:1 5498:1 6911:1 7791:1 9942:1 10229:1 10369:1 10480:1 10690:1 11486:1 
1.4794921875 255:1 257:1 9554:1 10724:1 12431:1 12768:1 
1.4794921875 288:1 4630:1 5283:1 11858:1 
1.4794921875 2736:1 4630:1 5283:1 6215:1 10084:1 10721:1 13122:1 
50 1031:1 11390:1 12531:1 
1.4794921875 300:1 2677:1 3615:1 4055:1 4912:1 5335:1 7758:1 
1.4794921875 288:1 1289:1 2057:1 2732:1 3679:1 4014:1 4357:1 4360:1 6723:1 6829:1 7253:1 8866:1 9094:1 9283:1 10369:1 11326:1 11472:1 11727:1 12145:1 12353:1 
1.4794921875 246:1 288:1 473:1 729:1 3647:1 4357:1 4360:1 4477:1 7623:1 10083:1 11326:1 
1.4794921875 290:1 677:1 4316:1 4423:1 4706:1 7253:1 8670:1 9315:1 10198:1 11411:1 
1.4794921875 4100:1 7253:1 7257:1 
1.4794921875 288:1 3103:1 4093:1 4591:1 5336:1 5576:1 6345:1 7253:1 7861:1 8016:1 9106:1 9714:1 9937:1 
1.4794921875 110:1 2154:1 2874:1 4528:1 4863:1 9095:1 10092:1 
1.4794921875 288:1 4423:1 4706:1 4748:1 4772:1 4874:1 6394:1 10809:1 12202:1 
1.478515625 4357:1 4360:1 6150:1 11326:1 
1.4794921875 288:1 698:1 727:1 3006:1 8349:1 9714:1 13021:1 
1.4794921875 7253:1 8774:1 9305:1 
1.4794921875 288:1 3564:1 3673:1 3837:1 4253:1 5158:1 5765:1 6150:1 6333:1 6607:1 8620:1 9903:1 10035:1 11107:1 11342:1 
1.4794921875 638:1 1788:1 1803:1 7666:1 7989:1 10294:1 10862:1 11523:1 
1.4794921875 246:1 522:1 727:1 729:1 903:1 1064:1 1469:1 2057:1 3006:1 3837:1 3851:1 4476:1 4591:1 4880:1 6230:1 6333:1 8349:1 9554:1 10369:1 12397:1 12405:1 13021:1 
1.4794921875 1295:1 2323:1 6167:1 6679:1 10198:1 11176:1 
1.4794921875 2210:1 6880:1 6972:1 7253:1 9136:1 
1.4794921875 2243:1 4109:1 5289:1 6043:1 6231:1 6741:1 7253:1 9695:1 10638:1 11655:1 
1.4794921875 3647:1 4477:1 4845:1 5883:1 7623:1 8000:1 8621:1 8628:1 10083:1 12527:1 
1.4794921875 2140:1 2677:1 7373:1 8620:1 9714:1 11342:1 
1.4794921875 349:1 1470:1 1478:1 1679:1 4902:1 10313:1 
1.4794921875 276:1 288:1 574:1 998:1 1184:1 3647:1 3714:1 3824:1 3834:1 4271:1 4357:1 4360:1 4477:1 4650:1 4902:1 7623:1 7660:1 8156:1 9554:1 10083:1 10153:1 10623:1 11326:1 11401:1 
1.4794921875 816:1 3298:1 8038:1 9554:1 10558:1 
1.4794921875 1099:1 2389:1 2439:1 3338:1 3647:1 3830:1 3892:1 4477:1 4883:1 4902:1 6856:1 7253:1 7623:1 7989:1 10083:1 10294:1 10862:1 10953:1 11523:1 12206:1 12410:1 
1.4794921875 350:1 3311:1 3614:1 3687:1 4055:1 4375:1 5901:1 9099:1 12388:1 
1.4794921875 241:1 2439:1 5862:1 6691:1 6741:1 9695:1 10953:1 
1.4794921875 646:1 5789:1 7253:1 10256:1 12620:1 
1.4794921875 276:1 3647:1 4477:1 4902:1 6325:1 7623:1 9102:1 10083:1 
1.4794921875 294:1 426:1 521:1 1025:1 1190:1 1895:1 5048:1 5515:1 6323:1 7791:1 7855:1 9027:1 9029:1 11108:1 
1.4794921875 3021:1 3096:1 3276:1 3719:1 3721:1 9924:1 10916:1 11376:1 11385:1 12243:1 12851:1 
1.4794921875 4711:1 7756:1 10229:1 
1.4794921875 164:1 440:1 693:1 1065:1 1806:1 1808:1 3234:1 7091:1 7253:1 7879:1 8664:1 12336:1 12694:1 12878:1 
1.4794921875 3647:1 4444:1 4477:1 7253:1 7623:1 10083:1 
1.4794921875 288:1 317:1 2936:1 5231:1 7827:1 7941:1 8205:1 10915:1 
1.4794921875 151:1 288:1 1863:1 2913:1 3787:1 4166:1 4747:1 8952:1 10165:1 10444:1 11105:1 11578:1 
1.4794921875 3096:1 6248:1 6430:1 7833:1 8444:1 9924:1 10916:1 11376:1 11385:1 12243:1 
1.4794921875 288:1 317:1 738:1 762:1 7989:1 8809:1 9033:1 9957:1 10198:1 10294:1 10862:1 11523:1 12121:1 12667:1 12716:1 
50 546:1 9445:1 
1.4794921875 288:1 350:1 3004:1 4375:1 4500:1 7253:1 7913:1 9099:1 11770:1 12388:1 13135:1 
1.5 10198:1 
50 10198:1 
1.4794921875 1678:1 2140:1 4624:1 7041:1 7688:1 9016:1 9119:1 9526:1 11199:1 11319:1 11537:1 12230:1 12296:1 
1.4794921875 288:1 546:1 9445:1 
1.4794921875 3822:1 7253:1 9106:1 12495:1 
1.478515625 7566:1 9554:1 
1.4794921875 5414:1 5443:1 6248:1 6430:1 7253:1 7833:1 8379:1 8444:1 8852:1 11717:1 
1.4794921875 164:1 440:1 4357:1 4360:1 7091:1 7253:1 9168:1 9267:1 10059:1 11297:1 11326:1 12078:1 
1.4794921875 58:1 1661:1 4232:1 4236:1 4440:1 4826:1 5679:1 8589:1 
50 
1.4794921875 288:1 967:1 3647:1 3843:1 4477:1 4512:1 7623:1 10083:1 
1.4794921875 527:1 1942:1 4340:1 7852:1 10133:1 10667:1 
1.4794921875 345:1 540:1 1219:1 3494:1 3851:1 4880:1 5805:1 6230:1 6396:1 7253:1 8846:1 10289:1 11987:1 12397:1 12405:1 
1.4794921875 288:1 1619:1 4059:1 11028:1 
1.4794921875 288:1 2057:1 2463:1 3647:1 4325:1 4477:1 5797:1 6410:1 6680:1 7623:1 8341:1 10083:1 10369:1 11274:1 
1.4794921875 63:1 838:1 2752:1 2891:1 3326:1 3569:1 4501:1 4902:1 5500:1 5809:1 7755:1 7818:1 8027:1 9109:1 9156:1 9161:1 11304:1 11881:1 12125:1 12765:1 
1.4794921875 3292:1 3758:1 11005:1 
1.4794921875 288:1 1875:1 2677:1 4789:1 4940:1 6969:1 8283:1 10198:1 
1.4794921875 9206:1 10654:1 
1.4794921875 157:1 2702:1 8330:1 9402:1 
1.4794921875 4992:1 5788:1 7147:1 8190:1 10439:1 10440:1 10907:1 10922:1 10949:1 11032:1 11753:1 
1.4794921875 139:1 3538:1 3870:1 5021:1 9154:1 9554:1 11584:1 12897:1 
1.4794921875 2057:1 2134:1 3673:1 4504:1 4630:1 5283:1 5765:1 6088:1 6092:1 7014:1 7253:1 9381:1 9385:1 9435:1 10369:1 
1.4794921875 288:1 6921:1 9554:1 
1.4794921875 288:1 4591:1 8138:1 9066:1 
1.4794921875 8045:1 9204:1 
1.4794921875 3041:1 3647:1 3748:1 4098:1 4477:1 5364:1 6380:1 6803:1 7623:1 9698:1 10074:1 10083:1 10222:1 10845:1 10847:1 11098:1 
50 4902:1 
1.4794921875 43:1 2223:1 3214:1 4902:1 9340:1 11218:1 12219:1 
1.4794921875 288:1 2154:1 2383:1 2496:1 2581:1 2874:1 4377:1 4615:1 6268:1 6482:1 6502:1 
1.4794921875 288:1 1296:1 3647:1 3975:1 4477:1 7508:1 7623:1 8653:1 9302:1 10083:1 10250:1 11255:1 
1.4794921875 4063:1 11028:1 12762:1 
50 2278:1 
1.4794921875 288:1 1842:1 2644:1 2751:1 3613:1 3647:1 4477:1 5319:1 6419:1 7253:1 7457:1 7623:1 7880:1 9714:1 10059:1 10083:1 10560:1 12055:1 12058:1 
1.4794921875 1329:1 3954:1 3962:1 5482:1 5996:1 12339:1 
1.4794921875 255:1 257:1 288:1 719:1 1906:1 1935:1 3758:1 3881:1 7064:1 7687:1 7823:1 7884:1 8675:1 8774:1 9305:1 10219:1 12068:1 12431:1 12768:1 
1.4794921875 1873:1 2956:1 
1.4794921875 18:1 246:1 659:1 729:1 4487:1 6818:1 7779:1 11860:1 
1.4794921875 18:1 698:1 4487:1 4986:1 6818:1 7253:1 7779:1 7989:1 8971:1 9414:1 9526:1 9714:1 10294:1 10300:1 10862:1 11523:1 
1.4794921875 4423:1 4706:1 8873:1 8965:1 9714:1 
1.4794921875 546:1 1186:1 1944:1 3505:1 4959:1 6607:1 7172:1 9445:1 10198:1 12748:1 
1.4794921875 248:1 2570:1 3345:1 3974:1 6302:1 7215:1 12591:1 
1.4794921875 4423:1 4500:1 4630:1 4706:1 5283:1 6042:1 7253:1 11770:1 
50 11723:1 
1.4794921875 2943:1 3054:1 4357:1 4360:1 6771:1 7300:1 9164:1 11326:1 
1.4794921875 162:1 791:1 4711:1 6866:1 6869:1 7253:1 7434:1 7768:1 9143:1 9396:1 10229:1 
1.4794921875 283:1 2674:1 7253:1 7445:1 7772:1 8154:1 9900:1 
1.4794921875 1825:1 2565:1 2758:1 4168:1 4357:1 4360:1 7253:1 8993:1 11326:1 12021:1 
1.4794921875 698:1 736:1 3647:1 4380:1 4477:1 4711:1 5617:1 5814:1 6005:1 7344:1 7623:1 8620:1 9158:1 9714:1 10083:1 10229:1 11342:1 11663:1 12121:1 12667:1 
1.4794921875 194:1 4624:1 7041:1 7253:1 12124:1 
1.4794921875 248:1 599:1 732:1 901:1 2677:1 3345:1 6302:1 6872:1 8857:1 9554:1 12591:1 
1.4794921875 36:1 205:1 1968:1 7253:1 10095:1 
1.4794921875 646:1 10201:1 12230:1 12620:1 
1.4794921875 1222:1 6199:1 7253:1 11484:1 
1.4794921875 2885:1 4902:1 6796:1 7253:1 11429:1 11621:1 
1.4794921875 1017:1 2211:1 2560:1 5922:1 6357:1 6882:1 7253:1 8616:1 10484:1 11035:1 
1.478515625 7253:1 8774:1 
50 
1.4794921875 5348:1 11805:1 
1.4794921875 12471:1 
1.4794921875 646:1 931:1 1017:1 1818:1 2148:1 2966:1 4357:1 4360:1 11326:1 11581:1 12620:1 13245:1 
1.4794921875 3769:1 4662:1 4902:1 8176:1 9261:1 
1.4794921875 2246:1 6223:1 8201:1 
1.4794921875 1031:1 1676:1 2677:1 3569:1 4134:1 9109:1 11390:1 11881:1 12531:1 
1.4794921875 288:1 2677:1 4591:1 5210:1 6713:1 8873:1 9714:1 9756:1 12577:1 
1.4794921875 334:1 3974:1 5531:1 5922:1 7732:1 10198:1 
1.4794921875 288:1 430:1 719:1 998:1 1026:1 1906:1 3565:1 4594:1 7064:1 7253:1 7687:1 7884:1 10106:1 11401:1 
1.4794921875 164:1 172:1 440:1 4271:1 4357:1 4360:1 4891:1 5370:1 5829:1 6428:1 6607:1 7091:1 8367:1 11270:1 11326:1 11540:1 
1.4794921875 98:1 591:1 1829:1 2496:1 3201:1 4357:1 4360:1 4780:1 6095:1 7974:1 11326:1 12150:1 
1.4794921875 248:1 1133:1 2677:1 3345:1 5600:1 6302:1 6542:1 8420:1 12591:1 
1.4794921875 808:1 1136:1 2389:1 4902:1 6101:1 8085:1 9714:1 10076:1 12798:1 
1.4794921875 317:1 3630:1 9554:1 11576:1 
1.4794921875 288:1 3373:1 4845:1 4902:1 4941:1 5562:1 5883:1 6328:1 8621:1 9306:1 10198:1 11172:1 13154:1 
1.4794921875 111:1 288:1 5589:1 7253:1 7254:1 7421:1 9102:1 9616:1 9977:1 11500:1 
1.4794921875 1280:1 1650:1 7312:1 8816:1 
1.4794921875 317:1 691:1 2439:1 10198:1 10953:1 
1.4794921875 288:1 3482:1 7253:1 
1.4794921875 288:1 740:1 810:1 2054:1 2140:1 4423:1 4706:1 5965:1 7253:1 9714:1 11634:1 
1.4794921875 339:1 3851:1 4055:1 4271:1 4880:1 4997:1 6230:1 7150:1 8819:1 9090:1 9526:1 9608:1 11292:1 12341:1 12397:1 12405:1 12803:1 13002:1 
1.4794921875 18:1 2057:1 4487:1 5813:1 6010:1 6818:1 7251:1 7779:1 9654:1 10369:1 
1.4794921875 5512:1 5672:1 5698:1 11815:1 
1.4794921875 1870:1 2677:1 3647:1 4477:1 4902:1 7623:1 8593:1 8733:1 10083:1 
1.478515625 9873:1 
1.4794921875 317:1 2143:1 5175:1 5370:1 8692:1 
1.4794921875 18:1 51:1 4487:1 6111:1 6818:1 7779:1 8923:1 12320:1 
1.4794921875 138:1 288:1 2677:1 3647:1 4477:1 7623:1 10083:1 11199:1 13220:1 
1.4794921875 808:1 5482:1 7470:1 8522:1 8869:1 9714:1 12651:1 
1.4794921875 2154:1 2874:1 4902:1 5221:1 7253:1 8620:1 11342:1 
1.4794921875 225:1 1017:1 4711:1 10229:1 
1.4794921875 1462:1 2613:1 5542:1 5653:1 5957:1 9714:1 
1.4794921875 3119:1 7253:1 11000:1 
1.4794921875 350:1 4375:1 9099:1 9554:1 9714:1 12388:1 
1.4794921875 2677:1 4519:1 4902:1 7253:1 7758:1 9306:1 12292:1 12791:1 13154:1 
1.4794921875 2421:1 4001:1 4902:1 5158:1 5459:1 5996:1 7253:1 7684:1 8171:1 9903:1 10498:1 10994:1 
1.4794921875 18:1 535:1 1622:1 3647:1 4335:1 4477:1 4478:1 4487:1 6818:1 7472:1 7623:1 7779:1 10083:1 10946:1 
1.4794921875 248:1 288:1 854:1 2042:1 2056:1 3345:1 5506:1 6302:1 8364:1 12591:1 
1.4794921875 9781:1 10622:1 
1.4794921875 1661:1 1944:1 3505:1 4357:1 4360:1 4630:1 4789:1 4940:1 4959:1 5283:1 7172:1 8589:1 11147:1 11326:1 11336:1 12140:1 12979:1 
1.4794921875 210:1 2773:1 4361:1 4630:1 5283:1 6575:1 6604:1 6888:1 9714:1 10055:1 10150:1 
1.4794921875 5589:1 7253:1 7273:1 7421:1 8774:1 9616:1 9687:1 9714:1 
50 9306:1 13154:1 
1.4794921875 1099:1 2649:1 3601:1 3728:1 4728:1 7815:1 12677:1 12947:1 
50 
1.4794921875 1820:1 5922:1 9554:1 10610:1 
1.4794921875 3354:1 3613:1 7670:1 8774:1 10584:1 10887:1 12062:1 
1.4794921875 2674:1 3189:1 6086:1 7772:1 9631:1 9900:1 12401:1 
1.4794921875 317:1 334:1 862:1 5531:1 
50 
1.4794921875 288:1 1368:1 1668:1 1727:1 3354:1 8547:1 11412:1 12062:1 12885:1 12954:1 
50 7253:1 
1.478515625 6325:1 
1.478515625 9712:1 
1.4794921875 3627:1 6150:1 6715:1 7989:1 8729:1 10294:1 10862:1 11523:1 
1.4794921875 270:1 288:1 430:1 2677:1 2859:1 3565:1 4594:1 7661:1 8532:1 8544:1 10106:1 10897:1 11717:1 
1.4794921875 288:1 5152:1 5922:1 6016:1 6091:1 6931:1 7688:1 9016:1 9119:1 9494:1 11242:1 11319:1 13174:1 
1.4794921875 255:1 257:1 719:1 1017:1 1906:1 2674:1 4252:1 7064:1 7687:1 7772:1 7884:1 9900:1 10059:1 11202:1 12431:1 12768:1 
1.4794921875 276:1 1136:1 2725:1 3099:1 4253:1 4902:1 6101:1 7327:1 8085:1 10076:1 11107:1 12798:1 
1.4794921875 288:1 8760:1 9310:1 11541:1 
1.4794921875 288:1 2666:1 4357:1 4360:1 4580:1 5934:1 6292:1 7253:1 9128:1 11326:1 12927:1 
1.4794921875 3001:1 4902:1 9753:1 
1.4794921875 3069:1 8790:1 9714:1 11615:1 
1.4794921875 1414:1 2451:1 3144:1 3684:1 3837:1 4039:1 4103:1 4874:1 5158:1 5355:1 5358:1 5565:1 5917:1 6333:1 6422:1 6918:1 7361:1 9063:1 9348:1 9401:1 9411:1 9903:1 10557:1 11475:1 12187:1 12202:1 
1.4794921875 490:1 1295:1 1666:1 2337:1 4500:1 7913:1 8591:1 9310:1 9380:1 9484:1 10602:1 10783:1 11013:1 11176:1 11770:1 12260:1 12463:1 13135:1 
1.4794921875 288:1 350:1 1784:1 4375:1 4576:1 6763:1 7253:1 9099:1 9714:1 10390:1 12388:1 
1.4794921875 2677:1 4151:1 5761:1 8995:1 9714:1 
1.4794921875 2333:1 3100:1 3513:1 4228:1 4280:1 4902:1 5851:1 6900:1 7253:1 8054:1 8060:1 9435:1 11001:1 11649:1 
1.4794921875 4357:1 4360:1 5760:1 7678:1 11326:1 
1.4794921875 522:1 1064:1 1469:1 2140:1 4423:1 4591:1 4706:1 4711:1 5622:1 6215:1 7253:1 7989:1 9305:1 9714:1 10084:1 10229:1 10294:1 10862:1 11300:1 11523:1 12495:1 13122:1 
1.478515625 7545:1 
1.4794921875 2728:1 5589:1 6431:1 7421:1 9616:1 
1.4794921875 288:1 317:1 3750:1 6654:1 8332:1 
1.4794921875 1005:1 2885:1 3276:1 4891:1 6376:1 6428:1 8166:1 8186:1 11429:1 11540:1 12532:1 12696:1 12851:1 
1.4794921875 288:1 1984:1 3633:1 3647:1 3758:1 4477:1 4711:1 7623:1 7706:1 9675:1 10083:1 10229:1 10851:1 12217:1 
1.4794921875 1790:1 3030:1 4290:1 4297:1 7962:1 8265:1 9102:1 10574:1 11386:1 12115:1 12516:1 13208:1 
1.478515625 816:1 4748:1 8038:1 
1.4794921875 64:1 547:1 1561:1 1944:1 3505:1 3627:1 3950:1 4055:1 4178:1 4253:1 4959:1 5300:1 5922:1 6126:1 6638:1 7172:1 7253:1 7633:1 8593:1 8733:1 9714:1 11054:1 11058:1 11107:1 11690:1 12325:1 12973:1 
1.4794921875 119:1 2453:1 2768:1 4423:1 4591:1 4706:1 5906:1 7253:1 7286:1 8455:1 8889:1 9196:1 9714:1 11931:1 12535:1 
1.4794921875 288:1 2327:1 3775:1 4902:1 7409:1 9554:1 
50 7253:1 
1.4794921875 2421:1 7989:1 8171:1 10294:1 10498:1 10862:1 11523:1 
1.4794921875 16:1 288:1 3647:1 4005:1 4477:1 5401:1 5910:1 6494:1 6824:1 7623:1 7680:1 7861:1 7923:1 8016:1 10083:1 10174:1 10310:1 12054:1 
1.478515625 8530:1 
1.4794921875 3511:1 7387:1 
1.4794921875 2327:1 2885:1 3775:1 7409:1 7756:1 11429:1 
1.4794921875 164:1 440:1 2057:1 4452:1 4941:1 5562:1 6328:1 7091:1 7962:1 10369:1 11172:1 11858:1 
1.4794921875 7257:1 8873:1 9554:1 
1.4794921875 8614:1 8967:1 
1.4794921875 3482:1 4271:1 4986:1 6215:1 7253:1 8616:1 10084:1 10300:1 13122:1 
1.4794921875 288:1 1017:1 1219:1 4591:1 4902:1 7253:1 11717:1 11987:1 12223:1 12811:1 
50 4902:1 
1.4794921875 12121:1 12667:1 
1.4794921875 288:1 295:1 1678:1 4591:1 11127:1 
1.4794921875 288:1 680:1 4711:1 5119:1 5300:1 6126:1 7633:1 10229:1 11054:1 11058:1 11717:1 
1.4794921875 350:1 541:1 2057:1 2755:1 3647:1 4375:1 4477:1 4711:1 5355:1 5358:1 5585:1 7623:1 9063:1 9099:1 9348:1 9401:1 9411:1 10083:1 10229:1 10369:1 10706:1 11475:1 12193:1 12388:1 
1.4794921875 1031:1 4471:1 5716:1 11390:1 12531:1 13121:1 
1.4794921875 2140:1 4781:1 7253:1 9714:1 12121:1 12667:1 
1.4794921875 916:1 3647:1 3926:1 4357:1 4360:1 4477:1 4789:1 4940:1 5414:1 5443:1 7623:1 8122:1 8296:1 9554:1 9739:1 9741:1 10083:1 11326:1 12331:1 12837:1 12839:1 
1.4794921875 1229:1 8581:1 12298:1 
1.4794921875 246:1 288:1 729:1 1219:1 2154:1 2570:1 2874:1 3647:1 3678:1 4477:1 5158:1 6374:1 7215:1 7623:1 9903:1 10083:1 11987:1 12973:1 
1.4794921875 430:1 2252:1 3565:1 4055:1 4594:1 4711:1 5364:1 5482:1 7758:1 8000:1 8628:1 9714:1 10074:1 10106:1 10229:1 12527:1 
50 288:1 
1.4794921875 4863:1 4902:1 6150:1 11912:1 
1.4794921875 4902:1 5158:1 9903:1 
1.4794921875 246:1 729:1 888:1 1944:1 3505:1 4959:1 5061:1 6176:1 6607:1 6837:1 7172:1 7253:1 8739:1 10319:1 
1.4794921875 1329:1 3587:1 3954:1 3962:1 3975:1 4452:1 8653:1 12339:1 
1.4794921875 317:1 4790:1 
1.4794921875 288:1 2051:1 2439:1 2677:1 3569:1 9109:1 9360:1 9834:1 10953:1 11881:1 
1.4794921875 3758:1 4929:1 
1.4794921875 288:1 2057:1 3607:1 8747:1 9554:1 10369:1 10424:1 12101:1 
1.4794921875 753:1 1988:1 3586:1 7289:1 7334:1 11416:1 11961:1 12471:1 
1.4794921875 18:1 976:1 2215:1 2974:1 4487:1 6818:1 6819:1 7779:1 9714:1 10819:1 
1.4794921875 884:1 7665:1 8455:1 11913:1 11931:1 12535:1 12677:1 12947:1 
1.4794921875 288:1 1926:1 2876:1 5370:1 7253:1 8580:1 9805:1 
1.4794921875 546:1 7253:1 9445:1 
1.4794921875 8413:1 8842:1 
1.4794921875 288:1 540:1 699:1 1498:1 4406:1 6476:1 7836:1 8405:1 8695:1 9310:1 10970:1 11955:1 12268:1 12677:1 12947:1 
1.4794921875 522:1 1064:1 1469:1 3647:1 4477:1 7623:1 8873:1 10083:1 
1.4794921875 288:1 1553:1 1875:1 2323:1 2421:1 2677:1 3647:1 3676:1 4477:1 4630:1 5063:1 5283:1 6167:1 6679:1 6969:1 7623:1 8171:1 8283:1 8765:1 9714:1 10083:1 10498:1 11790:1 12687:1 
1.4794921875 1146:1 5086:1 6024:1 6260:1 
1.4794921875 4239:1 4423:1 4706:1 4789:1 4940:1 11485:1 12007:1 
1.4794921875 5401:1 6824:1 10174:1 
1.4794921875 288:1 11470:1 
1.4794921875 2057:1 4357:1 4360:1 4500:1 6150:1 6249:1 6463:1 8620:1 10369:1 10559:1 10909:1 10911:1 11326:1 11342:1 11770:1 13208:1 
1.4794921875 3647:1 4477:1 5119:1 7623:1 8410:1 9378:1 10083:1 10198:1 10766:1 
50 3647:1 4477:1 7623:1 10083:1 
1.4794921875 1248:1 4166:1 4221:1 7253:1 8952:1 12347:1 
1.4794921875 288:1 8451:1 
1.4794921875 1942:1 4902:1 5558:1 6201:1 10133:1 13141:1 
1.4794921875 64:1 1329:1 1561:1 3851:1 3954:1 3962:1 4178:1 4880:1 6230:1 6638:1 10884:1 10888:1 11029:1 11036:1 12325:1 12339:1 12397:1 12405:1 12408:1 
1.4794921875 7168:1 8616:1 9644:1 13224:1 
1.478515625 12559:1 
1.4794921875 288:1 2062:1 3647:1 4477:1 5785:1 7202:1 7253:1 7623:1 8176:1 8591:1 9484:1 10083:1 10238:1 10602:1 12463:1 
1.4794921875 1136:1 1306:1 3617:1 6101:1 8085:1 8823:1 10076:1 12798:1 
1.4794921875 546:1 9445:1 10884:1 10888:1 11036:1 12408:1 
1.4794921875 3418:1 4271:1 4357:1 4360:1 7253:1 11326:1 12586:1 13223:1 
1.4794921875 288:1 430:1 1368:1 1727:1 3565:1 4139:1 4594:1 6091:1 6462:1 10106:1 
1.4794921875 1017:1 6215:1 10084:1 13122:1 
1.4794921875 2057:1 4452:1 5119:1 10369:1 
1.478515625 3827:1 
1.4794921875 490:1 5606:1 9310:1 10783:1 
1.4794921875 5653:1 5957:1 8774:1 9305:1 9749:1 11766:1 
1.4794921875 317:1 1017:1 5469:1 5813:1 6010:1 9714:1 11183:1 
1.4794921875 645:1 1275:1 1609:1 2922:1 3556:1 3647:1 4286:1 4477:1 5482:1 6274:1 6391:1 7253:1 7623:1 7942:1 8234:1 9807:1 10083:1 10497:1 12924:1 
1.4794921875 64:1 1561:1 2868:1 4178:1 4527:1 5875:1 6103:1 6638:1 7253:1 7698:1 8260:1 12325:1 
1.478515625 4423:1 4706:1 9714:1 
1.478515625 2772:1 3647:1 4477:1 7623:1 10083:1 
1.4794921875 288:1 1033:1 3547:1 3714:1 3824:1 3834:1 5107:1 6766:1 8692:1 11749:1 
1.5 9714:1 
1.4794921875 3647:1 4477:1 6150:1 7253:1 7623:1 9102:1 10083:1 10532:1 
1.4794921875 529:1 1124:1 1570:1 1898:1 3715:1 5113:1 7298:1 7628:1 7639:1 12352:1 
1.4794921875 288:1 317:1 5025:1 7835:1 
1.4794921875 248:1 3345:1 5280:1 6302:1 9743:1 12591:1 
1.4794921875 218:1 361:1 4316:1 4902:1 5802:1 
1.4794921875 276:1 2015:1 4232:1 4236:1 4440:1 5679:1 6892:1 7897:1 9819:1 10201:1 12311:1 
50 2439:1 10953:1 
1.4794921875 18:1 1678:1 1771:1 4423:1 4487:1 4706:1 5355:1 5358:1 6818:1 7253:1 7755:1 7779:1 7818:1 9063:1 9348:1 9401:1 9411:1 9953:1 11475:1 
1.4794921875 546:1 1338:1 3647:1 4477:1 7623:1 9445:1 10083:1 11691:1 
1.4794921875 241:1 4023:1 4463:1 4826:1 5862:1 6691:1 6808:1 7253:1 11333:1 
50 4630:1 5283:1 
1.4794921875 288:1 684:1 1124:1 2229:1 5122:1 7253:1 7628:1 8593:1 8733:1 9554:1 9714:1 11272:1 12639:1 12922:1 
50 1462:1 5542:1 8620:1 9714:1 11342:1 
1.4794921875 288:1 998:1 2752:1 4902:1 7393:1 8873:1 9734:1 10301:1 11401:1 11740:1 12228:1 12765:1 12976:1 
1.478515625 12762:1 
1.4794921875 244:1 317:1 2712:1 3647:1 4056:1 4477:1 4515:1 5853:1 7623:1 10083:1 11079:1 13238:1 
1.4794921875 1513:1 2322:1 4278:1 4969:1 9714:1 
1.4794921875 18:1 684:1 2229:1 4487:1 6224:1 6818:1 7779:1 12922:1 
1.4794921875 288:1 791:1 5776:1 7393:1 7768:1 10627:1 10724:1 11740:1 12228:1 
50 4630:1 5283:1 
1.4794921875 1251:1 2057:1 2295:1 3420:1 4902:1 5482:1 8270:1 10369:1 
1.4794921875 6292:1 12927:1 
1.478515625 4423:1 4706:1 6325:1 9714:1 
1.4794921875 1722:1 2152:1 5127:1 5886:1 6858:1 9714:1 12961:1 
1.4794921875 2677:1 4200:1 
1.4794921875 288:1 3647:1 3795:1 4477:1 4648:1 7253:1 7483:1 7623:1 8620:1 9631:1 10083:1 11342:1 12401:1 
1.4794921875 288:1 1230:1 1875:1 2326:1 4875:1 5865:1 6969:1 7179:1 8283:1 10104:1 12483:1 
1.4794921875 3647:1 4307:1 4477:1 5863:1 7623:1 10083:1 
50 1926:1 2876:1 9805:1 
50 3647:1 4477:1 7623:1 10083:1 
1.4794921875 244:1 4056:1 4591:1 6215:1 10084:1 11079:1 13122:1 
1.4794921875 288:1 727:1 990:1 1353:1 2581:1 2752:1 3006:1 6392:1 6482:1 6502:1 8349:1 8446:1 12765:1 13021:1 
1.4794921875 4998:1 5922:1 11788:1 
1.4794921875 1928:1 12475:1 13160:1 
1.4794921875 546:1 1519:1 3647:1 4477:1 7253:1 7623:1 8489:1 9445:1 10083:1 12116:1 
1.4794921875 2677:1 2885:1 8873:1 11429:1 
50 
1.4794921875 288:1 4380:1 5617:1 7344:1 9158:1 11717:1 
1.4794921875 6095:1 10724:1 13015:1 
1.4794921875 213:1 9035:1 9105:1 
1.4794921875 3096:1 4357:1 4360:1 4855:1 4902:1 9924:1 10916:1 11326:1 11376:1 11385:1 12243:1 
1.4794921875 998:1 5348:1 11401:1 12132:1 12979:1 
1.4794921875 1159:1 2857:1 3720:1 5158:1 7675:1 8020:1 8527:1 9903:1 12134:1 
1.4794921875 276:1 2057:1 3587:1 4902:1 4941:1 5562:1 6328:1 6667:1 6857:1 8761:1 9102:1 10369:1 11172:1 
1.478515625 3647:1 4477:1 7623:1 8762:1 10083:1 
1.4794921875 4055:1 10721:1 
1.4794921875 288:1 2641:1 4902:1 
1.4794921875 2057:1 2841:1 4357:1 4360:1 5852:1 6793:1 7253:1 10369:1 10989:1 11326:1 
1.478515625 8547:1 
1.4794921875 1718:1 11913:1 
1.4794921875 64:1 288:1 317:1 1561:1 2011:1 4045:1 4178:1 4380:1 4928:1 5617:1 6638:1 7344:1 9158:1 12325:1 
1.4794921875 2478:1 5898:1 6051:1 6858:1 12961:1 
1.4794921875 2578:1 3647:1 4296:1 4477:1 4500:1 5589:1 7253:1 7421:1 7623:1 9616:1 10083:1 10198:1 11770:1 12269:1 
1.4794921875 388:1 3758:1 4630:1 5283:1 6299:1 8176:1 8937:1 9095:1 12639:1 
1.4794921875 520:1 3402:1 6472:1 6836:1 6858:1 6895:1 7253:1 9620:1 9838:1 9931:1 10787:1 11085:1 11103:1 12961:1 
1.4794921875 151:1 1462:1 1863:1 2851:1 2913:1 3833:1 5542:1 5772:1 5822:1 7419:1 9554:1 11701:1 13078:1 13198:1 
50 
1.4794921875 3837:1 6333:1 7253:1 11051:1 
1.4794921875 5875:1 7698:1 
1.4794921875 288:1 1017:1 4253:1 6336:1 6800:1 6908:1 7253:1 9399:1 11014:1 11107:1 
1.4794921875 288:1 4502:1 5355:1 5358:1 5575:1 6021:1 7253:1 7534:1 8620:1 9063:1 9095:1 9348:1 9401:1 9411:1 9714:1 10311:1 11342:1 11475:1 
1.4794921875 288:1 677:1 6150:1 
50 
1.4794921875 77:1 153:1 662:1 7253:1 8339:1 8963:1 9112:1 9214:1 11820:1 
1.4794921875 2677:1 3343:1 4052:1 4357:1 4360:1 11326:1 
50 
1.4794921875 288:1 2057:1 10198:1 10369:1 
1.4794921875 160:1 759:1 3198:1 7253:1 7862:1 10115:1 10482:1 10510:1 10634:1 
1.4794921875 688:1 7014:1 7253:1 8891:1 9381:1 9385:1 
1.478515625 455:1 7253:1 12121:1 12667:1 
1.4794921875 2143:1 3844:1 4030:1 4293:1 4302:1 5175:1 5960:1 8657:1 12664:1 12979:1 
1.4794921875 288:1 2996:1 5408:1 8620:1 8741:1 10052:1 10355:1 11342:1 
1.4794921875 288:1 931:1 1818:1 2140:1 2966:1 3647:1 4020:1 4193:1 4215:1 4361:1 4423:1 4477:1 4706:1 7623:1 9714:1 10055:1 10083:1 10150:1 10780:1 11581:1 
1.4794921875 1377:1 2677:1 7017:1 9171:1 11380:1 11928:1 12704:1 
1.4794921875 288:1 451:1 1941:1 5281:1 7877:1 
1.4794921875 1006:1 3626:1 3634:1 4055:1 5814:1 6005:1 6413:1 7253:1 
1.4794921875 2496:1 12292:1 12791:1 
1.5 2143:1 5175:1 
1.4794921875 3647:1 4477:1 7623:1 8416:1 8620:1 10083:1 10964:1 11342:1 11602:1 12537:1 
1.4794921875 288:1 3758:1 5756:1 7236:1 9656:1 
1.4794921875 2731:1 5415:1 6965:1 7791:1 8467:1 11502:1 11602:1 
1.4794921875 288:1 1323:1 1774:1 7675:1 7758:1 8527:1 12134:1 
1.4794921875 244:1 1275:1 4056:1 4286:1 6981:1 11079:1 12924:1 
1.4794921875 4084:1 4902:1 7253:1 10370:1 11906:1 
1.4794921875 931:1 1818:1 2439:1 2966:1 6470:1 7253:1 10953:1 11581:1 12639:1 
1.4794921875 998:1 1099:1 4630:1 4883:1 5283:1 5300:1 6126:1 7633:1 9714:1 11054:1 11058:1 11401:1 
1.4794921875 971:1 2581:1 3117:1 6482:1 6502:1 6787:1 8097:1 10198:1 
1.4794921875 5749:1 6503:1 9698:1 
1.4794921875 1942:1 2278:1 4478:1 4748:1 7472:1 7682:1 9554:1 9826:1 10133:1 11582:1 
1.4794921875 8031:1 8620:1 9554:1 11342:1 11699:1 
50 
1.4794921875 346:1 4357:1 4360:1 8026:1 9526:1 11326:1 
1.4794921875 248:1 288:1 1779:1 2057:1 3345:1 3627:1 4019:1 4522:1 6215:1 6302:1 6829:1 8593:1 8620:1 8733:1 9094:1 9305:1 9714:1 10084:1 10189:1 10369:1 11342:1 12591:1 13122:1 
1.4794921875 931:1 1818:1 2966:1 4020:1 4193:1 4215:1 5231:1 5682:1 6986:1 7253:1 7941:1 8352:1 10780:1 11581:1 11717:1 13245:1 
1.4794921875 1878:1 2060:1 2172:1 2677:1 3647:1 4477:1 5922:1 6380:1 7623:1 8276:1 10083:1 
1.4794921875 1159:1 1944:1 2857:1 3354:1 3505:1 3720:1 4959:1 5287:1 7172:1 8020:1 9555:1 9570:1 12062:1 
50 
1.4794921875 2062:1 2469:1 3586:1 7253:1 8176:1 10238:1 11961:1 12655:1 
1.4794921875 2617:1 2622:1 5452:1 11154:1 13003:1 
1.478515625 2035:1 8614:1 
1.4794921875 837:1 2124:1 9465:1 
1.478515625 8762:1 
1.4794921875 2243:1 3539:1 4109:1 9257:1 11655:1 
1.4794921875 1300:1 3886:1 8869:1 12973:1 
1.4794921875 134:1 799:1 3019:1 6741:1 7253:1 7773:1 9371:1 9695:1 9761:1 10636:1 12610:1 13031:1 
1.4794921875 198:1 1014:1 4748:1 4902:1 
1.4794921875 1230:1 4875:1 
1.478515625 288:1 4357:1 4360:1 4579:1 9310:1 11326:1 
1.4794921875 18:1 288:1 4487:1 5541:1 6818:1 7779:1 7992:1 
1.4794921875 840:1 1017:1 4902:1 4941:1 5562:1 6328:1 6526:1 6530:1 8534:1 11172:1 
50 246:1 729:1 
1.4794921875 164:1 440:1 4423:1 4706:1 7091:1 8774:1 
1.4794921875 2936:1 4366:1 5850:1 8410:1 9378:1 10915:1 
1.478515625 430:1 3565:1 4594:1 10106:1 
1.4794921875 1942:1 4902:1 5158:1 5922:1 9903:1 10133:1 
1.4794921875 288:1 2057:1 2185:1 2674:1 3647:1 3761:1 4477:1 4585:1 6391:1 7623:1 7772:1 8184:1 8544:1 9900:1 10083:1 10369:1 13058:1 
1.4794921875 2167:1 5980:1 9714:1 11553:1 
1.4794921875 3618:1 6215:1 10084:1 13122:1 
50 8176:1 
1.4794921875 4583:1 12441:1 
1.4794921875 5355:1 5358:1 9063:1 9175:1 9348:1 9401:1 9411:1 11475:1 
1.4794921875 426:1 521:1 1025:1 2677:1 2836:1 3069:1 3482:1 4055:1 8572:1 8790:1 9110:1 10627:1 11063:1 11108:1 11615:1 12624:1 
1.4794921875 288:1 2057:1 2752:1 4988:1 7655:1 10369:1 11549:1 12343:1 12765:1 12846:1 
1.4794921875 2140:1 5014:1 6741:1 8710:1 9695:1 9714:1 
50 
1.4794921875 226:1 998:1 3199:1 3647:1 4477:1 4902:1 7623:1 7890:1 9428:1 9498:1 10083:1 11401:1 12319:1 
1.4794921875 317:1 358:1 2496:1 2736:1 4357:1 4360:1 8935:1 11326:1 
1.4794921875 288:1 661:1 2138:1 4238:1 4531:1 8620:1 10250:1 10883:1 11342:1 
1.4794921875 2873:1 7253:1 8585:1 10218:1 12165:1 
1.4794921875 288:1 446:1 546:1 709:1 2996:1 3108:1 3278:1 5408:1 5626:1 6451:1 7253:1 9445:1 9714:1 10052:1 11332:1 
1.4794921875 1812:1 4090:1 4772:1 4902:1 6394:1 6956:1 7253:1 7853:1 10809:1 12321:1 12579:1 
1.4794921875 4630:1 5283:1 6347:1 9083:1 
1.4794921875 3751:1 7236:1 9030:1 9656:1 11301:1 
1.4794921875 2057:1 2348:1 3982:1 5032:1 6388:1 7253:1 7543:1 8006:1 8029:1 10369:1 12735:1 
1.4794921875 346:1 698:1 4497:1 4845:1 5583:1 5883:1 8621:1 9714:1 11766:1 
1.4794921875 18:1 4487:1 6607:1 6818:1 7779:1 
1.4794921875 288:1 2496:1 2677:1 3041:1 6803:1 10845:1 10847:1 
1.4794921875 43:1 248:1 3345:1 4062:1 4316:1 4691:1 6302:1 8935:1 10156:1 12591:1 13082:1 
50 288:1 3647:1 4477:1 7623:1 10083:1 
1.4794921875 2684:1 4055:1 4190:1 7253:1 10784:1 12174:1 12349:1 12465:1 12495:1 
1.4794921875 94:1 1017:1 3139:1 6237:1 10513:1 
1.4794921875 181:1 1165:1 1928:1 2964:1 4357:1 4360:1 4902:1 6929:1 11091:1 11326:1 13160:1 
1.4794921875 18:1 4487:1 6818:1 7779:1 7989:1 9095:1 10294:1 10862:1 11523:1 
1.4794921875 1306:1 2057:1 2864:1 3617:1 4544:1 4789:1 4940:1 8823:1 10048:1 10369:1 12084:1 
1.478515625 4748:1 
1.4794921875 840:1 3224:1 6526:1 6530:1 7378:1 8534:1 8955:1 9554:1 
1.4794921875 759:1 2043:1 2057:1 3974:1 4058:1 6283:1 6689:1 6902:1 8931:1 9554:1 9714:1 10115:1 10369:1 
1.4794921875 350:1 1077:1 4375:1 4711:1 5121:1 5290:1 6911:1 9099:1 9714:1 10229:1 10250:1 11486:1 12388:1 12820:1 
1.4794921875 2154:1 2874:1 3647:1 4477:1 7623:1 10083:1 13087:1 
1.4794921875 288:1 2677:1 4017:1 4630:1 5283:1 8614:1 8965:1 11704:1 12032:1 12433:1 12462:1 12677:1 12947:1 
1.4794921875 241:1 288:1 551:1 1050:1 3014:1 5036:1 5370:1 5633:1 5862:1 6691:1 7253:1 7738:1 7800:1 8680:1 9755:1 11090:1 11725:1 
1.4794921875 4357:1 4360:1 8965:1 9716:1 11326:1 11718:1 12094:1 
1.4794921875 288:1 350:1 1337:1 2677:1 2885:1 3219:1 3851:1 4055:1 4375:1 4591:1 4880:1 5729:1 6230:1 6853:1 7253:1 9099:1 9723:1 11429:1 12388:1 12397:1 12405:1 
1.478515625 288:1 2764:1 4357:1 4360:1 11326:1 
1.478515625 2652:1 
50 4902:1 
1.4794921875 5703:1 7758:1 11398:1 12488:1 
1.4794921875 288:1 3851:1 4175:1 4880:1 5568:1 6230:1 7256:1 8410:1 9378:1 9867:1 12397:1 12405:1 
1.4794921875 416:1 4443:1 8778:1 9257:1 9298:1 9933:1 10429:1 
1.4794921875 3354:1 3647:1 4423:1 4477:1 4706:1 5904:1 6215:1 6600:1 7623:1 8076:1 8613:1 9554:1 9714:1 10083:1 10084:1 10691:1 12062:1 13122:1 
1.4794921875 1791:1 2355:1 3008:1 3210:1 4420:1 6025:1 6576:1 8799:1 9714:1 9835:1 
1.4794921875 317:1 546:1 2496:1 4591:1 9022:1 9445:1 
50 
1.4794921875 2936:1 8729:1 10915:1 
1.4794921875 288:1 2950:1 3434:1 3717:1 4902:1 7824:1 7861:1 8016:1 8655:1 9341:1 10268:1 10271:1 11426:1 
1.4794921875 288:1 317:1 726:1 2885:1 3566:1 9149:1 11429:1 
1.4794921875 433:1 2117:1 2421:1 2559:1 2677:1 2883:1 4357:1 4360:1 4753:1 7253:1 7989:1 8171:1 8379:1 8852:1 10294:1 10498:1 10862:1 11326:1 11523:1 
1.4794921875 4357:1 4360:1 7456:1 7756:1 9714:1 11326:1 11717:1 
1.4794921875 288:1 637:1 2729:1 3717:1 4119:1 6327:1 6384:1 6911:1 7329:1 7753:1 7824:1 10205:1 10268:1 10271:1 11486:1 12439:1 
1.4794921875 67:1 911:1 2677:1 3298:1 4743:1 5280:1 5848:1 6454:1 9743:1 10558:1 11213:1 11689:1 12078:1 12129:1 
1.4794921875 288:1 2057:1 4238:1 4531:1 5145:1 7253:1 9168:1 9267:1 10369:1 12354:1 12495:1 
1.4794921875 1844:1 2677:1 9714:1 
1.4794921875 287:1 304:1 1678:1 3469:1 4690:1 4922:1 5364:1 8176:1 9714:1 10074:1 12998:1 
1.4794921875 651:1 668:1 2057:1 4902:1 5598:1 9380:1 10369:1 10771:1 12260:1 13210:1 
1.4794921875 2674:1 6972:1 7772:1 8620:1 9136:1 9900:1 11279:1 11342:1 12819:1 
1.4794921875 2057:1 2752:1 3514:1 5708:1 5922:1 6975:1 10369:1 12765:1 12818:1 
1.4794921875 288:1 1721:1 3647:1 4477:1 5879:1 7253:1 7623:1 8449:1 10083:1 11420:1 
1.4794921875 4902:1 8355:1 
1.4794921875 288:1 2898:1 4109:1 4929:1 5469:1 5613:1 7701:1 9631:1 11655:1 12401:1 
1.4794921875 2057:1 2793:1 2851:1 6364:1 6771:1 7300:1 10031:1 10369:1 
1.4794921875 2503:1 4357:1 4360:1 5158:1 6667:1 7089:1 7257:1 8761:1 9554:1 9903:1 11326:1 
1.4794921875 546:1 677:1 2941:1 8015:1 8056:1 9049:1 9445:1 12721:1 
1.4794921875 4423:1 4525:1 4706:1 5158:1 6325:1 6386:1 8160:1 8176:1 9714:1 9903:1 10771:1 11280:1 11283:1 11851:1 13210:1 
1.4794921875 288:1 1017:1 1280:1 1519:1 1650:1 5776:1 7253:1 7312:1 8489:1 8816:1 9164:1 10724:1 12067:1 12116:1 12677:1 12947:1 
50 
1.4794921875 288:1 2676:1 3340:1 3482:1 5322:1 6061:1 6143:1 7253:1 13136:1 
1.4794921875 288:1 350:1 816:1 4375:1 6150:1 7253:1 8038:1 8794:1 8985:1 9099:1 9552:1 12388:1 
1.4794921875 1678:1 3276:1 5910:1 6325:1 6494:1 7923:1 8176:1 8869:1 12851:1 12973:1 
1.4794921875 939:1 1017:1 2712:1 4515:1 5325:1 
1.4794921875 317:1 582:1 998:1 2328:1 3837:1 6333:1 6642:1 7111:1 7253:1 7471:1 8449:1 8620:1 9221:1 10868:1 10982:1 11342:1 11401:1 11416:1 11420:1 12562:1 
1.4794921875 409:1 1513:1 2322:1 4055:1 4278:1 4969:1 6325:1 6607:1 7675:1 8527:1 12134:1 
1.4794921875 288:1 496:1 2303:1 6375:1 7229:1 9948:1 
1.4794921875 574:1 1888:1 2033:1 4357:1 4360:1 5012:1 11326:1 
1.4794921875 4902:1 5934:1 
1.4794921875 736:1 1080:1 2636:1 3714:1 3824:1 3834:1 
1.4794921875 272:1 560:1 3586:1 4836:1 11961:1 12198:1 
1.4794921875 288:1 665:1 1003:1 1306:1 3617:1 3693:1 4591:1 4958:1 6121:1 8823:1 9714:1 10214:1 11496:1 
1.478515625 4591:1 9714:1 
1.4794921875 288:1 1651:1 1836:1 4871:1 6352:1 7413:1 10078:1 10880:1 10993:1 12131:1 12471:1 
1.4794921875 2581:1 3117:1 4748:1 6482:1 6502:1 6709:1 9714:1 10201:1 
1.4794921875 288:1 2278:1 4180:1 
50 
1.4794921875 160:1 759:1 3309:1 10115:1 11645:1 
1.4794921875 276:1 288:1 473:1 3647:1 4477:1 5476:1 6042:1 7623:1 9714:1 10083:1 
1.4794921875 288:1 317:1 825:1 3647:1 3745:1 4477:1 7157:1 7253:1 7623:1 8873:1 10083:1 13208:1 13214:1 
1.4794921875 288:1 662:1 987:1 3647:1 3758:1 4477:1 6425:1 7623:1 9102:1 10083:1 
1.4794921875 246:1 288:1 729:1 1730:1 
1.4794921875 18:1 567:1 1017:1 3647:1 4477:1 4487:1 4902:1 6818:1 7393:1 7623:1 7779:1 9083:1 10083:1 10222:1 11740:1 12228:1 
1.4794921875 160:1 276:1 288:1 759:1 1678:1 3758:1 4426:1 5482:1 5998:1 6193:1 6844:1 7201:1 9127:1 10115:1 10838:1 12981:1 
50 9554:1 
1.4794921875 2334:1 2656:1 3053:1 4347:1 4506:1 8748:1 12094:1 
1.4794921875 74:1 288:1 1286:1 2397:1 3200:1 3902:1 4271:1 4893:1 5200:1 7308:1 8409:1 8643:1 9098:1 12355:1 
1.478515625 816:1 8038:1 
1.4794921875 3096:1 7277:1 9924:1 10373:1 10916:1 11376:1 11385:1 12243:1 
1.4794921875 288:1 4339:1 9102:1 
1.4794921875 734:1 1280:1 1378:1 1650:1 2752:1 4591:1 4772:1 6394:1 7312:1 7980:1 8816:1 9168:1 9267:1 9714:1 9925:1 10250:1 10809:1 12765:1 
1.4794921875 288:1 1381:1 2134:1 4504:1 4639:1 5037:1 5361:1 6088:1 6092:1 7487:1 8670:1 12121:1 12667:1 
1.4794921875 288:1 374:1 715:1 3837:1 5776:1 6333:1 7253:1 8379:1 8852:1 10152:1 10724:1 
1.478515625 4922:1 7758:1 
1.4794921875 1251:1 3647:1 4477:1 7623:1 8696:1 9698:1 10083:1 
1.4794921875 2240:1 3833:1 5401:1 6331:1 6824:1 7419:1 10174:1 
1.4794921875 246:1 729:1 2664:1 10604:1 11199:1 
1.4794921875 3064:1 10516:1 12384:1 
1.4794921875 5079:1 10258:1 10933:1 
1.4794921875 2334:1 2354:1 3053:1 4506:1 7253:1 8748:1 12265:1 
50 7273:1 
1.4794921875 2411:1 11426:1 11944:1 12652:1 
1.4794921875 1062:1 3067:1 3216:1 3251:1 4357:1 4360:1 4676:1 5811:1 7204:1 8356:1 10135:1 11014:1 11326:1 12359:1 13076:1 
1.4794921875 317:1 1295:1 2271:1 3430:1 5858:1 6299:1 7253:1 8348:1 8873:1 9719:1 10198:1 11176:1 12347:1 
1.4794921875 1454:1 3970:1 4464:1 4713:1 4893:1 6331:1 7696:1 9068:1 9353:1 9963:1 10188:1 12230:1 
1.478515625 3927:1 9714:1 
1.4794921875 551:1 1050:1 3014:1 7738:1 7800:1 9415:1 9755:1 
1.4794921875 405:1 4423:1 4706:1 10198:1 
1.4794921875 540:1 3437:1 3494:1 6396:1 7989:1 10289:1 10294:1 10862:1 11523:1 12121:1 12667:1 
1.4794921875 3189:1 3861:1 4708:1 5119:1 5608:1 8725:1 
1.4794921875 1017:1 2291:1 4439:1 5152:1 6016:1 6582:1 8075:1 9494:1 10706:1 12193:1 
1.4794921875 18:1 288:1 1605:1 2935:1 4365:1 4434:1 4487:1 5414:1 5443:1 6818:1 7334:1 7779:1 8620:1 11342:1 12471:1 12877:1 
1.4794921875 574:1 4055:1 4902:1 5281:1 7190:1 7253:1 7877:1 
1.4794921875 698:1 2011:1 2125:1 2677:1 3418:1 4045:1 4357:1 4360:1 4519:1 6410:1 6680:1 8620:1 9701:1 9714:1 10250:1 11326:1 11342:1 
1.4794921875 317:1 990:1 1073:1 2301:1 12878:1 
1.4794921875 9231:1 9948:1 10825:1 
1.4794921875 288:1 872:1 2677:1 3305:1 11395:1 
1.4794921875 18:1 3647:1 4477:1 4487:1 6818:1 7623:1 7779:1 7861:1 8016:1 9714:1 10083:1 
1.4794921875 4165:1 6911:1 7090:1 7253:1 10778:1 11486:1 
1.4794921875 248:1 288:1 1664:1 2555:1 2677:1 3345:1 4147:1 4251:1 5210:1 6206:1 6302:1 7253:1 8696:1 10772:1 12577:1 12591:1 
1.4794921875 288:1 317:1 698:1 3647:1 3693:1 4477:1 4958:1 5399:1 6121:1 7623:1 9714:1 10083:1 11247:1 12844:1 
50 816:1 8038:1 
1.4794921875 4630:1 4902:1 5283:1 9714:1 
1.4794921875 246:1 3861:1 4708:1 5546:1 6112:1 7193:1 8725:1 8841:1 10594:1 12385:1 13208:1 
1.4794921875 244:1 288:1 350:1 1133:1 3647:1 4056:1 4375:1 4435:1 4477:1 7253:1 7615:1 7623:1 9099:1 10083:1 11079:1 12388:1 
1.478515625 9714:1 11666:1 
1.4794921875 288:1 1791:1 1944:1 2227:1 2355:1 3505:1 3586:1 3647:1 4477:1 4959:1 5717:1 6712:1 7172:1 7253:1 7623:1 8799:1 9835:1 10083:1 11961:1 12501:1 
1.4794921875 288:1 4591:1 4630:1 5283:1 11028:1 
1.4794921875 317:1 10706:1 12193:1 
1.4794921875 74:1 286:1 288:1 1786:1 2057:1 2219:1 3200:1 4055:1 4423:1 4706:1 4893:1 6045:1 6941:1 6982:1 7253:1 7418:1 8043:1 8951:1 8967:1 9611:1 9714:1 10369:1 10896:1 12150:1 12646:1 13146:1 
1.4794921875 921:1 2591:1 3369:1 3827:1 6911:1 7758:1 8372:1 9443:1 10201:1 10892:1 11276:1 11486:1 
1.4794921875 74:1 288:1 2674:1 3200:1 5401:1 6824:1 7772:1 9900:1 
1.4794921875 288:1 317:1 445:1 3971:1 5025:1 7014:1 7253:1 7544:1 9381:1 9385:1 11823:1 13019:1 
1.4794921875 317:1 491:1 998:1 1219:1 4591:1 5941:1 7253:1 8363:1 9323:1 9714:1 11401:1 11987:1 
1.4794921875 288:1 1006:1 1017:1 2439:1 3626:1 3634:1 4748:1 4800:1 6413:1 7253:1 8338:1 10953:1 
1.4794921875 288:1 4902:1 13162:1 
1.4794921875 288:1 2496:1 2677:1 7841:1 
1.4794921875 1131:1 2057:1 3021:1 3719:1 3721:1 4357:1 4360:1 5119:1 5612:1 9714:1 9986:1 10369:1 11326:1 
1.4794921875 288:1 5142:1 5472:1 9306:1 13154:1 
1.4794921875 637:1 1870:1 4119:1 4357:1 4360:1 6327:1 6911:1 7753:1 11326:1 11486:1 
1.4794921875 2057:1 4941:1 5562:1 6328:1 8832:1 10198:1 10369:1 11172:1 
1.4794921875 640:1 1017:1 1305:1 3826:1 6240:1 6804:1 9176:1 10208:1 12824:1 
1.4794921875 10424:1 
1.4794921875 64:1 244:1 255:1 257:1 288:1 1561:1 4056:1 4178:1 6190:1 6638:1 11079:1 11565:1 12325:1 12431:1 12768:1 
1.4794921875 295:1 430:1 3565:1 3647:1 4477:1 4594:1 7623:1 10083:1 10106:1 11127:1 
1.4794921875 533:1 3038:1 5558:1 6201:1 7253:1 7791:1 13141:1 
1.4794921875 698:1 998:1 4423:1 4706:1 9714:1 9974:1 11401:1 
1.4794921875 2742:1 4772:1 6394:1 7253:1 8564:1 10809:1 
1.4794921875 417:1 428:1 11037:1 11501:1 
49.9794921875 2674:1 7772:1 9900:1 
1.4794921875 3049:1 8148:1 
1.4794921875 2057:1 4748:1 7835:1 9554:1 10369:1 
1.4794921875 2143:1 3280:1 4711:1 5158:1 5175:1 8620:1 9554:1 9712:1 9903:1 10229:1 11342:1 
1.5 6380:1 
1.4794921875 288:1 317:1 522:1 1064:1 1469:1 2677:1 5158:1 6246:1 6597:1 6915:1 6916:1 6945:1 7224:1 8696:1 8988:1 9513:1 9903:1 9983:1 11344:1 11575:1 13074:1 
1.4794921875 288:1 1017:1 1295:1 1678:1 2435:1 4804:1 5516:1 6380:1 8203:1 11176:1 12559:1 
1.4794921875 288:1 3647:1 3758:1 4477:1 7192:1 7253:1 7623:1 8616:1 10083:1 
1.4794921875 288:1 1839:1 2391:1 2439:1 3647:1 4477:1 4902:1 5236:1 5589:1 7160:1 7253:1 7421:1 7623:1 9327:1 9616:1 10083:1 10825:1 10953:1 
50 
1.4794921875 276:1 5588:1 6150:1 6476:1 7836:1 8695:1 8777:1 11435:1 11660:1 12150:1 12729:1 
1.4794921875 283:1 9971:1 11757:1 
1.4794921875 762:1 3851:1 4055:1 4880:1 5482:1 5801:1 6230:1 7253:1 8809:1 9033:1 9306:1 12397:1 12405:1 12716:1 13154:1 
1.4794921875 288:1 3647:1 4477:1 7216:1 7623:1 10083:1 11498:1 11565:1 12998:1 
1.4794921875 2140:1 2677:1 6325:1 8664:1 10198:1 12336:1 
1.4794921875 3661:1 4902:1 7251:1 8674:1 9654:1 11687:1 12150:1 
1.4794921875 317:1 3100:1 3513:1 
1.4794921875 288:1 2768:1 4423:1 4706:1 5814:1 5906:1 6005:1 9714:1 
49.9794921875 288:1 4357:1 4360:1 11326:1 
1.4794921875 246:1 729:1 1616:1 3298:1 9554:1 10558:1 
50 
1.4794921875 3258:1 4361:1 5158:1 5922:1 9102:1 9554:1 9607:1 9903:1 10055:1 10150:1 10291:1 12986:1 
1.4794921875 1338:1 4941:1 5158:1 5562:1 6328:1 7989:1 9903:1 10294:1 10862:1 11172:1 11523:1 11691:1 12078:1 
1.4794921875 2134:1 4504:1 4630:1 5283:1 5655:1 6088:1 6092:1 7895:1 10059:1 
1.4794921875 1791:1 2057:1 2355:1 4902:1 8799:1 9835:1 10369:1 
50 10198:1 
1.4794921875 207:1 288:1 365:1 389:1 2421:1 2677:1 3613:1 4263:1 6336:1 6864:1 8171:1 10498:1 
1.4794921875 288:1 6215:1 6252:1 7253:1 8705:1 10084:1 10716:1 13122:1 
1.4794921875 3981:1 4707:1 4711:1 6449:1 7913:1 9676:1 10229:1 12719:1 12815:1 13135:1 
1.4794921875 1151:1 3647:1 3833:1 4477:1 5425:1 7419:1 7623:1 7791:1 8965:1 10083:1 
1.4794921875 3430:1 5858:1 7253:1 8348:1 
1.4794921875 3025:1 3039:1 
1.478515625 3771:1 6175:1 9714:1 
1.4794921875 317:1 8176:1 8898:1 9095:1 
1.4794921875 290:1 12094:1 
1.4794921875 288:1 3439:1 4103:1 4274:1 4586:1 8987:1 9554:1 
1.478515625 288:1 998:1 3482:1 7989:1 10294:1 10862:1 11401:1 11523:1 
1.4794921875 2496:1 12586:1 
1.4794921875 288:1 3259:1 4357:1 4360:1 4630:1 4802:1 5079:1 5283:1 7254:1 11326:1 
1.4794921875 1136:1 4327:1 4423:1 4575:1 4706:1 5534:1 5555:1 6101:1 7245:1 8085:1 9714:1 10076:1 12798:1 
1.4794921875 998:1 9554:1 11401:1 
1.4794921875 1124:1 7628:1 9106:1 11978:1 12300:1 
1.4794921875 7253:1 10173:1 11670:1 
1.4794921875 288:1 1360:1 2421:1 5337:1 8171:1 10498:1 10998:1 11282:1 
1.4794921875 2154:1 2874:1 7782:1 13132:1 
1.478515625 2057:1 4902:1 10369:1 
1.4794921875 288:1 473:1 808:1 2057:1 2677:1 5476:1 6042:1 9714:1 10198:1 10255:1 10369:1 
50 
1.4794921875 246:1 729:1 2140:1 4357:1 4360:1 11326:1 
1.4794921875 1730:1 4902:1 5515:1 6323:1 7251:1 7855:1 9015:1 9654:1 
1.4794921875 288:1 495:1 1413:1 2677:1 3234:1 3642:1 4606:1 4736:1 5922:1 7879:1 8671:1 9604:1 11858:1 13043:1 
1.4794921875 887:1 2328:1 4628:1 6642:1 7253:1 7471:1 
1.4794921875 63:1 816:1 2455:1 2758:1 4211:1 4300:1 5641:1 6943:1 7253:1 8027:1 8038:1 8838:1 11717:1 12125:1 12292:1 12791:1 
50 288:1 
1.4794921875 3647:1 3837:1 4477:1 4630:1 4997:1 5283:1 5642:1 6333:1 6967:1 7150:1 7253:1 7623:1 10083:1 11292:1 12341:1 13002:1 
1.4794921875 246:1 288:1 729:1 998:1 1473:1 4357:1 4360:1 4750:1 4902:1 5472:1 7622:1 7838:1 11326:1 11401:1 11459:1 12472:1 12495:1 
1.4794921875 288:1 2677:1 4711:1 4772:1 5158:1 5482:1 6394:1 9714:1 9903:1 10229:1 10809:1 11199:1 13208:1 
1.4794921875 350:1 998:1 4375:1 8607:1 9099:1 9554:1 11401:1 12388:1 12951:1 
1.4794921875 18:1 1017:1 1031:1 2496:1 3916:1 4487:1 4608:1 6818:1 7230:1 7779:1 11390:1 12531:1 
1.478515625 3096:1 7239:1 9924:1 10916:1 11376:1 11385:1 12243:1 
1.4794921875 5331:1 7873:1 
1.4794921875 4999:1 7253:1 10884:1 10888:1 11036:1 12408:1 
1.478515625 9714:1 12973:1 
1.4794921875 288:1 6884:1 7869:1 12708:1 
1.4794921875 288:1 616:1 1015:1 1730:1 2581:1 3724:1 4118:1 4612:1 5272:1 6482:1 6502:1 6667:1 7424:1 8545:1 8761:1 8965:1 11875:1 
1.4794921875 288:1 684:1 2229:1 5066:1 6837:1 7013:1 9554:1 11111:1 11307:1 11680:1 11776:1 12576:1 12922:1 
1.4794921875 831:1 875:1 6325:1 9714:1 
1.4794921875 2742:1 3436:1 3586:1 4112:1 6972:1 8564:1 9136:1 9164:1 11961:1 
1.4794921875 350:1 363:1 3338:1 3586:1 3830:1 3892:1 4090:1 4375:1 6956:1 7251:1 7253:1 9099:1 9554:1 9654:1 11961:1 12388:1 12410:1 12579:1 
1.4794921875 3041:1 6803:1 7254:1 10776:1 10845:1 10847:1 
1.4794921875 2496:1 4357:1 4360:1 8869:1 11326:1 12273:1 
1.4794921875 317:1 812:1 4103:1 7989:1 9940:1 10294:1 10862:1 11523:1 
1.478515625 5411:1 6754:1 10794:1 11888:1 
1.4794921875 317:1 998:1 4121:1 6142:1 11401:1 11717:1 
1.4794921875 317:1 2439:1 10775:1 10953:1 12282:1 
1.4794921875 288:1 1468:1 2779:1 3680:1 6325:1 6510:1 7384:1 9911:1 
1.4794921875 409:1 998:1 1578:1 1944:1 2165:1 3276:1 3505:1 4959:1 5922:1 7172:1 7264:1 7758:1 9095:1 9925:1 11401:1 12851:1 
1.4794921875 288:1 998:1 2057:1 3427:1 4327:1 4575:1 5415:1 5534:1 5555:1 5656:1 7245:1 7666:1 8073:1 8467:1 9102:1 10369:1 10474:1 11401:1 
1.4794921875 288:1 4357:1 4360:1 7025:1 7420:1 9631:1 11326:1 12401:1 
1.4794921875 608:1 931:1 1219:1 1818:1 1944:1 2966:1 2972:1 3505:1 4357:1 4360:1 4794:1 4959:1 7172:1 7253:1 7493:1 9554:1 10507:1 11326:1 11581:1 11987:1 
50 
1.478515625 9843:1 
50 
1.4794921875 288:1 451:1 1196:1 1197:1 2439:1 3149:1 3353:1 4261:1 7817:1 8620:1 10953:1 11342:1 11436:1 12861:1 
1.4794921875 288:1 412:1 2057:1 2496:1 4789:1 4933:1 4940:1 6384:1 7456:1 10369:1 11979:1 
1.4794921875 350:1 1017:1 1214:1 1309:1 3591:1 4055:1 4375:1 4661:1 4753:1 5383:1 5755:1 5990:1 7253:1 7495:1 8379:1 8620:1 8852:1 9099:1 10507:1 10574:1 11342:1 11675:1 12135:1 12209:1 12388:1 
1.4794921875 1343:1 1926:1 2876:1 9714:1 9805:1 
1.478515625 7253:1 7257:1 
1.4794921875 18:1 288:1 541:1 822:1 2057:1 3315:1 3354:1 4487:1 6818:1 7253:1 7779:1 7989:1 9554:1 10294:1 10369:1 10862:1 11523:1 11607:1 12062:1 
1.4794921875 698:1 1049:1 4238:1 4531:1 7253:1 7359:1 8453:1 9714:1 10130:1 10201:1 
1.4794921875 3647:1 4477:1 5061:1 6176:1 7253:1 7623:1 8739:1 10083:1 
1.4794921875 698:1 3851:1 4423:1 4706:1 4789:1 4880:1 4940:1 6035:1 6230:1 6325:1 6789:1 8409:1 8643:1 9098:1 9714:1 11320:1 12198:1 12397:1 12405:1 
1.4794921875 1944:1 3505:1 4357:1 4360:1 4959:1 6383:1 7172:1 7253:1 7422:1 9714:1 11147:1 11326:1 12979:1 
50 11284:1 
50 9315:1 
1.4794921875 288:1 10724:1 
1.4794921875 288:1 317:1 2674:1 4149:1 4492:1 7772:1 9428:1 9498:1 9839:1 9877:1 9900:1 10411:1 
1.4794921875 135:1 288:1 451:1 998:1 1196:1 2442:1 3486:1 7253:1 11401:1 
1.4794921875 246:1 288:1 729:1 1219:1 1680:1 5061:1 5482:1 5729:1 6176:1 6853:1 8390:1 8739:1 11987:1 
1.4794921875 63:1 288:1 2057:1 2496:1 5589:1 7421:1 7989:1 8027:1 9616:1 10294:1 10369:1 10862:1 11523:1 12125:1 
1.4794921875 868:1 1524:1 2135:1 2313:1 2358:1 2700:1 10627:1 12921:1 13208:1 
1.4794921875 317:1 637:1 2057:1 2158:1 4119:1 4902:1 4941:1 5562:1 6327:1 6328:1 7753:1 8045:1 9585:1 10369:1 10921:1 11172:1 11234:1 
50 
1.4794921875 288:1 350:1 2057:1 2674:1 4375:1 4423:1 4706:1 7772:1 8514:1 8869:1 9099:1 9900:1 10369:1 10735:1 11212:1 12388:1 12973:1 
1.4794921875 1754:1 4494:1 7253:1 8379:1 8852:1 
1.4794921875 1031:1 8514:1 8965:1 10735:1 11390:1 12531:1 
1.4794921875 317:1 1017:1 3649:1 3733:1 3955:1 4698:1 7253:1 9942:1 10690:1 11358:1 11626:1 
1.4794921875 151:1 540:1 1863:1 2913:1 3319:1 4845:1 4902:1 5883:1 7835:1 7909:1 7989:1 8621:1 10294:1 10862:1 11523:1 12121:1 12667:1 
1.4794921875 288:1 574:1 2057:1 5688:1 8455:1 9019:1 10369:1 11931:1 12535:1 
1.4794921875 151:1 376:1 1080:1 1099:1 1863:1 2636:1 2913:1 4357:1 4360:1 9554:1 11326:1 
1.4794921875 288:1 317:1 1397:1 2752:1 4055:1 4306:1 4327:1 4575:1 4622:1 5534:1 5555:1 5560:1 7245:1 8396:1 8524:1 9133:1 10869:1 12248:1 12765:1 
1.4794921875 532:1 1646:1 4902:1 5195:1 5927:1 6111:1 7218:1 7226:1 9714:1 
50 
1.4794921875 409:1 5589:1 7421:1 9616:1 
1.478515625 8763:1 
1.478515625 8193:1 
50 
1.4794921875 1519:1 7791:1 8489:1 10417:1 12116:1 
1.478515625 901:1 3647:1 4477:1 7623:1 10083:1 
1.4794921875 1838:1 2208:1 2391:1 2716:1 4478:1 4941:1 5562:1 6328:1 7253:1 7472:1 9554:1 9714:1 11172:1 
1.4794921875 63:1 4456:1 4711:1 5355:1 5358:1 8027:1 9063:1 9348:1 9401:1 9411:1 10229:1 11475:1 12125:1 
1.4794921875 248:1 288:1 2534:1 3329:1 3334:1 3345:1 3437:1 5428:1 6302:1 7759:1 9164:1 10307:1 12591:1 
1.4794921875 317:1 4026:1 4271:1 4741:1 4902:1 5229:1 5628:1 8040:1 8413:1 8842:1 9001:1 9003:1 9432:1 9714:1 10281:1 10341:1 11514:1 11721:1 13092:1 
1.4794921875 288:1 677:1 1159:1 2154:1 2857:1 2874:1 3720:1 4905:1 5401:1 6824:1 7801:1 8020:1 10174:1 
1.4794921875 4423:1 4706:1 5079:1 7253:1 9714:1 
1.4794921875 816:1 1031:1 3647:1 4477:1 7623:1 8038:1 9554:1 9631:1 10083:1 11390:1 12401:1 12531:1 
1.4794921875 288:1 1329:1 2677:1 3954:1 3962:1 4523:1 12339:1 
1.4794921875 288:1 931:1 1818:1 2924:1 2966:1 4055:1 7317:1 10488:1 11581:1 
1.4794921875 776:1 1017:1 1730:1 3100:1 3513:1 4347:1 6128:1 9714:1 
1.4794921875 6248:1 6430:1 7833:1 8444:1 9554:1 9714:1 
1.4794921875 2161:1 2321:1 2752:1 6035:1 6789:1 7253:1 10375:1 10833:1 11320:1 12765:1 
1.4794921875 246:1 729:1 994:1 1099:1 2389:1 3324:1 4883:1 4902:1 6015:1 7071:1 8413:1 8620:1 8842:1 11342:1 
1.4794921875 288:1 698:1 5472:1 6939:1 9714:1 
1.4794921875 486:1 2106:1 2234:1 3717:1 3987:1 4591:1 4630:1 5283:1 7681:1 7824:1 10268:1 10271:1 12878:1 
1.4794921875 8763:1 9257:1 9887:1 10005:1 
1.4794921875 1208:1 1991:1 2272:1 2421:1 3494:1 5355:1 5358:1 6498:1 8171:1 9063:1 9348:1 9401:1 9411:1 9836:1 10289:1 10488:1 10498:1 11475:1 12770:1 
50 
1.4794921875 288:1 1329:1 2676:1 3340:1 3954:1 3962:1 6061:1 6143:1 7253:1 12339:1 13136:1 
1.4794921875 1295:1 4624:1 7041:1 7253:1 7791:1 10198:1 11176:1 
1.4794921875 1513:1 2322:1 3958:1 4278:1 4711:1 4969:1 5074:1 9322:1 10229:1 13190:1 
1.4794921875 317:1 1159:1 1878:1 2330:1 2740:1 2857:1 3698:1 3720:1 5444:1 7253:1 7598:1 7841:1 8020:1 8570:1 10428:1 
1.4794921875 1942:1 7758:1 10133:1 
1.4794921875 272:1 560:1 2057:1 2677:1 3569:1 3647:1 4477:1 7623:1 9109:1 10083:1 10369:1 11881:1 11888:1 
1.4794921875 288:1 2677:1 3647:1 4477:1 7623:1 9714:1 10083:1 
1.4794921875 998:1 4357:1 4360:1 4423:1 4706:1 9714:1 11326:1 11401:1 
1.4794921875 1651:1 3839:1 4871:1 4874:1 4902:1 5763:1 5984:1 7068:1 7413:1 9255:1 9777:1 10078:1 10225:1 10880:1 12202:1 
1.478515625 288:1 806:1 
1.4794921875 1306:1 3617:1 6941:1 7251:1 8043:1 8823:1 9611:1 9654:1 10201:1 12646:1 
1.4794921875 2126:1 2882:1 3981:1 9667:1 9714:1 10201:1 11830:1 
1.4794921875 1139:1 9554:1 11717:1 
1.4794921875 288:1 1559:1 
1.4794921875 1942:1 2731:1 3556:1 6965:1 7253:1 8620:1 9807:1 10133:1 11342:1 11502:1 
1.4794921875 3041:1 6281:1 6803:1 7859:1 8240:1 10562:1 10845:1 10847:1 12264:1 13010:1 13187:1 
1.4794921875 1017:1 7017:1 8708:1 9171:1 11112:1 11488:1 11801:1 11906:1 11928:1 12495:1 
1.4794921875 109:1 1663:1 2221:1 3647:1 4477:1 5581:1 6111:1 7623:1 8623:1 9188:1 9236:1 10083:1 
50 173:1 1917:1 12122:1 
1.4794921875 3647:1 4477:1 5158:1 6667:1 7253:1 7623:1 8761:1 8891:1 9903:1 10083:1 
1.4794921875 2617:1 3100:1 3513:1 5452:1 6360:1 6521:1 7099:1 9252:1 11442:1 13075:1 
1.4794921875 288:1 2334:1 3053:1 4506:1 4748:1 4941:1 5562:1 6328:1 6558:1 7251:1 7253:1 7675:1 7758:1 8527:1 8748:1 9654:1 11172:1 12134:1 
1.4794921875 288:1 3402:1 4357:1 4360:1 6150:1 11098:1 11326:1 
1.4794921875 18:1 317:1 998:1 2924:1 3490:1 3663:1 4025:1 4487:1 5589:1 6818:1 7253:1 7317:1 7421:1 7779:1 9616:1 11401:1 
1.4794921875 288:1 2057:1 3376:1 5269:1 7253:1 7393:1 10369:1 11300:1 11740:1 12228:1 
1.4794921875 1017:1 3348:1 4232:1 4236:1 4440:1 4583:1 5679:1 6972:1 9136:1 12441:1 
50 
1.4794921875 288:1 643:1 1761:1 2859:1 5934:1 8532:1 10897:1 12292:1 12791:1 12878:1 
1.4794921875 1219:1 2154:1 2874:1 6444:1 7253:1 9554:1 10059:1 11987:1 
1.4794921875 2320:1 4471:1 4866:1 5158:1 5364:1 5716:1 7178:1 7253:1 7984:1 9903:1 10074:1 11568:1 
1.4794921875 244:1 288:1 698:1 3975:1 4056:1 8653:1 9040:1 9714:1 11079:1 11638:1 
1.4794921875 4902:1 11602:1 
1.4794921875 426:1 521:1 1025:1 5158:1 7945:1 9903:1 11108:1 
1.4794921875 16:1 288:1 2728:1 4005:1 6431:1 9514:1 12054:1 
1.4794921875 4635:1 4863:1 12678:1 
1.4794921875 288:1 1620:1 
50 
1.4794921875 1124:1 4275:1 4361:1 4616:1 7628:1 9106:1 10055:1 10150:1 
1.4794921875 248:1 288:1 1361:1 3345:1 4500:1 4902:1 5744:1 6302:1 7253:1 8326:1 9276:1 10933:1 11300:1 11767:1 11770:1 12591:1 
1.478515625 2885:1 9516:1 11429:1 
50 7989:1 10294:1 10862:1 11523:1 
1.4794921875 3837:1 4149:1 6333:1 10411:1 
1.4794921875 288:1 9687:1 12661:1 
1.4794921875 2192:1 2421:1 2722:1 8171:1 9918:1 10498:1 10736:1 13155:1 
1.4794921875 1295:1 1498:1 2904:1 3647:1 4166:1 4477:1 7623:1 8952:1 9631:1 9741:1 10083:1 11176:1 12268:1 12401:1 
50 288:1 7253:1 
1.4794921875 64:1 1017:1 1124:1 1561:1 4178:1 6638:1 7628:1 8409:1 8643:1 9098:1 11971:1 12325:1 
1.4794921875 288:1 5345:1 9698:1 9714:1 10721:1 
1.4794921875 288:1 322:1 1054:1 2677:1 7675:1 8527:1 8965:1 9741:1 12134:1 
1.4794921875 288:1 1898:1 3329:1 3334:1 3715:1 5113:1 5428:1 9365:1 9554:1 
50 3298:1 10558:1 
1.4794921875 3497:1 4239:1 7741:1 11485:1 11717:1 
1.4794921875 1017:1 3401:1 
1.4794921875 248:1 3345:1 4253:1 4630:1 5283:1 5718:1 6302:1 8620:1 9714:1 10198:1 11107:1 11342:1 12591:1 
1.4794921875 6025:1 
1.4794921875 288:1 2248:1 3647:1 3761:1 4411:1 4413:1 4477:1 5081:1 7253:1 7623:1 9631:1 10083:1 12401:1 
1.4794921875 808:1 855:1 2057:1 2677:1 4357:1 4360:1 8514:1 9554:1 9714:1 10369:1 10735:1 11326:1 13022:1 
1.4794921875 1294:1 10760:1 
1.4794921875 4055:1 4519:1 5270:1 7989:1 8620:1 9490:1 10294:1 10862:1 11342:1 11523:1 11625:1 
1.4794921875 288:1 3758:1 10424:1 
1.4794921875 884:1 990:1 2181:1 3647:1 3758:1 4477:1 4902:1 7623:1 7665:1 7677:1 8410:1 8620:1 9204:1 9378:1 9724:1 10083:1 11342:1 
1.4794921875 288:1 317:1 2525:1 4388:1 4582:1 5558:1 5642:1 5660:1 6201:1 6711:1 8175:1 8422:1 11804:1 13141:1 13176:1 
1.4794921875 4239:1 4630:1 5283:1 7841:1 11485:1 
1.4794921875 1646:1 7218:1 7226:1 11459:1 
1.4794921875 7253:1 7838:1 9095:1 10933:1 
1.4794921875 288:1 5708:1 6150:1 6299:1 9554:1 10700:1 11831:1 12818:1 
1.478515625 2674:1 7772:1 9106:1 9900:1 
1.4794921875 430:1 2143:1 2208:1 2716:1 2907:1 3565:1 4135:1 4594:1 4607:1 5175:1 8686:1 10106:1 
50 4630:1 5283:1 
1.4794921875 677:1 8614:1 8965:1 11627:1 12230:1 
1.4794921875 246:1 729:1 2677:1 4357:1 4360:1 5348:1 5396:1 11326:1 12584:1 
1.4794921875 1739:1 5256:1 8734:1 9490:1 11625:1 11776:1 
1.478515625 5401:1 6654:1 6824:1 10174:1 
1.4794921875 288:1 546:1 1944:1 3505:1 4090:1 4423:1 4706:1 4959:1 6956:1 7172:1 9445:1 12579:1 
1.4794921875 317:1 6128:1 7253:1 7457:1 7831:1 8965:1 9714:1 11858:1 
1.4794921875 1514:1 2864:1 4612:1 7393:1 7424:1 8545:1 10048:1 11740:1 11875:1 12228:1 
1.4794921875 283:1 1124:1 7628:1 
1.4794921875 263:1 2439:1 2885:1 7971:1 8176:1 9837:1 10953:1 11429:1 
1.4794921875 242:1 7989:1 8869:1 10023:1 10294:1 10862:1 11523:1 12121:1 12667:1 12973:1 
1.4794921875 998:1 2044:1 3647:1 4477:1 4902:1 6079:1 6701:1 7253:1 7566:1 7623:1 9181:1 9714:1 10083:1 11401:1 
1.4794921875 248:1 288:1 1124:1 2656:1 3345:1 6302:1 7628:1 12591:1 
1.4794921875 2462:1 4357:1 4360:1 6150:1 7283:1 7804:1 7966:1 10374:1 11326:1 
1.4794921875 325:1 916:1 2327:1 2445:1 3775:1 3926:1 4357:1 4360:1 4627:1 4902:1 7409:1 8122:1 8296:1 8965:1 9711:1 9739:1 10771:1 11326:1 12837:1 12839:1 13210:1 
1.4794921875 1005:1 3827:1 6376:1 8166:1 8186:1 12532:1 12696:1 
1.4794921875 18:1 246:1 729:1 2496:1 3402:1 3586:1 4487:1 4711:1 5158:1 6222:1 6818:1 7779:1 7989:1 8238:1 9903:1 10229:1 10294:1 10862:1 11523:1 11961:1 
50 
1.4794921875 246:1 729:1 2011:1 4045:1 4253:1 11107:1 
1.4794921875 3769:1 13245:1 
1.4794921875 6215:1 6714:1 8616:1 10084:1 13122:1 
1.478515625 3647:1 4477:1 6914:1 7623:1 10083:1 
1.4794921875 288:1 1314:1 5953:1 7734:1 9554:1 11858:1 
1.4794921875 288:1 778:1 2057:1 2154:1 2394:1 2874:1 4217:1 7029:1 7079:1 10369:1 11748:1 
1.4794921875 4902:1 7688:1 9016:1 9119:1 9554:1 11319:1 
1.4794921875 791:1 1397:1 1791:1 2355:1 3216:1 3251:1 4523:1 4591:1 5560:1 6099:1 6640:1 7768:1 8524:1 8799:1 9835:1 10135:1 10869:1 12359:1 12930:1 
50 288:1 
1.4794921875 227:1 334:1 4999:1 5531:1 6741:1 7143:1 8984:1 9695:1 11140:1 
1.4794921875 288:1 2674:1 2677:1 2934:1 4586:1 5712:1 7772:1 9900:1 11725:1 
1.4794921875 64:1 1124:1 1561:1 4178:1 6638:1 7628:1 12325:1 
50 7642:1 
1.4794921875 288:1 1017:1 2057:1 7253:1 9164:1 10369:1 
1.478515625 994:1 
1.4794921875 1136:1 4423:1 4706:1 4891:1 5061:1 6101:1 6176:1 6428:1 8085:1 8739:1 9714:1 10076:1 11540:1 12798:1 
1.4794921875 288:1 486:1 618:1 972:1 1422:1 2106:1 3987:1 4055:1 4423:1 4706:1 7861:1 8016:1 9714:1 9822:1 10746:1 11051:1 11858:1 
1.4794921875 430:1 3565:1 3647:1 4477:1 4594:1 7623:1 9714:1 10083:1 10106:1 
1.4794921875 288:1 3201:1 4807:1 4874:1 8233:1 8664:1 9306:1 10032:1 12202:1 12336:1 13154:1 
1.4794921875 288:1 1295:1 1666:1 2334:1 2337:1 2496:1 3053:1 4506:1 5370:1 6667:1 7913:1 8748:1 8761:1 11176:1 11541:1 13135:1 
1.4794921875 698:1 1387:1 1744:1 1944:1 3505:1 4959:1 6035:1 6789:1 7172:1 7442:1 7456:1 7932:1 8620:1 9714:1 10567:1 11320:1 11342:1 11999:1 12009:1 12767:1 12801:1 
1.4794921875 5589:1 7421:1 9616:1 12471:1 
1.4794921875 998:1 2866:1 3647:1 4477:1 7623:1 7900:1 10083:1 11401:1 
1.4794921875 4586:1 5482:1 5922:1 7253:1 8168:1 
1.4794921875 151:1 998:1 1863:1 2104:1 2913:1 11401:1 
1.4794921875 1462:1 2773:1 5542:1 7251:1 8620:1 9654:1 9714:1 11342:1 
1.4794921875 990:1 1017:1 1661:1 1867:1 2673:1 3205:1 3844:1 7197:1 8521:1 8589:1 9714:1 10267:1 11285:1 12586:1 12726:1 
1.4794921875 246:1 288:1 729:1 840:1 998:1 2267:1 3714:1 3824:1 3834:1 4902:1 5708:1 6089:1 6526:1 6530:1 7845:1 7936:1 8534:1 9310:1 11401:1 12818:1 13208:1 
50 3758:1 
1.4794921875 288:1 698:1 6111:1 6930:1 9608:1 9714:1 
1.4794921875 977:1 8717:1 9368:1 9580:1 13245:1 
1.4794921875 1077:1 4174:1 5121:1 7253:1 8696:1 12820:1 
1.4794921875 288:1 932:1 2248:1 4411:1 4413:1 5081:1 13172:1 
1.4794921875 2473:1 6150:1 8762:1 10088:1 
49.9794921875 6380:1 
1.4794921875 1017:1 2430:1 4649:1 5003:1 10077:1 11416:1 12749:1 12805:1 
1.4794921875 246:1 430:1 729:1 1227:1 3565:1 4594:1 10106:1 10812:1 
1.478515625 4999:1 
1.4794921875 288:1 753:1 2116:1 2885:1 3284:1 3847:1 4416:1 10877:1 11213:1 11429:1 11469:1 
1.4794921875 690:1 718:1 1678:1 2084:1 2410:1 2677:1 9554:1 9986:1 10053:1 10391:1 10710:1 
1.4794921875 990:1 998:1 2677:1 2885:1 5158:1 8616:1 9714:1 9903:1 11401:1 11429:1 
1.4794921875 998:1 1017:1 3647:1 3861:1 4090:1 4115:1 4477:1 4708:1 6956:1 7623:1 8725:1 9010:1 9714:1 10083:1 11401:1 12579:1 
1.4794921875 458:1 4774:1 5152:1 5740:1 6016:1 8869:1 9494:1 9526:1 12792:1 12808:1 
1.4794921875 1017:1 2154:1 2874:1 4591:1 6110:1 8931:1 12184:1 
1.4794921875 3647:1 4032:1 4477:1 7623:1 8367:1 10083:1 
1.478515625 11329:1 
1.4794921875 288:1 294:1 1190:1 2057:1 2143:1 4149:1 4902:1 5175:1 7338:1 9027:1 9029:1 10369:1 10411:1 
50 
1.478515625 3482:1 
1.4794921875 288:1 9554:1 10414:1 
1.4794921875 1942:1 3346:1 3647:1 4477:1 7623:1 8633:1 10083:1 10133:1 10155:1 
1.4794921875 3837:1 6333:1 8176:1 9714:1 
1.4794921875 246:1 288:1 350:1 729:1 1136:1 4375:1 6101:1 6874:1 7273:1 7666:1 8085:1 9099:1 10076:1 12388:1 12798:1 
1.4794921875 178:1 288:1 522:1 620:1 1064:1 1469:1 2209:1 2272:1 2802:1 4055:1 4423:1 4706:1 5304:1 6607:1 7350:1 7393:1 11406:1 11740:1 11862:1 12228:1 
1.4794921875 288:1 2936:1 3021:1 3719:1 3721:1 8055:1 10310:1 10915:1 11675:1 12135:1 
1.4794921875 859:1 1791:1 2355:1 4902:1 5158:1 7243:1 8799:1 9835:1 9903:1 11802:1 12306:1 
1.4794921875 2383:1 2581:1 3647:1 4477:1 6482:1 6502:1 7623:1 10083:1 10198:1 10323:1 
1.4794921875 1942:1 5119:1 9714:1 10133:1 
1.4794921875 2987:1 4008:1 4902:1 
1.4794921875 808:1 5415:1 6111:1 8467:1 9714:1 
1.4794921875 998:1 2192:1 3586:1 8368:1 11401:1 11961:1 13208:1 
1.4794921875 12979:1 
1.4794921875 288:1 432:1 1944:1 3505:1 3709:1 4845:1 4959:1 5738:1 5883:1 6457:1 7172:1 8621:1 10525:1 12121:1 12667:1 
50 
1.4794921875 16:1 317:1 546:1 2003:1 4005:1 4630:1 5283:1 7253:1 7433:1 8717:1 9445:1 9580:1 12054:1 
1.4794921875 2715:1 3443:1 3647:1 4477:1 5347:1 7253:1 7623:1 7989:1 10083:1 10294:1 10862:1 11523:1 
1.4794921875 1473:1 4612:1 7424:1 7622:1 8449:1 8545:1 9554:1 10771:1 11420:1 11875:1 13210:1 
50 
1.4794921875 8824:1 11088:1 
1.4794921875 288:1 350:1 778:1 2677:1 4375:1 4630:1 5283:1 5776:1 7253:1 9099:1 11726:1 12388:1 13238:1 
1.4794921875 246:1 288:1 321:1 729:1 857:1 1317:1 2677:1 3190:1 3839:1 5037:1 7253:1 7924:1 9554:1 12884:1 
1.4794921875 46:1 1297:1 2627:1 3292:1 7253:1 7734:1 7756:1 8490:1 12794:1 
1.4794921875 820:1 6344:1 7538:1 7724:1 7916:1 9095:1 9508:1 11099:1 11821:1 12150:1 
1.4794921875 288:1 1065:1 1806:1 1808:1 2924:1 4591:1 7317:1 8831:1 12694:1 
1.4794921875 1519:1 8489:1 8607:1 12116:1 12951:1 
1.4794921875 4304:1 9306:1 13154:1 
1.4794921875 288:1 2260:1 6783:1 7962:1 7990:1 12996:1 
50 
1.4794921875 1136:1 1678:1 2502:1 3758:1 4306:1 4423:1 4622:1 4706:1 5625:1 6101:1 7253:1 8085:1 8396:1 9714:1 10076:1 11147:1 12798:1 12979:1 
1.4794921875 747:1 1017:1 2057:1 5025:1 9554:1 10369:1 
1.4794921875 671:1 871:1 3333:1 4171:1 4299:1 5922:1 7253:1 9093:1 
1.4794921875 514:1 1017:1 2570:1 2885:1 7215:1 8576:1 8620:1 8669:1 8679:1 11342:1 11429:1 
1.4794921875 317:1 2154:1 2874:1 3647:1 4327:1 4357:1 4360:1 4477:1 4575:1 5224:1 5231:1 5534:1 5555:1 6045:1 6215:1 7245:1 7623:1 7666:1 7941:1 9102:1 10083:1 10084:1 11326:1 12930:1 13122:1 13146:1 
1.4794921875 808:1 916:1 3926:1 5370:1 8122:1 8296:1 9714:1 9739:1 12837:1 12839:1 
1.478515625 8179:1 
1.4794921875 288:1 8362:1 
1.4794921875 699:1 1017:1 1401:1 3586:1 3647:1 4477:1 5174:1 6210:1 6325:1 7027:1 7253:1 7623:1 7979:1 8302:1 10083:1 11961:1 
1.4794921875 103:1 288:1 557:1 2057:1 2407:1 2421:1 3477:1 3647:1 4477:1 6637:1 6667:1 7406:1 7408:1 7623:1 8171:1 8761:1 9017:1 10083:1 10369:1 10498:1 10902:1 11006:1 12094:1 
1.4794921875 248:1 3345:1 6302:1 7291:1 12591:1 13208:1 
1.4794921875 430:1 3565:1 3647:1 4253:1 4357:1 4360:1 4367:1 4477:1 4594:1 5614:1 6745:1 7253:1 7623:1 8965:1 8989:1 9714:1 9857:1 10083:1 10106:1 11107:1 11326:1 11551:1 
1.4794921875 288:1 317:1 4165:1 4652:1 4772:1 6394:1 6654:1 7675:1 8527:1 10809:1 12134:1 
1.4794921875 317:1 5794:1 6078:1 6325:1 7813:1 8687:1 11044:1 11975:1 
1.4794921875 3647:1 4477:1 4591:1 4902:1 5351:1 7623:1 8918:1 10083:1 12176:1 
50 
1.4794921875 288:1 1017:1 1275:1 3647:1 4253:1 4286:1 4477:1 7623:1 8869:1 10083:1 11107:1 12924:1 
1.4794921875 3647:1 4477:1 4683:1 4711:1 7253:1 7393:1 7623:1 9164:1 10083:1 10229:1 11740:1 12228:1 
1.4794921875 1651:1 4871:1 7413:1 10078:1 10880:1 
1.4794921875 3676:1 4408:1 5063:1 7253:1 8765:1 11328:1 
1.4794921875 540:1 2295:1 2668:1 2717:1 3420:1 6025:1 6689:1 
1.4794921875 288:1 998:1 11401:1 
1.4794921875 1017:1 1100:1 2768:1 4500:1 4780:1 4902:1 5061:1 5158:1 5482:1 5906:1 6111:1 6176:1 6403:1 8739:1 8851:1 9903:1 10979:1 11770:1 12822:1 
1.4794921875 2744:1 3647:1 4357:1 4360:1 4477:1 4543:1 5009:1 7623:1 8620:1 10083:1 10716:1 11326:1 11342:1 11804:1 11805:1 11943:1 13176:1 
1.478515625 288:1 3025:1 3039:1 
1.478515625 1858:1 
1.4794921875 43:1 3714:1 3824:1 3834:1 6108:1 7253:1 7660:1 8156:1 10153:1 
1.4794921875 744:1 998:1 1944:1 3505:1 4591:1 4630:1 4959:1 5283:1 7172:1 9712:1 11401:1 
1.4794921875 288:1 1942:1 3021:1 3719:1 3721:1 4452:1 6667:1 8761:1 8965:1 10133:1 10884:1 10888:1 11036:1 12408:1 
1.4794921875 350:1 574:1 1784:1 4375:1 4576:1 4902:1 6763:1 9099:1 10390:1 12388:1 
1.4794921875 6:1 1678:1 4856:1 4929:1 6568:1 7253:1 7814:1 12878:1 
1.4794921875 4357:1 4360:1 5944:1 7577:1 11326:1 
1.4794921875 1457:1 5119:1 5415:1 7791:1 8467:1 9470:1 
1.4794921875 3298:1 4902:1 10558:1 
1.4794921875 127:1 968:1 1187:1 11299:1 
1.4794921875 458:1 3647:1 4477:1 4774:1 7623:1 10083:1 12792:1 12808:1 
1.4794921875 288:1 2333:1 3586:1 3647:1 4052:1 4228:1 4477:1 7253:1 7623:1 9164:1 10083:1 11961:1 12424:1 13208:1 
50 
1.4794921875 2152:1 4630:1 5127:1 5283:1 5886:1 
1.4794921875 490:1 816:1 3975:1 8038:1 8653:1 10783:1 11858:1 
1.4794921875 246:1 526:1 729:1 6211:1 6892:1 9819:1 10184:1 12311:1 13094:1 
1.478515625 2143:1 2943:1 5175:1 
1.4794921875 317:1 799:1 1519:1 2848:1 3019:1 4452:1 4711:1 6793:1 7253:1 8489:1 9371:1 10229:1 10636:1 10989:1 11230:1 12116:1 13040:1 
1.4794921875 430:1 3565:1 4357:1 4360:1 4594:1 6001:1 7254:1 10106:1 11326:1 11769:1 
50 
1.4794921875 587:1 9942:1 10257:1 10690:1 
1.4794921875 241:1 1898:1 3715:1 4055:1 5113:1 5862:1 6691:1 7919:1 9554:1 12200:1 12904:1 
1.4794921875 288:1 10986:1 
1.4794921875 2677:1 3041:1 3996:1 6803:1 7913:1 10845:1 10847:1 11863:1 13135:1 
1.4794921875 73:1 1550:1 4988:1 7430:1 7758:1 
1.4794921875 317:1 2717:1 4141:1 6180:1 10592:1 11300:1 
1.4794921875 663:1 1739:1 2677:1 4274:1 6879:1 7253:1 
1.4794921875 2140:1 3647:1 4477:1 5118:1 5482:1 7623:1 7791:1 8782:1 10083:1 10326:1 11613:1 
1.4794921875 7253:1 11669:1 
1.4794921875 3021:1 3719:1 3721:1 
1.478515625 5401:1 6824:1 7253:1 10174:1 
1.4794921875 18:1 893:1 2496:1 4487:1 5469:1 6818:1 7779:1 
1.478515625 3739:1 
1.4794921875 248:1 350:1 1494:1 1521:1 1811:1 2674:1 3345:1 3390:1 3697:1 4362:1 4375:1 4970:1 5589:1 6302:1 7119:1 7253:1 7421:1 7772:1 9099:1 9616:1 9900:1 10419:1 12388:1 12591:1 
1.4794921875 288:1 816:1 1926:1 2876:1 8038:1 9805:1 
1.4794921875 248:1 1949:1 3345:1 6302:1 12591:1 
1.4794921875 3008:1 4307:1 7253:1 9279:1 9302:1 11255:1 
1.4794921875 1017:1 4357:1 4360:1 8214:1 11326:1 
1.4794921875 288:1 1463:1 9554:1 11610:1 
1.4794921875 2017:1 2712:1 3482:1 4103:1 4515:1 4862:1 7989:1 9062:1 9554:1 10294:1 10862:1 11523:1 
1.4794921875 1017:1 1044:1 3894:1 4014:1 5158:1 6607:1 6712:1 9903:1 12353:1 
1.4794921875 2650:1 2782:1 3560:1 3647:1 4239:1 4477:1 4812:1 7623:1 8135:1 8824:1 10083:1 11485:1 12072:1 12424:1 
50 
1.4794921875 4423:1 4706:1 7253:1 9690:1 12608:1 
1.4794921875 4327:1 4575:1 5534:1 5555:1 7245:1 7253:1 10863:1 
1.4794921875 350:1 2808:1 4239:1 4375:1 5329:1 7116:1 8620:1 9099:1 10937:1 11342:1 11485:1 12388:1 12529:1 13071:1 
1.4794921875 1829:1 4357:1 4360:1 5158:1 5955:1 7906:1 7974:1 9584:1 9903:1 11326:1 
50 9554:1 
1.4794921875 367:1 1396:1 3199:1 3201:1 3551:1 3754:1 4452:1 4941:1 5562:1 6248:1 6328:1 6430:1 7833:1 8444:1 8774:1 9342:1 10632:1 11172:1 12930:1 13057:1 
1.478515625 6150:1 9714:1 
1.4794921875 1017:1 1378:1 3758:1 4612:1 6569:1 7424:1 7980:1 8545:1 8699:1 11875:1 
1.4794921875 5370:1 9554:1 
50 9714:1 
1.4794921875 4383:1 9306:1 13154:1 
1.4794921875 3561:1 6741:1 7098:1 9695:1 10773:1 12876:1 
1.4794921875 840:1 2396:1 5280:1 6526:1 6530:1 8534:1 9551:1 9743:1 
1.4794921875 317:1 998:1 2057:1 3647:1 4477:1 4711:1 4929:1 7623:1 10083:1 10229:1 10369:1 11401:1 12094:1 
1.4794921875 470:1 916:1 2148:1 3926:1 5287:1 6077:1 8122:1 8296:1 9570:1 9739:1 12837:1 12839:1 
1.4794921875 288:1 1338:1 1678:1 7253:1 8174:1 8449:1 9731:1 11420:1 11691:1 12007:1 
1.4794921875 138:1 288:1 664:1 10936:1 12298:1 
1.4794921875 1462:1 5542:1 8620:1 8876:1 9714:1 11342:1 
1.4794921875 288:1 2208:1 2473:1 2716:1 4902:1 5513:1 6008:1 6380:1 7253:1 8890:1 
1.4794921875 977:1 3026:1 3959:1 4423:1 4706:1 6737:1 9714:1 
1.4794921875 4902:1 5546:1 6112:1 7193:1 8620:1 8841:1 10594:1 11342:1 
50 
1.4794921875 3768:1 4055:1 
1.4794921875 288:1 1017:1 1368:1 1727:1 4585:1 4711:1 8184:1 9714:1 10198:1 10229:1 13058:1 
1.4794921875 246:1 288:1 729:1 3659:1 3844:1 9306:1 12664:1 12979:1 13154:1 
1.4794921875 350:1 3647:1 3822:1 4375:1 4477:1 7623:1 9099:1 10083:1 12388:1 
1.4794921875 246:1 567:1 729:1 803:1 2943:1 3975:1 8653:1 9083:1 12888:1 
1.4794921875 680:1 4357:1 4360:1 11326:1 
1.4794921875 1017:1 1651:1 1944:1 3505:1 4149:1 4357:1 4360:1 4871:1 4902:1 4959:1 7172:1 7413:1 9741:1 10078:1 10411:1 10880:1 11326:1 13245:1 
1.4794921875 350:1 666:1 4375:1 4902:1 7253:1 9099:1 11841:1 12388:1 
1.4794921875 246:1 502:1 729:1 2272:1 5006:1 5210:1 6215:1 7253:1 10084:1 11199:1 12577:1 13122:1 
1.4794921875 317:1 490:1 1017:1 1944:1 3319:1 3505:1 4357:1 4360:1 4452:1 4630:1 4959:1 5283:1 7172:1 8379:1 8852:1 10783:1 11326:1 
1.4794921875 430:1 1017:1 3565:1 4357:1 4360:1 4594:1 5589:1 6858:1 7421:1 9616:1 10106:1 11326:1 12961:1 
1.4794921875 9391:1 9714:1 10729:1 12979:1 
1.4794921875 5280:1 6469:1 9743:1 
50 
1.4794921875 7253:1 12498:1 
1.4794921875 290:1 3861:1 4681:1 4708:1 5158:1 8725:1 9305:1 9903:1 10201:1 12938:1 
1.4794921875 248:1 2890:1 3345:1 3647:1 4239:1 4477:1 6302:1 6850:1 7623:1 10083:1 10727:1 11485:1 12591:1 
1.4794921875 288:1 388:1 455:1 7253:1 8937:1 
1.4794921875 430:1 1017:1 3565:1 4357:1 4360:1 4594:1 4630:1 5283:1 8620:1 10106:1 11326:1 11342:1 
1.4794921875 574:1 1605:1 3837:1 4271:1 4365:1 6333:1 8593:1 8733:1 12803:1 12877:1 
1.4794921875 4821:1 5778:1 7386:1 7756:1 7809:1 9106:1 9714:1 10857:1 11189:1 
1.4794921875 317:1 1044:1 1996:1 3894:1 7071:1 9554:1 9970:1 
1.4794921875 1219:1 1362:1 2057:1 4253:1 5131:1 7732:1 9554:1 10369:1 11107:1 11987:1 13238:1 
1.4794921875 288:1 5934:1 7253:1 9102:1 12121:1 12667:1 
1.4794921875 3373:1 4357:1 4360:1 4902:1 6538:1 7856:1 11326:1 
1.4794921875 317:1 7253:1 8174:1 
1.4794921875 288:1 1017:1 1184:1 1739:1 2421:1 4650:1 5158:1 8171:1 9903:1 10354:1 10498:1 10623:1 10734:1 10884:1 10888:1 11036:1 11816:1 12408:1 
1.4794921875 286:1 5158:1 7253:1 7418:1 8951:1 9903:1 
1.4794921875 1017:1 3647:1 3862:1 4477:1 4585:1 7147:1 7623:1 8184:1 8190:1 9164:1 10083:1 13058:1 
1.4794921875 1513:1 2322:1 4278:1 4945:1 4969:1 9179:1 9306:1 12878:1 13154:1 
1.4794921875 246:1 729:1 1159:1 1368:1 1727:1 2857:1 3647:1 3720:1 4477:1 4591:1 7253:1 7623:1 8020:1 10083:1 
1.478515625 551:1 680:1 1050:1 3014:1 7738:1 7800:1 9755:1 
1.4794921875 1983:1 9336:1 
1.478515625 1513:1 2085:1 2322:1 4278:1 4969:1 
1.4794921875 2421:1 2552:1 3484:1 3587:1 4711:1 5491:1 6132:1 8171:1 9428:1 9498:1 10229:1 10498:1 10730:1 12519:1 13025:1 
1.4794921875 288:1 4630:1 5283:1 7219:1 9714:1 
50 
1.4794921875 288:1 430:1 3565:1 4239:1 4492:1 4594:1 4789:1 4940:1 8885:1 9839:1 9877:1 10106:1 11485:1 
1.4794921875 18:1 63:1 246:1 729:1 1895:1 2246:1 4487:1 5005:1 6223:1 6818:1 7114:1 7210:1 7253:1 7779:1 8027:1 8201:1 8259:1 8280:1 9554:1 12125:1 
1.4794921875 2154:1 2874:1 7962:1 
50 
1.4794921875 527:1 652:1 1413:1 3647:1 4340:1 4477:1 7253:1 7623:1 7852:1 10083:1 10667:1 10828:1 
1.4794921875 4748:1 9808:1 10456:1 
1.4794921875 288:1 1005:1 2334:1 3053:1 3647:1 4477:1 4506:1 5257:1 6376:1 7253:1 7258:1 7623:1 8166:1 8186:1 8748:1 10083:1 11105:1 11578:1 12532:1 12696:1 
1.4794921875 288:1 4845:1 5883:1 8621:1 13208:1 
1.4794921875 288:1 418:1 1664:1 2555:1 3647:1 4251:1 4477:1 6206:1 7623:1 10083:1 11924:1 11971:1 
1.4794921875 4902:1 11807:1 
1.4794921875 5197:1 8688:1 10968:1 
1.4794921875 684:1 1629:1 2229:1 3040:1 5300:1 6126:1 7633:1 8593:1 8733:1 11054:1 11058:1 12922:1 
1.4794921875 816:1 8038:1 9554:1 11380:1 
50 9554:1 
1.4794921875 2331:1 2936:1 3390:1 3697:1 4711:1 4970:1 6111:1 8110:1 8453:1 9925:1 10130:1 10229:1 10915:1 11572:1 13208:1 
1.4794921875 63:1 6885:1 7015:1 8027:1 11623:1 11868:1 12125:1 12198:1 
50 4591:1 
1.4794921875 288:1 684:1 2229:1 3647:1 4055:1 4477:1 4683:1 5481:1 7623:1 8593:1 8733:1 10083:1 12922:1 
1.4794921875 288:1 1381:1 7369:1 7487:1 12942:1 
1.4794921875 1661:1 6263:1 6975:1 8589:1 
1.4794921875 2057:1 2897:1 4630:1 5283:1 7111:1 7253:1 7682:1 8620:1 9826:1 10369:1 11342:1 11582:1 12137:1 12562:1 
50 5934:1 
50 288:1 5061:1 6176:1 8739:1 
1.478515625 4327:1 4575:1 5119:1 5534:1 5555:1 7245:1 7253:1 
1.4794921875 295:1 1463:1 1678:1 4357:1 4360:1 6078:1 7813:1 8410:1 9378:1 11127:1 11326:1 
1.4794921875 2498:1 3758:1 7253:1 
1.4794921875 603:1 1791:1 2057:1 2355:1 4357:1 4360:1 5328:1 7524:1 7714:1 8799:1 9835:1 9914:1 10369:1 10814:1 11326:1 12720:1 13137:1 13168:1 
1.4794921875 2641:1 2677:1 4711:1 9226:1 10229:1 12878:1 13094:1 
50 
1.4794921875 791:1 1447:1 2676:1 3340:1 5014:1 5382:1 5410:1 6061:1 6143:1 7253:1 7768:1 8710:1 13136:1 
1.4794921875 2885:1 3556:1 4357:1 4360:1 5922:1 7253:1 9807:1 11326:1 11429:1 
1.4794921875 8869:1 12973:1 
1.4794921875 748:1 6547:1 6705:1 9318:1 11236:1 12208:1 12647:1 
1.4794921875 18:1 288:1 1136:1 2808:1 4487:1 6101:1 6111:1 6818:1 6820:1 7779:1 8085:1 9554:1 10076:1 10352:1 10801:1 10829:1 10937:1 12798:1 
1.4794921875 288:1 8614:1 
1.4794921875 317:1 343:1 3647:1 4477:1 5589:1 7421:1 7623:1 8112:1 9490:1 9616:1 10083:1 11625:1 12979:1 
1.478515625 2867:1 9714:1 12481:1 
1.4794921875 139:1 288:1 3538:1 4902:1 5021:1 7253:1 8176:1 9095:1 12897:1 
1.4794921875 3390:1 3633:1 3697:1 4591:1 4711:1 4970:1 7706:1 9221:1 9554:1 10229:1 12217:1 
1.4794921875 288:1 1003:1 1077:1 2677:1 3633:1 5121:1 5974:1 7706:1 12217:1 12246:1 12820:1 
1.4794921875 288:1 317:1 887:1 903:1 2728:1 3298:1 4476:1 5119:1 6431:1 6551:1 7253:1 8688:1 10558:1 12234:1 
1.4794921875 288:1 317:1 698:1 3451:1 5180:1 5802:1 9714:1 12083:1 13144:1 
1.478515625 288:1 12471:1 12850:1 
1.4794921875 4335:1 4601:1 4941:1 5562:1 6328:1 7759:1 11172:1 11337:1 11397:1 11427:1 11653:1 
